8
5 5 -0.120253
-1.62793 -0.577815 -0.885738 -2.16054 -3.46176 
-1.78996 -1.95103 -2.7205 -2.13049 -5.29818 
-1.1815 -0.844066 -2.45244 -2.29926 -4.35159 
-0.0217693 0.66849 -0.113471 -2.20812 -3.71404 
-1.7155 -1.5474 -1.14053 -3.13617 -3.93625 
5 5 0.221066
2.0469 1.34428 3.57819 3.119 0.876636 
0.94849 3.27935 3.26348 4.01926 2.59771 
1.48731 2.96146 4.46921 3.31965 2.10862 
1.30405 2.58109 2.59056 2.18854 2.15793 
1.12464 0.800811 1.59711 1.91295 1.13502 
5 5 0.306925
5.72634 2.70037 0.607021 -0.757756 -0.591616 
4.60509 3.15029 0.334589 0.707674 1.52184 
5.16707 2.59296 1.83036 -0.0896894 3.05213 
3.83071 0.949144 1.3414 0.851297 2.85799 
3.9662 0.174548 1.67378 2.46978 3.23827 
5 5 0.242978
1.69577 2.97804 3.75811 4.73964 5.67805 
1.02545 3.0379 3.80742 4.73132 5.43185 
0.496182 1.45681 1.36444 2.29846 2.43882 
0.240921 0.131412 0.460086 0.771225 0.854054 
2.32011 3.01995 1.49763 3.0195 2.20212 
5 5 -0.11769
-1.44474 -1.67282 -2.81132 -3.12964 -4.70767 
-1.2727 -0.650902 -2.39047 -2.67857 -3.6658 
-1.52517 -1.71914 -3.39292 -2.36692 -1.653 
-1.74042 -1.70263 -2.30175 -1.08848 -0.282031 
-1.63105 -2.53759 -2.36582 -0.413645 -0.0461645 
5 5 0.263242
-1.86026 0.335417 1.88931 1.03762 0.949302 
-3.86325 -0.477792 1.02467 0.399869 1.28332 
-4.30108 -0.74553 0.137477 -0.41813 0.395552 
-3.52246 -2.20461 -0.0435694 -1.05896 -2.07728 
-5.35345 -3.263 -0.736227 -0.861663 -3.27863 
5 5 0.190039
1.1534 3.34687 2.31335 2.97336 4.47322 
1.62022 1.32215 2.26779 3.55825 5.01033 
-0.0557634 0.25203 1.3802 2.96813 4.15007 
-3.25739 -0.902649 0.583007 2.07317 3.90193 
-0.990381 -0.389001 1.91774 1.2526 3.36999 
5 5 0.234881
7.17473 3.98471 2.27525 1.60396 0.881728 
6.24311 3.40427 0.763772 -0.148189 -0.285449 
4.93742 3.54509 -0.14 -0.449267 -0.993007 
4.99926 3.27241 -1.17542 -0.956021 -0.921731 
3.55949 2.15773 -0.68634 -1.14248 -1.97512 
32
5 5 0.0964283
2.41018 1.9722 1.58859 3.2214 0.624632 
2.67168 3.91796 3.69643 4.18787 1.74828 
2.00247 3.364 3.33364 1.19348 -0.125701 
1.73473 3.20146 1.7733 -0.316055 -0.21948 
-0.661115 -0.704089 -1.36262 -4.55325 -3.38694 
5 5 -0.206071
0.452501 -0.590583 -1.02835 -0.109003 -0.736267 
0.516192 -0.742319 -2.34988 -1.19491 -0.481042 
-0.614989 -1.74253 -5.31018 -3.24673 -3.26608 
-2.31297 -2.38631 -4.63331 -2.7513 -0.703566 
-1.5368 -0.78806 -2.21281 -1.31384 0.335209 
5 5 0.0205593
1.28934 1.03644 2.60288 4.05028 1.84836 
-0.767225 -0.639448 1.95184 2.25951 0.961607 
-2.80038 -2.37271 3.24344 3.55258 2.27064 
-0.0323511 -0.467276 2.05745 2.7318 2.94628 
-0.752464 -0.883734 1.99166 2.39585 4.15446 
5 5 0.209998
0.131067 -0.350968 2.09292 0.109997 0.914344 
-2.11985 -1.14319 1.51437 2.05948 2.36896 
-1.21646 -0.102299 2.3128 2.30648 0.721689 
1.29244 2.76174 2.04468 1.67029 1.53269 
2.94486 3.57527 2.96036 3.74125 2.42714 
5 5 -0.0965097
-1.52499 0.73118 2.80414 3.7464 1.53383 
-2.22935 -1.54606 1.87636 5.38155 2.73965 
-3.21733 -1.04723 2.93345 4.57983 1.06627 
-1.5889 0.846422 0.42267 0.230325 1.11723 
-0.968186 0.364249 -0.720109 -0.198152 1.60417 
5 5 -0.0785852
-0.2564 -0.219308 -1.24612 -2.92488 -3.26634 
1.15578 0.0306499 -0.691486 -1.54735 -3.04495 
-0.115781 -0.379832 -2.17909 -1.63229 -3.07824 
-1.39719 0.473928 -4.34101 -3.55266 -2.79631 
-0.673527 -2.68896 -4.70099 -5.35808 -4.05597 
5 5 0.0646891
-0.0639034 -0.838454 -2.19417 -3.66384 -5.16115 
1.01435 1.29986 -0.50176 -2.88571 -5.52943 
0.769548 3.27049 0.0852784 -0.454059 -2.10991 
-0.392667 0.288117 -0.5518 -1.58233 -2.58312 
0.62006 -0.134412 0.119272 -1.57707 -4.31093 
5 5 -0.323974
0.73017 2.473 3.89178 0.675578 1.05578 
0.133174 1.88915 3.32835 1.48889 1.85286 
0.622382 2.51533 2.98181 3.57691 2.39877 
1.7959 1.59673 2.16952 2.28013 2.65138 
0.743874 -0.0994155 2.71253 1.55658 1.53462 
5 5 -0.201107
-1.78138 -1.57228 -1.15569 -0.218342 -1.43372 
-0.329401 -0.27648 -2.41843 -2.74167 -3.7335 
1.24699 0.0998117 -0.70882 -3.33694 -5.714 
0.990985 0.0856049 0.0555667 -2.48171 -2.95819 
0.0219737 -0.315507 -0.594714 -1.0984 -2.19601 
5 5 0.298217
-2.87561 -0.768475 -0.204682 -0.708975 0.689231 
-4.15692 -3.24843 -0.859548 -0.383472 1.14498 
-4.88824 -4.57499 -0.114526 0.523528 0.89516 
-2.91908 -3.11477 0.684311 1.51961 2.88981 
-2.03159 -2.33936 1.14738 2.47054 3.75905 
5 5 0.235186
5.36659 1.38376 -0.62358 -1.93529 -0.581804 
4.64378 1.09037 0.119154 1.54163 0.250814 
5.27726 1.92735 1.23866 1.68561 0.840869 
6.5956 3.68011 -0.314621 -1.16285 -0.151928 
5.69718 3.70628 0.931802 -0.610422 -0.551634 
5 5 -0.230384
-1.87723 -2.61708 -0.65214 -0.0868595 0.345331 
0.0484276 -2.8175 -0.0740601 0.0211151 1.3604 
-0.369282 -4.02807 -2.89412 -1.36491 0.448402 
-3.2466 -4.45587 -3.66127 -2.00674 1.49315 
-2.3591 -3.81093 -2.51317 -2.74786 -1.3468 
5 5 0.31138
0.167133 0.795516 3.75754 6.36059 6.62422 
-0.101676 1.1064 2.11916 2.57849 3.98895 
-1.74145 1.47312 0.641661 0.344698 2.09925 
-1.91392 1.01079 0.797304 0.644006 0.143869 
-0.497444 1.04595 0.825068 2.44861 3.13716 
5 5 -0.0219835
-5.53379 -3.74686 -2.31381 -1.09349 -1.75876 
-4.32495 -3.58855 -1.92267 -1.50743 -1.57954 
-3.21132 -2.3712 -1.12043 -1.02826 -1.46797 
-1.33077 -2.31688 -1.96677 0.840064 -0.209753 
-1.34996 -2.28216 -2.82317 0.405243 -0.164143 
5 5 -0.281025
0.661049 -0.350521 0.391002 -0.158178 -0.536863 
0.772236 0.6993 2.04055 -1.1673 -2.37175 
0.0548124 -1.25347 -0.297718 -3.99829 -5.33507 
-1.28667 0.780164 -0.825857 -3.37423 -2.85742 
-2.45454 -1.80826 -1.35 -2.79844 -3.35347 
5 5 -0.178482
-6.15873 -5.92532 -4.01646 -2.20362 -2.3293 
-4.79744 -4.83652 -4.30982 -2.18001 -1.88095 
-4.38977 -3.87414 -3.59582 -3.25643 -0.610248 
-3.52621 -3.6677 -2.64355 -1.52515 -1.32042 
-5.51104 -3.92889 -1.66504 -1.71927 -1.90669 
5 5 -0.327901
-0.942062 1.83304 0.554165 -0.100143 -1.91371 
0.690726 2.57415 2.8339 1.55764 -0.165875 
1.52713 2.9278 3.61319 1.50908 0.0209449 
3.29352 2.92986 3.86571 3.38427 0.428497 
1.27746 1.46528 3.11077 1.74327 -0.0505493 
5 5 -0.310912
6.3515 3.16621 1.96568 1.24168 2.74882 
5.42386 2.9346 -1.13037 -0.943833 0.356684 
8.59622 2.68326 0.367504 -1.26987 0.970907 
7.52929 2.39259 -0.127836 0.574632 1.23322 
4.0373 1.79093 -1.46618 0.190247 1.1093 
5 5 0.0214545
-0.411493 -1.30688 1.21737 3.11439 2.65174 
-1.42273 -0.577075 0.755256 0.935652 1.59379 
-1.07459 0.0340602 1.98479 3.02041 1.85248 
-0.0530423 1.98927 3.36095 3.80292 3.54472 
0.891939 1.82628 2.29166 2.87173 3.62788 
5 5 0.00501521
-2.67147 -4.24687 -4.00321 -4.99788 -4.66821 
-3.67992 -4.09806 -4.65321 -7.18517 -6.04232 
-3.06254 -4.66078 -4.98708 -5.99461 -7.43081 
-4.73372 -5.74464 -5.74654 -6.5812 -5.74132 
-8.05375 -5.2849 -6.803 -5.91034 -7.61419 
5 5 0.234209
2.24684 0.699575 -0.0611223 0.672399 1.46557 
-0.298354 -0.868893 0.772577 -0.0811798 0.996376 
1.95057 -0.277828 1.61717 3.35234 1.70478 
2.60801 1.02054 3.79306 4.13264 3.57401 
2.14693 0.236871 3.24162 1.74344 3.49107 
5 5 0.191056
-3.63184 -2.35276 -1.36818 0.0752148 1.86477 
-2.33491 -2.5303 -1.04201 -0.645283 1.1456 
-2.30638 -1.99508 -1.52567 -0.643324 0.895368 
-3.14328 -1.12202 -1.94016 -2.32906 -1.52857 
-2.29952 -1.29263 -1.18245 -1.26566 -0.9672 
5 5 0.0940072
1.4332 1.07859 1.26811 -0.690129 0.534071 
2.53745 3.38194 2.12594 0.651745 2.30683 
2.19659 2.50056 2.96439 3.20235 1.94114 
1.01031 1.75361 2.63223 1.5638 1.80831 
-0.0208325 2.17416 0.202672 0.999931 0.0627308 
5 5 0.0676799
-1.42048 0.406366 0.447945 -0.559576 -1.38716 
-0.128693 1.56353 0.137186 0.0101146 -1.82933 
-0.137527 1.03355 1.96109 1.08287 -0.572826 
2.3215 2.42686 5.43954 1.1657 0.782944 
2.47659 2.80059 4.60267 1.90699 0.637407 
5 5 0.308491
1.68351 3.34155 1.50462 1.89774 1.61173 
-1.24323 1.75615 2.89652 0.608431 -0.885854 
0.531438 2.99863 3.57877 1.32892 -1.83596 
1.79813 3.58788 4.44995 1.49699 -2.37929 
0.957238 3.22428 1.16621 0.212521 -1.85918 
5 5 0.0481887
3.99337 4.13706 3.31753 -0.286164 -2.74037 
1.30227 0.42993 0.798532 -1.20646 -3.11377 
2.96082 0.273124 -1.90439 -1.74182 -3.26261 
0.589995 -0.048651 -1.59878 -5.05291 -6.33974 
-1.40392 -1.27392 -3.55066 -4.03726 -5.87451 
5 5 0.211748
-1.75656 -2.03342 -2.12189 -0.686276 0.125917 
-1.27259 -2.17669 -3.44463 -3.00393 1.60702 
-4.53592 -4.37991 -3.47139 -1.33531 -0.173251 
-1.70434 -4.28962 -3.38974 -2.23196 0.885578 
-1.9053 -2.71607 -2.59275 0.125674 2.76879 
5 5 0.146519
0.168112 -0.844538 0.327632 0.324206 -0.374525 
-1.97652 -2.64933 -0.667171 -0.0832721 -0.698512 
-0.730297 -2.34511 -2.65111 -0.618931 -2.50258 
-1.60043 -4.29026 -2.45292 -1.41347 -1.56286 
-1.21755 -1.69979 -3.85066 -2.74452 -1.91502 
5 5 0.0828374
-3.27701 -1.21261 3.19663 2.12061 0.333008 
-2.36732 -0.395322 3.14263 1.81982 2.18164 
-4.12397 -2.15945 1.20616 2.31078 1.90317 
-5.11131 -2.85411 -1.40833 1.34151 1.71543 
-5.89724 -1.62378 -2.41598 -0.679049 -0.11417 
5 5 0.153111
5.60214 1.31678 -0.702052 -1.43797 -0.760204 
7.23914 2.10489 -1.2171 -1.78102 -1.00937 
4.47574 2.61008 0.283075 -0.582188 -0.756885 
2.76563 1.51448 1.9074 -0.0342995 -0.250779 
2.67591 0.780673 0.503835 -0.430611 -1.11506 
5 5 -0.0657267
-1.08111 -3.18793 -1.201 -1.80153 0.260087 
-0.720649 -4.1917 -2.23452 0.267962 1.38311 
-0.872579 -4.54805 -1.62318 0.667739 -0.551827 
-2.44821 -3.46131 -1.21337 -0.559698 0.0320897 
-0.358987 -1.71419 -2.05569 -0.288504 -0.987196 
5 5 0.333008
1.51382 2.82092 3.14512 2.62581 3.88991 
2.71261 1.9579 2.648 3.81906 3.76897 
2.1724 0.969615 2.50936 2.57416 2.93481 
2.55133 0.4446 0.873415 0.761832 2.65257 
2.12733 0.933101 0.253079 -0.441914 0.80105 
128
5 5 0.291421
-0.498096 -0.517559 -0.116865 0.881475 -0.645319 
-1.92442 -1.84527 -1.07798 -0.33097 -0.607205 
-2.58616 -1.43429 -0.569751 1.23595 0.255393 
-3.62837 -2.06995 -1.55289 -0.0137945 -0.0783446 
-4.05725 -2.05233 0.382995 -1.26804 -0.907118 
5 5 -0.333333
1.12519 2.26198 1.13453 -2.07133 -2.96441 
0.599859 -0.963821 -3.01468 -2.62732 -3.72506 
0.842884 0.885396 -0.367156 -0.771838 -3.09865 
1.98788 1.40319 -0.196158 -1.24861 -1.11703 
1.5327 -1.27773 -2.54591 -4.84591 -3.75864 
5 5 0.150141
1.22012 0.208012 -0.0634886 -1.83155 -0.301058 
4.6956 2.25596 3.50901 2.24187 0.149213 
1.42099 1.52363 0.856933 0.525306 1.32462 
0.947612 1.23332 -0.985301 0.769921 0.719353 
1.90175 -0.345311 1.43308 1.62918 2.14899 
5 5 0.321594
2.21611 0.645071 -0.366491 0.029805 0.395279 
2.15451 1.43351 -0.0897405 -0.041024 0.0668571 
1.60298 1.20212 0.38496 1.00023 -1.20917 
4.37269 4.21195 2.76248 0.927856 0.101328 
3.70133 2.47556 0.32631 0.109309 0.658004 
5 5 0.300638
-2.6834 -0.580639 -0.547349 1.66579 3.37554 
-2.9715 -0.986882 0.600721 3.29879 3.38052 
-2.96263 -1.14727 -0.0230029 1.22949 3.23113 
-1.979 -2.03974 -0.674039 1.4799 3.96371 
-1.48328 0.302614 -0.227458 0.647488 0.1043 
5 5 0.041495
0.640922 0.471408 0.568596 1.45867 3.35371 
1.21749 2.73755 0.609047 1.09408 3.60469 
2.35732 2.06165 0.539918 0.0274457 1.45786 
1.95654 1.34979 0.466825 -1.28545 0.150675 
-0.694596 2.2459 0.943176 1.38825 0.476926 
5 5 -0.129022
-0.951189 1.31816 2.11259 -0.837314 -0.477181 
0.925057 0.219284 1.88684 0.35394 1.22608 
1.49728 1.21937 1.00053 1.88509 0.302039 
1.17792 0.994832 1.94548 1.82187 1.89131 
1.5629 2.25166 4.93485 3.8073 0.945208 
5 5 -0.191911
0.192676 3.23293 4.15894 2.16203 2.26839 
1.70295 3.30262 3.8081 0.673313 0.105349 
1.53322 0.895992 -0.350032 1.82058 -0.413853 
-0.744507 1.75627 1.11595 -0.268976 -0.349799 
1.25124 1.88696 1.22949 0.727596 0.0390106 
5 5 0.278441
4.4144 1.19284 1.14178 1.58313 -0.651607 
3.97955 3.66146 3.04339 2.78118 0.860453 
1.23303 1.6287 1.74648 0.892478 0.320136 
-0.767521 1.40793 -0.183876 -0.663439 0.0535882 
0.0978545 -0.566402 -0.19608 -0.771294 -0.423639 
5 5 -0.204606
4.03768 1.71786 1.64518 0.0887583 1.19694 
4.29342 2.93936 0.522256 -1.19604 -0.627952 
3.61838 2.66246 2.11472 -0.205217 -0.0988506 
2.90622 1.41136 0.362092 1.15269 0.121017 
2.64267 2.28965 0.353522 0.735653 -0.28102 
5 5 -0.224199
-1.4991 -2.48056 -1.97565 -1.08576 1.34303 
-2.82472 -4.73697 -1.32323 -0.240603 0.467206 
-4.27409 -3.10814 -2.53386 -0.350658 1.09358 
-1.79421 -1.06724 -0.855061 -0.886357 1.70885 
-0.630162 -0.819893 -0.594909 0.00795513 0.713909 
5 5 0.304829
-2.02761 -1.84075 -1.24726 1.31473 1.54201 
-0.706141 -2.68744 -0.593687 -0.110643 0.703432 
-0.185982 -2.56697 -2.37675 -2.0272 0.00808443 
-1.85281 -3.83331 -5.10232 -1.08272 -0.713681 
-0.632477 -0.69301 -1.49819 -0.647622 0.295916 
5 5 0.113539
0.848461 0.214464 -0.46776 -0.930141 0.545312 
0.827452 -0.37034 0.372495 -1.23741 -1.27663 
-0.0889843 0.967364 0.222627 0.276774 0.85325 
0.206217 0.41245 2.967 1.78054 1.24533 
-0.206414 1.54044 4.44295 4.58104 2.57341 
5 5 0.0347809
-1.13875 -0.24341 -0.220276 1.26823 1.30754 
-0.446903 -1.59435 1.11942 1.96632 2.46816 
-0.85004 0.0993169 1.87995 3.41054 2.94231 
0.574911 -0.181242 0.694146 1.31221 0.829438 
-0.727325 -1.51634 1.721 2.07954 1.44372 
5 5 -0.161311
0.0642559 -0.644169 -1.58183 -2.01087 -3.07441 
0.983697 1.40767 -2.25464 -1.49256 -2.08054 
3.16237 1.64052 0.564431 -1.20605 -0.477024 
2.85871 2.44167 -0.165386 1.24688 2.46797 
5.26906 2.48761 1.91175 2.71568 2.76831 
5 5 -0.29431
-2.443 -1.98262 -0.904313 -0.776718 -0.836876 
-3.25201 -2.72911 -2.60096 -1.81056 -1.06089 
-2.57623 -1.05364 -0.0759965 -1.622 -0.878877 
-3.65108 -2.77663 -1.78015 -2.17336 -1.5153 
-5.17597 -3.25827 -2.38796 -0.480434 -1.95447 
5 5 -0.248634
2.57915 2.94277 1.13361 -1.1238 -3.75208 
1.58399 0.59398 0.162461 1.01836 -5.13779 
-0.303529 1.61488 2.61971 1.08172 -4.7582 
1.79398 -1.06703 -0.381491 -0.809455 -4.55102 
1.37725 0.476398 -1.27996 -2.32026 -3.31212 
5 5 0.0614745
-2.07148 -0.510808 -0.765817 -0.705324 -1.15057 
-2.44845 -1.05725 -1.31805 0.798312 -1.53663 
-2.25055 -2.67811 -1.00411 -1.17019 -1.60487 
-0.991924 -2.70176 -1.5043 0.215122 -2.78085 
-1.66341 -1.86074 -0.480402 -1.30103 -2.60112 
5 5 -0.293741
1.4161 2.43965 2.37865 4.80311 1.99295 
0.73499 0.325107 2.29272 3.68605 1.57422 
0.0406855 -2.31264 0.680725 4.6166 1.03862 
-0.557327 -1.77148 0.611986 2.1354 1.35403 
-1.32949 0.838325 0.751087 1.22834 0.691906 
5 5 0.267963
2.39873 2.12944 2.06237 0.227433 1.0548 
3.05447 2.91707 3.26223 1.21931 -0.591317 
1.25998 2.5722 1.33071 -0.95702 -0.895446 
0.569468 1.45056 1.12391 1.64718 0.138209 
1.42477 1.94083 3.03945 1.12831 1.92382 
5 5 0.280048
-0.283729 -1.84394 -1.94118 -1.44652 -1.17882 
-0.138604 0.115389 -1.47466 -2.60245 -3.01943 
-0.130834 -0.41261 -0.236835 -1.69178 -4.39723 
-0.162092 -1.08924 -1.40981 -0.931465 -2.60753 
0.37865 -0.340044 -0.193773 -2.86489 -1.59853 
5 5 -0.270547
5.01608 3.99916 2.16548 -0.130557 0.958695 
4.89116 4.02816 1.55577 1.28831 1.90135 
3.3366 3.8841 4.71896 3.41305 1.57688 
4.77762 6.42829 6.07752 2.79891 2.64752 
5.97033 6.53404 4.33552 3.1952 1.97407 
5 5 -0.174596
-3.00001 -1.78181 1.17055 0.496374 2.46671 
-2.4485 -0.761944 -0.414031 -0.271079 2.72335 
-5.25974 0.0889719 0.0015133 0.0494583 0.380411 
-5.89157 -1.00898 -1.32776 -1.50737 -2.15496 
-1.92654 -0.396517 -0.316463 0.401805 -1.7065 
5 5 0.0106917
1.74707 0.57866 2.49214 4.25439 3.23499 
0.22873 1.77447 1.85539 1.48995 2.15384 
-0.135889 0.979313 1.07857 1.12024 1.11443 
-0.788356 -0.446518 1.53861 1.54695 2.81191 
-1.91893 0.129466 1.27548 3.99312 3.44065 
5 5 -0.233782
1.84888 2.82693 -0.195623 -1.57877 -0.496773 
1.87765 3.7108 -0.322392 -0.314827 -0.158918 
1.08088 2.70409 -0.370896 -0.382014 -0.330503 
2.6284 2.03106 0.739853 1.15812 0.274502 
2.54008 0.000135994 1.71643 2.41109 0.725871 
5 5 -0.114984
2.11319 1.45252 0.959869 -0.794941 -1.74706 
3.4777 1.8467 1.70982 -1.05431 0.0298247 
3.85138 1.60386 1.71653 -0.0217472 0.555829 
4.18252 3.00917 1.40362 -0.45522 0.0191079 
2.46723 2.54503 0.855442 -1.55417 -1.45129 
5 5 -0.0125431
1.6384 4.70836 6.35481 1.17693 -0.439402 
1.2371 1.95474 3.50716 0.247106 -0.380659 
1.28403 2.10228 1.2884 1.03686 0.125048 
1.9252 1.87882 1.29584 0.497393 -0.229907 
1.74932 1.65909 0.569536 -0.480336 -1.33942 
5 5 0.196549
-2.4116 -3.16246 -2.15231 -1.17686 0.117029 
-2.24969 -4.16116 -1.24611 0.724036 1.46922 
-1.8725 -2.02582 -0.458928 1.35705 3.29637 
-1.54787 -1.13365 -1.12113 1.53111 0.426155 
-0.315875 -1.71324 -2.24796 -0.411203 -0.562335 
5 5 -0.158828
1.33972 1.01606 3.29446 3.21105 4.01972 
-0.100572 0.097423 1.8525 2.40795 2.94042 
-1.43176 -1.10725 1.01527 1.57669 2.15758 
-0.861746 -1.69781 0.674702 2.58832 2.79133 
-1.08739 -0.121733 1.1413 1.88091 3.73134 
5 5 0.223426
-3.67603 -3.05964 -3.10764 -1.09666 -1.82231 
-2.46182 -3.53332 -4.08085 -1.74315 0.420058 
-1.69113 -1.88934 -0.0404588 -0.352215 0.0385421 
0.323314 -0.767285 -0.30439 0.144638 -1.21732 
-0.0867374 -0.873924 -0.145618 1.27974 -0.324538 
5 5 -0.0441603
1.08151 0.197651 -0.672678 -2.87369 -2.92967 
0.738633 0.964068 0.01649 -1.21593 -1.96635 
3.40927 1.40279 0.807087 -1.56196 -0.973177 
1.74681 0.895155 0.94852 -1.24516 -1.69025 
1.06063 1.78276 -0.719021 -3.47236 -2.29319 
5 5 0.23012
-1.42701 -1.16785 -3.75143 -0.359467 -2.07798 
-1.47424 -4.28424 -4.64799 -2.1554 -1.52585 
0.566818 -1.46656 -1.72606 -0.735902 1.73233 
0.163491 0.0723291 -1.78196 0.509009 1.13255 
0.716587 0.346709 -1.77524 0.00850361 -0.540792 
5 5 -0.296793
-0.274721 1.66898 0.634813 1.64487 1.43418 
2.06999 -0.307871 0.548405 1.85933 1.86779 
1.20756 1.33516 0.5805 3.07826 2.66088 
1.50814 1.01356 0.0594281 0.194337 4.42517 
0.549746 0.436157 0.792528 0.65157 3.19255 
5 5 -0.104221
-0.886141 -2.82764 -1.86855 -0.997549 -0.240726 
-0.746306 -2.42365 -4.64618 -1.47163 -1.00769 
0.209302 -0.744057 -2.3653 -0.38044 -0.822063 
0.419882 -0.169626 -2.41792 -0.296344 -1.01477 
-0.855102 -0.341986 -0.825742 -0.872826 -2.33864 
5 5 0.176997
0.799793 0.84935 -0.0822072 2.22898 2.48542 
1.57045 1.96692 -0.250269 2.94348 4.10932 
-0.181904 2.02918 0.676215 2.86245 2.7668 
-0.363345 1.48862 0.721469 1.17118 1.47463 
-0.423116 1.57288 1.90245 0.502775 1.59517 
5 5 -0.0267851
-2.60424 -2.02028 1.34236 0.154477 0.234019 
-4.09583 -1.44071 -0.0154843 -1.09164 -1.10087 
-2.56147 -2.58646 -1.94709 -1.51989 -3.26367 
-1.88259 -0.884339 -0.0905639 -1.52477 -0.573881 
-3.50037 0.562455 0.310429 -1.52757 -0.189605 
5 5 0.203853
5.29288 2.8863 0.94749 1.3469 -1.19799 
6.12512 2.6979 1.15365 -0.211955 -0.193088 
4.60498 0.566279 0.20833 -0.539517 -0.553254 
2.95122 -0.104428 -0.250355 -1.40236 -1.61288 
1.29593 -0.0164873 -0.122847 -1.338 -1.04372 
5 5 0.199113
-1.59263 -0.831067 -2.21303 -0.703119 -0.723732 
-1.01429 -1.79902 -2.06222 -0.52067 -0.971306 
0.959401 0.0824825 -0.0144418 -1.25344 -1.50199 
0.244964 -0.388864 -2.15033 -4.19216 -2.33001 
-0.506093 -1.93979 -3.13977 -3.56436 -1.21298 
5 5 -0.0919726
1.4642 1.29582 1.13031 0.983313 -0.247437 
2.93162 1.34753 1.36356 0.936763 1.3977 
3.93578 1.65802 1.34026 0.493294 -0.862368 
3.24386 0.550409 -0.0346845 1.20455 1.34122 
4.17899 3.03725 -0.236823 1.49152 2.71475 
5 5 0.143122
-0.110227 -1.60791 -2.69911 0.494592 -1.05674 
-0.540083 -3.26114 -3.55932 -1.61175 -1.35895 
0.685717 -1.30822 -4.50453 -3.32451 -2.40292 
2.98344 -0.766237 -2.9585 -3.05554 -0.172571 
2.48998 -1.26822 -2.79068 -0.997331 -1.38043 
5 5 0.0168157
-0.267236 0.41491 1.31178 1.65724 0.564008 
-1.62076 -0.307056 0.609597 1.5886 0.927705 
-0.435014 0.528336 -0.170503 3.0664 1.08242 
1.34974 0.579975 1.40017 3.84183 2.6247 
1.36663 0.842322 2.45438 5.74419 1.87106 
5 5 0.0164698
-1.33783 -0.478169 -0.699174 -1.05805 0.531273 
0.583659 0.203905 -1.26665 -1.62511 -0.0065386 
-0.869491 0.787854 -3.02185 -3.59527 -1.40448 
-0.120734 -0.915908 -2.09162 -4.45105 -1.52707 
0.359194 0.478912 -3.1117 -3.89234 -2.45318 
5 5 0.0942513
-0.370199 -1.57461 -2.14615 -3.73818 -2.32412 
0.233593 -0.584732 -3.31822 -3.0662 -2.13316 
0.101878 0.433606 -2.23827 -2.55408 -2.33148 
-0.869839 -0.656562 -1.93735 -0.909695 -0.271595 
-0.96237 -2.69185 -2.41346 -2.51954 -3.30077 
5 5 0.127801
-0.263198 -0.597921 0.19252 0.184704 -0.0049962 
-0.52267 -1.37181 -1.60696 -0.184673 0.465477 
-1.02005 -2.99971 -2.2399 -0.223948 1.68089 
-2.37022 -2.27746 -3.87885 -0.593694 -0.713012 
-1.6747 -1.63822 -3.12089 -2.75529 -2.31051 
5 5 -0.109144
-2.51782 -3.75253 -2.46218 -0.41724 0.373751 
-2.04933 -4.86491 -1.28799 -0.704983 0.0522881 
-0.837805 -1.49316 -0.879306 1.18474 1.13501 
0.692222 -1.18939 -1.4117 2.04733 1.56385 
0.107251 -1.03276 0.0364403 0.619072 0.477942 
5 5 0.00698874
2.94925 0.827156 -0.881701 -0.552923 -1.50663 
3.23698 1.59465 -0.572249 -0.0307824 -0.0457562 
1.77596 2.05932 2.23966 0.968928 -0.250747 
1.50658 2.11745 2.01609 0.572209 -2.38106 
0.651321 1.56962 2.03997 -0.688708 -2.66711 
5 5 0.330139
-2.47023 -1.34479 -2.67153 -3.0157 -2.59048 
-1.79421 -2.02135 -3.79893 -3.35017 -3.81294 
-1.9629 -2.44159 -2.7318 -3.863 -3.56348 
-0.735723 -2.47116 -3.48224 -2.37289 -1.71774 
-1.34357 -0.928897 -1.73177 -1.14082 -1.49702 
5 5 -0.115696
0.824804 0.581024 -1.32512 -1.98905 -1.81531 
0.587718 -1.11643 -1.22947 -3.52254 -2.61293 
0.318978 -1.06306 -1.41479 -3.74213 -1.66286 
1.03532 -0.632295 -1.34953 -2.11073 -2.35238 
1.90449 2.09751 -1.14339 -2.96649 -3.11956 
5 5 0.31899
-3.9555 -2.69032 -0.361048 -1.17162 -2.55312 
-4.16505 -2.28691 -0.758266 -0.823032 0.363497 
-2.3569 -1.54212 -0.540354 1.15651 0.867025 
-2.59218 -0.654018 -1.43123 0.619561 1.77715 
-1.88655 -0.618199 0.0545355 2.02115 2.61808 
5 5 0.212745
-3.02012 -2.96427 -0.265938 3.12915 2.49583 
-1.71729 -2.95761 0.32936 1.4203 0.653954 
-3.10084 -1.9957 0.158127 1.01029 0.976469 
-1.51228 -2.50505 -0.958782 -0.856694 1.38381 
-2.22196 -2.89049 -3.3132 -0.766849 -0.318524 
5 5 -0.096408
-1.75273 -1.53854 -0.80346 -0.964667 -2.21031 
-3.83719 -2.07568 0.895763 0.6538 -0.480773 
-3.17359 -0.503865 -0.312104 0.232063 -0.334469 
-2.25586 -0.864543 -0.719182 -1.99884 -1.66786 
-3.51848 -3.24798 -1.81438 0.286808 -1.43085 
5 5 -0.0794397
-2.15597 -3.49251 -2.46486 -5.28689 -6.89147 
-1.66933 -3.32965 -1.93906 -3.93242 -6.79425 
-2.07436 -1.30374 -2.99658 -2.17328 -4.05024 
-0.799336 -0.997263 -2.56026 -1.10917 -2.99264 
-1.54067 -2.52801 -0.637016 -1.4384 -2.74566 
5 5 -0.0423902
-0.631141 1.31063 1.50093 1.09786 2.3568 
-1.12323 0.95846 -0.446136 0.718056 -0.582357 
-0.376442 -0.307298 0.557198 2.18762 0.221235 
-0.905268 1.48082 2.72774 2.68873 1.89285 
-0.139857 3.95569 3.57788 3.1954 2.96095 
5 5 -0.251218
1.44316 0.927963 0.449718 0.700598 -0.285675 
0.0648151 -1.15654 -1.90442 -0.0608066 0.0618506 
-0.507741 -3.24553 -3.21629 -2.13904 -0.672972 
-0.426553 -3.61288 -2.79472 -2.70736 0.694118 
-2.12125 -2.46248 -2.74165 -1.11901 -1.01324 
5 5 0.256996
1.02507 3.12827 3.1631 4.13119 4.12589 
1.88011 2.96612 4.33202 3.08493 4.49705 
1.7216 2.79638 2.50619 2.63749 2.4562 
1.24704 1.36282 2.17751 2.69994 4.26982 
2.49121 2.63533 2.0346 2.31156 4.8036 
5 5 0.027131
-0.541174 -1.64569 -2.01363 -1.55174 -1.10869 
-1.25639 -2.37947 -2.20576 -0.670651 -0.278108 
-2.72072 -3.16767 -3.08054 -1.2717 -1.08683 
-3.05787 -1.24585 -3.28452 0.38039 0.720149 
-2.24419 -2.39552 -3.36168 0.145685 0.0571478 
5 5 0.129287
-0.082228 -0.394416 0.496847 -0.962427 -3.57934 
0.387001 -1.25331 0.152897 -2.15268 -3.23826 
0.201272 -0.747406 -0.419859 -1.91301 -2.94357 
-0.640676 -0.200822 -0.425782 -1.72215 -3.43978 
0.171816 -0.653008 -0.771332 -0.467291 -3.61198 
5 5 -0.0900805
-0.877535 -1.86938 -1.35734 -3.40612 -2.81066 
-2.80012 -0.263326 0.665253 -2.21349 -1.41084 
-1.00622 1.20049 0.621045 -0.222444 -2.16659 
0.534569 0.461333 0.0408694 -2.42159 -1.33865 
-1.58999 -1.14798 -3.80507 -2.81611 -2.3503 
5 5 0.197892
-2.07536 -0.862256 0.00733474 1.35279 1.63 
-1.40102 -0.858747 -2.17992 0.129565 -0.886333 
0.828057 -1.75875 -0.371178 2.32216 2.74919 
-0.306399 0.237148 0.250438 3.89921 2.05832 
-0.512419 -0.53392 0.286238 2.51684 4.55502 
5 5 0.0922778
0.938549 1.6196 0.379802 -1.00474 -2.3754 
0.000493752 1.5514 0.313734 -0.171859 -0.47595 
3.19839 1.85539 0.339726 2.74631 0.504962 
3.39804 2.4997 3.53022 2.74602 1.02233 
1.64345 1.20916 1.94256 1.56627 1.7209 
5 5 0.0753095
0.0483923 -2.17013 -1.2627 2.42585 4.99431 
-0.538917 0.756953 0.822586 2.2481 3.21788 
-0.827037 0.87623 0.945845 1.31656 3.66472 
-1.55834 -1.26162 0.341178 1.40768 3.52147 
-1.65149 -0.644402 0.402731 1.12722 2.27552 
5 5 0.0275379
-1.00261 -2.03876 -2.57226 -2.13799 -0.74614 
-1.48851 -0.910145 -1.75797 -1.1621 0.275241 
-2.24796 -0.626983 -2.9524 -1.03097 0.30216 
-0.972607 0.2371 -0.89296 -0.297234 -0.261943 
-0.822451 -2.30012 -1.79319 -0.513561 0.611538 
5 5 -0.139846
1.9493 1.13255 1.64282 0.745035 0.333099 
1.40536 3.00146 1.98652 0.751002 1.82014 
1.76331 1.19689 1.08331 1.23164 1.28287 
2.49267 3.6132 0.808744 0.20118 -0.474983 
3.7086 1.84696 -0.048419 -2.7166 -2.96471 
5 5 -0.332886
-1.27309 -0.393481 2.10092 2.88517 3.35264 
-1.24627 0.209695 1.78212 3.03384 1.54649 
-0.904143 0.391225 1.90871 0.755145 3.19186 
-0.554625 1.66059 2.01703 1.5167 1.84629 
-0.340836 2.46909 3.00495 2.44642 1.85348 
5 5 0.291523
-1.59158 -0.373362 -1.66545 -1.4381 -1.41142 
-1.35107 -1.9731 -0.294746 -0.594492 0.395778 
0.86559 -0.50389 -2.46276 -0.494353 -0.258434 
0.921438 -1.16769 -3.44988 -1.48089 -0.631093 
-1.1758 -2.83332 -4.56809 -2.38997 -1.35538 
5 5 0.0763064
0.70769 1.09966 0.976593 -0.863644 -2.46132 
-0.10477 -0.0802632 0.998165 0.385098 -1.84285 
-0.0799523 0.00896557 -0.0846562 -0.390096 -2.17135 
1.28774 0.839886 -1.51008 -1.60952 -3.98968 
1.86891 0.327419 -2.43282 -1.69659 -3.15859 
5 5 0.081576
0.377838 -2.27788 0.534005 1.04568 -0.894054 
3.83677 -0.0434743 -1.80433 1.65565 -0.554955 
4.32809 1.2179 -1.25433 -2.40075 -1.85508 
4.67067 1.70279 -2.20204 -0.566306 -0.41234 
2.72831 2.12359 -0.596181 -1.0672 2.28743 
5 5 0.28078
2.67128 2.09076 2.45845 3.39987 2.1964 
0.443957 1.85629 0.970842 0.789631 2.05917 
1.3123 2.76404 1.99284 0.881811 0.159367 
2.87414 2.20708 0.696765 0.830621 0.0604683 
3.24747 2.10341 -0.397763 2.43434 0.361687 
5 5 -0.0522579
1.22846 1.8593 1.40296 -0.143176 -1.0367 
0.611255 1.9803 2.26226 -0.492151 0.026306 
1.88261 2.7609 2.67025 1.56384 -1.34073 
-0.0389047 3.47994 2.7403 -2.11214 -1.27999 
0.434562 2.03239 3.08381 -0.242629 -1.46856 
5 5 0.0309763
0.168812 0.706952 1.43353 2.24943 2.59503 
0.631507 1.4235 -0.363803 -1.46596 0.361033 
0.612848 1.50667 -1.07947 0.750734 0.082286 
0.393167 1.56134 0.291564 3.05245 2.28986 
2.46959 1.61026 1.73348 4.26296 4.60906 
5 5 -0.13537
-1.25864 -2.9413 -0.74978 1.59017 1.39449 
-4.71168 -2.79686 0.431566 0.594886 1.37518 
-3.15992 -2.79433 1.11063 1.55795 1.5858 
-2.71806 -1.40293 -0.0488344 1.73927 -0.0782264 
-2.3336 -2.66108 -0.0922858 -0.701258 -0.481412 
5 5 -0.161331
1.51788 -2.85084 -1.91953 0.12852 -0.203175 
-0.290565 -2.95109 -3.08667 -1.32632 0.103281 
-0.113115 -3.30162 -2.08726 -2.05953 -0.30797 
-1.84213 -3.63241 -1.80211 -0.719153 -1.30697 
-2.99294 -2.83041 -2.10979 -0.179908 0.464941 
5 5 -0.276365
4.80768 2.2676 3.01064 0.502351 0.99563 
6.61222 2.62242 2.44905 1.90082 1.25317 
3.75176 4.48065 3.20111 1.31388 0.962209 
5.41189 4.1627 2.44513 1.00951 3.04214 
4.11982 3.98065 1.87478 0.568958 2.32744 
5 5 -0.0268665
0.789513 0.808104 0.805885 0.859783 2.54519 
0.80562 0.878654 1.59692 2.27396 2.4187 
-0.769316 -0.097285 1.27177 3.42494 1.8741 
0.578358 1.56784 3.58017 5.57112 3.299 
-0.435986 0.834628 3.69987 2.92956 0.570425 
5 5 -0.0790735
-0.989629 -3.08888 -2.28499 0.134977 -1.163 
-1.15234 -2.27621 -2.31443 -1.9819 -1.62394 
-1.23281 -1.45901 -1.486 -0.722528 0.631668 
-1.53574 -1.33645 -3.20058 0.0987966 0.949011 
-2.31365 -2.18734 -3.26296 -2.38029 -1.01346 
5 5 -0.228919
-1.54781 0.910173 3.06887 2.73134 3.27158 
-2.31276 -0.466176 2.27799 3.21453 2.49446 
-1.09031 -0.388959 1.26085 1.28326 1.38561 
-0.164297 -0.765995 1.30251 2.51192 1.76893 
-1.57599 -0.32356 0.250674 1.50531 0.501072 
5 5 0.0612913
1.28957 -0.419434 0.180531 -1.30095 -3.42593 
1.89851 0.143108 -1.80422 -0.57163 -2.12714 
2.01595 -1.2644 -1.27103 -1.81663 -2.89818 
2.00293 0.0121284 -0.582483 -2.22306 -3.45575 
-0.00975612 1.2147 -0.86583 -2.57786 -1.62415 
5 5 0.28137
-0.737393 -0.433123 -0.989514 -1.74794 -1.37051 
0.331962 1.15443 -0.889153 -2.2377 -2.93894 
1.05683 0.755757 -0.966746 -2.23423 -3.26084 
-0.769759 -0.656644 -0.591538 -3.54698 -2.18074 
-0.220927 -2.01565 -2.49893 -1.90467 -4.46349 
5 5 0.298746
0.239319 0.140499 -2.46624 -1.38119 -1.10223 
0.166261 0.691404 -2.55656 -1.7135 -1.64609 
0.501492 -0.733928 -1.45895 -1.8098 -2.76159 
-1.01355 -2.09757 -2.22026 -0.879751 -3.09631 
-1.94905 -1.01854 -2.0565 -0.991604 -2.62905 
5 5 0.264931
-5.69035 -6.61112 -6.23101 -5.61134 -5.62903 
-3.28096 -4.15618 -4.06048 -3.97524 -4.69822 
-2.76396 -2.5215 -2.34212 -3.06597 -4.00084 
-1.65401 -2.63822 -3.27722 -1.36409 -1.05158 
-1.45846 -3.97094 -2.71433 -1.26892 -0.395673 
5 5 0.167882
3.41753 0.630112 0.390641 1.38778 1.19794 
3.21116 1.33659 1.0035 0.27492 -0.975327 
1.71752 1.12219 1.87405 0.197565 -0.40128 
1.29343 1.64538 1.34425 1.40431 0.942426 
2.82845 3.03685 0.25833 2.02349 1.32319 
5 5 -0.0953907
4.17205 2.02367 -0.32959 -1.28888 -1.68023 
1.96294 -1.66197 -0.952927 -0.518921 -1.53941 
1.29336 -1.89354 -3.16029 -1.63651 -0.261092 
1.31797 -1.65948 -2.3967 -2.89729 -1.63715 
-0.68327 -1.77247 -3.54293 -3.33894 -3.91761 
5 5 0.0939055
-0.90609 1.05616 1.37106 2.23237 5.24399 
-0.764708 -0.521007 1.10855 2.68991 3.64337 
-1.51672 -0.100468 0.671824 1.97429 2.51592 
-1.04443 -0.367895 0.59471 1.31175 2.86992 
-1.50015 -0.136393 0.208507 2.23629 2.74671 
5 5 0.245399
-3.04471 -0.639805 -0.642085 0.0946617 -0.469824 
-6.21665 -3.0364 -0.613065 -0.159554 0.269491 
-2.44403 -0.620055 0.123365 0.807498 0.427712 
-2.35616 -1.03831 0.405594 1.45201 0.908133 
-3.21798 -1.2945 -1.08249 2.41997 1.87546 
5 5 -0.231829
-2.14769 -3.82111 -3.06299 -0.216921 -2.52076 
-2.23361 -3.48482 -1.7123 -1.16196 -2.24404 
0.927225 -0.95562 0.975372 -0.128025 -1.86986 
0.514747 -1.50366 0.746891 0.306922 -0.212322 
0.521756 0.973002 0.448009 0.0952563 0.451181 
5 5 0.0523596
1.61472 2.04078 0.142026 -0.399987 -0.459317 
1.87516 1.0723 1.58538 0.000606109 -0.517985 
2.12342 3.33165 2.77333 0.973997 0.641049 
1.58699 2.8533 1.93273 1.82468 0.712241 
0.895444 1.92541 -0.399175 1.10539 -1.11394 
5 5 -0.0891649
-0.538336 -2.04712 -1.18058 -1.65128 -0.457276 
-1.37062 -0.449665 -0.392976 -1.62616 -1.02819 
-1.30489 -1.35501 -2.50545 -3.18632 -1.44344 
-0.208519 -0.911758 -1.68388 -2.02899 -1.59521 
-2.64072 -2.87117 -1.70403 -2.37362 -2.35939 
5 5 0.107863
-3.45628 -2.34414 -1.35725 0.470661 0.141311 
-1.71299 -1.99879 0.129068 0.917652 2.7886 
-3.09072 -2.46782 -0.17823 0.464195 0.838232 
-1.37653 -2.80916 -2.55423 -0.100701 0.305912 
-1.3804 -2.04889 -0.0759087 0.643423 -1.19621 
5 5 0.273985
1.36228 0.830894 0.155442 -0.00650519 -0.306454 
1.44287 2.00801 -0.655637 -1.73641 -0.361227 
0.677947 0.566474 0.723853 -0.0313753 -0.667303 
0.380335 2.69895 3.03294 1.38816 1.02188 
2.64986 2.788 2.73381 2.47943 -0.744879 
5 5 -0.0320343
1.98702 0.847563 0.619901 -2.30893 -1.62059 
2.1802 1.87026 -0.516535 -2.28888 -1.78683 
4.07587 2.67198 0.475763 -1.19304 -0.900519 
4.17945 1.23073 1.09439 -1.01827 -0.886538 
2.84282 1.73354 0.136374 -1.38755 0.613573 
5 5 -0.259885
-1.19466 -0.744565 1.50798 0.814341 1.60085 
0.421416 0.321184 1.2009 0.642672 2.23562 
1.10265 2.03001 2.61518 2.45072 3.05212 
0.288144 -0.716229 1.14238 1.70387 2.84992 
-0.967297 0.358975 0.205503 0.881781 2.3225 
5 5 -0.133742
-0.832273 -2.00588 0.130165 0.949228 -0.224705 
-1.84911 -2.77647 -2.44949 0.741411 -1.64562 
-1.75192 -3.32931 -1.67709 0.338005 -1.08634 
-2.17066 -2.25608 -1.64072 -0.0520123 0.632747 
-0.766321 -2.23587 -1.01591 -0.368275 0.512998 
5 5 0.0365307
1.53665 0.310561 2.20119 2.27346 1.42697 
1.66042 0.167477 1.48522 1.24751 0.531097 
2.65083 2.44672 2.15573 1.36332 0.698191 
3.9561 1.51513 -0.513209 -1.48884 0.974758 
4.40534 1.77825 -0.960361 -1.90575 0.822862 
5 5 0.11887
1.43363 1.53278 -0.836092 -0.371347 0.520143 
2.89699 2.46806 1.7101 -0.0802008 1.10053 
5.74328 3.19497 1.01897 1.4533 0.962818 
4.29515 2.21022 2.51885 0.350522 1.65524 
2.7545 0.363283 -1.03228 0.161539 -1.14845 
5 5 0.252744
-1.60113 -0.182677 -2.32965 -3.77518 -1.09803 
-0.61665 0.871271 -0.283328 -1.63137 -1.2502 
-0.432163 0.854056 -0.519151 -0.854291 -1.48415 
-1.56682 -1.35227 -0.449445 -2.62236 -2.27667 
-1.44909 -1.99752 -1.21756 -0.991701 -0.402581 
5 5 0.0515661
2.20278 2.20668 1.0367 2.4177 3.72314 
1.0405 1.73852 1.3284 2.24991 4.00011 
-1.74963 -0.151605 0.772071 1.34254 1.22527 
-1.17136 -0.721305 -0.331061 -1.59241 0.376897 
1.06952 1.31575 0.880152 0.445935 1.3622 
5 5 -0.317423
-1.12426 -0.00442454 0.783996 -0.389475 -0.824885 
-1.25235 -0.63233 0.65797 -1.50735 -0.956041 
-1.51825 -0.420158 -2.01367 -1.73649 -0.919222 
-1.87098 -1.85275 -1.37593 -2.40439 -0.836584 
-3.00174 -1.13292 -1.71522 -1.59384 -0.51967 
5 5 0.136652
0.988654 -0.856941 -1.90176 -2.2269 0.593341 
-1.29265 -0.216008 -0.438449 -2.66585 -2.83771 
1.2275 -0.606104 -1.34614 -2.31703 -1.91227 
0.206294 -0.40531 -2.63234 -4.28846 -1.5638 
-0.191748 -0.528076 -1.45666 -2.53103 -2.93828 
5 5 0.177709
-0.113072 -0.836081 -0.244527 -2.23187 -1.96364 
1.16494 2.08026 0.834074 -1.10501 -0.834358 
1.43068 1.50304 0.644439 0.429217 -1.67412 
1.8519 4.69705 0.297795 -0.248831 -1.55777 
3.75495 5.03141 1.73477 0.862587 -1.75773 
5 5 0.0268054
1.46273 2.55556 2.77673 1.32985 -2.70329 
2.55023 2.29712 2.3598 1.59441 -3.99885 
1.18427 1.30222 1.99373 0.761457 -3.06854 
1.42518 2.03057 2.76662 0.545641 -2.49414 
2.44603 1.64222 1.55621 -0.245899 -1.31258 
5 5 0.200334
-1.89812 -0.12301 -0.340739 1.64473 2.84014 
-0.118707 0.935105 0.296498 1.60072 3.66087 
-1.98263 -1.40759 0.97477 3.1159 2.77114 
-2.55055 -1.16486 -1.90953 2.10525 2.50328 
-2.35639 -1.22251 -1.04831 1.56506 3.25111 
5 5 0.173783
-0.0189292 -1.37604 -3.41613 -0.328545 0.114515 
-2.33137 -1.81221 -3.6255 0.151865 -1.21525 
0.307779 -2.7118 -2.54999 -1.59252 -0.730638 
0.221793 -0.689402 -2.11436 -0.234009 0.0464779 
-2.03735 -3.25597 -5.06137 -2.1038 -1.62518 
5 5 -0.237058
-0.555424 3.11035 5.61725 2.01963 1.78201 
1.63026 2.14912 3.28215 0.812313 0.442457 
1.9755 1.76509 0.787463 -0.769337 0.406879 
1.70606 0.466731 0.747924 1.3039 2.74506 
1.13014 0.0790159 0.392675 2.6727 2.27361 
5 5 -0.281045
-1.88686 -1.1962 -1.04497 -2.11212 -0.365132 
-1.86941 0.849359 0.444001 -0.175018 2.8285 
-1.44721 0.754069 0.941948 4.0514 3.79047 
-1.07534 -1.17642 3.72719 2.90942 3.40759 
-2.66462 -1.98474 0.322425 1.05906 2.1516 
5 5 -0.224748
0.958528 2.34872 1.7753 0.653781 -0.13431 
-1.0859 1.98636 3.23219 1.45741 2.02806 
-1.8672 0.356953 3.4938 1.93803 1.49106 
-1.70574 -0.525976 2.39685 3.13021 1.92651 
-0.695975 -2.82778 1.05183 2.8078 2.58164 
5 5 -0.322896
1.43541 1.87299 -0.211622 -1.05809 -3.68954 
0.787307 0.859897 0.134367 -2.37254 -4.77533 
0.594579 0.555863 0.081019 -3.13071 -5.62476 
-1.15193 -0.330506 -1.41103 -2.02461 -4.17537 
-1.4606 -2.00152 0.154221 -0.628833 -1.65608 
5 5 0.319702
0.954883 0.118657 -1.59746 -3.23401 -4.32864 
1.78591 0.772898 0.437306 -1.29029 -1.72176 
0.391603 0.813893 -1.04756 -2.2009 -2.47156 
0.563742 0.0454838 -2.20385 -2.01527 -3.39862 
0.490552 0.111449 0.821453 -2.76384 -3.55607 
5 5 0.100599
-0.544759 -1.81919 -1.92408 -1.51776 -2.049 
0.762464 0.377273 -1.25095 -1.87162 -0.973645 
-0.0779069 0.556829 -2.9896 -4.76961 -0.813117 
-1.09776 -1.63489 -2.66185 -2.761 -0.738313 
0.62411 0.342106 -1.15636 -0.83458 -0.243038 
5 5 0.0428175
1.00677 -0.134049 0.299467 -1.29141 -3.02315 
1.66404 0.672054 -0.311056 -1.73407 -4.79721 
1.80759 1.0565 0.319498 -0.811284 -4.58949 
1.0417 0.819582 1.10627 -1.73876 -3.21655 
1.19602 1.77166 -0.50618 -2.04327 -2.93363 
5 5 0.244647
1.71278 -0.125609 0.283114 -0.220135 -1.89389 
1.61872 2.03946 0.800922 0.319505 -1.27018 
2.36337 2.79325 3.92999 1.70758 0.28024 
0.995392 0.804105 1.81783 1.62143 1.06836 
1.25417 -0.662666 -0.581684 -0.541342 0.565194 
5 5 -0.150019
-1.72001 1.57412 -0.629683 -0.973793 -0.485376 
-1.97593 0.54363 1.44405 -0.0585723 0.770384 
0.300932 0.701764 2.89909 1.98693 1.40622 
1.33234 0.566237 2.1626 3.83686 4.10813 
-0.193301 -0.1555 1.41026 4.1509 3.23106 
5 5 -0.244931
-0.553194 0.0285805 -1.06442 -0.63624 -0.365588 
1.40111 0.820092 0.842677 1.94908 1.93055 
1.79128 1.38374 0.83134 1.63225 1.39753 
1.67754 2.9653 2.13737 0.210254 1.43293 
0.650529 2.00152 2.17723 1.76208 3.40734 
5 5 -0.242307
-1.14965 -4.13893 -4.83346 -0.986007 -0.257162 
-0.500484 -2.1785 -3.84342 -1.46232 0.197477 
0.455534 0.0274053 -0.496021 -3.29461 0.439912 
0.869088 -2.13293 -1.08892 -2.13552 -0.236431 
0.875761 -0.298452 -1.1824 -1.7481 -0.516826 
5 5 -0.101169
-5.53699 -4.47092 -0.0735657 2.50272 2.75267 
-3.47652 -0.78694 -0.283293 1.05156 3.41103 
-1.14083 1.33502 0.960638 1.84495 1.17042 
0.234211 2.77202 2.98868 3.29059 1.3389 
2.06387 4.01142 3.02777 1.41666 -0.926814 
5 5 0.0909553
-0.234718 1.01754 0.341961 -1.89389 -0.522958 
-1.59482 2.04834 -0.0448025 -0.295362 -0.633795 
0.711601 1.50012 2.83485 0.661955 -0.92821 
0.289212 3.10284 3.75247 -0.118886 0.1148 
0.700365 3.21889 2.66864 1.15859 -0.563601 
5 5 0.191626
0.323079 1.24282 2.73224 1.32455 -0.229724 
0.811017 2.60123 2.66016 0.13103 0.134292 
-0.193369 2.35812 2.55026 0.122076 0.0340914 
-0.372288 0.553266 3.98143 1.56312 1.91493 
-0.846582 1.40118 2.11064 1.92603 2.19321 
5 5 -0.120253
-0.153282 2.26564 3.32094 -1.16084 0.104705 
-1.65801 0.313653 4.09371 1.18969 -1.34634 
-1.07818 2.17421 2.77167 0.979188 -2.41707 
0.973119 2.89164 2.30778 0.637746 -2.18516 
2.82317 1.61935 1.18974 0.762984 -1.38234 
5 5 0.110243
0.87483 -0.531934 -0.86186 0.505221 3.32419 
-1.79142 -1.86349 -1.02491 -1.25051 3.35109 
-0.637015 -1.64337 -1.21881 -1.50724 2.80751 
2.73288 -0.230339 -0.491961 -1.89185 3.96496 
2.33707 1.00189 -0.327455 -1.09026 4.1028 
5 5 0.309142
-1.31138 -0.737895 -0.0199238 0.657175 1.54838 
-2.18161 0.108462 1.79651 1.22765 0.0506266 
-2.72551 -1.87223 -1.13912 0.213884 1.63265 
-2.35982 -2.68827 -2.41751 -0.703976 1.68296 
-5.21164 -3.53099 -2.19839 -1.29854 0.884585 
5 5 -0.0895718
-3.99012 -1.48798 -1.65846 -3.79413 -4.80727 
-3.15357 -0.536945 -0.338598 -3.1348 -5.06805 
-1.95016 -0.147938 -1.56988 -1.79622 -1.74887 
0.181478 0.805928 -1.04938 -0.5897 -1.87274 
0.595286 0.909358 -1.87446 -1.68462 0.338484 
5 5 0.0765913
2.0516 -0.0840902 0.342447 -2.20623 -1.65093 
1.18359 0.145064 -0.759937 -2.33096 -1.71103 
0.197198 0.817168 -0.935054 -2.9797 -1.47647 
-0.193719 0.584297 -0.317046 -3.13214 -2.13412 
1.76068 1.19344 -1.92811 -2.71474 -2.40383 
5 5 0.237505
1.79496 3.64989 1.86659 2.74297 0.271283 
3.33819 2.41088 0.833793 -0.173186 -0.696352 
1.30885 2.84296 1.22686 -0.198261 0.524396 
0.57414 1.40762 -0.544856 -0.797824 -0.456248 
1.52064 1.08045 1.38105 -0.317314 -2.04446 
5 5 -0.155329
-0.983202 -0.522509 -3.37993 -2.9339 -2.00381 
1.22115 0.148354 -3.69472 -2.74375 -0.717149 
1.31991 1.17486 -1.78526 -2.79189 -0.706186 
1.2919 -0.361714 -1.76167 -1.73974 -1.09744 
2.98706 0.0525263 -2.85762 -1.08076 -0.0683303 
5 5 -0.115594
1.22644 1.5657 -0.77655 -1.90507 -3.37493 
0.471839 0.523643 0.444753 -2.82697 -3.36421 
1.41079 0.871081 0.592678 -3.99334 -4.56233 
0.406133 1.04467 -0.187537 -1.18707 -3.53246 
0.338084 0.296866 -1.83854 -0.568091 -1.71347 
5 5 -0.0238553
0.348503 -0.779681 2.58741 3.40832 4.91104 
-2.23649 -1.09814 0.217362 4.47768 4.67182 
0.483382 -0.545631 0.742191 1.51234 1.75281 
0.819024 0.107119 -2.61588 0.44922 1.85005 
0.64883 0.244945 -2.97705 -1.14962 0.967367 
5 5 0.0507726
-2.64133 -0.968715 -0.0335893 1.45425 1.47859 
-1.24265 0.198039 1.37957 3.47216 0.828267 
-1.82292 1.01561 3.43701 4.27211 1.47091 
-1.55715 -1.2171 1.34088 3.8474 2.03509 
-0.199425 -1.06871 2.24463 1.80939 0.869511 
5 5 0.0723797
0.949418 -0.137103 -0.97132 -2.48908 -3.56163 
2.13776 0.249152 0.552491 -0.880702 -3.3086 
3.32711 2.78277 0.232753 1.31402 0.104838 
1.86343 1.15839 1.17336 1.93075 1.24399 
3.72118 2.31715 2.58446 2.06317 2.12348 
5 5 -0.209021
-4.14219 -3.09157 -0.979892 -0.360254 0.82709 
-3.77741 -2.9955 0.125141 1.15535 -0.413289 
-2.46685 -0.511442 -0.183717 0.602776 0.837081 
-0.576054 -0.456927 0.199658 -0.931083 -0.885771 
1.88138 0.189457 -0.216595 -0.00114032 0.491855 
128
5 5 -0.163915
1.04345 -2.53645 -1.82683 -0.0933019 -0.702106 
-1.29575 -3.73054 -3.08553 0.0854155 1.6166 
-1.76598 -3.03067 -2.6161 0.902625 0.52584 
-1.42431 -2.83767 -0.631993 0.552838 0.604451 
-1.88889 -2.47758 0.138798 0.275175 1.923 
5 5 -0.328186
-1.80061 -1.55335 1.01416 1.61789 1.79035 
-1.45635 -0.52569 1.43611 1.13182 2.45211 
-1.04665 0.680879 0.696441 3.28845 2.92736 
-0.714314 -1.65581 1.15255 3.10473 3.26818 
-0.787952 0.305569 1.69782 5.05664 3.10202 
5 5 -0.220862
0.147618 -0.0686778 -2.31028 -2.78981 -0.99509 
-1.92429 -2.63152 -1.77325 -0.890752 -1.27265 
-1.12919 -2.29997 -0.939137 -0.592913 -0.934238 
-1.26658 -3.26378 -1.20472 -1.16633 -1.53007 
-0.840103 -1.39242 -3.59139 -4.21932 -2.04122 
5 5 0.32723
-4.2957 -2.81964 -2.96957 -3.34393 -2.81277 
-1.59706 -2.56379 -2.58316 -0.502345 -4.38946 
-0.139719 0.664144 -0.33336 0.172348 -2.1521 
0.386378 -1.62112 -1.72912 -0.501978 0.111964 
-1.05577 -1.76779 -2.87588 -1.1089 0.418967 
5 5 -0.0371207
1.7847 -1.10104 -1.49432 -3.04705 -4.10067 
2.8303 1.28144 -0.161572 -2.84523 -2.25478 
2.62233 1.51162 -1.96786 -0.292101 -2.08932 
1.99359 1.44556 -0.984406 -2.94481 -3.35703 
1.66294 -0.192748 -2.0175 -2.0266 -2.1595 
5 5 0.26428
-1.71638 -1.33042 -1.62574 -2.44811 -4.95672 
-1.78153 -2.20286 -2.13604 1.00478 -1.42882 
-0.0556895 -0.890802 -0.826969 1.46356 -0.671078 
0.658896 -1.37334 -2.58072 1.01217 -0.593365 
-1.71506 -1.73164 -2.26514 -1.85233 -1.23239 
5 5 -0.0415764
-2.17419 -2.43382 -2.79544 -3.4994 -3.54417 
3.49578e-007 0.589503 -0.833874 -0.83509 -3.28809 
0.00158748 0.705485 -0.185902 1.27525 -2.79712 
-1.78539 -0.181914 -0.812526 -0.322838 -2.95822 
-2.37999 -2.5371 -1.706 0.68724 -3.3198 
5 5 0.27488
2.41034 0.877069 0.855682 4.5021 3.20256 
2.42811 -1.60636 -1.44171 0.609988 4.60912 
2.16 -0.506255 -0.821952 1.29577 2.05299 
0.300055 -2.3378 -1.21767 0.203282 2.24984 
1.00591 0.425732 2.0508 2.8935 1.31487 
5 5 0.214616
0.617495 1.53322 4.75728 7.02584 3.30244 
0.680618 -0.163812 1.05518 2.5317 0.509057 
-0.250677 -1.08686 -0.403493 0.396042 -0.968902 
-0.387254 -1.47871 0.00812379 0.307496 0.601207 
0.0963862 -1.66486 -1.90004 0.392058 -1.98834 
5 5 0.140151
-1.51002 1.22741 3.39823 2.36718 -0.521147 
-1.68264 -0.455287 2.39811 1.53943 -1.50131 
-1.99958 0.0659076 2.65612 1.1051 -0.397825 
-3.11152 1.79072 2.7774 2.84964 0.868402 
-2.84201 0.22362 2.91148 2.16849 0.70828 
5 5 0.0209866
-0.902828 -1.96311 0.0588393 0.871612 -0.636902 
-2.6265 -1.20967 0.728268 1.57335 -0.258217 
-2.18128 0.208431 3.36631 4.6474 -0.394453 
-1.70982 0.699913 2.74282 4.06569 -1.8043 
-1.69304 1.83397 1.92563 1.66858 -2.35569 
5 5 0.315511
-1.37764 0.805172 0.761938 1.54178 1.72759 
-1.33729 1.06265 1.78642 0.803728 1.40402 
-1.95748 1.6174 0.854357 -0.0648607 1.06947 
-1.97492 1.67995 5.6527 0.376922 0.460498 
1.67389 2.14463 5.79484 2.38378 0.365051 
5 5 0.253395
1.44944 2.92969 3.96575 2.54551 2.17304 
0.234921 1.34672 2.77865 2.35017 1.01465 
2.37855 2.86176 2.70432 1.43775 -0.0433062 
1.46699 0.328355 -0.140248 -0.0657195 -2.10431 
-0.402484 0.508634 -0.0263313 -1.53687 -0.84245 
5 5 0.283527
1.4355 2.38689 3.40366 2.26863 0.631841 
2.83083 2.93271 1.56703 0.987136 -0.386525 
2.32021 1.57016 0.366427 0.45087 1.80606 
3.01249 2.37292 -0.0955365 0.369593 2.02702 
1.51772 1.34478 0.0544141 -0.147618 2.64191 
5 5 0.089348
-1.35028 -1.83215 -3.34747 -5.44291 -1.10449 
0.219833 -1.51215 -0.607511 -3.6066 -3.44008 
-2.12668 -0.423944 1.08317 -1.21847 -2.17244 
0.414858 0.707281 1.32417 -1.26618 -2.28437 
0.859314 0.879989 0.849201 -3.15158 -2.70791 
5 5 0.262327
0.60221 -0.914216 1.45026 0.708554 0.715368 
-0.30299 -1.47112 0.141751 1.07485 2.11618 
-0.849652 -1.59998 0.948618 3.00599 3.22159 
-1.36219 -0.541024 -0.170559 3.40957 1.53089 
0.104227 2.80053 2.4517 2.72879 2.68605 
5 5 -0.118564
-1.08983 -1.73165 -2.21876 -4.3947 -0.382214 
1.3859 1.01826 0.974375 -3.34812 -0.507072 
0.983946 1.28687 -1.90103 -5.65086 -1.69217 
1.13241 -0.0544337 -2.81078 -2.82306 -0.32598 
2.93054 1.68765 0.0800215 -1.52454 -1.36492 
5 5 -0.0428989
0.674707 2.11551 0.96105 2.20608 2.61043 
1.88045 2.78094 0.504901 0.839057 1.34701 
2.41719 0.816671 1.96085 -0.350479 -0.276318 
2.82877 1.43165 0.681754 -0.542839 -2.37037 
3.34147 2.46308 0.664753 -1.82747 -3.16402 
5 5 0.0419223
0.595795 -2.59271 -5.92719 -3.39102 0.267725 
-1.20447 0.13018 -1.88998 0.930209 2.26552 
0.143597 -0.70439 0.489254 1.49342 2.75521 
0.911428 0.91256 -1.12757 1.71886 3.24601 
2.00956 -0.604008 0.0918061 2.74694 3.18645 
5 5 -0.291503
1.69977 5.82049 3.45349 1.89558 -0.343559 
1.59407 3.36733 1.82877 -0.138615 -0.262035 
0.274258 1.77909 -0.587692 -1.81705 -2.36221 
0.344603 0.413472 1.24704 -0.71133 -1.36585 
0.175333 0.835693 -1.25717 0.128435 -0.473605 
5 5 0.126967
-0.0514414 0.611942 0.731534 -2.63997 -0.125888 
-1.31219 -1.19468 1.44691 0.196927 -0.473293 
-0.294799 1.64244 4.22841 1.40058 -0.549376 
-0.512002 0.511359 4.5834 3.30956 -1.7388 
-0.227902 1.56929 3.99258 2.1933 -1.30742 
5 5 -0.274168
0.301293 -2.74957 -2.02664 -2.38147 -3.49182 
-1.20129 -0.646706 -0.091903 0.0662061 -3.04272 
-0.869432 1.36341 2.38193 -1.36273 -2.59654 
-1.75571 1.09532 2.09508 1.19808 -4.76265 
-1.08957 1.60154 2.4344 -0.508975 -4.53089 
5 5 -0.0260119
-0.021944 -2.37631 1.31526 2.06929 1.90384 
0.785345 -1.69426 -0.608026 -0.765422 1.31238 
0.342924 -3.43257 -1.87882 -1.8617 -0.680458 
2.4636 -2.73392 -4.04881 -1.70826 0.416231 
1.33392 -0.962676 -4.24111 -1.89449 -0.811616 
5 5 0.0923999
2.00573 -1.46805 -2.55102 -3.7677 -3.02109 
1.64668 -1.77029 -0.879054 -1.27563 -2.01576 
1.43945 2.36235 2.44981 -0.559785 0.414959 
2.04892 0.649277 1.19854 -0.275565 0.43166 
0.288798 2.54157 3.13793 2.82425 2.1471 
5 5 -0.253253
3.63267 2.52097 2.61887 0.467419 1.63848 
2.7424 1.92397 1.38826 0.944043 1.90061 
1.75186 -0.310947 1.48515 0.349663 2.44742 
0.54217 0.0132523 1.47451 1.08608 3.12342 
2.30465 1.90092 0.93679 1.97119 1.7323 
5 5 -0.103061
0.277203 0.842164 1.14981 0.333195 -0.484654 
2.04991 0.331177 -0.115784 -0.732099 -0.365462 
1.65517 -0.322684 -3.07773 -2.66782 0.361394 
-0.227697 -2.00617 -3.51652 -1.2316 -1.7075 
0.0583674 -2.33773 -4.14078 -2.55076 -1.33748 
5 5 0.0753502
0.125394 2.59492 3.48261 5.61489 1.38753 
1.90672 1.11266 1.04464 4.44965 2.8938 
-1.28709 -1.68053 -0.0179403 0.930971 3.33568 
-0.32469 0.311506 -1.99074 -0.554147 2.15084 
1.10311 2.15806 -0.649918 -1.57322 2.23806 
5 5 0.179235
-0.500011 0.456926 -0.2519 1.53258 -0.158943 
-1.1051 -0.59861 0.504216 3.31583 1.679 
-1.25729 0.175079 2.0164 3.32822 1.41974 
-1.36466 0.746449 3.44053 2.86548 0.513334 
0.718671 1.18801 2.42947 3.97172 -0.612179 
5 5 -0.187862
-2.44378 -1.93429 -1.32212 1.42858 0.576461 
-1.22374 -3.21658 -2.17076 -0.143124 1.64345 
-1.68929 -2.27259 -3.72555 -1.90576 1.11686 
-2.37874 -1.76475 -1.30656 -1.31021 2.83131 
-1.83491 -3.46556 -1.72103 -0.70095 1.72001 
5 5 -0.290058
2.54708 4.30103 4.36099 3.02017 4.04033 
1.76739 3.36299 2.454 2.22365 4.38625 
0.82364 -0.830192 -0.633303 0.525412 -0.0819326 
0.63903 -0.216971 -0.137534 0.284293 -0.205672 
1.54596 0.355492 -1.51244 0.545711 -0.879996 
5 5 -0.0754926
-2.65882 -0.532294 2.51631 -2.09259 -4.94955 
-0.381927 1.64548 1.76302 1.52177 -5.12852 
-1.14032 -0.861542 0.644794 -0.034036 -3.60892 
-0.535851 0.18036 1.68065 -0.100695 -1.24996 
-2.84729 -0.0493562 0.560741 0.23323 -2.18727 
5 5 0.292947
-3.15685 -1.39047 -1.44771 -2.19179 0.178407 
0.814709 -1.03618 -0.104812 0.21947 -0.930119 
1.5432 3.54122 1.04333 1.34014 -0.645258 
-0.180277 5.29121 2.38275 0.909114 0.284352 
2.10907 4.07859 0.544184 0.759271 -0.804484 
5 5 -0.28839
-4.07424 -3.17348 -0.0270782 -0.107117 -2.15306 
-1.5233 -0.495414 0.444677 1.90736 -0.982051 
-1.73157 -0.761303 -2.18959 -0.130204 -0.415128 
-3.31939 -3.87559 -1.4551 0.0725363 -1.0327 
-1.79867 -3.07475 -1.41831 -0.964823 -2.67465 
5 5 -0.0564084
-0.314047 -1.72753 -2.32648 -4.07055 -2.34115 
1.72587 0.328593 -0.386346 -1.13791 0.59224 
-0.0949533 -0.0137853 -2.2715 -2.22556 -1.28715 
-0.863012 -1.68957 -3.21641 -4.13251 -1.66026 
-2.19587 -1.66231 -4.09564 -1.3339 -0.78939 
5 5 -0.1336
-1.12036 -0.684724 -0.66179 -0.968926 -2.25863 
-2.26708 1.29874 0.0211548 -3.04652 -2.25086 
-1.93912 0.345042 -3.00498 -3.07569 -3.93946 
-2.44401 -0.410429 -0.381446 -3.09476 -4.01091 
0.132166 1.24407 -1.73224 -3.62369 -0.418635 
5 5 -0.0354523
1.39249 0.351313 1.36033 -0.137694 2.46951 
0.959538 1.11864 1.28308 0.569026 0.950951 
0.729251 2.70313 0.870555 1.65495 1.62819 
0.850158 2.23437 2.36068 0.898461 2.42281 
0.922481 0.145394 4.59413 4.37204 2.53682 
5 5 -0.0966114
-1.17999 -4.06231 -4.38896 -2.32432 -3.3242 
-2.12585 -3.41895 -0.957169 0.813412 0.754124 
-2.46376 0.298982 2.09419 1.26266 1.75081 
-2.56441 1.82827 0.0589951 1.75939 1.13678 
-3.66629 -1.03155 -0.0456491 1.61316 1.86036 
5 5 0.2725
-1.45775 -0.773681 -0.275069 -2.63445 -2.91665 
-3.435 0.575097 1.32055 -1.8335 -0.886138 
-1.37588 2.2168 0.0844317 -1.76959 -1.22333 
-1.38729 -0.122067 -0.730751 -2.00285 -3.30834 
-1.9559 -3.2585 -3.79828 -0.983943 -2.79705 
5 5 -0.193477
-1.57473 -1.07748 1.78506 1.15338 -0.436338 
-1.1742 -0.172563 1.49027 2.13684 1.7793 
-2.03994 -1.96954 1.65146 4.02105 2.04147 
-1.84436 -1.65243 2.77138 3.28485 1.29024 
-0.32595 0.125225 4.30094 2.32013 -0.031717 
5 5 0.330627
-0.927798 -1.59599 2.74634 1.58879 0.880642 
-4.44244 -0.00732061 3.73352 3.37038 0.358497 
-3.25418 -1.57294 -0.456283 0.228749 -0.573161 
-6.79403 0.176737 0.313169 0.377937 -1.1186 
-3.26963 -1.37086 2.321 1.796 -0.896615 
5 5 0.0846685
1.35312 1.50464 0.706286 -0.66409 0.985016 
3.39871 0.397789 -0.719254 -0.576932 -2.07824 
2.71494 1.58027 -1.96796 0.724517 -3.28683 
4.99556 2.05213 0.901474 0.808511 -2.72985 
3.33 2.95162 -0.672829 -1.56225 -1.16174 
5 5 0.0405998
-2.57556 -0.120178 0.571222 2.20852 -0.281662 
-1.44366 0.458794 -0.531104 0.310929 2.58044 
1.4603 1.24509 -1.17075 2.56532 3.56811 
2.81694 0.829429 -0.264784 4.18652 3.75173 
4.34455 1.12908 -0.494627 3.03907 3.65058 
5 5 0.0886359
1.91759 5.38794 2.70533 1.53697 0.377897 
1.52566 2.70821 1.41711 0.731078 -1.15715 
2.33443 4.81176 1.69429 1.02362 -2.51878 
-1.56011 2.93993 0.500008 -1.49552 -0.755835 
-1.00102 2.66637 0.709205 -0.246595 -0.624738 
5 5 -0.0516068
-0.102776 2.17638 2.27191 1.81664 -0.620486 
0.65386 1.1205 3.96221 1.53569 1.08451 
-0.424428 -1.546 1.74117 1.77518 2.42971 
-1.24102 -0.365582 3.58438 2.53173 0.0899635 
-2.30772 -0.282534 1.04082 2.36086 2.78948 
5 5 0.110975
-2.71133 -0.72564 -0.453268 -0.899378 -1.53652 
-0.873599 1.86058 2.52407 0.624589 -1.08491 
-0.99072 2.80161 4.08996 1.94322 0.280525 
-0.330898 2.90164 4.627 0.524144 -0.365035 
-0.401704 2.74614 3.19745 1.21794 -1.23474 
5 5 -0.215288
-3.06448 -1.25775 -0.623158 0.0401924 0.395216 
0.50937 -2.02473 -3.56636 -1.30582 -0.1327 
-0.416605 -0.717122 -2.32501 -1.7973 -1.79196 
1.23899 -1.04202 -3.27146 -2.96501 -1.58837 
-2.04392 -1.70412 -2.18169 -2.76118 0.835659 
5 5 -0.211035
1.72082 2.44325 0.832153 2.67466 0.53953 
3.70634 2.9292 1.57584 1.74019 2.16135 
5.28613 2.66826 -0.335206 0.504522 1.75408 
3.2085 1.39514 0.730962 0.564454 0.972658 
2.75029 0.178328 -0.926849 0.436678 -0.148296 
5 5 0.0275582
-1.15282 -2.1274 -2.81469 -3.25737 -2.89988 
-3.0433 -1.03096 0.17588 -2.82124 -2.50343 
-2.13948 -0.288411 1.17767 -0.56019 -3.39443 
-2.44388 0.757988 0.0717581 0.413416 -3.29152 
-2.89574 -1.55076 -0.381864 -0.322093 -0.71241 
5 5 0.332031
-2.54716 -5.17599 -0.622854 1.23664 -0.757559 
-2.86366 -3.605 -0.461115 1.69337 1.08004 
-3.47889 -1.57877 0.438408 1.53742 1.99907 
-2.75855 -2.55867 2.28304 0.244723 -0.901157 
-0.618924 -0.695808 0.125756 -1.72249 -2.58257 
5 5 0.174474
0.580713 -3.07212 -1.35447 0.174295 -0.420189 
0.501758 -2.64927 -2.1497 -1.4955 -1.0829 
0.034125 -2.44631 -3.8889 -0.790994 0.156035 
0.0942993 -2.34105 -2.82297 -2.07061 -2.09788 
1.38791 -0.532751 -2.39385 -3.2524 -0.544868 
5 5 -0.239418
-0.44935 -1.49491 -1.49432 1.02478 1.18531 
0.123524 -0.547134 0.120981 -0.695177 0.815486 
-1.70483 -2.03948 -2.83914 -1.6075 -0.583591 
-1.92877 -2.95359 -4.11488 -0.341384 0.255012 
-1.75513 -2.92758 -3.57542 -0.0833215 0.280222 
5 5 -0.254758
0.427925 1.20908 -0.932219 -3.87381 -4.08521 
-1.50029 2.07013 1.7159 -0.871041 -4.11704 
1.77039 1.97776 1.54978 1.31113 -0.446439 
2.34483 2.99415 1.62467 -0.234159 -0.884953 
2.73689 1.21932 2.07123 0.703899 -1.64609 
5 5 0.0110782
-0.0368443 -0.961838 0.493821 1.68049 1.18083 
0.998134 -0.332673 2.56926 4.5563 1.40716 
0.556461 -0.16788 2.96042 2.7186 1.22464 
1.45092 -0.949332 2.48445 3.44401 -0.432046 
1.70302 -0.584139 2.52708 3.08217 1.23033 
5 5 -0.297484
-0.948664 0.472033 -1.9905 -2.93263 -2.92365 
0.322033 -2.53043 -5.16398 -2.32414 -0.150792 
1.39396 -1.56294 -4.08247 -1.46176 -0.845408 
0.394358 -1.46994 -2.36436 1.15866 0.299793 
-0.146505 0.528764 1.54717 -0.0905325 2.53203 
5 5 -0.239133
-0.753549 2.32812 1.56363 1.90287 -0.455293 
0.131631 2.42365 0.495709 2.57896 -0.0502772 
0.75227 1.3524 2.89657 2.68798 1.08857 
0.819216 1.44684 3.27369 1.33134 1.11281 
1.15268 0.247076 1.03625 1.64034 -0.657417 
5 5 0.311319
3.96082 -0.0401993 0.437932 -0.625978 -2.8409 
4.53084 2.33878 -0.559494 -0.847458 -0.448563 
4.9549 2.06376 -0.747144 0.195212 -0.567515 
3.79679 0.24202 -0.855599 -0.149668 -0.456614 
1.85686 0.636456 -2.38222 -1.96964 -2.20502 
5 5 -0.172562
0.416445 0.552194 1.51829 -1.87182 -5.67082 
-0.312255 -0.645136 -0.0714921 -0.891914 -3.51381 
1.52715 0.183778 2.03702 -0.206936 -2.40074 
3.41631 0.697797 0.515726 -0.972155 -3.71979 
2.0518 2.10744 0.511689 -1.19256 -3.23219 
5 5 -0.208675
-0.229536 -0.743533 1.18004 1.33108 1.59635 
1.86546 -0.100063 1.42493 1.30052 1.7795 
3.83945 2.98192 3.25941 -0.434769 -1.02241 
2.81316 1.04526 -0.412693 0.756614 -0.524018 
2.59396 4.36975 1.80852 1.82879 0.42863 
5 5 0.329244
1.9279 -1.05211 0.287818 0.941087 0.0751361 
2.1048 0.687696 2.8898 3.69981 2.53194 
1.57371 0.693537 2.20482 2.09504 1.43067 
1.58155 2.52325 0.498018 -2.62088 -0.179944 
3.81138 3.82092 -0.294093 -2.05045 -1.33507 
5 5 -0.216692
1.56471 -1.83232 -0.420378 0.0385449 1.94962 
4.00051 -1.63797 -0.308156 0.52143 2.23357 
5.5283 2.21599 -0.545283 -0.554636 0.612911 
4.00433 2.14454 0.0694173 -0.0934513 1.85535 
3.16644 1.178 1.35948 0.802531 3.72616 
5 5 -0.204199
-0.443936 0.115946 -0.752727 -0.82668 -0.14737 
0.337777 2.91001 1.86293 -0.433997 -0.280506 
2.65911 4.0193 -0.44221 -2.51949 -1.76684 
2.75286 2.68648 1.44323 -1.58201 -1.51318 
2.16061 4.40484 2.59339 -3.76529 -1.43037 
5 5 -0.0168157
0.699937 2.09416 3.06792 1.37884 1.89865 
0.394889 1.77913 1.97255 1.38167 -0.811749 
1.43872 2.4691 1.72494 1.93209 0.838937 
0.250727 1.81468 2.72723 1.38417 0.813277 
0.029553 3.20068 3.06276 1.64422 1.96349 
5 5 0.0813115
0.666449 0.696204 -0.0869098 -1.73329 -2.30896 
-0.365582 0.589874 -1.88339 -0.651109 -0.977199 
1.27124 -0.0979225 -3.27627 -2.67294 1.79319 
0.369985 -0.439201 -2.07146 -4.82544 -0.657759 
-0.83651 -1.00782 -3.05769 -4.56397 0.610389 
5 5 -0.0350047
0.345681 -1.7475 -2.77195 -3.48779 -0.157745 
-1.17139 -3.43375 -4.0289 -2.63436 0.139713 
0.0804491 -2.00689 -2.32047 -2.5608 1.26153 
2.49328 -1.31898 -2.90289 -2.38063 0.934331 
0.172645 -0.479551 -0.315535 -1.83537 -2.54863 
5 5 -0.0644856
-0.814558 1.53901 1.61162 2.78876 1.40532 
0.100674 -0.868214 1.88679 2.51674 2.59226 
0.106 -0.5866 2.71187 3.68199 1.34748 
-0.296831 -0.669068 2.81307 3.73005 0.403544 
-2.61141 -1.12036 1.50807 3.18099 0.174908 
5 5 -0.119663
2.17415 1.47778 -0.941954 3.36942 4.01197 
-0.99249 -3.99366 -1.74037 1.09184 2.13951 
0.113289 -3.61262 -1.15828 0.0248369 3.17431 
0.39385 -1.5931 -1.04 2.35193 1.47259 
-0.0883727 0.246731 -0.213434 1.92975 -1.0058 
5 5 -0.246742
-0.66957 0.0473493 -1.16883 1.88044 0.918043 
-0.772789 -1.0354 -2.37072 1.22948 -1.54458 
-0.823455 -0.740438 -0.722174 -3.28281 -3.52464 
-1.63217 -0.960997 -1.98268 -5.63631 -1.97604 
-1.92351 -2.10159 -2.22465 -3.66355 -0.880218 
5 5 0.054679
1.8869 0.147898 -0.548913 0.630849 2.8187 
3.13003 1.18043 0.848652 1.48809 2.78176 
0.356129 1.25185 1.97228 2.00643 4.35683 
0.345545 -0.656926 0.669081 2.31282 3.05817 
3.58335 1.1673 2.13695 1.01551 0.195691 
5 5 -0.310221
1.12238 2.21433 -0.704525 -2.31645 -2.03113 
2.58027 -0.936016 -0.911615 -3.34088 -0.872066 
2.63933 0.674963 1.02013 -2.0139 -0.941631 
2.54908 3.13656 -0.297231 -0.840051 -1.33737 
2.55844 3.53276 1.3149 -1.37945 -2.76473 
5 5 -0.164851
0.961077 1.09598 2.81372 4.55088 0.680618 
0.434989 1.9074 4.12569 2.19056 0.0358827 
1.0253 2.28525 2.3737 1.4107 -0.552288 
0.922745 2.64796 2.82047 -0.492614 0.685922 
-0.0785398 -0.308014 1.50547 -1.01939 -2.97023 
5 5 0.329407
4.23428 0.779729 -2.71866 -1.39378 -2.39139 
4.22922 1.37002 -1.071 -0.123374 -0.660332 
1.15325 1.03947 -1.12866 -1.47424 -1.91882 
-2.45948 2.19783 -0.453327 -1.32777 -3.00155 
-1.50348 1.93381 -1.50956 -2.71796 -3.17634 
5 5 -0.28957
2.98834 1.6978 -1.32752 -0.45689 -0.515127 
4.32586 -1.46097 -0.576087 -0.163063 0.203612 
2.45458 -3.11374 -2.53424 0.310806 1.50332 
2.85626 -3.7512 -3.40141 0.873197 -0.30508 
2.87739 -4.05076 -2.25626 0.96685 -1.0728 
5 5 0.0950652
-0.332335 0.0581618 1.70053 2.55557 0.802489 
-1.61217 -0.879126 -1.11381 2.20097 2.87307 
-3.91841 -2.41608 -0.630845 -0.849346 -0.56271 
-3.65815 -3.67445 -1.12295 0.666622 -0.484558 
-2.77612 -4.28133 -3.06862 0.125943 -0.131956 
5 5 -0.276467
1.14324 0.771755 0.598978 1.18988 0.900052 
2.85178 0.00319698 0.801743 0.266388 1.42694 
2.04756 1.81831 2.1898 -0.415807 -1.3847 
1.48602 3.29144 2.2111 -0.60115 -1.2393 
4.03448 4.77565 1.92309 0.803133 -0.322614 
5 5 -0.0802739
2.51547 2.9277 1.79148 0.982993 1.64362 
1.22989 0.609631 -0.946777 1.0198 0.515842 
1.59015 0.532505 0.294105 2.99081 3.32145 
-0.632904 -0.339834 1.25796 2.14026 2.78727 
2.49888 -0.182007 0.733763 4.56008 3.35613 
5 5 0.198482
1.96537 0.738004 1.17271 -2.34296 -2.53788 
2.79503 2.02081 1.07659 -0.828028 -4.01005 
1.20958 1.00905 -0.69004 -1.80205 -4.39491 
0.70073 0.389442 1.16733 -1.16149 -2.93987 
-0.0195717 0.0530508 0.0783426 -1.76317 -4.0116 
5 5 0.0335398
-1.39887 -2.94442 -1.59147 0.255162 -0.929821 
-0.119439 -2.76282 -3.1704 -1.00875 -1.78155 
-1.11241 -1.66047 -2.67529 -2.48008 1.05957 
-1.55947 -1.64977 -2.65996 -1.55297 2.27139 
-1.89982 -1.13746 -1.74633 -0.283812 -1.6503 
5 5 -0.19838
-2.05944 1.68613 1.705 0.565392 -0.892342 
-3.23318 -0.668618 -0.894156 -2.89813 -1.81132 
-2.6797 -1.82298 -0.901974 -1.79759 -0.425728 
-3.81019 -1.80718 -1.2136 -0.093035 -1.79994 
-3.79406 -3.50998 -0.526875 -0.45683 -2.34337 
5 5 0.0543128
0.320113 -2.1122 -2.08019 0.0172205 -2.22648 
0.0307804 -1.39901 -3.15372 -1.48442 -2.45357 
-2.30158 -2.6251 -1.10518 -1.43083 -3.29348 
-1.77053 -0.573389 -2.05125 -2.39294 -3.10413 
-2.10132 -1.36676 -2.22094 -1.74712 -1.27565 
5 5 0.291645
-1.84426 -0.0668468 -2.08885 -2.51947 0.0890044 
-1.65597 -1.52591 -2.85565 -1.93962 -2.46849 
-2.52673 -1.44528 -2.73579 -2.1176 -2.76107 
-2.18384 -0.222274 -1.98053 -0.340631 -2.22131 
-0.622371 1.06649 -2.08647 -0.614226 -1.73464 
5 5 -0.0975473
-0.419526 -2.20051 -2.75161 -0.988373 -0.437199 
-0.0602892 -3.11481 -2.71824 -1.46188 -0.898949 
0.47228 -0.711236 -3.45385 -0.439784 -0.82395 
-0.142271 -1.72737 -1.75512 -0.178044 -2.11417 
0.433981 -2.68102 -1.19916 -0.971741 -1.73107 
5 5 0.312662
1.76259 -0.399216 2.67669 -0.135717 0.698908 
-3.03814 -2.14437 0.592235 1.48926 -0.662245 
-6.46815 -2.19918 -0.496622 0.55528 0.229252 
-3.93355 -1.14633 -0.00742176 -0.931764 0.529479 
-2.51135 1.3387 2.29259 1.47149 -0.172718 
5 5 0.0607624
0.156313 0.736523 0.558377 -2.22712 0.877621 
2.0923 3.51765 3.05442 -0.7853 0.286324 
3.9905 2.94091 2.43318 -0.307261 0.21318 
2.69423 2.98453 1.07969 -1.40051 -0.286684 
1.63791 2.46403 0.896678 -1.01883 -1.17254 
5 5 0.251076
2.96974 2.75764 5.65489 3.46654 1.81893 
2.40371 0.803132 4.21224 1.16541 0.427911 
1.52449 -0.11856 1.39765 0.863858 -0.800809 
0.923815 0.904802 1.21359 1.49585 -2.59658 
-0.842542 -0.998157 -0.531644 2.7878 2.19633 
5 5 0.0334381
-1.68582 -0.934629 -0.0333961 -0.373761 -0.204693 
-2.63563 -0.551064 1.56523 1.47383 0.711493 
0.10918 1.19569 1.88068 1.44678 -0.18255 
0.946572 1.51186 1.55748 3.08853 1.24147 
-0.188741 0.752245 4.05702 4.9265 1.99041 
5 5 -0.156306
0.041645 -3.15952 -3.01306 -0.0746399 1.47674 
-1.45542 -1.49765 -3.13939 1.12467 -0.638752 
-2.39314 -0.804548 0.495488 -0.914901 0.216838 
-3.65908 -1.41424 -0.855782 -2.2654 -1.80647 
-1.54633 -2.95019 -1.40258 -1.38053 0.0785887 
5 5 0.191951
0.03381 -2.38527 -3.43567 -1.30297 0.763198 
-1.88498 -2.06872 -3.09316 -2.63342 -1.08737 
-0.0124898 -1.54858 -0.860645 -4.33629 -2.00656 
1.39462 -0.508483 -1.74994 -2.11141 -1.65705 
-0.225224 -1.19374 -1.61565 -1.92602 -1.04751 
5 5 -0.108595
1.15965 1.23478 3.29855 -2.1239 -0.646497 
0.0014448 1.29261 -0.409586 -2.27168 -1.15435 
0.115064 2.8658 2.01803 0.461897 -1.36203 
0.142259 3.08396 3.26817 0.00377786 -1.71835 
1.81991 3.18262 2.8492 0.741789 1.32023 
5 5 -0.138361
-0.442949 -0.77945 -0.00344815 -1.38426 -2.28116 
-1.08687 1.49129 3.57448 -0.751725 -1.03714 
0.495739 2.99003 4.38742 2.40082 0.851144 
0.413832 2.02885 2.69566 0.669318 -0.989124 
-0.88512 0.948361 2.7344 1.67532 -1.08375 
5 5 -0.23427
-0.546126 -0.324985 -0.430696 1.67488 1.45174 
-3.38624 -2.60868 1.11792 0.308467 0.378894 
-2.91995 -1.37113 -0.686378 3.08034 2.66174 
-1.58356 -0.543116 0.99472 2.13424 4.56769 
-3.08041 -1.10738 0.45602 2.62616 2.60756 
5 5 0.170181
0.291679 -0.430005 -1.59601 0.267151 1.55734 
-0.141328 -1.24214 -3.95491 -0.795522 -0.645544 
-0.482718 -2.11055 -2.70845 -1.44363 -0.44711 
-0.68901 -0.586473 -5.19412 -0.0243562 0.846161 
1.26263 -0.530537 -1.79769 -0.271231 1.08958 
5 5 0.0625528
-4.25412 -3.41452 -0.620009 -1.65522 -1.19242 
-2.74147 -3.08799 0.727196 -0.956403 -0.658691 
-2.48071 -2.14994 -0.226149 -1.14729 1.03943 
-2.98583 -1.79513 -0.0428488 -1.3484 0.00790328 
-1.61186 -3.1327 -1.6974 0.249324 -1.03566 
5 5 -0.154881
-0.481473 0.476142 -0.663408 -2.06916 -2.86993 
-0.7365 -2.42188 -0.289347 -0.744436 -5.09971 
-1.62972 0.134003 -1.03939 -3.35818 -3.55538 
-0.0434021 -0.29073 -0.957841 -1.61884 -2.3916 
-2.3389 -1.92855 -2.54695 -0.551988 0.917445 
5 5 0.090467
0.453404 -3.74581 -4.13972 -1.4529 -0.829528 
1.15617 -2.07746 -1.60316 -0.834956 -0.337503 
2.02424 -0.39204 -2.57694 -2.17485 -2.06656 
2.44634 0.281959 -2.51073 -2.19634 1.4263 
0.657417 3.06278 -2.59412 -2.9114 1.7917 
5 5 -0.185115
-3.24867 -2.5883 -2.13756 -1.65212 -0.779126 
-2.56384 -1.35819 -1.57619 0.482613 -0.777919 
-2.02838 -1.87064 -0.0994649 -1.59675 -1.64886 
-1.74634 -2.04634 -1.25333 -0.634467 -0.722522 
-1.87902 -2.50182 -0.998987 0.223813 1.04447 
5 5 0.214698
-0.334895 -0.414086 -2.01284 -1.06135 -0.706736 
-1.77098 -2.63614 -2.21811 -0.726067 -0.838842 
-1.30189 -1.54272 -2.315 -1.39836 0.086193 
-2.4502 -1.98542 -3.69802 -2.22181 -0.447055 
-0.179328 -1.49122 -2.88543 -0.63188 -0.425952 
5 5 0.134068
0.0219125 -0.579261 -0.618938 -0.584776 -0.195329 
1.81398 0.777017 -0.936901 -1.53551 -0.957475 
-1.48845 -2.20185 -2.22354 -2.02721 -2.75462 
-0.887485 -2.10752 -2.40386 -2.86617 -1.7013 
-0.792522 -2.69069 -3.99935 -1.53953 -1.64392 
5 5 0.0770796
2.51879 1.07107 2.06337 2.25621 3.21883 
0.372751 -0.125731 0.410509 2.2983 5.27219 
1.07267 0.187193 -2.44266 -0.676597 4.53923 
-0.256903 -1.00046 -2.1673 0.409902 1.65985 
-0.394159 -0.0712359 -1.46513 -0.246379 2.52119 
5 5 -0.246457
-2.64724 -0.205608 0.763231 0.0284541 1.9901 
-4.15449 -1.64562 0.497539 -0.0373445 1.54559 
-4.34258 -2.25316 -1.09329 0.856717 2.43777 
-1.70925 -1.29367 -2.08481 2.71615 0.742262 
-4.60473 -2.63064 -0.290516 1.35327 -0.143028 
5 5 0.0468256
2.07205 1.57053 1.92156 -0.577196 1.41207 
2.23467 2.24325 -0.4001 -1.33141 0.719402 
1.89979 2.31389 1.99977 -0.250732 1.934 
2.59536 2.70418 1.75645 -1.16112 5.2423 
2.50958 3.52292 -0.0792833 -1.66545 2.12712 
5 5 -0.00991852
1.40432 0.13739 0.540536 -1.10533 1.55872 
1.6037 0.938778 2.45835 -1.30192 -2.62502 
2.18369 1.77463 1.92034 1.12184 -2.37717 
0.245733 3.17315 2.49462 0.898309 -1.71601 
2.80066 2.92305 3.03431 -0.928877 -0.893787 
5 5 0.255674
0.846202 -0.971701 1.36132 2.36663 0.621984 
-2.18051 -2.26258 -2.69704 -5.09213 -2.45926 
-3.31148 -2.27322 -2.80158 -4.66209 -2.76091 
-2.46211 0.503881 1.2109 -2.43041 -0.754312 
-1.38552 1.07695 0.0985151 -1.39304 1.07103 
5 5 0.215857
-0.125857 -0.71228 0.280127 -1.22718 -1.3503 
-0.98134 0.843113 0.815026 0.627517 -0.766347 
1.99012 3.07656 0.95889 0.988604 -2.10676 
0.87237 -0.645577 3.16481 1.87458 -0.535857 
1.7242 4.91119 5.05164 0.816435 -1.04349 
5 5 -0.0948007
-1.8433 -1.91743 -2.2317 -3.3051 -3.8352 
0.953583 2.18711 0.502283 -2.97607 -3.79012 
1.29733 1.00923 -1.43198 -2.07198 -2.69919 
0.0730613 -0.53746 -3.26599 -0.699869 -0.145968 
-0.794059 -1.95014 -2.45003 -0.858505 1.65915 
5 5 -0.0445469
-3.3543 -1.83118 -0.947296 1.24909 0.877517 
-3.09598 0.572115 -1.95462 1.22879 -0.0483998 
-2.4018 0.522259 1.44958 -0.380722 0.97556 
-0.997999 -2.84956 0.282037 -0.833728 -1.20639 
0.931717 -5.80961 -4.69536 -2.01083 0.215226 
5 5 -0.132684
-2.31766 -2.80804 -3.48295 -1.57842 -0.449735 
-2.59787 -0.696149 -0.182991 -1.59671 -2.44734 
-0.248114 1.1481 0.0392358 -3.69904 -1.10133 
1.34718 1.69369 0.234821 -4.13779 -2.09459 
-0.483953 -0.75895 -2.4298 -3.49285 -2.70792 
5 5 -0.0885545
0.735263 1.82182 -2.13792 -2.80946 -2.48392 
1.98706 1.55429 -1.35246 -1.01238 -1.01361 
2.72393 1.60107 0.115769 -0.60367 0.182018 
1.56682 3.83538 0.386889 0.840882 -1.75336 
2.91148 3.18653 0.825494 0.162981 -2.29185 
5 5 -0.0683513
-1.716 -3.41015 -5.07646 -3.77516 -0.264662 
-1.17463 -2.59504 -2.37376 -3.77416 -2.03446 
0.0921471 -0.922178 -1.68307 -0.159276 -1.90421 
0.917044 -0.397653 -1.009 -0.73819 -2.46649 
2.75101 -0.671629 -0.0499107 0.221636 0.251258 
5 5 0.105726
-2.40972 1.02524 0.874013 -0.506846 0.421814 
-1.91842 -0.796558 -1.04991 0.295915 0.191715 
-3.15896 -1.80959 -2.19191 -0.0488626 -1.23022 
-3.42531 -4.03134 -2.87855 0.448813 0.126307 
-3.86862 -3.21649 0.0805168 -0.611971 -0.0161925 
5 5 -0.279051
-0.336364 -0.0785587 0.106365 -1.74574 2.05729 
-0.425107 -1.51676 -2.27841 -2.21385 -1.08845 
0.487906 0.0587414 -0.846904 -4.55911 -2.55542 
0.760395 1.1182 -1.70488 -4.16802 -2.69848 
0.775618 0.282106 -0.46613 -2.45987 -1.48925 
5 5 0.324178
0.494954 0.0823851 0.961863 1.25509 -0.0690435 
0.385681 0.239571 0.325863 -1.01278 -1.72722 
-2.82408 -2.68356 -3.04362 -2.21538 -2.3059 
-2.08101 -3.21054 -1.96267 -1.26643 0.78313 
-0.318323 -4.33888 -2.73891 -1.08397 -0.385012 
5 5 -0.0378531
2.38492 1.52844 1.26741 -0.152501 -0.188122 
2.76774 2.04848 -0.0697846 -1.07268 0.12086 
3.1419 3.99456 2.51584 1.32137 -0.427965 
0.148129 1.21135 2.02442 -0.96734 1.98915 
1.46836 4.37593 2.34059 1.50451 0.894052 
5 5 -0.280964
-2.03315 -3.65126 -1.07029 -2.40337 -5.44765 
-1.8824 -2.60098 1.02721 -0.153665 -3.32327 
-2.06732 0.0501301 3.32344 3.04659 -1.53761 
0.000504005 2.11091 2.68464 1.5519 0.143759 
0.103992 2.06104 2.29788 0.618961 -0.0329088 
5 5 -0.199947
-2.67921 -5.52718 -2.50496 -2.67723 -4.31294 
-2.69642 -3.70773 0.990441 -0.146572 -1.24925 
-2.90178 -0.754754 1.30125 0.709253 -0.685833 
-1.85983 1.0042 -0.700357 -0.0103069 0.264548 
-2.68866 -1.81527 -2.38245 2.10456 1.13455 
5 5 0.0895922
0.99881 -1.53422 -1.9862 0.25294 0.86529 
1.18768 -0.694892 -2.19095 0.142609 0.201752 
1.6726 -1.15423 -2.6414 -3.03684 0.344724 
2.42635 -1.67101 -3.69934 -3.07455 0.401119 
0.693915 -0.84055 -0.89904 -2.39019 -0.506353 
5 5 0.175207
-0.831493 -0.0442306 1.37263 -0.213784 0.969842 
-0.711861 -0.257855 -0.669274 -1.24407 -0.576763 
-0.947395 1.08782 -1.49559 -2.9753 -3.64314 
-0.376977 -0.639002 -2.61004 -3.73047 -3.36088 
-1.60192 -1.89887 -2.77243 -2.71186 -4.06479 
5 5 -0.304687
-0.898858 1.78324 1.22921 -2.41005 -2.0127 
-1.3596 2.15457 0.595302 -0.472953 -0.184324 
-1.14318 3.56002 3.06222 -0.110011 0.503302 
-0.264788 4.19234 2.59061 -0.0682461 -0.218622 
2.08127 3.6961 3.08741 -3.04985 -1.94222 
5 5 0.28605
-1.43665 -0.717812 -0.793746 -0.663925 -0.4245 
-2.03455 -1.83006 -0.457358 0.149919 -1.01966 
-1.02337 -0.849572 -1.49887 -1.47651 -0.820632 
-1.30154 -1.53486 0.351869 -3.23877 -2.57573 
-2.37772 -0.802584 -0.106123 -5.35177 -4.20744 
5 5 0.122654
1.5206 -2.03618 -1.35741 0.490161 3.08313 
3.47568 1.75792 -1.71914 -0.131766 2.57342 
4.58004 0.153783 -2.79524 -1.7922 1.57025 
3.35618 -1.83198 -0.752898 -0.34797 2.23501 
3.57961 0.944992 0.304359 -1.09229 0.392745 
5 5 -0.176448
-3.18461 -1.07493 -1.65822 -2.29629 -0.646723 
-1.24453 -0.00594684 0.409178 -0.48724 -0.454018 
1.12674 1.01799 0.531107 3.79706 2.81004 
-0.517424 0.850659 2.30585 4.17484 2.44651 
-1.055 2.57876 2.08475 4.94603 2.764 
5 5 -0.274392
1.20474 0.831163 -0.217588 1.12973 0.850814 
-0.0154209 -0.221961 -0.64196 0.53554 -0.389264 
-0.111538 -1.61298 -2.01931 0.442805 0.339498 
-1.44951 -5.24525 -1.24174 -1.19703 -0.444862 
-1.07295 -6.08726 -2.31122 -1.45734 0.562801 
5 5 -0.00149541
-2.51344 -2.33166 -0.284264 -0.405112 -0.200346 
-2.14864 -3.01193 0.166181 -0.461231 0.431362 
-1.68941 -2.20314 -0.119524 1.24903 1.53175 
-4.0839 -3.40365 1.81936 0.548548 2.02239 
-3.12524 -1.71745 0.730011 0.994109 2.06004 
5 5 0.161962
-3.39641 -1.44493 0.640597 2.57863 1.89038 
-0.803028 -0.535595 -0.0163285 1.11152 1.04283 
-1.28903 -0.82513 -0.242293 -1.92749 -0.353254 
-1.74044 -0.345679 -2.51645 -1.74011 -0.36557 
-0.162515 -3.20452 -5.90732 -3.28936 -0.371937 
5 5 0.0494502
-0.419979 -0.705687 -0.982855 -2.09705 -5.45123 
-1.2307 -0.832631 0.0725043 -0.318619 -4.88722 
0.563497 -0.264324 -1.37645 -0.0162328 -3.7055 
0.0558543 2.24007 -0.525188 0.0274113 -2.70158 
0.0416699 2.28269 0.131015 -1.2233 -2.08305 
5 5 0.211361
-1.97129 -1.94873 -1.75996 -0.865222 -1.7005 
-1.79961 -0.594231 -1.26147 -2.02197 -1.06173 
-3.30984 -0.264586 1.06833 -0.171476 -1.20229 
-4.50034 -0.37131 2.30746 2.40673 1.44801 
-3.63151 -2.02475 3.85962 4.43607 1.18542 
5 5 0.25189
2.34515 3.09424 0.143483 -3.38993 -1.57044 
2.80508 1.79726 -1.25259 -2.43265 -3.70666 
2.95604 2.72444 -0.91084 -2.29066 -0.898771 
1.83011 1.96483 0.165538 -0.829428 -0.553075 
1.69683 1.57888 -1.03582 -0.668874 -0.3639 
5 5 0.0640787
-0.913695 0.198461 4.13621 3.91097 3.26097 
-1.33115 -0.302558 2.57181 1.77094 1.72506 
-0.151804 -2.21456 -0.639939 2.29931 1.74536 
-0.452739 0.799164 -0.935315 2.23221 2.36388 
-1.39172 -0.37473 -0.771243 2.09611 2.73232 
5 5 0.116245
-0.781595 -3.16935 -3.04977 -2.88049 -3.24925 
-1.3283 -4.267 -1.12984 -1.79483 -3.50129 
-1.285 -1.70214 -0.932092 -1.79029 -1.21209 
-1.00358 -1.04179 -0.237696 0.701729 0.495106 
-0.0967155 -0.453165 0.890001 -0.495081 1.19893 
