64
7 7 0.337599
-0.12992 -0.140348 -0.131053 -0.136457 -0.116993 -0.14145 -0.138417 
-0.140439 -0.119298 -0.147151 -0.119441 -0.139111 -0.126967 -0.14027 
-0.144129 -0.134684 -0.140271 -0.133392 -0.14772 -0.127873 -0.130319 
-0.128397 -0.121072 -0.118626 -0.142949 -0.147417 -0.142726 -0.139636 
-0.137566 -0.118397 -0.131807 -0.127581 -0.128752 -0.121172 -0.129435 
-0.142328 -0.124733 -0.142138 -0.144068 -0.121561 -0.127332 -0.126539 
-0.143191 -0.126977 -0.134941 -0.122077 -0.140303 -0.117297 -0.124186 
7 7 -0.381212
-0.138445 -0.147946 -0.127679 -0.145307 -0.117109 -0.109945 -0.0984453 
-0.138428 -0.130724 -0.116241 -0.125872 -0.14857 -0.106832 -0.0976953 
-0.118146 -0.138835 -0.115899 -0.151448 -0.150377 -0.105368 -0.097695 
-0.148072 -0.117116 -0.133997 -0.153573 -0.126913 -0.135045 -0.122748 
-0.128626 -0.151635 -0.122945 -0.130382 -0.130877 -0.139727 -0.124131 
-0.124175 -0.13347 -0.136881 -0.140026 -0.135677 -0.147167 -0.113352 
-0.137189 -0.136768 -0.121478 -0.145229 -0.132389 -0.140406 -0.117463 
7 7 -0.377414
0.161733 0.170908 0.136149 0.170693 0.0998753 0.113928 0.0996273 
0.111773 0.137201 0.156762 0.125772 0.0938758 0.103645 0.147183 
0.118168 0.143622 0.090314 0.106732 0.109881 0.103566 0.0802494 
0.15691 0.134282 0.104512 0.0972523 0.0992799 0.0956427 0.105938 
0.117711 0.1669 0.166673 0.165898 0.101359 0.147427 0.0988196 
0.108429 0.168865 0.147218 0.102184 0.165587 0.0929184 0.1323 
0.148048 0.169869 0.166423 0.156765 0.0940502 0.10819 0.154091 
7 7 -0.637737
0.159301 0.153226 0.121451 0.111589 0.00166315 -0.0783265 -0.0405826 
0.115942 0.16399 0.154614 0.0595181 -0.0162944 -0.0426484 -0.109757 
0.142045 0.141107 0.140702 0.0957599 -0.0237335 -0.0838455 -0.121733 
0.157696 0.145617 0.134529 0.117893 0.0186128 -0.0428686 -0.0828814 
0.113725 0.130523 0.125424 0.127246 -0.0281563 -0.0785039 -0.122666 
0.124721 0.165866 0.116052 0.100375 -0.0481478 -0.0719248 -0.0711411 
0.117146 0.106655 0.13808 0.0424629 0.0129366 -0.0781982 -0.116779 
7 7 0.485963
-0.0492941 -0.00243156 0.139047 0.097448 0.065463 0.109789 0.0416964 
-0.0583039 0.0690109 0.0896839 0.110517 0.204256 0.14513 0.12343 
-0.179762 -0.0429219 0.113561 0.0712063 0.177515 0.185277 0.0625068 
-0.121927 -0.185857 -0.0685478 0.0145959 0.115837 0.14618 0.0654722 
-0.148722 -0.121129 -0.133573 0.0613443 0.11103 0.119158 0.137933 
-0.101137 -0.197655 -0.155898 -0.0939609 0.106361 0.0617309 0.173886 
-0.201717 -0.126958 -0.163084 -0.17401 -0.0104074 0.0663431 0.151216 
7 7 -0.282258
-0.128411 -0.142879 -0.123566 -0.132426 -0.156558 -0.147595 -0.125644 
-0.137502 -0.111384 -0.142173 -0.155041 -0.140703 -0.145575 -0.126472 
-0.119737 -0.148134 -0.158219 -0.123588 -0.137113 -0.15737 -0.150818 
-0.147017 -0.155268 -0.151182 -0.117737 -0.149632 -0.122195 -0.114677 
-0.110832 -0.153953 -0.135245 -0.132296 -0.147835 -0.126334 -0.149734 
-0.139046 -0.129651 -0.124802 -0.132351 -0.147774 -0.125953 -0.149451 
-0.104851 -0.124436 -0.10966 -0.136539 -0.11678 -0.113583 -0.123327 
7 7 -0.347779
-0.129029 -0.145569 -0.12133 -0.13756 -0.133821 -0.153484 -0.147606 
-0.12661 -0.119379 -0.1078 -0.110731 -0.125636 -0.13934 -0.140141 
-0.117456 -0.105189 -0.112574 -0.113516 -0.152381 -0.143506 -0.115892 
-0.11079 -0.109072 -0.119875 -0.139009 -0.134007 -0.143107 -0.128841 
-0.126363 -0.141103 -0.140179 -0.152552 -0.144547 -0.128309 -0.121079 
-0.15015 -0.128458 -0.159114 -0.146857 -0.14993 -0.124677 -0.108826 
-0.135223 -0.128644 -0.142976 -0.125866 -0.148601 -0.107982 -0.152541 
7 7 -0.377574
0.152971 0.144974 0.079402 0.0111169 0.0341321 -0.0680635 -0.0744597 
0.21696 0.219995 0.161765 0.108152 0.0170758 -0.127705 -0.0926761 
0.173538 0.217188 0.181458 0.0508522 -0.00729923 -0.139959 -0.0481113 
0.133487 0.162319 0.129723 0.190809 0.10897 -0.0898511 -0.155338 
0.0840461 0.206257 0.0986619 0.106651 0.0567615 -0.14345 -0.117334 
0.134992 0.169242 0.202484 0.161183 0.0906009 -0.0860727 -0.113887 
0.191908 0.0822844 0.113472 0.0959011 0.0545317 -0.0172606 -0.144336 
7 7 -0.262685
-0.132217 -0.147281 -0.136473 -0.118021 -0.104224 -0.104072 -0.133148 
-0.14545 -0.147114 -0.145854 -0.119937 -0.124688 -0.13346 -0.112652 
-0.156584 -0.158817 -0.120619 -0.151064 -0.157998 -0.138976 -0.101079 
-0.156431 -0.11229 -0.159375 -0.137057 -0.143369 -0.158262 -0.11131 
-0.157839 -0.120586 -0.143039 -0.143398 -0.11342 -0.14822 -0.147112 
-0.140174 -0.15675 -0.11433 -0.127759 -0.124739 -0.11343 -0.133971 
-0.110162 -0.146625 -0.135943 -0.15987 -0.140422 -0.129495 -0.152903 
7 7 0.262983
0.155866 0.10411 0.151741 0.13611 0.149086 0.130628 0.108323 
0.135499 0.162758 0.148549 0.125153 0.125882 0.108818 0.112239 
0.122087 0.1363 0.151223 0.115899 0.141727 0.166354 0.111401 
0.15374 0.148202 0.148117 0.142093 0.169294 0.1506 0.0883238 
0.146921 0.167324 0.132253 0.137814 0.149137 0.154829 0.105579 
0.152435 0.13894 0.112629 0.127545 0.143466 0.115526 0.103482 
0.115173 0.165203 0.134501 0.166079 0.10565 0.112575 0.117553 
7 7 -0.441781
0.132191 0.120022 0.117231 0.140407 0.123121 0.140416 0.11194 
0.140843 0.157472 0.116717 0.127405 0.102868 0.118714 0.126629 
0.136006 0.157957 0.118957 0.153357 0.135894 0.154129 0.110668 
0.10392 0.124033 0.146329 0.142607 0.114576 0.117805 0.115397 
0.0795407 0.14175 0.143527 0.122157 0.124403 0.140781 0.134447 
0.0768324 0.0980402 0.118881 0.135479 0.149679 0.151863 0.125468 
0.0823642 0.0887037 0.13041 0.106444 0.152124 0.101014 0.110392 
7 7 -0.456589
0.0790217 0.099911 0.129361 0.0968769 0.133021 0.0861897 0.0880242 
0.0921684 0.131349 0.0960252 0.100888 0.13469 0.0772859 0.113346 
0.151846 0.102858 0.145435 0.113671 0.149703 0.141235 0.105475 
0.124806 0.123503 0.162124 0.155134 0.138833 0.147523 0.118782 
0.151469 0.14563 0.158395 0.122865 0.126224 0.0988507 0.0961764 
0.126058 0.155122 0.155438 0.151178 0.113704 0.105937 0.119463 
0.107541 0.152986 0.147744 0.125998 0.123307 0.125626 0.0913168 
7 7 0.432242
0.10196 0.121507 0.112543 0.126322 0.129943 0.085832 0.0873964 
0.129483 0.138699 0.142512 0.135336 0.121546 0.119794 0.0882612 
0.109085 0.154277 0.122247 0.111609 0.13507 0.148333 0.130679 
0.144746 0.112798 0.135131 0.144293 0.125098 0.100184 0.120449 
0.131046 0.151955 0.131477 0.112604 0.153965 0.114804 0.142338 
0.144348 0.141482 0.138562 0.12498 0.119027 0.108809 0.123306 
0.113439 0.151468 0.135433 0.143266 0.110305 0.143259 0.104631 
7 7 -0.42181
0.134091 0.14038 0.12866 0.157799 0.114301 0.110627 0.115662 
0.133133 0.131273 0.109166 0.113247 0.145024 0.131565 0.0915707 
0.128171 0.155502 0.163173 0.109019 0.139163 0.132536 0.131315 
0.0945522 0.161627 0.139967 0.109362 0.15043 0.11686 0.141769 
0.0907702 0.120094 0.142933 0.123687 0.11954 0.12379 0.129286 
0.111801 0.102351 0.134599 0.163193 0.128198 0.133928 0.133419 
0.0776488 0.0835705 0.10979 0.146412 0.131814 0.148436 0.104921 
7 7 -0.383596
-0.119108 -0.143139 -0.14268 -0.134132 -0.146639 -0.132919 -0.106478 
-0.1218 -0.119674 -0.124784 -0.134362 -0.122832 -0.129464 -0.0964909 
-0.12636 -0.133053 -0.146469 -0.135551 -0.138621 -0.113271 -0.11182 
-0.124589 -0.140206 -0.14981 -0.148289 -0.126263 -0.11179 -0.122757 
-0.133711 -0.132248 -0.117606 -0.123536 -0.133721 -0.146393 -0.108156 
-0.126552 -0.1259 -0.135656 -0.138055 -0.130897 -0.136021 -0.108584 
-0.146874 -0.131828 -0.127592 -0.144097 -0.141913 -0.141213 -0.126144 
7 7 -0.439896
0.116469 0.142926 0.134261 0.140652 0.116315 0.126903 0.112956 
0.138935 0.135796 0.143387 0.122075 0.144031 0.111218 0.128847 
0.137389 0.144573 0.111246 0.146035 0.137699 0.115418 0.135239 
0.142715 0.136594 0.121707 0.121664 0.137112 0.118502 0.0980853 
0.120126 0.144726 0.126929 0.122798 0.134295 0.116195 0.109367 
0.114725 0.134226 0.132703 0.126272 0.131973 0.103012 0.115718 
0.125786 0.108473 0.119313 0.119747 0.133001 0.103053 0.116327 
7 7 -0.530368
0.122966 0.124885 0.135922 0.140916 0.147762 0.121473 0.117806 
0.118402 0.139761 0.120716 0.153426 0.115286 0.103064 0.11383 
0.145892 0.153323 0.111155 0.151366 0.143687 0.110408 0.116697 
0.121336 0.131085 0.149171 0.113138 0.124003 0.124792 0.0716289 
0.119011 0.146889 0.0984797 0.103381 0.0977054 0.0774677 0.0571795 
0.128666 0.130104 0.137429 0.0962496 0.093395 0.0596185 0.0725905 
0.131443 0.12076 0.140202 0.125113 0.0956146 0.0695693 0.076371 
7 7 0.330566
0.102125 0.123836 0.136111 0.120164 0.150441 0.136888 0.115541 
0.135 0.141694 0.120422 0.132642 0.115659 0.152038 0.103976 
0.110154 0.114949 0.143728 0.137943 0.144171 0.153896 0.109722 
0.12285 0.135075 0.153436 0.140761 0.156202 0.147867 0.148702 
0.139123 0.117388 0.147453 0.130833 0.155713 0.145768 0.10024 
0.121395 0.111643 0.134865 0.146083 0.153421 0.123182 0.122783 
0.143967 0.138313 0.151999 0.107911 0.141813 0.11009 0.134431 
7 7 -0.0299512
-0.127578 -0.145172 -0.110487 -0.166766 -0.122845 -0.0919306 -0.0709764 
-0.145187 -0.173001 -0.118246 -0.163872 -0.134295 -0.101938 -0.10913 
-0.160268 -0.171643 -0.170295 -0.137463 -0.158412 -0.119208 -0.103832 
-0.167691 -0.168816 -0.154912 -0.175411 -0.123613 -0.134218 -0.0805954 
-0.13036 -0.172319 -0.169128 -0.166153 -0.171222 -0.165347 -0.0972307 
-0.163117 -0.118225 -0.113275 -0.175583 -0.148952 -0.16029 -0.0920583 
-0.125931 -0.16688 -0.166335 -0.120551 -0.136262 -0.123535 -0.0855813 
7 7 -0.266395
0.125904 0.112554 0.100469 0.105008 0.17041 0.11285 0.149316 
0.17892 0.184076 0.178136 0.116041 0.138879 0.0936502 0.143252 
0.122425 0.149534 0.136309 0.184964 0.153033 0.0984779 0.10241 
0.128141 0.13662 0.108619 0.140763 0.161481 0.144145 0.148605 
0.106466 0.169812 0.0915516 0.107249 0.0911664 0.139395 0.097143 
0.127623 0.0975311 0.170496 0.115314 0.088602 0.115798 0.0650943 
0.180967 0.165643 0.155196 0.171113 0.155335 0.12606 0.147652 
7 7 -0.311781
0.11741 0.138804 0.118208 0.10502 0.141952 0.110082 0.154557 
0.122523 0.156991 0.160802 0.116809 0.13575 0.141299 0.111715 
0.150073 0.146446 0.143575 0.133602 0.109307 0.159762 0.116474 
0.114047 0.156546 0.145602 0.166502 0.111917 0.149765 0.150847 
0.128485 0.114206 0.131393 0.144037 0.122594 0.154484 0.150698 
0.0922276 0.152846 0.0983618 0.127122 0.159067 0.107035 0.150381 
0.160491 0.151102 0.107686 0.121269 0.109112 0.109871 0.125784 
7 7 -0.298663
0.137613 0.155556 0.155 0.155329 0.110876 0.14107 0.132701 
0.127805 0.144763 0.137193 0.158379 0.142947 0.102379 0.150755 
0.139747 0.146979 0.105914 0.158535 0.133413 0.112278 0.144134 
0.123026 0.109327 0.164884 0.154729 0.130587 0.117175 0.109827 
0.113998 0.120799 0.132568 0.157696 0.127703 0.129597 0.101192 
0.132381 0.147336 0.145512 0.154709 0.135976 0.128997 0.0940581 
0.150642 0.155618 0.138121 0.137297 0.114557 0.0941799 0.128935 
7 7 -0.192521
0.13781 0.140104 0.168049 0.141806 0.16207 0.12158 0.137645 
0.174039 0.138695 0.151319 0.161624 0.172095 0.148357 0.161874 
0.12988 0.142986 0.138225 0.115065 0.175757 0.140252 0.156555 
0.163146 0.0927137 0.146871 0.118816 0.114822 0.0965617 0.144958 
0.126743 0.129238 0.128051 0.112091 0.10358 0.0867169 0.118691 
0.15164 0.147232 0.170713 0.164908 0.0888961 0.101188 0.11478 
0.0899656 0.166702 0.10377 0.155717 0.145044 0.150501 0.139521 
7 7 -0.669307
-0.0877633 0.0191562 0.0190623 0.113961 0.116288 0.0983666 0.0931999 
-0.101578 -0.014997 0.0632829 0.114267 0.0996003 0.110972 0.110036 
-0.12595 -0.100065 -0.0204933 0.100358 0.11296 0.104601 0.147766 
-0.149203 -0.0859717 -0.0517815 0.0610448 0.113693 0.0961118 0.142794 
-0.130527 -0.0847975 -0.0306958 0.0872195 0.125375 0.13514 0.0832383 
-0.143533 -0.144638 -0.100462 0.0113013 0.107879 0.09561 0.156031 
-0.144194 -0.0963576 -0.0957836 -0.0111506 0.116606 0.124773 0.131004 
7 7 0.322786
0.126996 0.0810725 0.103667 0.0891004 0.0843651 0.0551655 0.0453702 
0.147144 0.141124 0.164635 0.0894731 0.132263 0.09633 0.0605028 
0.168373 0.146866 0.163695 0.117162 0.130698 0.116609 0.0877907 
0.153939 0.158793 0.157608 0.128119 0.1476 0.144265 0.09278 
0.15077 0.118501 0.170942 0.154007 0.157379 0.117477 0.157386 
0.155512 0.167346 0.128715 0.175517 0.161188 0.136644 0.100028 
0.106694 0.101594 0.137961 0.175476 0.171972 0.148595 0.120129 
7 7 -0.492766
0.165642 0.129944 0.145075 0.120682 0.0824222 0.0826825 0.135262 
0.159415 0.158297 0.145473 0.108953 0.0838525 0.0850342 0.0593303 
0.174049 0.11548 0.164776 0.145274 0.133799 0.0627509 0.124661 
0.153555 0.143276 0.177598 0.121697 0.14045 0.106907 0.125009 
0.0911397 0.150311 0.093389 0.150551 0.0725585 0.0635264 0.11226 
0.111043 0.107162 0.102306 0.0923404 0.0903774 0.0464456 0.0785463 
0.1042 0.177159 0.149482 0.145414 0.100857 0.0884252 0.101558 
7 7 -0.0937812
-0.146267 -0.155298 -0.121746 0.0458399 0.0791184 0.133115 0.140184 
-0.245555 -0.212247 -0.169914 0.0188409 0.137856 0.127082 0.0609891 
-0.1923 -0.204334 -0.167429 0.0169664 0.0400145 0.16995 0.170095 
-0.22073 -0.206953 -0.111415 -0.113537 0.0666733 0.180756 0.0529478 
-0.173763 -0.146565 -0.216475 -0.100137 0.0688223 0.128216 0.0396603 
-0.241656 -0.12176 -0.139612 0.0025881 0.02992 0.147612 0.0570524 
-0.224212 -0.13184 -0.0804141 -0.130337 0.0281355 0.132065 0.0955795 
7 7 0.365474
-0.143209 -0.118518 -0.145852 -0.118899 -0.134123 -0.130623 -0.137942 
-0.126629 -0.138213 -0.140388 -0.140561 -0.138972 -0.140967 -0.126009 
-0.139611 -0.136887 -0.121352 -0.147427 -0.13811 -0.131173 -0.126991 
-0.141401 -0.120985 -0.120839 -0.139978 -0.126821 -0.127461 -0.128617 
-0.121281 -0.136491 -0.131891 -0.127224 -0.142576 -0.130089 -0.142424 
-0.129136 -0.136853 -0.126013 -0.114014 -0.119414 -0.120092 -0.12573 
-0.132342 -0.130894 -0.118113 -0.124301 -0.137676 -0.117639 -0.133594 
7 7 0.38461
0.0794564 0.103306 0.145783 0.0948084 0.131331 0.155996 0.157989 
0.116574 0.136906 0.0876606 0.142989 0.179902 0.123856 0.148071 
0.165159 0.135481 0.169691 0.134429 0.111163 0.101442 0.150112 
0.133847 0.171251 0.110328 0.173059 0.177806 0.126004 0.0977442 
0.0692249 0.142529 0.160582 0.14294 0.161593 0.122999 0.17702 
0.0716378 0.126999 0.107623 0.133898 0.111853 0.102397 0.15968 
0.0643109 0.0662653 0.0522243 0.0675708 0.0836124 0.110352 0.16114 
7 7 -0.502231
0.129303 0.208097 0.116462 0.0773171 0.104846 0.149006 0.112947 
0.173352 0.207669 0.192365 0.11634 0.175293 0.094589 0.144768 
0.13713 0.209723 0.183007 0.1544 0.0565539 0.0665064 0.0281459 
0.107727 0.20259 0.198026 0.153132 0.117074 0.0908885 0.0694615 
0.126004 0.140603 0.11144 0.0136497 -0.00268789 -0.0177496 0.0251084 
0.0286349 0.0572832 -0.0200196 -0.0978899 -0.120805 -0.0911173 -0.00619601 
0.0221565 -0.00182456 -0.0249238 -0.12497 -0.125919 -0.124225 -0.114091 
7 7 0.269332
-0.158849 -0.148042 -0.144909 -0.142743 -0.154153 -0.137536 -0.114181 
-0.122763 -0.162902 -0.161972 -0.160142 -0.163886 -0.15402 -0.160473 
-0.131278 -0.14762 -0.154419 -0.135538 -0.126826 -0.141267 -0.11682 
-0.143779 -0.111422 -0.138115 -0.12603 -0.111404 -0.123434 -0.131892 
-0.150974 -0.105729 -0.156757 -0.14779 -0.113957 -0.142354 -0.106936 
-0.108908 -0.138276 -0.104856 -0.127856 -0.110871 -0.116061 -0.140862 
-0.108364 -0.143794 -0.147561 -0.126782 -0.146252 -0.101246 -0.135915 
7 7 0.394902
0.118006 0.108626 0.123793 0.123613 0.136286 0.0905253 0.0743768 
0.13559 0.139843 0.135864 0.119215 0.149149 0.122228 0.107866 
0.0974831 0.158233 0.12039 0.108591 0.124958 0.151167 0.139845 
0.12962 0.130212 0.139212 0.115631 0.150189 0.124797 0.111605 
0.143356 0.137953 0.160494 0.160429 0.125354 0.1403 0.115329 
0.136155 0.145006 0.123862 0.14492 0.158425 0.102037 0.135413 
0.123048 0.115366 0.144113 0.125385 0.125072 0.133905 0.109552 
7 7 0.501555
0.125548 0.124803 0.113981 0.123164 0.140511 0.133985 0.117888 
0.131794 0.119454 0.131557 0.136175 0.120504 0.133919 0.116055 
0.128713 0.142635 0.145017 0.113987 0.110794 0.104028 0.130099 
0.144033 0.120082 0.135777 0.127039 0.123477 0.118561 0.122097 
0.130243 0.135126 0.146123 0.106371 0.139032 0.131662 0.134162 
0.0958045 0.105184 0.120033 0.106644 0.109832 0.111867 0.102747 
0.0920047 0.109254 0.100675 0.121859 0.112904 0.105076 0.0783806 
7 7 0.0369034
-0.106994 -0.144394 -0.1579 -0.157905 -0.160272 -0.13097 -0.11753 
-0.147261 -0.124503 -0.158378 -0.155435 -0.11781 -0.15083 -0.145283 
-0.152468 -0.137959 -0.113881 -0.156174 -0.159144 -0.149655 -0.144484 
-0.113843 -0.150788 -0.118528 -0.144082 -0.157507 -0.122369 -0.124565 
-0.158677 -0.113746 -0.156472 -0.11607 -0.116026 -0.148211 -0.140236 
-0.146308 -0.157857 -0.143724 -0.143635 -0.138 -0.121253 -0.15105 
-0.141388 -0.150032 -0.145575 -0.145288 -0.154779 -0.149693 -0.122901 
7 7 -0.313929
-0.117764 -0.140665 -0.124142 -0.10286 -0.107796 -0.141109 -0.1591 
-0.113416 -0.101987 -0.122081 -0.114364 -0.159116 -0.112599 -0.146304 
-0.127236 -0.144662 -0.127067 -0.127 -0.142294 -0.148255 -0.145574 
-0.112626 -0.141092 -0.146964 -0.12865 -0.11325 -0.129468 -0.151699 
-0.113397 -0.138314 -0.138061 -0.155211 -0.113872 -0.154712 -0.111521 
-0.132684 -0.134906 -0.143244 -0.162333 -0.138485 -0.119813 -0.122869 
-0.117536 -0.157217 -0.129546 -0.139542 -0.135596 -0.153169 -0.160437 
7 7 -0.0999375
-0.155532 -0.148999 -0.14455 -0.150798 -0.141464 -0.13249 -0.156599 
-0.127875 -0.120885 -0.129497 -0.146139 -0.164384 -0.109284 -0.131305 
-0.1539 -0.153631 -0.120878 -0.158276 -0.145072 -0.158239 -0.164853 
-0.112816 -0.126114 -0.114147 -0.160348 -0.164068 -0.120738 -0.11566 
-0.116376 -0.129861 -0.136141 -0.142866 -0.133277 -0.126235 -0.1356 
-0.152017 -0.15336 -0.13444 -0.165183 -0.158458 -0.145945 -0.125494 
-0.118665 -0.154495 -0.119485 -0.153446 -0.144415 -0.132279 -0.142942 
7 7 -0.33044
-0.138246 -0.124846 -0.145281 -0.145859 -0.130322 -0.154474 -0.14818 
-0.139774 -0.137344 -0.120155 -0.129221 -0.128931 -0.140837 -0.132817 
-0.147529 -0.13482 -0.146628 -0.138044 -0.145486 -0.130942 -0.137746 
-0.12553 -0.14239 -0.152754 -0.150209 -0.136078 -0.153903 -0.114867 
-0.135318 -0.115058 -0.142365 -0.14187 -0.13355 -0.123467 -0.125472 
-0.105162 -0.126049 -0.132298 -0.143352 -0.113489 -0.112352 -0.129671 
-0.103476 -0.120836 -0.109003 -0.11014 -0.128508 -0.145035 -0.131254 
7 7 0.125418
-0.10547 -0.178674 -0.178186 -0.139479 -0.134927 -0.18483 -0.179896 
-0.15262 -0.135724 -0.148766 -0.0974825 -0.104117 -0.18038 -0.133113 
-0.151334 -0.11772 -0.116757 -0.138751 -0.153804 -0.137865 -0.112134 
-0.177374 -0.101144 -0.13486 -0.151465 -0.118529 -0.160536 -0.189979 
-0.164973 -0.14142 -0.171351 -0.185115 -0.114543 -0.141046 -0.185196 
-0.13713 -0.147938 -0.152084 -0.127688 -0.165164 -0.102553 -0.116302 
-0.0867787 -0.082798 -0.0909018 -0.0694855 -0.0657094 -0.144105 -0.0711655 
7 7 -0.135967
-0.144525 -0.116349 -0.0795435 -0.151517 -0.107483 -0.107841 -0.150533 
-0.0992575 -0.0780854 -0.0945743 -0.136605 -0.154762 -0.149518 -0.169104 
-0.0861729 -0.121716 -0.0920522 -0.144311 -0.112613 -0.172894 -0.11196 
-0.0920727 -0.0977837 -0.143867 -0.133837 -0.171943 -0.171336 -0.137137 
-0.103373 -0.163716 -0.172913 -0.170653 -0.174224 -0.178306 -0.153978 
-0.139414 -0.165853 -0.116693 -0.129249 -0.142792 -0.125555 -0.164175 
-0.173306 -0.145939 -0.173585 -0.119356 -0.168819 -0.160128 -0.141025 
7 7 0.376875
0.153032 0.122545 0.105819 0.115454 0.137335 0.142974 0.154071 
0.128972 0.133065 0.12654 0.128842 0.130471 0.150152 0.110488 
0.116445 0.160272 0.109221 0.109517 0.169908 0.144325 0.097813 
0.162551 0.152998 0.147562 0.125681 0.146274 0.149554 0.161692 
0.14494 0.149776 0.12332 0.159317 0.149662 0.122195 0.110561 
0.0902375 0.112712 0.116884 0.159648 0.148839 0.0847262 0.12769 
0.0936052 0.145055 0.0916927 0.099647 0.0729004 0.10086 0.103178 
7 7 0.403277
0.122832 0.115491 0.137891 0.113128 0.137061 0.133878 0.132602 
0.139974 0.114123 0.148444 0.147241 0.118527 0.142187 0.128651 
0.115275 0.107576 0.111318 0.135566 0.119602 0.12721 0.110644 
0.123674 0.12007 0.121998 0.136788 0.142288 0.114044 0.141769 
0.140533 0.14507 0.141608 0.140506 0.149656 0.126421 0.124186 
0.138846 0.12811 0.118388 0.138094 0.149911 0.140066 0.108549 
0.10491 0.12836 0.125227 0.113172 0.130791 0.132553 0.113937 
7 7 -0.594181
-0.16747 -0.163776 -0.0767938 -0.0141183 0.0363799 0.0656518 0.0783985 
-0.15179 -0.152898 -0.109078 -0.0340233 0.00299947 0.0542479 0.0580156 
-0.166152 -0.129885 -0.156849 -0.09625 0.0120603 0.0501481 0.0870737 
-0.12494 -0.161689 -0.173631 -0.142224 -0.0424206 0.0352375 0.0791706 
-0.141633 -0.157863 -0.124151 -0.138087 -0.0696387 0.0536608 0.0301046 
-0.174842 -0.154447 -0.125852 -0.161984 -0.055098 0.0314927 0.0398819 
-0.135259 -0.156495 -0.151586 -0.160771 -0.11999 -0.00518288 0.0462283 
7 7 -0.0909337
-0.146825 -0.0963525 -0.142408 -0.123945 -0.117514 -0.164944 -0.150074 
-0.157022 -0.0993308 -0.138941 -0.115647 -0.139278 -0.151892 -0.15375 
-0.112221 -0.130753 -0.104163 -0.108295 -0.172448 -0.154769 -0.15653 
-0.099293 -0.119707 -0.123974 -0.155136 -0.123595 -0.153426 -0.137421 
-0.134479 -0.152775 -0.151508 -0.136394 -0.165228 -0.150544 -0.121848 
-0.156966 -0.126508 -0.161983 -0.16731 -0.133492 -0.163252 -0.132038 
-0.1451 -0.169646 -0.11862 -0.155044 -0.151619 -0.135499 -0.150827 
7 7 0.374108
-0.118608 -0.114167 -0.12548 -0.141075 -0.14237 -0.139971 -0.127606 
-0.121864 -0.137714 -0.114269 -0.119471 -0.140915 -0.139799 -0.135573 
-0.139851 -0.123556 -0.128469 -0.136075 -0.147667 -0.125498 -0.140341 
-0.120374 -0.143817 -0.119222 -0.116295 -0.131268 -0.143703 -0.1268 
-0.131948 -0.132204 -0.14175 -0.119511 -0.130332 -0.141169 -0.125408 
-0.117148 -0.129672 -0.119924 -0.125682 -0.137854 -0.142166 -0.137358 
-0.134935 -0.130146 -0.118751 -0.1314 -0.135851 -0.137548 -0.116885 
7 7 0.0615435
-0.193018 -0.198421 -0.190294 -0.184812 -0.155201 -0.145751 -0.165016 
-0.192996 -0.173576 -0.1534 -0.108958 -0.191463 -0.197225 -0.146709 
-0.176484 -0.157546 -0.133928 -0.175731 -0.147139 -0.170989 -0.157899 
-0.129547 -0.117104 -0.108107 -0.104215 -0.156468 -0.0915648 -0.131177 
-0.14869 -0.0871695 -0.134936 -0.121445 -0.109516 -0.164023 -0.175802 
-0.0640576 -0.116502 -0.10225 -0.124642 -0.136044 -0.0842315 -0.0994414 
-0.0789064 -0.0403936 -0.0519901 -0.134445 -0.156381 -0.0535526 -0.0741095 
7 7 -0.343443
-0.11836 -0.132045 -0.124669 -0.101736 -0.103768 -0.141536 -0.141942 
-0.148354 -0.15267 -0.135717 -0.124459 -0.105638 -0.126935 -0.117243 
-0.114303 -0.112209 -0.117291 -0.137139 -0.138058 -0.112098 -0.146055 
-0.142285 -0.132124 -0.11813 -0.117245 -0.15264 -0.149046 -0.132811 
-0.115319 -0.150593 -0.154856 -0.135666 -0.150915 -0.153086 -0.115503 
-0.149583 -0.121964 -0.159132 -0.138153 -0.11921 -0.142704 -0.122572 
-0.120777 -0.155536 -0.151708 -0.1103 -0.147751 -0.120994 -0.119085 
7 7 0.428796
0.103115 0.147909 0.140319 0.136954 0.135354 0.112293 0.125845 
0.1423 0.120784 0.151753 0.127788 0.131339 0.136067 0.124237 
0.134995 0.110981 0.13606 0.122313 0.149856 0.107931 0.0994693 
0.10915 0.126319 0.100283 0.119635 0.118404 0.099857 0.123676 
0.135877 0.11249 0.148989 0.100501 0.110376 0.105964 0.11597 
0.135171 0.152581 0.120167 0.12994 0.126964 0.141843 0.136553 
0.14579 0.120991 0.120815 0.136003 0.14728 0.13307 0.130587 
7 7 0.0221688
-0.155463 -0.171672 -0.178354 -0.167477 -0.133923 -0.104973 -0.0869002 
-0.11084 -0.12817 -0.110199 -0.127217 -0.141387 -0.12673 -0.0727471 
-0.169422 -0.117188 -0.166034 -0.109343 -0.139332 -0.0953689 -0.0792597 
-0.16129 -0.112441 -0.139545 -0.157837 -0.155249 -0.165595 -0.0915865 
-0.134275 -0.149563 -0.149785 -0.141093 -0.181012 -0.118786 -0.126921 
-0.130963 -0.119243 -0.113668 -0.171792 -0.149096 -0.176986 -0.159638 
-0.178897 -0.157441 -0.157563 -0.148401 -0.174293 -0.115518 -0.159634 
7 7 0.427234
0.13434 0.140777 0.137813 0.130573 0.141906 0.131658 0.103282 
0.132562 0.122507 0.106973 0.139913 0.126781 0.146595 0.13965 
0.113093 0.141307 0.120554 0.11016 0.13826 0.148793 0.122003 
0.114369 0.129475 0.12428 0.13955 0.133278 0.145257 0.130096 
0.11888 0.139244 0.12632 0.113474 0.142037 0.130858 0.127574 
0.135169 0.130439 0.105577 0.130835 0.116721 0.10485 0.12553 
0.130679 0.136526 0.128075 0.103995 0.119561 0.100151 0.107386 
7 7 -0.559987
-0.0144664 -0.0215339 -0.113158 -0.177018 -0.120634 -0.174013 -0.150133 
0.0193673 0.00605295 -0.0837503 -0.157115 -0.150915 -0.108754 -0.180096 
0.0240129 -0.0119552 -0.0475245 -0.1554 -0.155707 -0.186448 -0.133666 
0.00694647 -0.00718003 -0.08584 -0.13882 -0.152309 -0.156649 -0.186423 
-0.0121003 -0.0227694 -0.066337 -0.095681 -0.171979 -0.11826 -0.118625 
0.00953056 -0.00950096 -0.0555224 -0.142309 -0.171997 -0.13535 -0.172007 
0.0288829 0.00783097 -0.028011 -0.107266 -0.147768 -0.115701 -0.143463 
7 7 0.369667
0.233327 0.234435 0.230687 0.20648 0.0497133 -0.0653494 0.027135 
0.147947 0.144961 0.219425 0.0730476 0.0492925 -0.0532664 -0.0380358 
0.157994 0.15088 0.183252 0.14801 -0.00262729 -0.112911 -0.0936778 
0.155103 0.0669462 0.126198 0.0953162 -0.13505 -0.127753 -0.0339704 
0.135131 0.0415016 0.119106 -0.0834273 -0.152464 -0.0984434 -0.130723 
0.032278 0.102815 0.0718109 -0.130306 -0.213503 -0.126541 -0.181121 
0.00481994 0.0145996 -0.0684266 -0.0920773 -0.18963 -0.113828 -0.178578 
7 7 -0.372537
-0.080739 -0.193298 -0.12368 -0.187809 -0.208192 -0.238359 -0.195519 
-0.213684 -0.100089 -0.218506 -0.187425 -0.186513 -0.182677 -0.178767 
-0.0717762 -0.178643 -0.178681 -0.201803 -0.204574 -0.150645 -0.141755 
-0.132393 -0.0570179 -0.0704911 -0.124134 -0.155144 -0.166627 -0.0693419 
-0.114722 -0.0633058 -0.0350143 0.0247677 0.0264302 -0.0696925 -0.0533674 
0.0228843 -0.036366 0.0202421 -0.04395 0.01433 -0.0371788 -0.00531157 
-0.00567126 0.0844193 0.103938 0.101373 0.0685297 0.0936952 0.0512551 
7 7 -0.45875
-0.063147 -0.0644888 -0.065742 -0.0903704 -0.0628561 -0.0929657 -0.0646832 
-0.0666236 -0.0370169 -0.0964049 -0.0560741 -0.0878768 -0.100658 -0.125519 
-0.0527384 -0.0648281 -0.105255 -0.128106 -0.148393 -0.13586 -0.106974 
-0.0907426 -0.0806978 -0.149174 -0.104577 -0.102711 -0.1591 -0.144771 
-0.160574 -0.145214 -0.162698 -0.14695 -0.175266 -0.17129 -0.12649 
-0.147948 -0.172913 -0.135986 -0.174021 -0.139665 -0.155122 -0.139267 
-0.164105 -0.137863 -0.136929 -0.108409 -0.167444 -0.159803 -0.15682 
7 7 -0.309523
-0.122185 -0.123476 -0.148442 -0.118375 -0.147787 -0.131068 -0.121112 
-0.131016 -0.144375 -0.143302 -0.133104 -0.133692 -0.142582 -0.141208 
-0.128282 -0.135144 -0.119582 -0.125294 -0.139122 -0.121641 -0.135562 
-0.142601 -0.14169 -0.149542 -0.121805 -0.143738 -0.141332 -0.13908 
-0.128373 -0.146561 -0.126239 -0.139958 -0.148021 -0.122693 -0.137464 
-0.113094 -0.127358 -0.128157 -0.146375 -0.138968 -0.122001 -0.144869 
-0.135299 -0.134515 -0.128778 -0.126883 -0.14324 -0.139263 -0.121083 
7 7 0.224302
0.215609 0.216799 0.15277 0.167251 0.203519 0.162907 0.111459 
0.186602 0.159171 0.108206 0.195579 0.20945 0.0941715 0.0949426 
0.148226 0.20639 0.106792 0.206758 0.188369 0.0406966 0.086539 
0.0964665 0.171327 0.182385 0.191 0.141219 0.040988 0.0406492 
0.1262 0.121134 0.157805 0.0939264 0.0909274 0.0188966 0.000202967 
0.161993 0.101844 0.0691999 0.151691 0.0697382 -0.0142764 0.0396282 
0.19953 0.122371 0.140092 0.0891954 0.0734521 0.0358219 0.0675575 
7 7 -0.397364
-0.141595 -0.120265 -0.117199 -0.146835 -0.11387 -0.113906 -0.130579 
-0.122833 -0.147658 -0.140563 -0.142223 -0.142502 -0.121058 -0.138126 
-0.11967 -0.117083 -0.13711 -0.122678 -0.13526 -0.131418 -0.121614 
-0.139664 -0.13327 -0.119443 -0.147943 -0.144289 -0.107711 -0.105004 
-0.142752 -0.131833 -0.140768 -0.122518 -0.143476 -0.117824 -0.110255 
-0.133746 -0.134678 -0.146591 -0.128511 -0.111622 -0.127199 -0.130106 
-0.114744 -0.125078 -0.141052 -0.136101 -0.125071 -0.107838 -0.126394 
7 7 0.405416
-0.1203 -0.148215 -0.137196 -0.110478 -0.11689 -0.0875001 -0.108887 
-0.135112 -0.128116 -0.128851 -0.114285 -0.104468 -0.0863689 -0.122365 
-0.145756 -0.125623 -0.122902 -0.152005 -0.115911 -0.124 -0.0944648 
-0.136253 -0.132649 -0.145097 -0.142063 -0.147986 -0.107362 -0.109657 
-0.133223 -0.152749 -0.150476 -0.14708 -0.132147 -0.104697 -0.106091 
-0.114832 -0.153523 -0.135694 -0.136569 -0.132987 -0.152825 -0.137175 
-0.116089 -0.138587 -0.117142 -0.149759 -0.13028 -0.127292 -0.144136 
7 7 0.544556
-0.119356 -0.166588 -0.0268523 0.0439105 0.0115431 0.0401321 0.0867493 
-0.190321 -0.17711 -0.0527599 0.0186891 0.0688825 0.0675866 0.119381 
-0.20122 -0.127775 -0.126682 -0.0684018 -0.00620451 0.105817 0.111362 
-0.138431 -0.118355 -0.168053 -0.0723297 0.0446104 0.101177 0.0551578 
-0.194544 -0.146101 -0.162243 -0.0859811 -0.0331275 0.0202336 0.0564934 
-0.201556 -0.143447 -0.189012 -0.157559 -0.102366 -0.0513657 0.00832331 
-0.174796 -0.160307 -0.139286 -0.144194 -0.146111 -0.0425573 0.00348844 
7 7 -0.487031
0.117467 0.122627 0.115136 0.107802 0.135873 0.11536 0.107512 
0.137167 0.101667 0.11315 0.145987 0.128904 0.130547 0.134622 
0.127545 0.106188 0.122629 0.109389 0.11371 0.142401 0.113491 
0.139319 0.129839 0.132184 0.139216 0.111753 0.133634 0.132904 
0.121502 0.129652 0.135235 0.131007 0.132102 0.117391 0.133131 
0.0818303 0.0879767 0.120407 0.139076 0.137134 0.139188 0.143063 
0.0963203 0.10301 0.0945786 0.11358 0.141827 0.104624 0.115097 
7 7 -0.218384
-0.0837075 -0.00296275 0.118058 0.0887492 0.201612 0.207207 0.0788415 
-0.0671654 -0.089429 0.014286 0.168176 0.215776 0.149852 0.135599 
-0.114936 -0.120732 -0.0250204 0.152653 0.20824 0.225191 0.224681 
-0.038828 -0.139717 0.0411565 0.0717621 0.153424 0.209389 0.178606 
-0.11961 -0.126493 0.0251223 0.157573 0.185319 0.158891 0.127091 
-0.0320049 -0.0999796 -0.0257659 0.109416 0.167943 0.156237 0.133184 
-0.144152 -0.101434 -0.0822901 0.113722 0.176647 0.141975 0.184942 
7 7 0.146584
0.150646 0.125337 0.135229 0.104073 0.114044 0.166451 0.12582 
0.145726 0.164263 0.107687 0.114593 0.12528 0.15735 0.104879 
0.119112 0.138241 0.123128 0.165783 0.120923 0.152476 0.159463 
0.146313 0.147442 0.132692 0.119423 0.165909 0.161497 0.104569 
0.151405 0.161882 0.106986 0.166663 0.156208 0.123752 0.159205 
0.152481 0.16143 0.149778 0.132501 0.10963 0.165065 0.0998671 
0.145284 0.143083 0.11454 0.1566 0.144678 0.146968 0.132446 
7 7 -0.146669
0.109284 0.14137 0.151605 0.165141 0.102211 0.160564 0.177976 
0.0978916 0.16741 0.111657 0.096597 0.122889 0.14546 0.118503 
0.14852 0.102838 0.146934 0.155538 0.130735 0.178971 0.178021 
0.0622868 0.0792669 0.188614 0.146644 0.190619 0.19158 0.114972 
0.0829859 0.125321 0.128037 0.178518 0.153348 0.147234 0.178742 
0.0566976 0.100968 0.172947 0.134014 0.13803 0.147553 0.117632 
0.0768438 0.154272 0.170412 0.178687 0.109774 0.0999373 0.0965022 
7 7 -0.239901
-0.102542 -0.107872 -0.11106 -0.128659 -0.133747 -0.135072 -0.149409 
-0.128882 -0.135584 -0.140768 -0.149393 -0.122645 -0.12405 -0.14912 
-0.119448 -0.141395 -0.15213 -0.148011 -0.11726 -0.15586 -0.142366 
-0.138385 -0.144963 -0.153894 -0.149217 -0.150469 -0.121444 -0.137443 
-0.133847 -0.11643 -0.146981 -0.137903 -0.118959 -0.134559 -0.11824 
-0.150268 -0.142916 -0.137598 -0.135868 -0.1543 -0.142682 -0.149303 
-0.152442 -0.150261 -0.123805 -0.151377 -0.124054 -0.13423 -0.143144 
7 7 0.483855
-0.0407065 -0.056648 -0.111327 -0.149455 -0.125517 -0.160409 -0.154933 
-0.0479149 -0.081248 -0.141818 -0.141492 -0.143496 -0.115555 -0.124136 
-0.0726429 -0.0804689 -0.146153 -0.133226 -0.132768 -0.146294 -0.143489 
-0.0402086 -0.0672484 -0.146455 -0.157485 -0.142409 -0.138591 -0.148201 
-0.0736305 -0.060169 -0.124181 -0.142509 -0.151403 -0.16208 -0.161321 
-0.040749 -0.0727736 -0.105332 -0.126517 -0.11863 -0.158302 -0.123572 
-0.04365 -0.0604266 -0.125152 -0.143206 -0.154175 -0.143989 -0.153013 
256
5 5 3.6567e-008
-2.06945e-008 -6.44627e-010 0.00272384 0.0298674 0.0679065 
0.000654588 -5.78389e-009 -1.3496e-008 9.97352e-009 0.0100708 
0.0683674 0.00522762 1.42149e-008 1.45348e-008 0.00726519 
0.295549 0.157624 0.00810343 -2.11582e-008 0.00834842 
0.560213 0.247129 0.00984493 0.00686385 0.0474131 
5 5 2.71986e-007
0.0792775 0.0311916 -1.07223e-008 -6.38369e-009 0.0183451 
0.023931 0.0133213 0.00459357 -1.87987e-008 0.00818879 
0.00538995 -5.8409e-009 0.00460652 0.0395746 0.111285 
1.08301e-008 4.08358e-009 1.05021e-006 0.203933 0.502537 
-2.42159e-009 1.8395e-008 0.0323484 0.251049 0.345488 
5 5 7.8929e-008
0.51967 0.129745 0.00364977 2.07253e-008 0.0082743 
0.328753 0.126085 2.46793e-008 2.3594e-009 -1.11806e-008 
0.0568027 0.0370884 0.00593018 0.00976653 0.0213181 
0.00207007 1.07818e-005 0.00595514 0.033148 0.0583306 
0.0062197 -2.4839e-008 0.0418415 0.141106 0.240048 
5 5 3.27518e-007
0.0789399 0.0311144 -2.13484e-008 -3.32946e-008 0.0183518 
0.0239399 0.0132998 0.00459955 2.00584e-008 0.00818923 
0.0055612 2.31276e-005 0.00460606 0.0395769 0.111291 
0.000115386 5.80196e-009 2.31842e-006 0.203948 0.502566 
1.62913e-008 -7.36866e-009 0.0323523 0.251057 0.34551 
5 5 -7.64205e-008
0.00375753 0.0032764 6.39373e-005 0.0135624 0.0649036 
0.0798715 0.0058054 4.68539e-009 1.09702e-008 0.0192785 
0.333173 0.118381 -3.58042e-009 -1.42396e-008 0.0149081 
0.526464 0.143501 0.00572336 1.37218e-009 0.0274516 
0.232235 0.058277 0.0110299 0.0227535 0.083913 
5 5 1.65941e-007
-2.10083e-008 -1.15758e-008 0.00275421 0.0207401 0.0743817 
0.00345368 0.000445714 1.05388e-006 -1.62703e-008 0.0112788 
0.147612 0.0209127 1.64955e-007 1.17057e-006 0.014255 
0.38913 0.138269 0.00548354 -1.31816e-008 0.0166965 
0.50741 0.195122 0.0153086 0.0122744 0.0684714 
5 5 3.57061e-007
-1.29124e-008 5.06375e-007 0.00333469 0.175773 0.26589 
0.000193825 2.16058e-006 7.98836e-009 0.19243 0.51484 
0.0100252 1.55203e-005 -2.27954e-008 0.0333572 0.173805 
0.0623048 0.0303633 0.00631178 0.000773167 0.0316037 
0.21051 0.105852 0.0190467 0.0141987 0.0543788 
5 5 2.25312e-007
0.00419314 0.00333923 3.87085e-007 0.0134982 0.0551858 
0.0798684 0.00580315 5.87523e-006 -7.993e-009 0.00745142 
0.333203 0.118548 1.14552e-008 1.4465e-008 0.0241005 
0.526621 0.143556 1.55406e-007 1.38774e-006 0.0366696 
0.232344 0.0523472 -1.983e-008 0.0227635 0.089956 
5 5 2.94125e-007
0.0836011 0.119135 0.0822798 0.0408322 0.0270461 
0.0239978 0.0130331 3.28625e-006 5.29628e-005 0.0495063 
0.0350437 0.0121876 1.26303e-007 -5.80218e-010 0.0271326 
0.276209 0.163127 1.03098e-008 8.4882e-005 0.0267784 
0.555081 0.226836 0.0113306 -4.6423e-009 0.031978 
5 5 -2.72529e-007
0.153627 0.100056 0.0378719 0.00892196 0.00447556 
0.0242582 0.0129988 -1.17061e-008 7.13189e-010 -8.94422e-010 
0.0349011 0.0121493 1.22073e-007 -9.17876e-009 0.0271147 
0.274432 0.161838 1.06888e-007 5.04904e-005 0.0541728 
0.55129 0.224955 0.0111448 -8.16318e-009 0.0539149 
5 5 -2.55036e-007
0.147892 0.0865525 0.0268496 0.00848022 -6.11858e-009 
0.156801 0.0430591 1.40742e-007 -5.6156e-009 0.0261579 
0.360379 0.0990386 -1.82461e-008 -2.03965e-008 0.0260788 
0.502147 0.0918574 1.57147e-007 8.6823e-005 0.0260622 
0.193284 0.0240769 0.0003022 0.00253259 0.0560691 
5 5 -5.41932e-008
0.0834391 0.118929 0.0821334 0.0407571 0.00501351 
0.0239682 0.0130925 1.30589e-007 4.86172e-005 0.0267948 
0.036316 0.0121697 8.20737e-012 -1.7268e-008 0.0534834 
0.27727 0.161742 -1.89043e-008 4.8042e-005 0.0536611 
0.554198 0.22533 0.0113209 1.02029e-009 0.0267156 
5 5 2.44209e-008
0.198474 0.00628367 0.0277138 -1.42621e-010 0.00596863 
0.407406 0.0422955 0.0169849 -1.38369e-009 -1.81461e-009 
0.506474 0.0282304 0.00692421 -4.58158e-010 -1.82991e-009 
0.183268 0.0184123 0.00250706 -7.05963e-013 -1.30683e-009 
0.0156332 0.0130406 0.000588335 -4.45159e-010 -8.73339e-010 
5 5 -4.6328e-008
0.54056 0.0342101 0.0164989 2.46661e-009 -1.66245e-009 
0.412659 0.0342988 -3.49805e-009 -1.21406e-009 0.00939817 
0.181014 0.0203198 0.00714087 4.32174e-010 0.0187851 
0.0157684 0.0129845 0.0152078 -3.37368e-009 0.0187858 
0.000127351 2.42265e-009 0.0112807 -1.17622e-009 0.00939906 
5 5 2.31979e-008
0.540064 0.0341404 0.0165028 -1.5633e-009 1.96143e-009 
0.412207 0.0342305 -3.07714e-009 1.17585e-009 2.34098e-008 
0.180766 0.0203027 -9.46555e-010 3.40639e-009 0.0164233 
0.0157106 0.0129943 1.29483e-009 -1.43293e-010 0.0337473 
0.000104822 2.41733e-009 -1.22354e-009 1.7766e-009 0.0298889 
5 5 2.09202e-008
0.198157 0.0113957 0.0168722 -4.01039e-010 0.000582991 
0.406831 0.0473607 0.00425096 -1.05513e-009 -8.07778e-010 
0.505779 0.0281831 1.99301e-010 -1.12548e-009 0.0118118 
0.182906 0.0183805 -1.81378e-010 -1.01837e-009 0.0279499 
0.0155455 0.0130339 -9.29285e-010 -9.13324e-010 0.0285532 
5 5 2.1014e-008
0.0594834 0.0183958 0.00264732 0.00264773 2.84736e-007 
0.102975 0.104109 3.57016e-007 1.1083e-006 8.45393e-007 
0.127398 0.316631 8.45192e-005 0.000226829 0.0129062 
0.0407594 0.53425 0.0518666 0.012134 0.0264085 
0.0103386 0.190603 0.154693 0.0628651 0.0554742 
5 5 6.74249e-008
2.9718e-010 0.0128722 0.0311174 0.0424083 0.0236643 
0.000431837 0.00271991 0.0280868 0.0503243 0.0272789 
0.00222117 0.00450569 0.0186049 0.167656 0.13667 
0.00265092 0.00221551 0.00767023 0.147657 0.359799 
1.8163e-009 0.000430108 0.0123784 0.0769579 0.536536 
5 5 6.81887e-008
1.93045e-009 0.0182358 0.0392632 0.0396026 0.0182493 
2.04901e-009 0.000504209 0.0260551 0.0382414 0.0158814 
0.00197264 0.000504208 0.018473 0.174873 0.0392209 
0.00439265 0.00219509 0.00764618 0.21129 0.246017 
0.002422 0.00261943 0.0123308 0.0883804 0.590034 
5 5 -5.04386e-008
0.00254286 0.0182692 0.0368401 0.0397316 0.018283 
-1.46484e-009 0.00231436 0.0522392 0.0334769 0.0158915 
-6.28332e-011 0.00231436 0.0385819 0.284477 0.07241 
0.00265664 0.00222842 0.00775441 0.257012 0.285974 
0.00265868 0.00265986 0.0125847 0.0699644 0.501639 
5 5 4.02872e-007
0.0602689 0.0364647 0.0165661 0.00279022 0.0143711 
0.0223848 0.0127221 4.90623e-007 0.00957481 0.0076246 
0.000499403 4.38471e-006 0.0248446 0.129175 0.0494433 
0.00513407 4.43784e-006 0.132558 0.504323 0.192615 
0.00517305 1.67815e-007 0.0538847 0.316499 0.248688 
5 5 -3.53159e-007
0.0225319 0.0140689 0.00316008 0.0141772 0.0369898 
0.0511909 0.0159777 -3.13549e-009 0.0263271 0.107045 
0.0878009 0.0184127 -2.5512e-009 0.144936 0.500627 
0.0141346 2.40425e-009 -1.32698e-008 0.150804 0.361195 
0.0044414 0.00443947 0.0215324 0.0773497 0.207645 
5 5 -9.5283e-008
0.0663714 0.0368641 0.0135052 0.0029712 0.0144228 
0.0221862 0.0128943 8.73597e-005 0.000795173 0.0304174 
0.00498995 2.81479e-006 3.86435e-005 0.0276737 0.163113 
0.000486452 -1.05838e-008 1.59331e-006 0.181187 0.517479 
7.88786e-009 -1.1942e-008 0.0240132 0.206385 0.347952 
5 5 -3.70521e-007
0.000304375 0.000111322 0.0143343 0.0347102 0.11506 
0.00250908 2.94319e-006 1.59908e-009 0.11094 0.291873 
0.00500375 2.88907e-006 8.83345e-009 0.150902 0.521121 
0.0506542 0.0203388 1.51393e-007 0.0525266 0.241499 
0.128538 0.0490468 -1.92756e-008 0.0202677 0.100424 
5 5 -2.53244e-007
0.279514 0.150108 0.0229631 3.24621e-008 0.011421 
0.540587 0.178322 -1.73506e-008 2.04377e-008 0.0146955 
0.142615 0.0466317 0.0185184 1.20405e-005 0.0327234 
0.0127455 0.0227218 0.0411609 1.17291e-008 0.00320622 
0.0296297 0.100622 0.181602 0.0589906 0.0256972 
5 5 -4.69537e-007
0.457933 0.155108 0.0229747 2.03708e-008 0.0195733 
0.392815 0.152401 2.93874e-008 -5.70758e-008 0.0113447 
0.129852 0.0471544 0.00576827 3.63226e-007 0.0210302 
0.0164319 -2.22859e-008 0.00577716 -7.92248e-009 0.0615488 
0.0392313 0.0120331 0.0111624 0.103722 0.226827 
5 5 -4.04532e-007
0.121508 0.0588253 0.0197483 0.00330086 0.0353904 
0.481734 0.135315 -1.14013e-008 -1.52537e-008 0.024018 
0.379003 0.186831 2.00005e-007 -2.66699e-008 0.0111971 
0.160876 0.0818449 0.0250699 1.90276e-007 0.00809544 
0.0603042 0.0788041 0.0784867 0.0236717 0.0255295 
5 5 -1.50422e-007
0.278107 0.148817 0.0227474 0.000110094 0.00825195 
0.537589 0.177339 5.89964e-006 1.12207e-005 0.019912 
0.156425 0.0525944 -5.39634e-009 0.0127606 0.00330437 
0.0184218 0.00582491 0.00560581 0.0447836 0.0338569 
0.0127389 -4.37284e-008 0.0269231 0.180739 0.120653 
5 5 -4.56578e-008
0.516588 0.0792364 0.0127662 2.60548e-010 -6.49382e-011 
0.427913 0.0578956 4.73425e-008 -8.46286e-010 -7.28007e-009 
0.174239 0.0528148 4.75607e-008 3.30632e-009 0.0256809 
0.0181488 0.0110234 -4.00811e-009 0.00561797 0.0519577 
7.70484e-005 0.0132606 4.77256e-009 0.00562446 0.0551047 
5 5 6.89007e-008
0.0213486 0.0096974 0.013254 0.0393879 0.104433 
0.186805 0.0315991 -2.98512e-009 0.00970779 0.0641292 
0.393439 0.0366967 3.36533e-010 -1.61805e-009 0.0306267 
0.50579 0.0342032 -3.8761e-010 2.25922e-009 0.00364959 
0.17382 0.0491596 -1.46189e-009 -2.62563e-009 -1.0669e-009 
5 5 8.25991e-008
0.5163 0.0791974 0.0127624 -7.55817e-009 6.40386e-006 
0.427665 0.0578644 -4.3517e-011 6.2016e-008 -5.02152e-009 
0.174119 0.0527959 1.01338e-007 -2.86072e-010 0.0262592 
0.018162 0.0110208 4.78356e-009 -7.23702e-009 0.0549863 
0.000101413 0.0132474 -1.85799e-009 6.01011e-006 0.0575283 
5 5 -6.94999e-008
0.23663 0.0667986 0.0131011 2.46244e-008 0.0257218 
0.515184 0.0303353 -2.16653e-009 1.5673e-009 0.0519653 
0.371621 0.0430685 -4.08007e-010 -2.01383e-009 0.0524803 
0.153779 0.0478563 -2.70747e-009 -7.31583e-010 0.0296947 
0.00266074 0.0111989 -1.19125e-009 -1.90118e-010 0.00345799 
5 5 5.38487e-007
0.279346 0.193452 0.00506339 4.5036e-006 0.00815813 
0.513966 0.233947 0.0161647 -2.96916e-008 -1.68371e-008 
0.154156 0.0265231 -1.96128e-008 2.35722e-007 0.0130426 
0.0204721 0.0113879 0.0515716 0.00965909 0.0308403 
0.00611547 0.0458801 0.16097 0.0647782 0.0644615 
5 5 2.76659e-007
0.000135536 -5.10517e-009 0.00409025 0.168196 0.264281 
-1.41714e-008 5.16376e-009 4.40306e-006 0.197012 0.514006 
0.00662717 6.10646e-010 0.0130065 0.0366632 0.164568 
0.0661492 0.0154522 0.0130283 5.79639e-005 0.0264814 
0.228969 0.100981 0.0159424 0.0072602 0.0421491 
5 5 5.02173e-007
1.21782e-005 -2.37655e-008 0.00438417 0.216448 0.523935 
-1.95273e-008 1.98634e-006 0.000309234 0.188742 0.249339 
0.00696693 4.15185e-007 0.012971 0.0073822 0.00813218 
0.0793031 0.0366001 0.0129972 3.90752e-007 0.0128905 
0.237532 0.106409 0.00994378 0.0157402 0.0666134 
5 5 -4.11537e-007
0.328198 0.121728 2.67167e-005 0.00461532 0.0581172 
0.523395 0.137168 2.39138e-005 6.69585e-006 0.0360238 
0.212091 0.0430144 0.00580333 4.58002e-005 0.0259309 
0.026478 0.0114801 0.0518837 -1.15939e-008 0.0131449 
0.0161505 0.067213 0.149628 0.0367927 0.016023 
5 5 6.10777e-007
0.187308 0.10437 0.0296178 0.00835787 0.00886342 
0.0195025 -2.29398e-008 -1.0279e-007 5.49577e-005 0.000279137 
0.0144807 -6.97253e-008 -4.63138e-008 0.000247746 0.0298051 
0.207398 0.236786 0.0170055 1.03057e-005 0.0547056 
0.276504 0.506475 0.113503 0.000937839 0.0574447 
5 5 -1.31093e-006
0.206083 0.106465 0.0309337 0.0090564 0.00853869 
0.0275252 3.95593e-006 3.05403e-009 5.6701e-005 5.50497e-005 
0.00690218 0.00074822 2.92479e-008 5.62964e-005 0.0273459 
0.0539767 0.240542 0.162943 8.07409e-009 0.0545444 
0.145369 0.519792 0.242132 0.0030352 0.0572434 
5 5 -2.21189e-006
0.200243 0.108736 0.0296317 0.0083709 0.00837089 
0.0279633 -4.6111e-008 8.71702e-008 1.15e-007 1.02205e-008 
0.00616079 0.00023082 -6.37483e-008 -1.37585e-007 0.0269357 
0.188208 0.22659 0.0173572 6.0189e-005 0.0560105 
0.269932 0.513343 0.119263 0.00754544 0.0681688 
5 5 -9.49618e-007
0.176935 0.0999337 0.0296843 0.00881857 0.0310524 
0.0129436 3.17653e-008 1.50009e-008 0.000214651 0.0511901 
0.0142381 -1.9642e-008 -2.78727e-008 0.000129388 0.027645 
0.268122 0.174783 0.00381731 2.46785e-008 0.026842 
0.528732 0.262728 0.0100549 0.00259589 0.0341257 
5 5 -4.02756e-008
0.11927 0.118121 0.0626762 0.0154827 0.0301204 
-3.05831e-009 1.00393e-007 -7.3381e-009 -2.36745e-009 0.021914 
0.118362 0.00273224 1.95684e-007 4.19413e-005 -1.58853e-008 
0.373875 0.0652511 8.90696e-008 8.86451e-005 0.0264121 
0.535855 0.132376 0.00247939 0.000545301 0.053298 
5 5 -1.48748e-007
0.152211 0.112388 0.0427342 0.00864493 0.0305761 
-3.04422e-009 -1.10676e-008 -3.00832e-009 4.17313e-010 -1.31771e-008 
0.117893 0.00269061 9.59146e-008 3.83409e-005 -1.74565e-008 
0.372096 0.0646932 1.03113e-007 0.000110291 0.0264398 
0.532897 0.13132 0.00235762 0.000527315 0.0537552 
5 5 1.02438e-006
0.174194 0.11733 0.0478879 0.00951531 0.00831358 
0.0296717 2.72804e-006 0.000196461 4.87231e-005 9.08337e-005 
0.0169508 -4.2647e-009 0.00605472 0.125425 0.0268447 
0.00188668 -3.77675e-008 0.029223 0.369289 0.113747 
-6.14288e-010 -6.81256e-008 0.0815995 0.490351 0.196234 
5 5 -1.49362e-007
0.150727 0.111752 0.0431423 0.00960675 0.00863002 
-2.05018e-008 -2.53267e-008 1.72006e-007 4.05105e-005 -2.33248e-008 
0.117725 0.00268308 -4.97836e-009 1.39636e-007 0.0264133 
0.371549 0.0645952 -2.54812e-008 -1.74958e-008 0.0528298 
0.532056 0.131186 0.00236385 0.000431793 0.0537538 
5 5 6.13538e-008
0.304882 0.157103 0.0292125 0.0079587 0.0116548 
0.0487711 0.00528526 -2.64696e-009 6.33044e-009 -1.57857e-008 
0.0143381 -4.94575e-009 0.00545615 6.78043e-005 0.0262715 
0.00102215 0.000360905 0.012682 0.126389 0.160115 
-5.5282e-009 -7.43608e-011 0.122489 0.487551 0.28896 
5 5 8.97578e-007
0.189019 0.110396 0.0346219 0.00851971 0.00851974 
0.0213023 2.25145e-008 4.67248e-009 4.69004e-005 4.58156e-005 
0.00678911 0.000647312 7.47487e-005 0.000150555 0.0273713 
0.0357962 0.247604 0.177785 4.73434e-005 0.0546131 
0.15691 0.515491 0.242624 0.00305295 0.055544 
5 5 -2.8721e-007
0.245121 0.101004 0.029003 0.00778356 0.00778336 
0.0340533 -1.0465e-009 -2.06505e-008 0.00531519 0.000100753 
0.0032676 -8.5789e-009 2.20443e-008 0.0121922 0.136608 
0.0471166 0.00634072 -2.52903e-008 0.157257 0.525623 
0.036104 0.00384463 -1.53977e-008 0.151508 0.284957 
5 5 -2.36133e-007
0.163829 0.0990521 0.0296997 0.00824333 0.00824333 
0.0264377 6.14584e-005 -5.99394e-009 -1.19425e-008 -3.17974e-009 
0.25695 0.179016 0.000415342 -9.7042e-009 0.026625 
0.529261 0.239189 0.000167118 -1.26929e-009 0.0532531 
0.138806 0.0150662 -1.14106e-008 0.00289535 0.0564442 
5 5 8.66643e-008
0.432927 0.225239 0.029193 0.007888 0.00788798 
0.142367 0.0255989 0.00537297 1.05672e-010 8.65578e-005 
0.0154768 0.000377386 0.00538746 0.000287732 0.0264123 
3.88871e-005 1.36872e-007 0.00719034 0.110312 0.0680263 
3.7283e-005 -1.3986e-008 0.0967859 0.431717 0.162327 
5 5 1.97317e-007
0.168797 0.101623 0.0300778 0.00910224 0.0313462 
0.0186225 -1.42228e-008 8.41862e-005 -2.82098e-008 0.0271565 
0.0345459 0.000794481 8.40224e-005 5.57989e-005 0.00502435 
0.268703 0.238381 0.0130074 -2.51357e-008 0.0271255 
0.29181 0.47408 0.118607 0.00128805 0.0547716 
5 5 2.49609e-007
0.168724 0.102172 0.030631 0.00850548 0.00850549 
0.0132589 0.000397092 -7.4573e-009 -5.88676e-009 1.26844e-009 
0.0152241 7.28588e-005 1.95124e-007 4.79043e-005 0.0271417 
0.268194 0.183055 -7.9064e-010 5.23665e-005 0.0541969 
0.529506 0.258801 0.010293 0.000468061 0.0550461 
5 5 -2.31437e-007
0.196994 0.108867 0.0303783 0.00882794 0.00882794 
0.0128123 7.04075e-005 -8.03499e-009 -2.79292e-009 -5.58388e-010 
0.120773 0.0125932 -3.296e-009 4.23299e-009 0.026886 
0.508166 0.12936 7.2753e-009 5.06977e-005 0.0537794 
0.368521 0.126378 0.00249714 0.00047564 0.0546474 
5 5 1.82857e-007
0.152115 0.0883042 0.0301291 0.0197953 0.00926677 
0.0132565 0.0132838 2.12594e-009 7.21484e-008 -7.82445e-009 
0.163939 0.011496 2.51234e-009 1.50885e-007 0.0267943 
0.397271 0.0872344 0.000848518 8.69717e-008 0.0535968 
0.5039 0.119684 0.00173705 0.000871984 0.0552171 
5 5 3.36105e-007
0.00833943 -1.18414e-008 0.0400313 0.0827443 0.15113 
7.21394e-005 7.21144e-005 -1.35228e-008 0.0132135 0.0617576 
0.164071 0.0114398 1.3742e-008 4.30421e-005 0.0266429 
0.39825 0.0876188 0.000885318 9.30298e-009 -5.40323e-009 
0.505979 0.120793 0.00252596 4.54847e-009 -1.87862e-008 
5 5 1.77271e-007
0.152323 0.0884199 0.031064 0.0198143 0.0304679 
0.0132697 0.013297 6.82602e-008 4.08222e-005 0.0268717 
0.164132 0.011788 -1.21287e-009 8.20001e-005 0.00477922 
0.397763 0.0873426 0.000849677 4.11086e-005 0.0268003 
0.504546 0.119856 0.00173991 0.00114597 0.0549365 
5 5 -1.61839e-007
0.146001 0.0924712 0.0350615 0.0202782 0.030924 
0.0132723 0.0132995 7.5474e-008 4.14149e-005 0.0268681 
0.164232 0.0117895 -2.10691e-009 8.26927e-005 0.00477861 
0.398064 0.0874382 0.000856669 4.12012e-005 0.0267961 
0.505033 0.119994 0.00175335 0.000838525 0.0552059 
5 5 2.02669e-007
0.104669 0.0179104 0.00295083 -1.37224e-008 0.0155241 
0.301888 0.113468 -8.87546e-010 7.71841e-009 0.0104871 
0.534575 0.150706 3.0169e-007 1.68241e-009 0.0306084 
0.216011 0.0388674 -1.03786e-008 1.01521e-008 0.0543195 
0.0782753 0.0172826 0.0050812 0.0350031 0.127021 
5 5 6.05038e-007
0.0226514 0.0394996 0.0239965 0.016133 0.0269234 
-8.01689e-009 -1.84572e-008 0.00399106 3.04273e-005 0.00672933 
-4.68041e-009 -7.57666e-009 -1.79357e-008 0.0190725 0.150446 
0.0206605 0.0122314 -3.2531e-009 0.203666 0.500059 
-2.0259e-008 1.19433e-008 0.0237751 0.263263 0.333644 
5 5 2.44601e-007
0.450919 0.129441 0.00322592 -1.1538e-008 0.0159782 
0.392783 0.130987 5.0224e-009 -3.19985e-009 0.0110493 
0.184865 0.020009 -6.1052e-009 -1.20768e-008 0.031685 
0.0273921 3.21134e-009 4.57949e-009 0.0161286 0.0948126 
0.00306466 0.00471184 0.0244493 0.0932858 0.230612 
5 5 2.1698e-007
-3.29394e-008 -2.00843e-008 0.00319034 0.0324887 0.178303 
0.000164634 -2.04156e-008 3.64979e-009 0.211109 0.515227 
0.00924903 -4.44349e-009 -1.21369e-009 0.197243 0.28208 
0.0627477 -1.04359e-008 0.00603957 0.0217672 0.0532871 
0.149515 0.0759721 0.0232214 0.0132038 0.0492954 
5 5 -3.85048e-007
0.165227 0.117518 0.0431189 -5.83158e-009 0.00828084 
2.33117e-009 -4.57813e-009 -1.17301e-008 -1.3456e-008 -4.10086e-009 
0.116659 0.00282598 4.27899e-005 1.81308e-007 0.0266602 
0.376989 0.0986504 4.20772e-005 0.00270862 0.0535947 
0.513743 0.143744 0.00176175 0.00455223 0.0572967 
5 5 8.93263e-007
0.165243 0.117089 0.0431221 0.000439672 0.00827129 
-3.56471e-008 -8.25278e-009 -1.2601e-008 8.24159e-005 -9.29309e-009 
0.11667 0.00278314 -1.1567e-008 2.91936e-009 0.026662 
0.377021 0.0987292 8.31649e-005 0.00271514 0.0535962 
0.513791 0.143755 0.00176326 0.00455681 0.0573022 
5 5 2.36193e-007
0.105108 0.116286 0.0516441 0.00856963 0.0315863 
-7.88975e-009 0.000117347 4.2079e-005 1.51922e-009 -1.35978e-008 
0.0151039 4.22161e-005 4.14713e-005 -1.61158e-008 -1.22497e-009 
0.273677 0.179705 0.00289871 2.32201e-009 0.0269017 
0.535916 0.270091 0.0103368 0.00286189 0.057172 
5 5 1.17325e-007
0.140621 0.109967 0.0431818 -8.15279e-009 0.00865076 
0.000398796 -2.11601e-008 6.96869e-009 2.94434e-007 4.12441e-009 
0.187706 0.0275064 -7.8002e-009 -1.40985e-008 0.0265778 
0.409901 0.106325 3.45238e-005 7.59441e-005 0.0535075 
0.479457 0.119014 0.00210942 0.00328322 0.0570249 
5 5 1.85128e-007
0.16511 0.10512 0.0384384 -1.7759e-009 -1.09537e-008 
0.0240927 -3.57737e-009 -2.19843e-009 3.40561e-005 -3.69957e-009 
0.0404547 6.66243e-005 -1.09983e-008 6.83966e-005 0.0263631 
0.291655 0.149869 -8.4728e-009 6.89678e-005 0.0527362 
0.540793 0.226675 0.00940243 0.0030071 0.0553037 
5 5 2.17597e-007
0.131483 0.0926624 0.0264673 0.000375478 0.000828207 
0.257674 0.0748348 0.0105592 -2.971e-009 0.0253238 
0.501792 0.107993 1.92519e-007 0.00208345 0.0527469 
0.342832 0.0474863 9.13786e-009 3.37609e-005 0.0507261 
0.10679 0.00418443 0.00228738 -9.09243e-009 0.0253524 
5 5 -1.70082e-008
0.555784 0.301818 0.039765 0.00146698 0.00146698 
0.275819 0.127181 4.45301e-009 -2.34367e-009 0.0246319 
0.0363066 0.000959052 4.85685e-009 2.1862e-005 0.024632 
0.0102169 0.0103076 7.96465e-009 4.90789e-005 0.0245548 
0.0102495 0.00016281 0.0017016 0.00293974 0.052067 
5 5 -1.90318e-007
0.165237 0.10481 0.0380731 0.000464063 0.000440064 
0.0240998 -9.31599e-009 6.74402e-009 3.47104e-005 -2.0284e-010 
0.0404757 6.62586e-005 3.03741e-009 -4.98465e-009 0.0218265 
0.291853 0.149969 -4.83254e-009 -9.66418e-009 0.0481773 
0.541176 0.226842 0.00941183 0.00263574 0.0561398 
5 5 3.6336e-007
0.0084012 -1.23268e-008 0.0322021 0.102909 0.0964235 
0.000333567 -6.29277e-009 0.0130675 -9.15443e-009 0.0136547 
0.0149378 0.00434917 7.48871e-005 8.75309e-005 0.0130521 
0.273785 0.186544 3.6989e-005 5.08092e-005 0.0398003 
0.550563 0.24901 0.00997294 0.000418871 0.0408569 
5 5 -1.97576e-008
0.1496 0.0974594 0.029965 0.00914124 0.034313 
0.0133367 3.69672e-005 3.55639e-005 -1.85016e-009 0.0220267 
0.0147642 0.00411814 3.58721e-005 4.7336e-005 0.0266821 
0.269643 0.183423 3.50957e-005 4.69641e-005 0.053327 
0.542132 0.245167 0.00973574 0.000388178 0.0323868 
5 5 -3.48473e-007
0.150264 0.0978367 0.02995 0.00830069 0.00828068 
-1.91075e-008 3.84688e-005 3.66819e-005 -4.14288e-009 -1.81982e-008 
0.0147555 0.00411455 3.70324e-005 -1.71223e-008 0.026627 
0.269535 0.183349 3.6387e-005 4.87036e-005 0.0532658 
0.541908 0.24506 0.00972699 0.000385718 0.0543452 
5 5 3.5015e-008
-3.00439e-008 0.0262845 0.0393851 0.0394121 0.0131137 
0.0353486 0.0350778 0.0241828 -2.20522e-008 5.38289e-005 
0.0151188 0.00441546 4.02747e-005 -3.80249e-008 0.0268327 
0.276999 0.188879 4.01017e-005 -1.67921e-008 0.0536822 
0.556926 0.251931 0.0101179 0.000800488 0.0545481 
5 5 7.7416e-007
-8.32296e-009 -6.01201e-009 0.0026425 0.0159794 0.0535652 
-4.85681e-009 0.000446719 -2.50995e-008 0.00205203 0.0233712 
0.0222479 0.143209 0.0173373 0.000442169 0.0123315 
0.216923 0.499633 0.103427 0.000862375 0.0230742 
0.266169 0.300232 0.0482555 0.00653557 0.0598799 
5 5 -5.5919e-007
0.000745308 -3.47108e-008 0.00874152 0.169564 0.505414 
0.0023923 -4.2363e-009 0.000889049 0.0669969 0.172884 
0.00418233 1.16308e-005 4.87409e-005 0.000919738 0.0169942 
0.102811 0.0242367 0.00628424 0.000173957 0.00622441 
0.363591 0.184701 0.0503694 0.00761223 0.0298707 
5 5 -6.87248e-007
0.224661 0.0336769 0.00405561 0.000116006 0.00744085 
0.45516 0.0879504 0.0041087 1.04796e-005 0.00734378 
0.155328 0.0211548 -2.14551e-008 -7.48336e-009 0.0100919 
0.0052595 -2.86496e-008 0.00496989 0.0237665 0.12379 
-1.08144e-009 1.53809e-009 0.0457709 0.194921 0.39069 
5 5 -5.8588e-007
0.0360724 0.00667474 0.00914231 0.229433 0.537838 
0.0413543 0.00815956 0.001208 0.171115 0.245932 
0.0290539 0.0132098 5.63233e-006 0.00725095 0.0273969 
3.61587e-008 2.61018e-008 -5.31226e-009 0.0295524 0.0157489 
-9.70061e-010 -3.97556e-008 0.0592022 0.19466 0.144151 
5 5 1.45698e-007
0.162044 0.102661 0.0259252 -2.92298e-008 0.035026 
0.142579 0.0323916 1.66796e-008 1.56005e-008 0.0492008 
0.525677 0.168426 3.56548e-007 0.00238866 0.0563843 
0.331048 0.0979214 -1.71425e-008 -1.05132e-008 0.0317539 
0.0947141 0.0206568 0.00259166 -1.74339e-008 0.00475917 
5 5 -3.5306e-007
0.162125 0.103198 0.0264256 3.48156e-005 0.030807 
0.142625 0.0324176 -3.94173e-010 3.5057e-005 0.0492814 
0.52593 0.168503 -4.01714e-009 0.00235875 0.0563007 
0.331181 0.0979821 -3.31516e-008 -1.84671e-009 0.0269863 
0.0947729 0.0206885 0.00258039 -2.25707e-008 -2.58709e-009 
5 5 5.92081e-006
0.0386809 0.0210488 0.0221713 0.225151 0.605423 
0.015043 0.00149589 -4.87375e-007 0.046205 0.176203 
0.186448 0.0707327 0.00249985 0.000192207 0.0339612 
0.0739678 0.0043644 6.9956e-005 -3.5716e-007 0.00443471 
0.0174147 0.00540582 0.00626162 0.00427653 0.0101609 
5 5 1.61772e-007
0.144717 0.0963603 0.0239486 0.000464791 0.0702605 
0.0131881 8.84679e-010 -2.76874e-008 1.26599e-009 0.0278409 
0.059523 0.0145159 0.00277505 -2.67357e-009 0.00496608 
0.325358 0.117773 -2.39337e-008 3.45886e-005 0.0274428 
0.542459 0.208474 0.0105806 0.00235018 0.0347001 
5 5 9.44564e-007
0.147816 0.0691643 0.0297229 0.00817528 0.0349442 
0.000504755 -3.00627e-008 0.0105666 0.000500218 0.205222 
0.0264649 0.00261887 5.65459e-005 0.065973 0.515657 
0.204845 0.0137962 -3.23331e-008 0.0161682 0.172259 
0.284836 0.0645402 0.00206191 0.00452414 0.0244495 
5 5 2.56209e-006
0.204662 0.392051 0.495085 0.102576 0.0149618 
0.0587736 0.144519 0.130115 0.000292001 5.81498e-005 
0.0146523 0.0082653 0.0131574 0.00505914 0.0262024 
0.00178752 9.48819e-005 1.79294e-008 5.78355e-005 0.0524115 
-1.56638e-007 0.000382944 0.0021397 0.00471809 0.0577881 
5 5 -4.77969e-007
0.0476768 0.023115 0.0385434 0.273755 0.369649 
0.00778793 0.00206321 0.0115294 0.208571 0.470355 
0.00167334 -5.48651e-008 -9.02219e-008 0.0252425 0.130318 
0.0154627 -7.52681e-008 4.49124e-005 -1.16076e-007 0.0165024 
0.0300811 0.00667041 0.00262578 0.0053875 0.00844707 
5 5 -2.11684e-006
0.0719911 0.0376766 0.0308151 0.287247 0.562764 
0.0276749 2.69872e-006 -1.06769e-007 0.171273 0.247892 
0.0152364 4.89092e-005 1.20185e-006 0.00978114 0.0328218 
0.000658129 5.31037e-005 -5.44534e-008 -6.70926e-008 0.00428787 
0.00406077 0.00690666 0.00539833 0.0048719 0.0119402 
5 5 -2.51108e-007
0.136412 0.104397 0.033308 0.00136706 0.0559505 
0.000324078 4.01744e-007 -8.21974e-009 4.35071e-009 0.0269553 
0.0151363 0.000119574 3.52278e-005 4.66911e-005 0.0049631 
0.275357 0.170185 0.00693457 -3.74717e-009 0.0269519 
0.538858 0.259911 0.0103065 0.000402123 0.0410375 
5 5 -1.53124e-007
0.137849 0.104698 0.0328271 -1.56742e-009 0.0192372 
-7.71458e-009 3.66071e-005 3.5147e-005 -8.07347e-009 -8.33173e-009 
0.014991 6.57494e-005 7.68509e-009 -2.86001e-009 0.0269968 
0.274799 0.169848 0.00692468 -8.80878e-009 0.0539096 
0.538368 0.259571 0.0102802 0.000449925 0.0547226 
5 5 2.97992e-007
0.136503 0.104459 0.0333259 0.00136926 0.0559998 
0.000325112 4.37738e-007 1.02172e-008 1.34747e-008 0.0137036 
0.0150437 0.000118882 3.54392e-005 -5.42263e-009 -1.26203e-008 
0.275332 0.170104 0.0069425 -6.93575e-009 0.0269547 
0.539308 0.260052 0.0103128 0.000455364 0.0410872 
5 5 -2.25185e-007
-2.55359e-008 -1.05132e-008 -1.68639e-008 -2.57772e-008 0.0136714 
-1.97145e-009 0.0242681 0.0242769 0.0132351 0.0733008 
0.0153329 0.000116429 3.95262e-005 -1.70245e-008 0.0492699 
0.282175 0.17508 0.00724284 5.22402e-005 0.0406549 
0.553838 0.267228 0.0107142 -2.0545e-008 0.013448 
5 5 3.03563e-007
0.115934 0.0742213 0.0301481 0.00865294 0.030633 
0.224031 0.0530386 0.0111195 -1.45679e-008 -5.97783e-009 
0.485092 0.108687 1.60014e-007 -2.19228e-008 -2.15084e-008 
0.378354 0.0980495 -1.51782e-008 -1.06696e-008 0.0264056 
0.149126 0.0182609 0.00236239 0.000409027 0.0532423 
5 5 -2.22437e-007
0.0687487 0.121397 0.0480281 0.0470497 0.0839418 
0.000312909 6.94264e-009 1.0408e-007 2.02333e-007 0.027046 
0.0161776 -4.02984e-009 -8.0905e-009 -1.54925e-009 0.00479173 
0.272297 0.181443 0.00707994 2.34995e-009 0.0270239 
0.532341 0.274695 0.0141006 0.000419273 0.0325997 
5 5 -4.56078e-007
0.150651 0.107959 0.0438353 0.0197204 0.00849931 
2.88123e-009 -1.02202e-008 7.12208e-009 7.62894e-009 -2.65998e-008 
0.0889215 -7.41307e-009 1.35035e-008 1.13076e-008 0.0269029 
0.359915 0.107949 -2.30401e-008 2.04395e-007 0.0542535 
0.527219 0.171398 0.00168322 0.00112175 0.0562136 
5 5 -2.50753e-007
0.142735 0.100499 0.0438547 0.0197868 0.00903065 
0.000300136 -7.65736e-011 2.74354e-009 -1.46829e-008 5.09957e-009 
0.0160702 -3.33726e-010 -5.40918e-009 -7.88744e-009 0.027024 
0.270853 0.180288 0.0070033 -1.29622e-008 0.0540102 
0.528863 0.272797 0.0138141 0.000402164 0.0548305 
5 5 -8.00189e-008
0.0155298 0.0232403 0.00601404 0.0109432 0.0240739 
0.0257407 0.0291371 0.00600658 2.9307e-007 0.0493425 
0.0362636 0.203068 -2.05295e-009 3.28132e-007 0.0145933 
0.0613052 0.42721 0.0231307 -8.95059e-010 -2.9065e-009 
0.0410993 0.51008 0.0553522 -2.94584e-009 -2.40381e-009 
5 5 -3.78056e-008
0.0155251 0.0232271 0.0060232 0.0109362 0.0240561 
0.0258429 0.0291367 0.00601577 -5.26033e-009 0.0493095 
0.0574653 0.204406 -2.16356e-009 2.78798e-009 0.0145852 
0.052888 0.464 0.033247 -1.17654e-009 -5.52334e-009 
0.0148429 0.474428 0.0685797 -2.88758e-009 4.13889e-010 
5 5 -2.098e-008
-2.87066e-010 -4.77498e-010 0.0157082 0.0663076 0.0194963 
-1.90621e-009 -1.91182e-009 0.0156994 0.222718 0.20851 
-1.53974e-009 -1.34336e-009 0.00785411 0.164878 0.553371 
0.00164234 -3.09206e-009 -1.93133e-010 0.0143268 0.258675 
0.00491977 -2.25356e-009 6.28176e-010 0.0158457 0.0280726 
5 5 -6.75534e-008
0.0256209 0.224748 0.0180038 -1.58009e-009 -1.57584e-010 
0.00786102 0.478899 0.040102 -2.3027e-009 -2.57638e-009 
-3.51037e-009 0.412737 0.0523432 0.0105323 -9.74292e-010 
1.24673e-005 0.193688 0.0667274 0.0105323 0.0107286 
1.27322e-006 0.0144852 0.0293916 -1.06563e-010 0.0320004 
5 5 4.32202e-007
0.148687 0.0995408 0.0229033 0.00837001 0.0341141 
0.211945 0.0470675 4.70247e-010 8.3256e-005 0.0266613 
0.486487 0.106038 1.92709e-005 0.000116932 0.00456742 
0.372832 0.110521 0.000415872 0.00012581 0.0266239 
0.123307 0.00760232 0.00105833 0.00359577 0.05692 
5 5 1.87095e-006
0.0747427 0.0574934 0.315998 0.313037 0.0964399 
0.0345392 0.00889987 0.237424 0.446088 0.11889 
0.0154763 -1.60581e-008 0.0257293 0.105919 0.026596 
-3.53359e-008 1.11803e-005 -1.60752e-008 0.00814079 0.0043541 
-1.02582e-008 0.000511628 0.00352649 0.00655112 0.0148233 
5 5 1.03635e-007
0.564021 0.208887 0.0238033 0.00743975 0.010232 
0.334117 0.104018 0.00020285 2.37931e-005 -2.02004e-008 
0.0939441 0.00563683 0.00011752 1.04115e-008 0.0252679 
-2.72574e-009 6.15225e-006 1.30559e-007 -2.41213e-008 0.0505159 
0.0005353 -1.60389e-008 0.00134412 0.00347273 0.0548073 
5 5 -1.81778e-007
0.564242 0.210486 0.0237842 0.00737874 0.0101942 
0.333501 0.101062 0.000131869 3.36185e-009 -1.24471e-009 
0.0938613 0.00454543 1.2542e-005 -2.4351e-008 0.0252912 
0.00813591 -8.65161e-009 6.37319e-006 3.45815e-005 0.0507582 
-2.01552e-009 -2.06212e-008 0.00176633 0.00417283 0.0550685 
5 5 1.70949e-007
0.379663 0.320636 0.0325401 2.59696e-005 0.0288793 
0.452027 0.171984 9.57932e-008 0.00182771 0.0273617 
0.1103 0.00165661 7.16363e-010 -6.95465e-009 0.00421821 
0.0192255 0.0101467 6.83675e-006 0.000125843 0.0255923 
0.0132203 0.00520389 0.00211675 0.00221423 0.0545044 
5 5 1.64364e-007
0.379666 0.320639 0.0325413 -4.83815e-009 0.0288468 
0.451695 0.172005 7.41901e-008 0.00176922 0.0488484 
0.11029 0.00166029 -3.17324e-009 2.60691e-009 0.0255867 
0.0192271 0.010136 1.70261e-009 -4.92629e-009 0.025633 
0.0156885 0.00555474 0.00299451 -1.227e-009 0.0302281 
5 5 -7.12836e-008
0.248059 0.0885205 0.0195952 -5.83487e-009 0.008365 
0.0600201 0.00226989 -5.99014e-010 0.000194736 0.0109104 
0.016574 0.000446732 2.98715e-009 -5.82859e-010 0.0476379 
1.08362e-005 1.16505e-008 -9.13566e-009 0.0804597 0.180517 
0.00239391 0.00239539 0.0841116 0.324053 0.522254 
5 5 -5.28642e-009
0.155155 0.0886345 0.0200649 0.000480788 0.00854385 
0.0455842 0.00108007 -1.06258e-008 3.78436e-005 0.000105483 
0.128048 0.0190326 8.50181e-009 3.01455e-009 0.0272178 
0.500175 0.241007 0.00783506 0.00249013 0.0568352 
0.322944 0.170643 0.00585214 -8.6311e-009 0.0548977 
5 5 6.16849e-008
0.0271436 0.016801 0.0125104 -3.77914e-009 3.32623e-009 
0.023569 0.0286241 0.0268311 0.00333884 2.97565e-009 
0.011213 0.0545632 0.200267 0.00361425 0.0122658 
2.98468e-009 0.0520377 0.425521 0.0237952 0.0247873 
2.51422e-006 0.0206138 0.515553 0.0296351 0.035924 
5 5 5.33488e-008
0.0694809 0.196155 0.00615364 -3.84453e-009 0.000642339 
0.0563262 0.411005 0.0214314 -5.2621e-009 0.000212578 
0.0251048 0.474018 0.0217259 0.0110768 0.0121823 
-2.61065e-009 0.227906 0.0401505 0.011065 0.0354288 
-3.11211e-009 0.0408369 0.00761199 0.0110532 0.0354296 
5 5 8.58883e-008
0.0544996 -2.88483e-009 0.0135202 0.0123071 0.00335322 
0.0338464 0.0222119 0.022915 0.176594 0.00334199 
0.00925488 0.012105 0.0460245 0.382394 0.0184886 
3.96423e-009 -2.28721e-010 0.0241371 0.501143 0.0794458 
-2.43475e-011 -8.60573e-010 7.40212e-006 0.222529 0.0827569 
5 5 -3.87446e-008
0.0338409 0.00601686 -2.7464e-010 0.000209904 -7.50463e-010 
0.226985 0.0076119 -1.73794e-009 0.000208644 0.000205133 
0.478874 0.0129778 -1.42575e-009 -1.1014e-009 0.0125942 
0.41744 0.0282456 0.0110665 0.0157667 0.0245472 
0.196193 0.0329678 -3.18267e-010 0.0270291 0.0354191 
5 5 -2.44186e-007
0.0278263 0.0184957 0.00547274 0.0459633 0.167236 
0.0055379 -3.66695e-009 1.3051e-008 0.128293 0.480476 
0.0033777 1.26551e-006 -1.38036e-008 0.1225 0.369918 
0.0296987 0.00635024 -1.35719e-008 0.0395208 0.202479 
0.125768 0.0545007 0.00460661 0.0225149 0.0822852 
5 5 1.94071e-007
0.441714 0.12682 0.00411551 2.16938e-005 0.0199577 
0.424077 0.148215 9.1509e-009 -1.43923e-008 0.0116015 
0.202995 0.0519284 0.00584318 0.00322101 0.00831348 
0.022595 4.25743e-009 0.0157842 0.0531221 0.0163749 
0.00925699 0.00586311 0.0494695 0.166178 0.0916377 
5 5 7.85424e-008
0.0045731 0.000837688 0.00329632 0.0958055 0.310898 
0.00190505 3.1882e-005 2.04243e-008 0.128448 0.521351 
0.00751616 4.47842e-010 1.76478e-008 0.0637635 0.233145 
0.0630583 -1.77706e-008 -5.50935e-009 -1.79251e-008 0.0459118 
0.175542 0.0571535 0.000527242 0.0281114 0.0799157 
5 5 4.73449e-007
0.160404 0.0425538 1.88717e-005 0.0480162 0.158174 
0.0789672 0.0287912 2.75775e-005 0.127699 0.535026 
0.0164615 4.64729e-006 0.00588327 0.0922802 0.290035 
0.00444713 3.57874e-009 -2.31782e-009 0.0198707 0.0896553 
0.0307506 -7.68689e-009 0.0104508 0.0801312 0.163217 
5 5 4.2492e-007
0.154496 0.101901 0.0517283 0.020271 0.000573492 
0.00039427 1.81273e-008 -7.64761e-009 2.69461e-006 0.0271196 
0.0151803 -5.67528e-009 4.3231e-009 -1.58847e-009 0.0271169 
0.273525 0.162788 -1.09907e-008 2.6501e-009 0.0270624 
0.521681 0.288874 0.0160669 0.00280515 0.0551875 
5 5 -1.63915e-007
0.154259 0.101756 0.0516611 0.020244 0.00057266 
0.000393433 2.62088e-006 2.61857e-006 -2.83271e-009 -4.21463e-009 
0.0151639 6.16284e-009 4.32282e-010 2.07066e-009 0.027052 
0.273115 0.162514 -3.47817e-009 4.63319e-009 0.0540656 
0.520909 0.288498 0.0160815 0.00279906 0.0551258 
5 5 -1.68609e-007
0.143595 0.104825 0.0549944 0.0189258 0.00105148 
0.000501158 5.0742e-005 -2.28354e-009 -9.91714e-010 2.8445e-011 
0.183634 0.00504337 5.21347e-009 -7.94045e-009 0.0266393 
0.391609 0.0489929 -3.16927e-009 4.90913e-010 0.0532413 
0.511871 0.0834977 0.00464981 0.00271749 0.054276 
5 5 3.31708e-007
0.150266 0.100159 0.0508592 0.0193158 -7.13996e-009 
0.00143669 -1.42435e-008 5.59175e-009 -2.61069e-009 2.03181e-008 
0.159809 0.0150113 -1.83964e-008 -1.24517e-008 0.0265441 
0.525397 0.22549 0.00219265 0.00223839 0.0531534 
0.26532 0.186692 0.00203169 0.00103357 0.0545972 
5 5 -3.68472e-008
0.126232 0.156219 0.0983594 0.0368614 0.010706 
0.520441 0.389828 0.13421 0.00940535 0.00916102 
0.0637275 0.0115962 0.00991649 0.0117619 0.00439523 
0.0101792 3.54292e-008 -9.37177e-010 -1.84664e-009 0.0145459 
0.0202243 0.00882911 0.000183273 0.00917601 0.0465392 
5 5 5.02117e-008
0.221594 0.562304 0.325287 0.0951219 0.00454511 
0.101107 0.0682553 0.035543 0.01409 0.0115087 
0.0184048 1.95618e-010 2.189e-009 -1.44414e-009 0.00402152 
0.00101675 0.0101343 1.89907e-009 -1.8045e-009 0.0182061 
6.17008e-010 0.018665 0.0085331 0.00851321 0.0455002 
5 5 8.40188e-008
0.222113 0.562567 0.32405 0.0942703 0.00454294 
0.102626 0.0691878 0.0350399 0.0140843 0.0115017 
0.0183977 -2.56456e-009 -2.91828e-009 1.36093e-006 -1.89835e-009 
0.000991079 -2.37666e-009 2.25019e-009 -1.17967e-009 0.0141318 
0.000186924 0.000161109 0.00853679 0.0271875 0.0451603 
5 5 2.3218e-008
0.019334 0.018115 0.0328705 0.0368044 0.0218104 
0.155932 0.106271 0.0543197 0.0242397 0.0099136 
0.568988 0.326546 0.11718 0.00498012 0.00478138 
0.0969053 0.0124427 0.0106041 0.0124537 0.0152663 
0.019579 0.00932806 -4.52034e-009 0.00930685 0.0487996 
5 5 8.64109e-007
0.00544116 0.00414108 0.000222516 0.0335554 0.140536 
0.00508494 9.21101e-006 3.0552e-008 0.0722354 0.323989 
0.00560505 2.83197e-005 -7.32699e-009 0.102786 0.511881 
0.0505219 0.0139391 -2.91617e-008 0.0595793 0.243217 
0.101468 0.0479197 0.00585664 0.0348939 0.130196 
5 5 -2.69193e-007
0.335515 0.106917 0.00420897 -4.87771e-009 0.0156878 
0.462747 0.121079 -1.91977e-008 0.000144972 0.00782511 
0.152101 0.0282833 3.19868e-006 0.000459143 0.0283452 
0.00957939 2.40702e-005 3.96967e-005 0.0202545 0.126224 
2.41269e-008 -2.80812e-008 0.0362133 0.117036 0.301158 
5 5 -3.53358e-007
0.128983 0.0261924 -6.62922e-009 0.00389833 0.0325922 
0.327108 0.0999102 -3.97056e-009 -1.05612e-008 0.0108847 
0.512733 0.14328 2.12786e-006 5.20044e-005 0.00768556 
0.229494 0.0454277 -1.07227e-008 4.87481e-006 0.0399316 
0.0771926 0.0439297 0.00606394 0.0253435 0.126978 
5 5 -2.74324e-007
0.190138 0.0577889 5.55611e-008 0.105278 0.532483 
0.083286 0.0290838 1.45893e-008 0.050264 0.161078 
0.0203643 1.58613e-008 -6.50807e-008 4.75509e-008 0.0209974 
0.10701 0.0162934 0.0156353 0.00329954 5.80285e-005 
0.311723 0.109377 0.0721218 0.0394032 0.0302503 
5 5 -1.8208e-007
0.15392 0.113185 0.04307 0.00893088 0.0566629 
0.00887487 -3.02443e-009 1.10723e-007 -1.33971e-008 0.0222117 
0.0243378 0.00279163 -1.03645e-008 -1.28906e-008 -4.30617e-009 
0.281731 0.169933 0.00325542 -4.71022e-009 0.0269811 
0.533576 0.249653 0.0100989 0.000406129 0.0325635 
5 5 -1.1588e-007
0.125494 0.0866715 0.019315 0.00812788 0.0557134 
0.17479 0.029503 -1.28371e-009 -1.69787e-008 0.0218443 
0.365195 0.0844358 0.00312867 -1.31043e-008 -2.38799e-008 
0.49737 0.109862 -1.73848e-008 -1.82427e-010 0.0263212 
0.193258 0.0465303 0.000252882 0.00242052 0.033637 
5 5 8.23687e-008
0.154187 0.11307 0.0430228 0.00888187 0.00848077 
0.00954958 3.68619e-009 2.70702e-006 -3.42936e-008 -1.30795e-010 
0.0238947 0.00279001 2.42535e-007 3.9877e-005 0.0270416 
0.281283 0.169129 0.00327509 -1.7729e-008 0.0538849 
0.53322 0.248966 0.0101148 0.000371244 0.0546838 
5 5 1.46529e-007
0.435832 0.198617 0.0268566 0.00723804 0.0316773 
0.481028 0.125496 2.86011e-007 -2.8406e-009 0.0212124 
0.124003 0.0344995 1.92651e-008 5.88802e-009 0.0251006 
0.0078838 0.00464466 4.27332e-005 0.00845063 0.0501989 
-2.52845e-008 0.00186548 0.00647901 0.0182814 0.0313925 
5 5 -9.04181e-008
0.14037 0.0979968 0.0437151 0.0189493 0.00878075 
-1.03761e-008 3.25308e-006 1.46934e-007 1.30971e-007 -5.06258e-009 
0.105053 0.00143105 2.27985e-008 -2.29362e-008 0.0265826 
0.360772 0.0999245 -1.16099e-008 1.72078e-007 0.053129 
0.539086 0.140595 0.00166768 0.00307873 0.0569529 
5 5 -3.16988e-008
0.10731 0.0771366 0.0329327 0.00898325 -1.7574e-009 
0.151135 0.0141888 0.010546 7.70712e-008 4.81494e-005 
0.353692 0.089399 8.35864e-008 1.85748e-007 0.0261789 
0.521003 0.100006 -6.03926e-009 0.00214646 0.0543724 
0.191621 0.0147487 -7.35649e-009 0.00258553 0.0555943 
5 5 -5.15073e-007
0.133407 0.102866 0.0466229 0.0194243 -1.29627e-008 
-1.42566e-008 -1.64274e-008 2.21254e-008 -2.20404e-008 5.67135e-005 
0.105121 0.00144129 4.53836e-007 4.38785e-006 0.0266341 
0.361044 0.100063 1.83276e-007 4.14659e-006 0.0531179 
0.539499 0.140727 0.00168321 0.00309723 0.0569749 
5 5 -1.17663e-007
0.113336 0.0730767 0.0302508 0.00803492 0.0308197 
0.151272 0.0141971 0.0105788 1.15633e-008 0.0261754 
0.353939 0.0894751 2.62854e-009 1.42067e-008 0.00440858 
0.521457 0.100101 1.20707e-008 -7.17208e-009 0.026097 
0.191741 0.0147479 4.22315e-009 0.00256946 0.0556588 
5 5 -4.78691e-007
-1.19993e-009 1.42286e-008 0.00372283 0.0667223 0.270397 
-9.99167e-009 1.58583e-008 0.00901481 0.0989914 0.512686 
0.0174484 -1.35549e-008 0.00899519 0.0328265 0.14682 
0.105502 0.0496498 -2.45343e-009 0.00285387 0.0104397 
0.300288 0.139433 0.0100418 0.00757271 0.0564583 
5 5 4.8888e-007
9.99088e-006 -3.64018e-008 0.00859407 0.0191683 0.0547748 
-1.14747e-008 3.00132e-007 -8.82336e-009 0.0510728 0.108828 
0.00638216 -2.23215e-008 4.91019e-006 0.199305 0.528937 
0.0291249 -8.07644e-009 0.0116208 0.125831 0.336206 
0.0770545 0.0324654 0.00908927 0.0569653 0.149661 
5 5 -4.225e-007
-1.58937e-008 -7.90174e-009 0.00375232 0.0783211 0.283175 
0.000213982 -1.25602e-008 0.0090631 0.0994191 0.515357 
0.0178009 1.64575e-008 0.00904197 0.0329465 0.154128 
0.103141 0.0370465 -7.92868e-009 0.0128641 0.0104733 
0.290454 0.104184 -2.69363e-009 0.036872 0.0632604 
5 5 -5.14066e-007
-2.05867e-008 0.00326586 0.0225458 0.0282604 0.0394454 
0.00636871 4.80951e-006 0.00487783 0.00924159 0.0495127 
0.0385485 0.0135307 1.29021e-005 0.0290946 0.230216 
0.0248756 -1.26372e-008 1.36518e-008 0.125662 0.519138 
0.00837355 -1.82614e-008 0.0303371 0.148535 0.360615 
5 5 1.01184e-006
-5.6978e-010 0.00288074 0.0150206 0.229952 0.508123 
1.25549e-005 3.29509e-006 -4.54798e-009 0.169139 0.288601 
0.00997042 3.38055e-008 4.2994e-007 -2.34468e-008 0.0207434 
0.0642098 0.056278 -9.44494e-010 -2.84696e-008 0.00630954 
0.213479 0.144168 0.0216233 0.00738342 0.0453985 
5 5 -2.07892e-007
0.487543 0.156012 0.0140224 0.00291761 0.0137048 
0.356747 0.152326 6.34862e-006 0.000147872 0.0234399 
0.0965618 0.0385575 0.00581037 -1.96547e-008 0.00812293 
0.0261416 0.00495373 0.00582663 -1.14544e-008 0.0630388 
0.00944674 -1.72988e-008 0.030001 0.109023 0.240928 
5 5 -2.40261e-007
0.492236 0.15395 0.0106665 0.0113783 0.0242484 
0.363668 0.157247 1.52615e-005 0.00227936 0.0115413 
0.0693444 0.0304883 0.00592033 -1.89453e-009 0.0259501 
0.00345659 -3.24856e-008 0.0486438 -1.58547e-008 0.0734777 
-1.83888e-008 0.0196288 0.133568 0.0883021 0.189222 
5 5 -4.76521e-008
0.499148 0.155658 0.0106642 0.0117433 0.0557335 
0.364753 0.155442 1.57516e-005 0.00236216 0.0265524 
0.0703677 0.0308105 0.00606791 -7.78479e-009 0.0295966 
0.0389227 0.0483426 -1.67084e-008 -1.11456e-008 -1.90283e-008 
0.138965 0.181452 0.0487657 -3.37422e-008 0.00814053 
5 5 5.75174e-007
-4.25542e-008 6.81763e-005 0.01359 0.0266326 0.0522787 
0.0255151 2.28693e-008 3.23839e-006 5.66252e-006 -5.92259e-009 
0.191266 0.0259205 4.76502e-006 -1.76614e-008 0.00729828 
0.532439 0.201863 1.77009e-006 -6.77795e-009 0.00269269 
0.292008 0.212399 0.0199655 0.0213901 0.0541206 
5 5 7.84359e-007
0.128422 0.0541998 0.0140258 -4.13506e-008 0.0080213 
0.488896 0.124593 5.50322e-006 5.29911e-006 -9.5731e-008 
0.37106 0.170558 -4.04582e-008 1.00154e-005 0.0113006 
0.176253 0.0831367 0.0056901 1.10861e-005 0.0357765 
0.0394866 0.0577616 0.0625903 0.0669299 0.0792508 
5 5 -6.55072e-007
0.289623 0.154604 0.0140407 -2.94326e-008 0.0324424 
0.531755 0.181359 -2.07975e-008 -1.07246e-008 0.0114774 
0.127628 0.0612625 0.00574692 8.46312e-007 0.00807566 
0.00247686 0.0349673 0.0253785 -4.36811e-009 -2.07584e-008 
0.0404736 0.185179 0.113895 0.0572643 0.0314048 
5 5 -4.30183e-007
0.476929 0.149839 0.0140737 1.05734e-006 0.0293684 
0.382 0.158915 5.12799e-006 -2.27725e-008 0.0151089 
0.112313 0.062072 0.0154129 1.01713e-006 0.0116296 
0.00251193 0.0267229 0.0415136 -2.97873e-008 -3.13548e-008 
0.0077157 0.108706 0.194666 0.0826279 0.0416875 
5 5 3.1271e-007
0.0822583 0.0280033 0.00479933 0.00363863 0.0192573 
0.0240324 0.01361 0.00481308 0.0275409 0.10111 
0.00563541 1.87945e-006 8.35886e-007 0.156249 0.490607 
-3.05667e-009 6.113e-007 0.00229006 0.192219 0.360603 
0.00235643 -2.11225e-008 0.0306988 0.102681 0.191454 
5 5 7.3509e-008
7.11897e-010 9.60538e-008 0.00919185 0.0330701 0.136752 
0.0021123 8.75032e-007 3.93364e-007 0.106341 0.303059 
0.00468638 8.01932e-007 -6.19818e-009 0.1338 0.522361 
0.0526224 0.0142861 -3.09122e-009 0.047906 0.219758 
0.105183 0.0350101 0.00608602 0.0514373 0.132829 
5 5 4.92613e-008
-6.42262e-009 0.002607 0.0211923 0.0316219 0.0390942 
0.000387811 -8.36237e-009 0.00481486 2.66296e-006 0.00701902 
0.0055303 -4.5035e-009 0.00419258 0.0185231 0.080236 
0.0217899 0.0125216 6.17783e-007 0.139233 0.321862 
0.0454424 0.0124756 0.0157164 0.219371 0.562059 
5 5 6.17927e-008
0.000137992 -1.28416e-008 0.00919251 0.0450245 0.145577 
0.000574481 2.22857e-006 1.17271e-006 0.106904 0.324642 
0.00728117 6.94066e-008 1.75963e-005 0.122221 0.513146 
0.0541591 -8.91856e-009 1.1375e-006 0.0679684 0.207811 
0.0932698 0.0260031 0.00648969 0.0797659 0.122661 
5 5 1.34037e-007
0.0228882 0.00363951 6.1881e-009 -9.98681e-009 0.0507375 
4.95659e-005 -9.42897e-010 -7.90239e-009 0.0108217 0.0106401 
0.128778 0.0261307 0.00221264 0.0110388 0.044312 
0.526726 0.140559 0.000219808 0.000237707 0.0088122 
0.376407 0.18953 0.0200238 0.00778318 0.0442874 
5 5 -2.20467e-007
0.0461163 0.0160021 0.00532852 0.241126 0.516921 
0.0141718 8.67416e-006 0.000440415 0.161959 0.299767 
0.00808503 0.0215208 0.0102871 0.0171529 0.0171255 
-2.11283e-009 -5.28714e-009 0.0417307 0.00330765 0.00335696 
0.0297271 0.130159 0.180152 0.0511351 0.00823365 
5 5 4.84489e-007
0.30448 0.108947 0.000210377 0.00369079 0.0299336 
0.525573 0.163866 0.000260856 0.000296397 0.0204218 
0.158855 0.0484591 0.000173947 0.000352715 0.0191468 
0.0226693 0.0053643 0.00727494 -3.04578e-008 0.0543667 
0.0102743 0.00322177 0.0541036 0.0988176 0.216118 
5 5 -6.09033e-007
0.307334 0.113899 0.00394916 0.0113308 0.0320188 
0.531066 0.152625 0.000265539 0.000304689 0.0348449 
0.207988 0.0593244 0.0105336 0.000369004 0.0176879 
0.0229891 0.0128182 0.040816 2.4781e-008 0.0168119 
0.014189 0.0534 0.156211 0.0332552 0.0803671 
5 5 2.53833e-007
5.88922e-006 5.65814e-005 0.013332 0.0271102 0.0663637 
0.00388331 1.89707e-007 2.04352e-006 0.000451871 0.0223295 
0.102334 0.0214077 -1.96577e-008 2.0973e-005 0.00234412 
0.510023 0.141676 0.00840102 -2.67844e-008 0.0165017 
0.39774 0.206834 0.0218355 0.00723395 0.0344692 
5 5 -9.37879e-007
0.0479498 0.0354944 0.0882942 0.0220547 0.00846048 
0.0287357 0.122202 0.288539 0.0344042 0.00830423 
0.0296007 0.12834 0.524142 0.152483 0.0184278 
0.00689278 0.039166 0.156213 0.0600128 0.0746775 
-4.99894e-008 0.00756646 0.0637466 0.0573737 0.171998 
5 5 4.11232e-007
0.0699525 0.0312545 0.0144346 0.000395676 0.00713388 
0.0201611 0.0129639 0.00432956 -2.29376e-009 0.00704741 
0.0033952 0.00856135 0.00432345 0.0264681 0.0959852 
0.00190534 3.03833e-005 1.6343e-007 0.135192 0.352595 
0.00575765 0.000827498 0.0231547 0.188612 0.551781 
5 5 -2.76231e-007
0.0693873 0.0329682 0.0186242 9.15455e-005 0.00740602 
0.0242226 0.013894 0.00474645 0.0168331 0.0718904 
0.00595294 -7.78885e-010 3.6495e-010 0.116925 0.32012 
1.62439e-008 -1.13952e-008 0.002955 0.150373 0.537491 
2.04969e-009 -4.71747e-009 0.02527 0.0926429 0.224769 
5 5 2.30181e-006
0.177783 0.0981617 0.0406568 0.0192648 0.00848965 
0.0153169 -1.13817e-007 -7.11019e-009 0.000155052 0.0082763 
-9.63752e-008 -5.75248e-008 -4.83636e-008 -9.0951e-008 0.0347518 
-2.16634e-008 -2.62554e-009 -4.34544e-008 0.172591 0.299133 
0.0158162 0.00222513 0.00501334 0.26086 0.517257 
5 5 1.56383e-007
0.149553 0.101366 0.0423842 0.0190956 -4.86856e-009 
0.00877212 6.55082e-008 -4.90201e-009 6.42784e-008 -5.56654e-009 
0.120805 7.39942e-006 -6.87465e-010 6.78768e-008 0.0264918 
0.375595 0.0799979 1.19513e-005 -2.0502e-009 0.0529897 
0.520486 0.159543 0.00209079 0.002638 0.05635 
5 5 2.4664e-007
0.151544 0.101787 0.0425544 0.0197862 -1.60947e-008 
0.00863369 -1.16441e-008 -7.62203e-009 -7.84763e-009 -1.62093e-008 
0.0233423 -1.0471e-010 -1.29488e-009 8.38322e-009 0.0268311 
0.273529 0.153487 6.88642e-007 6.52693e-009 0.0536241 
0.541439 0.255865 0.00259472 0.00264553 0.0569505 
5 5 -1.29735e-007
0.150007 0.101483 0.0424269 0.0191152 0.03055 
-5.90154e-009 -1.09683e-008 6.27639e-009 -1.24e-008 0.0265715 
0.120922 7.41358e-006 8.17481e-008 7.39873e-008 0.00467387 
0.376006 0.0801016 -6.22758e-009 -1.46904e-009 0.0264984 
0.5211 0.159737 0.0020913 0.00264099 0.0563818 
5 5 -4.5448e-007
0.143071 0.115228 0.0464489 0.00817302 0.0304701 
0.000487154 4.17633e-005 3.75398e-005 4.45142e-005 0.0263294 
0.205219 0.0466065 -1.76278e-008 4.39007e-005 0.00453403 
0.487909 0.107494 3.7239e-005 -1.24725e-008 0.0262929 
0.390041 0.112881 0.0017139 0.000789225 0.0540353 
5 5 -8.84954e-007
0.152156 0.11282 0.0427444 0.00928101 0.00885937 
0.0004584 -3.30469e-008 -3.74759e-008 3.90467e-007 5.16092e-005 
0.0149357 0.00562993 4.38239e-005 -1.11865e-008 0.0267113 
0.264991 0.227662 0.00804318 5.20288e-005 0.0534903 
0.54375 0.193828 0.00291606 0.000392028 0.0542377 
5 5 2.86572e-007
0.186193 0.108807 0.0417283 0.0085699 0.00809074 
0.0293885 -5.19399e-008 0.00524176 0.000152745 6.26856e-007 
0.0140259 -9.15804e-008 0.0250475 0.138487 0.0656561 
-8.28065e-008 2.20986e-006 0.0991624 0.484941 0.272864 
-4.52829e-008 0.000351796 0.0418536 0.242184 0.215749 
5 5 1.90874e-006
0.183467 0.115223 0.0425576 0.00907456 0.00907109 
0.0308747 0.00131348 0.000181931 -6.57502e-009 9.18362e-009 
0.0169681 0.00176145 0.145529 0.042442 0.0270603 
0.00116609 0.0467507 0.448713 0.223422 0.0547601 
-5.95504e-008 0.00835714 0.292233 0.279069 0.0795868 
5 5 -3.19775e-008
0.0145916 0.00384916 -2.38015e-010 0.0013633 -1.25207e-009 
0.0271178 0.00384966 -8.8974e-010 -8.00445e-010 -1.3617e-009 
0.139109 0.00759966 1.01904e-009 1.17492e-009 -3.48676e-011 
0.325085 0.00855536 1.26428e-008 4.83596e-010 -1.33567e-009 
0.603712 0.0943354 0.0221455 3.39373e-010 -1.13976e-009 
5 5 -2.70435e-008
-5.55059e-010 0.0132042 0.025423 0.0100846 0.00731149 
5.55063e-010 -9.72827e-010 0.020562 0.00695419 0.0254119 
1.5654e-007 -3.17715e-010 0.00929236 0.0439015 0.134494 
1.56673e-007 5.08206e-010 1.47601e-007 0.0790515 0.317106 
-7.52292e-010 1.55871e-007 0.0221146 0.0734921 0.604243 
5 5 1.79602e-008
0.00495711 0.0127758 0.00161413 -1.18775e-009 -8.20758e-010 
0.00401403 0.0236677 0.0742291 0.00768963 1.19883e-010 
-1.83035e-009 0.0620988 0.29719 0.014626 0.000188311 
6.18492e-010 0.0274678 0.550361 0.0983954 0.000399565 
-2.73046e-010 0.030142 0.239699 0.17044 0.0229054 
5 5 1.60082e-008
0.0342688 0.0114022 -3.4216e-009 -6.69618e-010 2.2509e-009 
0.202172 0.0113932 1.37011e-009 9.89727e-010 2.09077e-009 
0.494517 0.0337317 1.40497e-006 1.64275e-009 0.000172146 
0.392827 0.0554181 2.73709e-006 2.72674e-005 0.000476322 
0.203357 0.112603 0.0242766 2.94331e-005 0.000523922 
5 5 4.24535e-007
-1.47644e-008 -3.45997e-010 0.0199687 0.0538471 0.113548 
0.000183794 -1.38122e-008 8.597e-006 0.122622 0.296234 
0.0103739 -1.73084e-008 0.00356119 0.125174 0.546724 
0.0628188 0.0123423 0.00878737 0.0350699 0.175448 
0.137545 0.0591675 3.74252e-007 0.017957 0.0859823 
5 5 8.25006e-007
0.519235 0.140129 0.0142249 0.00386273 0.0416518 
0.345231 0.144963 2.79464e-005 7.32603e-005 0.0273903 
0.1256 0.0525996 0.00980043 1.01645e-006 0.0117381 
0.0226092 0.0269518 0.0588699 4.05341e-007 -4.3179e-008 
0.0197777 0.096208 0.176535 0.059185 0.00800511 
5 5 -2.09154e-007
1.05677e-008 -1.42284e-008 0.0181057 0.136083 0.314789 
0.00273062 1.85844e-008 0.00450685 0.128962 0.528235 
0.0108882 -2.79114e-008 0.00879129 0.0300367 0.14945 
0.0647114 0.0288183 0.00666742 1.58079e-007 0.0219417 
0.204765 0.116361 0.0387767 0.00818868 0.0188253 
5 5 3.44475e-009
0.0663946 0.0309035 0.0135967 -1.11973e-008 0.0069937 
0.0271624 0.0127549 0.00456275 5.69434e-006 -2.73966e-008 
0.00528137 0.00838163 0.00455273 0.042156 0.0876943 
0.000572899 1.05881e-008 0.00330022 0.252641 0.496842 
-2.24542e-008 -4.20374e-008 0.0358596 0.242454 0.336355 
5 5 -1.83294e-007
-2.40173e-008 1.74006e-008 0.0146955 0.16628 0.495068 
0.0248681 0.0152175 0.00921547 0.125049 0.372948 
-6.62387e-008 -3.46895e-008 5.07874e-006 0.0377829 0.190304 
-4.89787e-011 -2.51808e-008 0.0469713 0.0120125 0.0947001 
0.0151942 0.039837 0.109178 0.0280323 0.0888563 
5 5 -3.26172e-007
0.478132 0.173372 0.0233804 4.34867e-006 0.0300283 
0.384985 0.172858 1.55828e-005 1.79271e-006 0.0284445 
0.120017 0.0117388 8.9954e-009 9.1173e-005 0.0366669 
0.0558643 0.0364103 0.0100513 5.17836e-005 0.0120636 
0.129539 0.146131 0.0468847 -1.90169e-008 0.00828695 
5 5 -3.57733e-007
-1.90244e-008 -2.2589e-008 0.0144994 0.171245 0.490161 
-1.4631e-008 3.30642e-008 0.00894796 0.131651 0.356184 
0.00811565 2.77868e-008 -2.86003e-008 0.0259825 0.105081 
0.0719428 0.0534392 0.0196879 1.08522e-008 0.00115682 
0.220611 0.120463 0.0404669 0.00822159 0.0289516 
5 5 -1.82737e-007
0.00962982 0.000139743 0.0144976 0.163762 0.491273 
0.0450507 0.0150611 0.00909759 0.125397 0.365641 
0.00847877 2.73984e-006 1.66855e-006 0.0160469 0.172687 
0.00465122 0.0434319 0.0303142 -2.44035e-008 0.0229762 
0.0497139 0.17993 0.103629 0.0208978 0.0157121 
5 5 -3.10937e-007
5.19716e-009 7.30557e-005 0.00405889 0.0242276 0.0448326 
1.38006e-007 7.31964e-005 0.000602269 0.0355329 0.132584 
0.00468589 -1.07418e-008 1.82546e-008 0.211539 0.520689 
0.0301758 -1.32313e-009 0.00280727 0.236849 0.286872 
0.0842501 0.0344292 0.00850207 0.0611436 0.106071 
5 5 -3.57596e-007
3.79444e-006 3.63565e-006 0.00464611 0.105625 0.47966 
-1.03388e-008 -1.52762e-008 -1.33609e-008 0.0856236 0.380852 
0.0150442 0.0107881 3.56279e-006 0.0319897 0.241779 
0.0650707 -6.53856e-010 3.56236e-006 0.013414 0.0562623 
0.154237 0.0249356 0.00724269 0.0751688 0.0940833 
5 5 -9.38459e-008
6.34924e-006 7.17621e-006 0.0045183 0.170556 0.232566 
1.34689e-008 -2.54408e-008 6.416e-005 0.181288 0.510021 
0.0147217 -1.94519e-008 -4.79904e-009 0.0340446 0.26514 
0.083121 0.0282861 4.63215e-009 0.0029311 0.0425625 
0.177876 0.0595213 0.00672688 0.0276319 0.0813634 
5 5 1.81915e-007
0.0616172 0.0289897 0.00353166 -8.50277e-009 0.0147211 
0.0210446 -1.60665e-008 4.85236e-005 0.00463503 0.00779685 
0.00401833 0.0126532 -1.23397e-008 0.0244495 0.107424 
-1.07465e-008 2.34898e-006 -5.23428e-009 0.0969621 0.341598 
-1.41762e-008 6.70907e-009 0.0272532 0.165477 0.572781 
5 5 5.3119e-008
-3.76869e-009 0.00338292 0.00338168 0.0134743 0.0666252 
0.00463509 -2.79334e-008 2.87475e-005 -6.17849e-009 0.0212131 
0.00820921 0.0116339 0.1088 0.036059 0.00978936 
0.0218184 0.220018 0.496012 0.115056 1.18592e-005 
0.0594067 0.271607 0.307299 0.0389468 0.00707877 
5 5 -4.60639e-007
0.281028 0.188588 0.00340968 -6.18205e-009 0.00813063 
0.508316 0.20109 0.00637236 -9.76081e-009 0.00815424 
0.138661 0.0238755 0.00582995 -2.31466e-009 0.0212311 
0.024515 0.00984519 0.00581477 0.0130653 0.0724353 
1.20463e-009 0.030135 0.0182486 0.0744722 0.230723 
5 5 -3.91842e-007
0.0729387 0.0260774 0.00275049 0.00330566 0.00706621 
0.0222159 -1.52243e-009 0.0044569 1.1124e-008 -4.11677e-009 
0.00507732 -3.72109e-009 0.0044632 0.0124366 0.122453 
0.000105889 -1.2668e-008 0.000487131 0.215756 0.504054 
-7.69857e-009 1.18742e-008 0.0242207 0.273058 0.320085 
5 5 -1.76253e-008
0.00410391 -1.52826e-008 -1.44713e-008 0.0139458 0.0667421 
0.0892738 0.0502565 1.19998e-008 -4.12892e-009 -8.26129e-009 
0.49235 0.196147 8.29599e-009 6.22601e-009 0.00767707 
0.379641 0.167222 -1.16202e-008 -1.38923e-008 0.0212636 
0.137738 0.0687069 0.0052647 0.0178609 0.0855323 
5 5 1.96234e-007
0.153154 0.0996498 0.0301945 0.00891829 0.0354315 
0.0129775 -1.07612e-008 2.9887e-007 2.75445e-007 0.0221767 
0.179662 0.0103318 3.65111e-008 -3.68543e-008 0.0270433 
0.403751 0.0930172 8.79211e-005 0.000135792 0.0540402 
0.491501 0.115688 0.00260048 0.00045401 0.0322372 
5 5 -6.5182e-007
0.155645 0.101528 0.0305074 0.00859528 0.0353946 
0.0130265 -1.17132e-007 1.87591e-008 -1.15278e-007 -1.1916e-007 
0.0222424 -4.0744e-008 8.85667e-008 -2.61578e-008 0.0274116 
0.272793 0.170191 0.0114195 5.29623e-005 0.0547241 
0.524648 0.280908 0.00343599 0.000457748 0.0333184 
5 5 8.60845e-007
0.15327 0.0997187 0.0302143 0.00844501 0.0354568 
0.0129822 0.0130535 0.000135449 4.46028e-005 -2.65606e-008 
0.179806 0.0103465 8.90671e-009 -4.02685e-008 0.026994 
0.404038 0.0930908 4.38403e-005 -4.25291e-008 0.0540297 
0.491786 0.115749 0.00260565 1.49192e-008 0.0269834 
5 5 2.72307e-006
0.222387 0.10231 0.0306765 0.00940643 0.0368521 
0.0454317 0.0193934 -5.0485e-008 5.37127e-008 0.0278848 
0.0180115 0.0289651 0.0924773 -6.45463e-008 0.00530785 
0.0013041 0.124474 0.386007 0.0154389 0.0277752 
-1.38868e-007 0.105245 0.475532 0.135737 0.0599137 
5 5 2.16658e-007
0.0738661 0.021069 0.000102066 -2.19282e-008 0.0167893 
0.0297275 0.00403818 0.004239 0.0113196 0.00949633 
0.0134236 -9.18224e-009 -1.21869e-008 0.0118026 0.144309 
-1.06529e-008 -4.8222e-009 -2.69381e-008 0.191874 0.511816 
-6.64749e-009 1.97045e-007 0.0345407 0.24476 0.334164 
5 5 -1.81209e-007
1.07007e-008 9.65078e-005 0.00763746 0.0162069 0.0536178 
-2.46684e-008 5.63937e-006 0.00457554 0.0160191 0.0961703 
0.0140937 3.5219e-009 -1.44856e-008 0.0948479 0.343769 
0.0324257 -7.85099e-009 0.00837546 0.120782 0.523535 
0.0623679 0.014049 0.00872716 0.0706985 0.246872 
5 5 -2.67169e-007
0.073866 0.0211418 9.86399e-005 -1.20424e-008 0.0169191 
0.0122896 4.11158e-005 0.00426979 0.0113883 0.00988299 
1.54678e-007 -6.71426e-009 0.00426398 0.0120298 0.146292 
0.0134619 4.3138e-006 1.26357e-007 0.203298 0.513556 
0.0336605 0.00404307 0.0178493 0.232584 0.33322 
5 5 -4.51346e-007
0.0737935 0.0211372 0.000204096 0.00278505 0.0168137 
0.0134149 4.97039e-005 0.0043028 0.0113348 0.00950856 
2.6053e-007 9.16536e-006 0.0042559 0.0118208 0.144605 
-5.06711e-009 4.47266e-006 -2.47644e-008 0.193241 0.512234 
0.0336137 -1.3997e-008 0.0178227 0.24387 0.334194 
5 5 8.95002e-007
0.153335 0.112522 0.0433164 0.00883958 0.00883926 
-2.16771e-008 4.11244e-005 3.73404e-005 -2.26571e-008 4.19946e-005 
0.103027 0.000104832 3.63677e-005 -1.31682e-008 0.0269098 
0.372469 0.0920837 3.57575e-005 4.23117e-005 0.0538242 
0.515552 0.176888 0.0101868 0.00236396 0.0561626 
5 5 2.63488e-007
-1.24157e-008 -7.2626e-012 -7.06222e-009 -1.26276e-008 -6.12859e-010 
-2.25314e-009 -1.25614e-008 -8.25275e-009 -1.24202e-009 -8.81422e-009 
0.107358 0.000111642 3.90214e-005 6.35751e-009 0.0272893 
0.387229 0.0957205 3.86855e-005 4.47487e-005 0.0546688 
0.536929 0.183955 0.0107492 0.00308146 0.058092 
5 5 -3.174e-007
0.153486 0.113362 0.0442454 0.00890468 0.0306318 
0.000449396 -1.53736e-008 -6.20269e-009 -1.64667e-008 0.0271524 
0.0214024 0.00194104 3.86242e-005 -7.6753e-009 0.00493251 
0.289907 0.194465 0.0119992 -4.61024e-009 0.0270764 
0.498953 0.290312 0.0104411 0.00280258 0.0574514 
5 5 3.61526e-007
0.153302 0.11297 0.0437769 0.00837373 0.00837375 
-2.00741e-008 3.68668e-005 3.53231e-005 -2.8614e-009 1.14728e-008 
0.102985 6.34549e-005 9.43368e-009 -2.16381e-009 0.026907 
0.372378 0.0920687 3.50346e-005 4.14646e-005 0.0538178 
0.515431 0.176852 0.0101812 0.00280232 0.0570502 
5 5 4.45705e-008
0.0135568 0.128426 0.0281288 0.00723088 -1.6399e-009 
0.0483149 0.337551 0.0766059 1.91387e-008 -7.53625e-010 
0.133572 0.508991 0.109237 3.80082e-008 0.00220524 
0.0592605 0.219383 0.0491045 1.99313e-008 0.00220524 
0.0415748 0.0881351 0.0790903 0.0403682 0.00688111 
5 5 -5.41935e-008
0.174207 0.0277807 0.00712843 0.023229 0.0611557 
0.470206 0.0909917 -6.80797e-010 2.51547e-008 0.0201045 
0.402808 0.109979 0.00900349 -1.72229e-009 0.00209701 
0.206396 0.0322574 0.0156094 -7.92322e-010 2.92298e-008 
0.0385489 0.0338439 0.0857769 0.0696413 0.0401857 
5 5 8.70826e-009
0.00360161 -1.70154e-009 0.0165152 0.036543 0.00658181 
0.00988757 0.00096939 1.16983e-009 9.91189e-009 0.0140953 
0.179521 0.02216 9.15132e-007 1.12036e-008 0.0224515 
0.524063 0.0938052 0.0145092 1.8109e-010 0.00807647 
0.398856 0.123742 0.0772123 0.0264356 0.00627654 
5 5 -2.00724e-008
0.0234529 -9.67063e-010 -1.08916e-009 -6.49635e-010 -1.49842e-009 
0.00990401 0.000968496 7.34183e-010 -4.80042e-011 0.0141009 
0.179718 0.0221885 -1.47311e-009 -9.31785e-010 0.0162878 
0.524438 0.0938917 0.0145354 -9.52672e-011 0.0102409 
0.399048 0.123821 0.0772826 0.0264654 0.0261726 
5 5 2.04553e-008
0.609365 0.107282 0.00598578 -2.42046e-009 0.00984854 
0.322071 0.0188599 0.00270719 -2.88417e-009 -1.86441e-009 
0.102727 -2.31991e-009 0.0026797 -3.30958e-009 0.0123156 
0.0295727 0.00147425 2.52365e-008 0.00264811 0.0160529 
0.0093588 0.00156191 0.0075262 0.0204774 0.0227993 
5 5 -2.41623e-008
0.167063 0.165053 0.0101283 1.93008e-009 0.00371594 
0.607473 0.174974 0.00762921 -2.08671e-009 0.00951076 
0.209011 0.00541383 0.00235512 -2.03115e-009 -1.22584e-009 
0.0135942 1.08621e-005 1.55226e-008 -2.11286e-009 0.00704927 
0.0162873 0.00726802 5.37537e-005 0.00718013 0.0248612 
5 5 -2.27754e-008
0.0133545 0.0220265 0.0117002 4.87678e-010 -7.28268e-010 
0.169558 0.167099 0.00764503 9.36616e-010 -1.20087e-009 
0.60779 0.174388 0.00235582 -9.06935e-010 0.00950619 
0.204018 0.00546925 2.01073e-005 3.69746e-010 -9.59681e-010 
0.0272808 0.00719094 0.00725809 0.00719931 -8.65601e-010 
5 5 1.53034e-008
0.0133503 0.0219613 0.0116542 -1.22949e-009 -7.1433e-010 
0.169422 0.167009 0.00761498 8.53509e-010 0.00708367 
0.607475 0.174358 0.00234652 -8.02761e-010 0.0199281 
0.203924 0.00546911 1.99825e-005 -1.24773e-009 0.00708336 
0.0272746 0.0144475 0.00725624 -9.45864e-010 -1.03459e-009 
5 5 -1.34567e-008
0.0501528 0.0422359 0.0136508 0.00154922 0.00832035 
0.354996 0.480305 0.216244 0.0200354 0.00340128 
0.015761 0.0434783 0.0400265 0.000439501 0.000380372 
1.17019e-006 4.3516e-010 -6.48291e-010 0.0667693 0.0660029 
-1.33666e-009 2.39546e-009 0.0390434 0.159375 0.228194 
5 5 2.7859e-008
0.00730331 0.00840669 0.00440303 0.00340238 0.00340762 
0.0772251 0.0607838 0.0240126 0.000420866 0.00701713 
0.38663 0.508257 0.233029 0.0185905 0.00279854 
0.0430945 0.0753257 0.0663516 0.0218235 0.0333404 
-8.15285e-010 0.0294288 0.0547849 0.0827481 0.0533745 
5 5 -2.08052e-008
-2.96954e-010 -1.50445e-009 0.0171635 0.0444623 0.0444824 
-1.49451e-009 -1.29589e-009 3.24659e-010 0.010158 -2.04819e-009 
-1.75066e-009 -1.80484e-009 -9.41422e-010 0.00284319 0.00283882 
0.0631489 0.0723052 0.0416067 0.0166706 0.0224275 
0.233725 0.498997 0.385938 0.174929 0.0269994 
5 5 -3.54138e-008
0.359483 0.483594 0.22416 0.0254079 0.00431176 
0.0223755 0.0404433 0.02848 0.000396327 0.000342026 
1.17916e-006 -6.33423e-010 -6.57443e-010 0.0205429 0.0121497 
0.0122334 2.85154e-010 -1.54908e-009 0.0881557 0.138025 
0.00443009 -3.45142e-010 0.0275511 0.133038 0.192431 
5 5 -7.78891e-008
0.284539 0.480778 0.0760539 1.20468e-005 0.0166491 
0.277358 0.236071 0.0470061 4.15931e-005 -3.37625e-009 
0.0211359 0.0228297 2.43903e-009 -2.0604e-009 0.0114285 
-2.08491e-009 0.00268327 0.039374 0.0159133 0.060049 
-3.16013e-009 0.0102804 0.112103 0.0799906 0.146205 
5 5 1.31766e-007
0.114283 0.0152095 0.00124693 0.025507 0.0541012 
0.322059 0.103662 0.00277904 -8.40731e-009 0.0324532 
0.531411 0.138949 2.91277e-006 1.46621e-006 0.0200988 
0.21436 0.0789107 0.00681888 -9.98052e-009 -9.81431e-009 
0.0639227 0.0878787 0.038196 -1.38651e-008 -5.57094e-009 
5 5 -1.06892e-007
0.0237406 0.110608 0.0155797 0.0146863 0.0653791 
0.0950641 0.318434 0.0411582 0.00288221 0.0297821 
0.135793 0.524758 0.0940656 9.14245e-007 0.0201282 
0.0773263 0.212012 0.0521445 3.86319e-005 0.0027718 
0.0504004 0.0769092 0.0606143 0.0231703 0.00752027 
5 5 1.32984e-007
0.0239641 0.11079 0.0185026 0.0146666 0.0396333 
0.0951974 0.31888 0.0412965 0.00289158 0.0298286 
0.136048 0.525697 0.094262 2.2889e-006 0.0326089 
0.0775104 0.212389 0.0521854 2.63193e-009 0.0124605 
0.0504599 0.0770171 0.0615488 0.0232208 0.00754416 
5 5 -3.05785e-007
0.00308476 0.000196726 0.00891324 0.0478486 0.151604 
0.00286449 -1.61081e-008 1.90651e-007 0.197793 0.516889 
0.0076671 -8.51225e-009 0.00863701 0.209008 0.295524 
0.0566716 0.0161947 0.00270795 0.0225513 0.0594745 
0.144865 0.0572723 -3.92285e-009 0.0181364 0.0711293 
5 5 -4.46748e-008
0.00570482 -3.23285e-008 0.00900439 0.0450503 0.150624 
0.0425205 0.0147705 4.77238e-005 0.123163 0.453099 
0.0277366 0.0147969 0.000114221 0.141754 0.39417 
0.00804399 4.30246e-008 4.38616e-005 0.0793464 0.216179 
-5.06517e-008 -5.16424e-008 0.0265241 0.086107 0.122516 
5 5 -1.55486e-007
0.00317957 -3.2984e-008 0.00360005 0.203683 0.524264 
0.00390709 -2.63423e-008 0.000364268 0.154932 0.280462 
0.00881291 0.00342921 5.36586e-005 0.00689746 0.0275788 
0.0604301 0.0569685 0.00645944 -4.1184e-008 -1.0978e-008 
0.22465 0.141043 0.0495383 0.00820878 0.0155052 
5 5 -1.14548e-006
-6.00377e-008 0.044825 0.253779 0.162947 0.0240035 
0.00986228 0.118811 0.504914 0.190474 0.00844034 
0.0107171 0.036429 0.206661 0.0543026 0.00842995 
0.0593072 0.0213261 0.0228141 2.9265e-006 0.04103 
0.181604 0.0561679 0.0089791 0.0189858 0.105036 
5 5 4.02589e-007
0.134695 0.102803 0.0461969 1.95802e-008 -3.4701e-009 
0.0258622 0.0203875 -6.99323e-009 2.98914e-005 0.0222048 
0.0265059 0.0101044 5.42071e-006 5.28379e-009 0.0473056 
0.296267 0.149101 0.00316493 3.38342e-009 0.0472836 
0.552867 0.215521 0.0100424 -5.96098e-009 0.0084724 
5 5 -5.1779e-007
0.578327 0.194892 0.0306406 3.10433e-005 -7.3738e-009 
0.330758 0.064979 0.00682144 2.26318e-007 -2.76266e-008 
0.0953616 0.00707162 -1.2658e-009 -9.05167e-009 0.025086 
0.0143971 2.25148e-005 -1.28099e-008 -2.89664e-008 0.0364157 
0.0137914 0.00131505 -7.33951e-009 0.00180097 0.0380088 
5 5 -1.34128e-007
0.103055 0.0691151 0.0263507 -1.09228e-008 -5.74174e-009 
0.226407 0.0662563 0.00290115 -4.54205e-010 0.0117289 
0.53876 0.128341 0.000193886 -2.02747e-008 0.0376747 
0.32462 0.0611826 0.000174726 4.59204e-009 0.0381087 
0.0872197 0.00941886 -5.40463e-009 0.00239295 0.0410398 
5 5 -2.72512e-007
0.180278 0.0830866 0.0256771 1.50653e-008 -1.30817e-008 
0.362429 0.10586 0.00272003 3.68815e-009 0.0115532 
0.519955 0.100191 -8.33718e-009 1.50031e-007 0.0255415 
0.179961 0.0163565 4.09068e-006 1.27316e-007 0.0373262 
0.024257 0.00167881 0.000207795 0.00224632 0.0393491 
5 5 2.62159e-007
0.0109545 0.00749199 -3.43961e-009 0.0133869 0.0579991 
0.000506587 -6.08945e-009 2.89246e-007 2.3394e-005 0.00990797 
0.11258 0.0328918 -9.30073e-009 0.000261648 0.0130619 
0.4956 0.198637 0.0055443 0.00556177 0.0107845 
0.361326 0.251697 0.0243601 0.0268522 0.0421822 
5 5 -3.69614e-008
0.456901 0.15927 0.00321069 -2.14834e-008 0.0187701 
0.153935 0.0731111 3.10911e-007 -4.56225e-009 0.0109119 
0.0106697 -1.25056e-008 0.00545757 1.11201e-006 0.00777495 
0.00265493 1.88022e-008 9.1515e-009 0.0476298 0.118638 
-8.26757e-009 -7.2163e-009 0.0404776 0.227235 0.408071 
5 5 -3.66812e-007
0.235226 0.0669639 2.73856e-008 0.00380902 0.0274109 
0.492944 0.131879 2.54192e-006 0.000229162 0.0142931 
0.120016 0.023432 0.00550902 -1.51267e-008 0.00801743 
0.00324826 4.42703e-006 0.00549129 0.0352576 0.102775 
1.84814e-009 -2.02074e-008 0.0331034 0.193059 0.336997 
5 5 2.89156e-008
0.0827641 0.0321942 0.00496078 0.00336247 0.0184592 
0.0259309 0.0137042 0.00496781 0.0140541 0.0875985 
0.00625505 5.94768e-005 2.61208e-006 0.154197 0.469541 
5.1005e-006 4.34727e-006 0.00491466 0.225502 0.379172 
5.29093e-009 1.74499e-007 0.031271 0.10062 0.181515 
5 5 -5.9918e-007
-1.36521e-008 2.62531e-005 0.00336746 0.210949 0.53543 
0.000199278 2.06924e-005 -1.00273e-008 0.16975 0.254557 
0.00710404 1.57278e-008 -1.39423e-008 0.000114697 0.0166741 
0.0810782 0.0428402 0.00620269 -5.04652e-009 0.0138346 
0.224676 0.0974451 0.00620271 0.0633713 0.0468326 
5 5 4.09562e-007
0.0428764 0.0169594 0.00520383 0.0403406 0.173697 
0.0257588 0.0137765 0.00134891 0.216624 0.519521 
0.00645643 -6.52571e-009 2.64838e-008 0.195478 0.27859 
3.01824e-007 -1.88082e-008 0.0252189 0.050293 0.0278928 
2.11597e-008 0.0235655 0.0908658 0.13043 0.0522734 
5 5 8.91607e-008
-4.48231e-008 -8.16732e-008 0.00849657 0.0434938 0.173183 
-7.44913e-008 8.26761e-006 0.00132661 0.215856 0.518138 
0.00635 8.16496e-006 2.41593e-008 0.194804 0.274092 
0.0696522 0.0281479 0.00600675 0.0216223 0.0243494 
0.153098 0.0855014 0.022057 0.0192151 0.0389926 
5 5 1.03533e-007
1.02046e-008 0.00262529 0.00296996 0.0128565 0.0612379 
8.54347e-005 6.52622e-005 1.03229e-005 3.80071e-005 0.0301246 
0.10829 0.0218812 -2.06294e-008 0.00032634 0.0219032 
0.371555 0.148872 0.00534245 0.00548524 0.017942 
0.525518 0.207788 0.0286765 0.0120447 0.0395928 
5 5 4.3986e-008
0.000212047 0.0243188 0.0182737 0.00816184 -1.32235e-009 
1.3756e-006 0.0170045 0.155371 0.0136971 -2.35951e-009 
-4.89122e-010 1.08544e-005 0.254361 0.214121 1.16891e-009 
-2.56689e-009 2.12669e-009 0.0697272 0.536261 0.0483741 
-2.06418e-009 1.39352e-006 0.00883355 0.213945 0.152366 
5 5 -7.98148e-008
0.0248307 0.00859135 -1.13969e-009 0.00145857 0.0260538 
0.0213864 0.0141965 -4.25476e-009 -4.52971e-009 0.0117356 
0.0772389 0.231325 0.00923191 -8.45546e-010 -1.92952e-009 
0.0536065 0.50557 0.194891 0.00959801 1.50215e-009 
0.00888716 0.198796 0.316276 0.0457236 -4.47505e-009 
5 5 -3.11352e-008
0.0248335 0.0085813 1.5599e-009 -2.16969e-009 0.0246472 
0.0213909 0.0141971 7.29585e-010 0.00142255 0.0117398 
0.0772475 0.231343 0.00923368 1.64102e-009 0.00145631 
0.0536086 0.505611 0.194906 0.0096008 -1.17921e-009 
0.00888658 0.198798 0.316292 0.0457347 -5.08199e-009 
5 5 -3.52965e-008
0.0226999 0.0194979 0.0068264 -4.0616e-009 -1.04152e-009 
0.0822067 0.208552 0.00297097 0.000234934 -2.62269e-009 
0.039172 0.498212 0.0547159 0.00988576 2.77346e-005 
0.0122802 0.376005 0.110372 0.0306009 0.000498361 
0.00937265 0.159783 0.115496 0.0484702 -7.0056e-009 
5 5 -5.3982e-008
0.00830393 0.0192057 0.0238282 0.0698724 0.158089 
-8.75239e-009 -3.66613e-009 1.65464e-008 0.0129953 0.0348355 
0.0239088 1.84934e-009 8.29546e-009 4.42123e-005 0.00473498 
0.274673 0.157102 0.00279994 -5.65095e-009 0.0312721 
0.555278 0.237992 0.00216195 0.000439615 0.0324409 
5 5 -1.88664e-007
0.146979 0.0905958 0.0336038 0.0194832 0.0309291 
0.0132972 -8.52763e-009 1.70324e-009 1.37646e-009 -1.51979e-009 
0.127992 0.002683 -7.42178e-010 -6.65351e-009 0.026439 
0.3803 0.0954907 -4.53549e-009 3.89523e-005 0.0529452 
0.520243 0.150176 0.00232374 -4.6379e-009 0.0264285 
5 5 -1.35276e-007
0.148142 0.0859824 0.0294587 0.0197984 0.0304685 
0.0217148 -7.82047e-009 1.60561e-008 6.06909e-009 0.021888 
0.166263 0.0364433 4.63653e-009 1.28616e-008 -9.90297e-009 
0.499076 0.184055 -1.01206e-008 5.68331e-009 0.0263623 
