8
5 5 -0.61974
0.0362648 -0.0529416 0.0366137 -0.0874488 -0.0749846 
0.0445369 -0.0959213 -0.0095265 -0.0245082 0.0814086 
-0.099662 -0.00761878 -0.0298561 -0.0331077 0.0307156 
0.0507404 -0.0479576 -0.057839 -0.0607987 0.0272355 
-0.10375 -0.104048 0.0111829 0.0900486 0.0155368 
5 5 -0.0327598
-0.00904457 0.0263548 0.0327505 0.0791619 0.0286739 
-0.0447479 0.02502 0.0359549 -0.0740198 0.0330014 
0.0428347 -0.0669065 0.0575593 -0.0769566 0.0327445 
0.0166823 -0.0695052 0.0683585 0.0749172 -0.0816081 
-0.0707588 -0.0187465 -0.0627967 -0.0768546 -0.0673334 
5 5 -0.053365
0.0877198 0.101456 -0.00594389 0.00179736 -0.070433 
-0.0642141 0.10642 0.094011 -0.022044 0.0189558 
-0.0163635 0.0124757 -0.061491 -0.0754718 -0.0630434 
0.0638918 0.046824 -0.0239576 -0.00746599 0.0842017 
-0.0119421 0.0147524 0.030944 0.104194 -0.044122 
5 5 -0.0632755
-0.0278404 0.0400255 0.0692481 -0.0835873 -0.00658384 
-0.0355162 -0.0231981 0.00976212 -0.00422055 0.0224802 
-0.00146389 -0.0210059 -0.0733874 0.00868332 -0.0641766 
-0.0788612 -0.0827861 -0.0325914 0.0577847 -0.0813768 
-0.0922761 0.0391948 -0.0347577 0.0197716 -0.100337 
5 5 -0.0157874
0.101495 0.102273 -0.0720518 -0.0773476 -0.0510568 
0.0270195 0.0423082 0.0738031 0.0886844 -0.030908 
0.0423644 0.0851821 -0.0556834 0.103973 -0.0266852 
0.0722294 0.0635885 -0.00146196 -0.0195093 -0.0226204 
0.0652569 0.100468 0.0973194 0.0393061 -0.0693354 
5 5 0.0613025
0.00132419 0.10527 0.0106826 0.067259 -0.00627551 
-0.0437745 0.0313705 0.0769076 -0.00570095 -0.0331181 
0.0881288 0.0463735 0.0144366 0.102009 -0.0100798 
-0.0313252 0.098214 0.0552685 0.0627097 -0.0570378 
0.0494924 -0.00433272 -0.046903 0.0523844 0.0453226 
5 5 0.0245143
0.00112615 -0.0882059 -0.0960669 -0.0547649 0.0925053 
-0.0422921 -0.022786 -0.0280089 0.0388308 -0.0525736 
0.00156966 0.0767647 -0.0858064 -0.00670367 -0.0627394 
-0.00841219 -0.0183788 0.0301913 -0.0917118 0.0619542 
-0.0432726 -0.0518678 0.0291382 0.0857033 -0.0771052 
5 5 0.450856
0.110607 0.00441124 -0.0558563 0.0175361 -0.0162446 
0.105936 0.009998 -0.0793143 -0.00501488 0.0417699 
-0.0149441 0.0975566 0.00396709 -0.0673711 -0.0407246 
-0.0784487 -0.0568483 -0.0765825 -0.0500836 -0.0597339 
-0.0190022 0.0343184 0.00765263 -0.0624138 -0.0835998 
32
5 5 -0.184044
0.0500406 0.0111439 0.0290851 0.0845752 0.0876881 
-0.0132797 -0.00353485 0.0283236 0.11371 0.154875 
0.122009 0.07804 0.130595 0.0497224 0.0734138 
0.11756 0.134324 0.0395256 -0.0260213 -0.0120884 
0.071054 -0.0190446 0.0653441 0.0245214 0.0515109 
5 5 -0.511773
0.0503075 0.0290415 0.120482 0.0933374 0.0797484 
-0.0555388 0.00831698 0.101665 0.010558 0.0546819 
0.0982292 -0.0659278 0.0973726 0.109087 0.113274 
0.0705523 0.00303627 0.106125 -0.0337381 -0.0528377 
0.0358507 0.119582 0.143517 0.0729571 0.0785294 
5 5 -0.219176
-0.0442877 0.0271953 -0.0257002 0.0263036 -0.0875218 
0.0108365 0.0758733 0.0682373 0.0904286 -0.00159308 
0.0822015 0.0917743 -0.010752 -0.0354976 -0.0353503 
0.0528972 0.000279941 0.0424561 0.0751303 -0.0518535 
-0.0642488 0.0720649 -0.0494676 0.0672916 -0.0784468 
5 5 -0.0894717
0.0577899 0.0565486 0.124357 -0.0169502 0.0802761 
-0.00426658 0.0162521 0.125773 0.131623 0.0174437 
-0.0436278 0.0993653 0.140298 -0.0191037 0.112255 
-0.0314957 0.0932499 0.0833567 0.0828135 0.0501272 
0.0668684 0.087696 0.098517 -0.0280806 0.119941 
5 5 -0.0871237
-0.0928661 0.00323532 0.095409 0.026386 0.0639187 
0.00221228 -0.0912261 -0.0964562 0.0383325 -0.01475 
0.0624253 0.0602542 -0.0730114 -0.00402504 -0.0738687 
-0.012704 -0.040758 -0.0556114 0.0781698 -0.0743327 
-0.0171684 0.0743266 -0.0713252 -0.0760425 -0.0819457 
5 5 -0.0734958
0.0643848 -0.071158 -0.0835234 -0.0191136 0.0953616 
-0.0392362 0.0417993 -0.0464418 0.0916497 -0.0558021 
0.026312 0.0397065 -0.0193606 0.031084 -0.0885176 
-0.0779083 -0.00603189 -0.0126842 -0.082307 0.0846966 
-0.0572728 0.0920706 -0.0288455 -0.0410803 0.00222132 
5 5 -0.071048
0.0164689 -0.0932286 -0.0126485 -0.0214477 -0.0459162 
-0.0513046 0.00323391 0.00927923 -0.0845768 0.034606 
0.0433314 -0.0134445 -0.0630981 -0.0265023 0.0287435 
-0.00628123 -0.0671928 0.027765 0.0577802 -0.020533 
0.0191701 0.0687042 -0.0408556 0.0311988 -0.0887348 
5 5 -0.0894999
-0.082192 0.0181319 0.0260102 -0.0821849 0.0642143 
-0.0477764 0.0286553 -0.0855641 0.00268102 -0.0769077 
0.0390319 0.0640552 -0.03748 -0.0277089 0.0452115 
-0.0344813 -0.0466821 -0.0479545 -0.0521759 0.0468053 
0.00410312 -0.067888 -0.0354808 0.0725745 0.0693617 
5 5 0.0134274
0.0315473 0.0669129 0.0820216 0.0679454 -0.0726597 
0.060945 -0.0663987 -0.0278188 -0.0412469 -0.0275756 
0.0671702 -0.0934824 -0.0723333 0.0193969 0.0581164 
-0.0403277 0.0218397 -0.0239808 0.0695277 0.0852336 
-0.045326 0.0792544 -0.0409231 -0.0967944 -0.0135826 
5 5 0.0855919
-0.0767242 0.0970312 -0.0405295 -0.0868634 0.0529669 
0.059876 -0.0267529 0.0895061 0.093613 -0.0437922 
0.043219 -0.0412307 -0.0228842 0.0399981 -0.0419617 
0.00255376 0.016721 -0.00190731 0.0784832 -0.025459 
-0.0578314 -0.0308926 -0.0945714 -0.077166 0.057369 
5 5 -0.0403242
-0.0526051 -0.0881373 -0.0984991 -0.0327832 -0.0796577 
-0.0526678 0.0941408 0.00508347 0.00891478 -0.0836687 
-0.0514504 -0.0447813 0.0255893 0.0398715 -0.0703633 
-0.066345 -0.00982291 0.0546224 -0.0582842 -0.0109817 
-0.0306644 0.019972 -0.0734572 0.0361717 -0.0972329 
5 5 -0.0357463
-0.0502405 -0.0856249 0.0492072 0.0739627 0.0656243 
-0.0667871 -0.016359 0.0296322 -0.0736257 -0.0484905 
-0.0278963 -0.00244003 0.0344668 -0.0423906 0.0641728 
0.0837689 0.00618924 -0.000788124 -0.0724791 -0.0453306 
-0.0657924 0.021253 -0.0423628 0.0321282 0.0283036 
5 5 0.0675772
0.103818 -0.0233018 0.0241871 0.0189476 0.0853784 
0.0144192 0.0928283 0.0495005 -0.0216837 -0.0610469 
0.0509772 -0.0815511 0.089941 0.0409623 0.0960585 
-0.0434701 -0.0675689 -0.0417796 0.0752669 0.043358 
-0.0598445 0.0557313 -0.0112789 -0.0153514 -0.0196711 
5 5 -0.0160485
0.0548908 0.0190986 -0.0107518 0.00436244 -0.0578909 
0.00815308 -0.00916538 -0.0808313 -0.0904096 0.0941031 
-0.0631966 -0.0587891 0.0485862 0.0716926 -0.0610372 
-0.0755357 -0.0664064 -0.0876445 -0.089555 -0.050937 
-0.0559627 -0.0781778 -0.0924479 0.0417078 -0.0799719 
5 5 -0.10379
0.0730305 0.0698678 -0.0666205 -0.0446249 0.0137203 
0.0764118 0.0535711 -0.0840629 -0.00773291 -0.0776059 
-0.0990393 0.0266698 0.0810377 0.0884526 0.0475802 
0.0447432 0.0790021 0.0621788 0.069761 0.0234877 
-0.00824528 0.0275857 -0.0868615 -0.0716504 0.0114992 
5 5 0.033302
-0.0281781 -0.0584375 0.0305655 0.0565123 -0.0627858 
0.00544606 0.0102088 0.0489198 0.035195 0.0853114 
0.0589975 0.0124518 0.0883244 0.0725214 -0.0788122 
-0.0395776 0.0196528 0.0105727 -0.0709808 0.00558814 
0.0617347 -0.00897808 -0.0576589 0.0677664 0.0575048 
5 5 0.0770363
-0.0848774 -0.0657675 -0.0590829 0.105398 -0.0355503 
0.0188794 -0.068534 -0.0746969 -0.0742842 0.0835047 
0.0488459 -0.0381472 -0.0891375 -0.098872 -0.0478 
-0.0123982 0.0631668 -0.0380185 -0.0793761 0.0293112 
-0.0159757 -0.0800424 -0.0814458 -0.0701248 0.0605244 
5 5 -0.0524559
-0.00802729 0.0452566 0.0284472 0.0991501 0.0386657 
0.0941743 0.0210467 0.0440985 -0.0323459 -0.0351704 
-0.00538965 -0.0304613 0.0951258 0.0873139 0.00200793 
-0.0455698 0.00222781 -0.0198542 0.0124308 -0.00699814 
0.0654845 -0.0237933 -0.0460601 0.0285908 -0.061284 
5 5 -0.108843
0.0602333 0.0519751 -0.0603554 0.0487087 -0.0419545 
0.0869331 -0.0979587 -0.0856537 -0.099065 -0.0712741 
-0.0499893 0.0417298 0.0428639 -0.0549873 -0.00715972 
0.041597 0.0256374 0.0778821 0.0621916 -0.0698772 
0.0229773 0.0492667 -0.0369414 0.0524529 -0.00188152 
5 5 -0.280213
0.0809904 0.0568547 0.0124615 0.0327594 -0.0819127 
0.0557758 0.0759103 0.0242895 -0.0804161 -0.0916513 
0.0792223 -0.0117792 0.0424741 0.0732143 -0.0188661 
-0.0272453 0.0320155 -0.0565796 0.0210407 -0.0794299 
0.00201242 0.0316582 5.20282e-005 -0.0799566 -0.0790429 
5 5 0.0221281
-0.0933568 0.0520278 0.0798685 -0.0590061 0.0131106 
0.0584851 -0.0512328 0.0671939 0.0446425 -0.0898834 
0.0286578 -0.0997149 -0.00559721 -0.0766503 -0.0148584 
-0.0962675 -0.0145576 0.0881338 0.0679301 -0.0298447 
-0.0780482 0.0408148 0.0204159 0.00830254 -0.0405863 
5 5 -0.021146
-0.0338432 0.00542563 -0.0745864 -0.0907057 0.0559768 
0.0461018 -0.0726308 -0.0038015 -0.0734483 0.0021322 
0.0588837 -0.0940375 0.00452221 -0.00678208 0.0662247 
-0.0297646 0.086551 -0.0462637 0.0790288 -0.0966933 
0.00663314 -0.044057 0.0576862 -0.00167379 0.0626129 
5 5 0.262529
0.070074 0.0243445 -0.0147615 -0.0529967 0.042197 
0.0800929 -0.0929832 0.0448386 0.0882604 -0.0848351 
-0.010297 -0.0739375 -0.0736097 0.0525346 0.0867878 
-0.0303477 -0.000518098 -0.0602823 0.0546413 0.0725749 
0.0175058 0.0306997 0.0949942 0.0698851 0.0282869 
5 5 -0.23342
-0.074401 0.0341222 -0.00679198 0.0362244 0.098579 
-0.0488398 -0.00552079 -0.00170596 0.060381 -0.0892191 
-0.0471719 -0.103761 -0.00248835 -0.0400609 -0.0211585 
-0.0291025 -0.0927546 0.0641115 0.0590981 0.0785594 
-0.106489 -0.066296 -0.0821335 0.0398634 -0.0235802 
5 5 -0.0280474
-0.0141228 0.0168618 0.0308259 0.0491412 -0.0392726 
-0.0255905 0.0341429 0.020864 0.0696618 0.0628466 
0.0559116 0.0771617 -0.0380341 -0.0822418 -0.0655619 
-0.022688 0.0281961 0.0686838 0.0786318 0.00406942 
0.00281907 0.0520566 -0.0403523 -0.00177402 -0.0991934 
5 5 -0.0691286
-0.000167634 0.0276641 0.0215363 -0.0145102 0.0174603 
-0.0331513 0.0363175 0.0245761 -0.0717621 -0.0679035 
-0.0871021 0.0838431 0.0664354 0.0325097 0.089802 
0.0567198 0.0215196 -0.0123993 0.0414731 -0.0792593 
-0.0361108 0.07641 0.0594834 -0.0863007 -0.0570753 
5 5 -0.02453
-0.0141696 0.0543044 -0.0632929 0.0856891 -0.0679563 
-0.0675888 -0.0519417 0.0915053 -0.0934923 -0.0689821 
0.0906082 0.0771052 -0.020349 0.0586539 -0.00284554 
-0.0934517 -0.0620363 -0.0905571 -0.0918664 -0.0994395 
0.0372086 -0.0624842 0.0897323 0.0578524 -0.00767716 
5 5 0.0033129
0.0285374 0.029302 0.050021 -0.0838397 0.0171131 
0.038522 0.0253216 -0.0307186 -0.0170932 0.00550923 
0.0211872 -0.00885072 -0.045138 -0.0011484 0.0696004 
0.0983233 0.0297221 0.0849509 -0.00827307 0.0691359 
0.0730873 -0.0474749 -0.037695 -0.0522919 -0.0505999 
5 5 -0.268302
-0.00879607 -0.0987265 -0.0939333 -0.0218573 -0.033806 
-0.065943 -0.150961 -0.128169 -0.119109 0.0165163 
-0.128523 -0.078589 -0.000587098 -0.0708786 -0.142348 
0.0358429 -0.0953102 -0.154408 -0.0490921 -0.0885304 
-0.0217674 -0.151212 -0.098614 -0.0410517 -0.077149 
5 5 -0.476069
-0.0620091 -0.0141774 -0.0801156 -0.120606 0.0418991 
-0.107456 -0.0283671 -0.136413 -0.0769075 0.0348612 
-0.0170768 -0.10476 -0.143521 -0.0605456 0.0230845 
-0.0823987 -0.128879 -0.0951865 -0.134563 -0.063041 
-0.131214 -0.0577491 -0.103976 -0.00511593 -0.088904 
5 5 0.0576119
0.0116385 0.0442915 -0.0574025 0.0222193 0.0601759 
0.0191259 -0.0608727 0.0567958 -0.0479378 -0.0445731 
0.0649192 -0.0629893 -0.0309296 0.0750788 -0.0257071 
0.0337581 0.0797855 -0.0765353 -0.00932152 0.020131 
0.0353807 0.00415818 0.0123925 0.0710579 0.01822 
5 5 -0.0288363
-0.0172296 -0.00832694 0.0770825 0.0592353 -0.0283579 
0.0307214 0.0432941 0.00541782 -0.0824597 0.0877304 
0.0447973 -0.0931965 0.0211312 -0.015726 0.0487306 
0.0688422 0.0406407 -0.0804966 -0.0663508 -0.0701493 
-0.0571953 0.0444426 -0.00771556 0.0737319 0.0935211 
128
5 5 -0.304164
-0.061522 0.0664236 0.110086 0.0979636 -0.046145 
0.118163 0.130244 0.128645 0.0782796 0.00809121 
-0.0661532 0.114347 0.065124 -0.0505571 -0.0318592 
0.130367 -0.0363905 0.0751942 0.0927631 0.129846 
0.0128994 0.0900101 0.0297404 0.133439 0.0871385 
5 5 0.105391
-0.0628646 -0.0811122 -0.0592804 -0.118826 -0.0386642 
-0.0714197 -0.00924967 -0.0795127 -0.100588 -0.0380247 
-0.0682116 0.00497871 -0.134297 -0.0786976 0.037182 
-0.113861 -0.0736563 -0.0746163 -0.104128 -0.102233 
-0.0813568 -0.0220824 0.0264572 -0.0192935 -0.132839 
5 5 0.0797237
-0.050896 -0.0337339 0.0428838 -0.0138516 0.041662 
0.0860873 0.0198862 0.0420496 -0.0498043 0.0600132 
0.0433757 0.00477942 -0.0519935 0.0664611 0.0809282 
-0.0223643 0.011158 0.0141649 -0.0140261 -0.0418407 
-0.0193736 -0.0165875 0.00518897 0.037485 -0.0128165 
5 5 0.0719622
0.0647328 -0.0887164 -0.0205582 -0.00507466 0.0503633 
0.00303955 0.0283453 0.0900235 0.0184581 -0.00639569 
-0.00991002 -0.0523836 0.0163236 -0.0672412 0.04998 
0.102856 0.0425033 -0.0827885 -0.0511724 -0.0509453 
-0.0313513 0.0481476 -0.0647657 -0.00419884 0.0148718 
5 5 -0.347861
0.113135 -0.0255323 0.0801738 0.0338416 0.0655746 
-0.035062 0.0192516 0.0950503 0.114107 -2.67939e-005 
-0.0706062 0.104378 -0.0844206 -0.0802294 0.0260942 
-0.0285777 0.0993099 -0.0367122 0.0935477 0.0264384 
0.0656762 0.0690578 0.105476 -0.0457278 0.0523771 
5 5 0.0516576
-0.0301279 -0.0538155 -0.0199555 -0.0928591 -0.136871 
-0.133917 -0.141292 -0.101836 -0.096282 -0.065372 
-0.00328455 -0.0564335 0.00253484 -0.124014 -0.0089264 
-0.0502451 -0.0582515 -0.078804 -0.11209 -0.0997849 
0.0218084 -0.000832384 -0.122551 -0.048155 -0.0794368 
5 5 0.0601409
-0.0452048 -0.0605413 -0.0252504 -0.0242375 -0.0306533 
-0.0753273 -0.0882357 -0.158566 -0.0985463 -0.0327305 
-0.0198519 -0.0693654 -0.151691 -0.194683 -0.0785599 
-0.191337 -0.0879433 -0.13728 -0.0306662 -0.0785816 
-0.0429948 -0.0985146 -0.091385 -0.18653 -0.0676782 
5 5 0.417486
-0.0481044 -0.0645937 -0.105966 -0.0228749 -0.116872 
-0.0106876 -0.0802739 -0.107412 0.0577623 -0.123348 
-0.0829107 0.0452975 -0.0919654 -0.0477955 -0.0386728 
-0.12993 -0.0281477 0.0247876 -0.0902269 -0.114967 
-0.0133248 -0.0681967 -0.112619 -0.146757 0.00610391 
5 5 0.0488998
0.0141394 0.00849195 0.00645111 0.0522568 0.0129811 
-0.00594302 -0.0775591 -0.0647677 0.0708088 0.0316251 
-0.0104353 0.0678938 -0.0766398 0.0645327 0.0128445 
-0.00447201 0.0201352 0.00660743 -0.0473079 -0.0232025 
0.00323538 0.0473597 0.0428639 0.0235549 -0.0456718 
5 5 0.00721749
0.0899059 0.0643753 -0.0640487 0.000922104 0.0651795 
-0.0966853 -0.0154717 -0.016708 0.0575672 -0.0659657 
-0.0122039 -0.0494036 0.0498825 -0.0198361 0.0449946 
-0.0154159 -0.0206714 -0.014553 -0.0286977 -0.00996234 
-0.0483729 0.0839271 -0.0894948 0.0160316 0.0827278 
5 5 -0.0751493
-0.0634087 0.00870039 -0.051833 0.0954861 0.0264912 
-0.0194886 0.0765776 0.0121674 -0.027131 0.027101 
-0.0144286 -0.0827696 0.0576068 0.0823848 0.100959 
-0.0364772 0.0126198 0.0447221 0.0518838 0.00895278 
0.0928035 -0.0646794 0.0932881 -0.0697058 0.0198686 
5 5 -0.390668
0.0260457 0.102432 0.0951963 -0.0496263 0.103438 
0.0911653 0.0419733 -0.0117608 0.0688408 0.0557784 
0.112931 0.032377 0.0529857 0.0232586 0.0645896 
0.0123429 0.0261525 0.100543 0.0185262 -0.0478548 
0.0474432 0.0544146 0.117882 -0.0391177 0.0886091 
5 5 -0.344846
-0.036116 0.0202525 0.100731 -0.00435784 -0.00371571 
-0.0447658 -0.0396949 -0.031675 0.108143 0.0745741 
0.0873567 0.115261 0.00168379 -0.00590626 0.00542082 
0.0866514 0.036427 0.100838 0.116244 0.0937 
0.073722 -0.00901976 0.114708 -0.0461619 0.0185728 
5 5 -0.0632193
-0.0447972 0.0824424 -0.0340645 -0.0229863 -0.0282589 
0.0949841 -0.0732165 0.0766983 -0.0558756 0.0217277 
0.0674286 0.00943816 -0.0102935 0.0936265 0.0681954 
0.0306702 -0.0959449 -0.0639839 -0.102955 0.0258259 
0.053659 0.0179681 -0.0665097 -0.028574 -0.0964767 
5 5 -0.026669
0.0811001 -0.0138945 0.020478 0.0193094 -0.0521714 
-0.0237996 0.00898554 0.0156809 0.0042291 -0.0613062 
-0.0361562 -0.0663348 -0.056547 0.0107048 0.105324 
-0.0512857 -0.0651968 0.0941092 -0.020225 0.0876354 
-0.0617738 0.0409294 -0.0329411 -0.0602506 0.0257049 
5 5 0.145301
0.0421683 -0.155022 -0.00370243 -0.134716 -0.0578411 
-0.00562227 -0.132827 -0.0917223 -0.127874 -0.0600461 
-0.143484 0.0410307 0.0201858 0.00450271 -0.080989 
-0.091601 0.024514 -0.00389103 -0.0796266 -0.163289 
-0.147494 -0.088091 0.00743743 0.00509592 -0.12364 
5 5 0.0643609
-0.0870019 -0.0230536 -0.0545045 -0.0765147 -0.0550373 
0.097232 0.0417496 -0.0521779 0.0781797 0.0429043 
0.0825437 0.0608884 0.0355237 0.0742831 0.0947179 
0.05338 -0.0685329 0.0937811 -0.061056 -0.0594937 
0.0243675 -0.0916443 -0.0553573 -0.0151981 0.0786266 
5 5 0.068265
0.00341116 -0.0625622 0.0615574 -0.0770504 -0.0952096 
-0.0425772 0.0115788 0.0911588 -0.00623231 -0.0349847 
0.00671518 -0.065266 -0.068535 0.0820695 0.0630651 
-0.040965 0.0414768 -0.0799901 0.0975974 0.055481 
0.0215225 -0.0299592 -0.0153418 0.0568241 -0.0974288 
5 5 0.0378393
0.0394365 0.0175738 0.0367652 0.0683814 -0.0480167 
-0.0802078 -0.00700264 0.0524415 -0.0791535 0.0227791 
-0.0518152 -0.0869038 -0.00805769 -0.0502569 0.0461153 
0.0863306 -0.041475 -0.0773674 -0.0876609 -0.0860924 
0.0379222 0.0576925 0.00287828 -0.0751055 0.0602226 
5 5 -0.0835678
-0.0327563 0.0611552 0.00677769 0.0220588 -0.0836368 
0.0212445 0.0181342 -0.0297662 -0.0436293 -0.0422734 
-0.0912457 -0.0161009 0.0933504 -0.0957293 -0.0747656 
-0.0138296 0.0732782 -0.0256461 -0.0320958 0.0518515 
0.0472089 0.0955073 0.0151379 0.0585474 0.0371305 
5 5 -0.0662166
-0.0195867 0.0457073 0.0883484 -0.0436162 -0.0705908 
0.0834075 0.0885076 -0.0865569 0.0939183 -0.041615 
-0.068067 0.0564481 0.00943954 0.0847711 0.0139147 
-0.0132253 0.0103301 -0.0555903 -0.0657174 0.068666 
0.0124571 0.0637274 -0.00793773 0.0704316 0.0149819 
5 5 0.0328528
-0.0474781 -0.0113666 0.0529568 -0.0253059 0.06708 
-0.0885629 0.0306131 -0.033596 0.0293501 0.0786448 
-0.0311165 0.0258521 0.0456726 -0.00734258 0.0958847 
-0.0371016 -0.0960604 -0.0619582 -0.086568 -0.0945487 
0.0204521 -0.0343297 0.0699669 0.00566998 -0.0533505 
5 5 0.0946351
-0.0285335 -0.0675726 -0.0827953 0.00727956 -0.038933 
0.0558136 -0.0806077 -0.0625563 0.000185726 -0.068318 
0.0674405 -0.0985725 0.079981 -0.00990656 -0.0397124 
-0.0652459 0.0965355 0.0356474 0.00632688 0.0466363 
0.0197606 0.065169 -0.00541455 0.0303704 0.0879396 
5 5 0.021947
0.0940798 -0.0133625 0.0578166 -0.0960318 -0.0319643 
-0.0765128 0.047829 -0.0989876 -0.0318709 0.0719612 
-0.0102472 0.0139385 -0.087997 0.0957153 0.0415324 
0.02093 0.00905916 0.0352687 -0.0236229 0.0183558 
0.0216487 -0.051552 0.0859258 0.0368148 0.0427282 
5 5 -0.160146
0.0328345 0.0300896 -0.0235648 0.0830542 -0.048761 
0.00921404 0.0676069 0.0315165 -0.0912525 -0.0845057 
0.0506798 0.0705976 -0.0475908 -0.0814504 -0.0201421 
0.0418485 0.0501547 -0.0584713 -0.0902728 0.00779401 
0.0270018 -0.0257251 -0.0215312 -0.0637948 -0.0663286 
5 5 0.0869796
-0.0356536 -0.0708502 -0.028692 -0.0106896 -0.0618809 
0.0749642 0.040797 -0.0645796 0.0097439 0.00864629 
-0.0409461 -0.0695251 0.0554646 -0.0613679 0.0886787 
0.0219114 0.0286353 0.0185482 0.0272655 -0.0602012 
0.067107 -0.0493819 0.0227091 -0.0212071 0.0723424 
5 5 -0.0264322
0.0371703 -0.0708129 -0.0577383 0.0818945 0.0946204 
-0.0377144 -0.0602286 0.0618602 0.0375963 0.0785962 
-0.0246106 -0.0487459 -0.0664432 0.0190167 0.0901134 
-0.0708797 0.0525376 0.0581686 -0.0893265 0.0601489 
0.0526847 -0.0298214 -0.0256725 0.0606534 -0.0968905 
5 5 -0.0179207
0.0857371 -0.0542207 -0.0234726 0.0298966 -0.000590308 
-0.0958535 0.042888 0.0880762 0.00753361 0.0661867 
-0.00637834 -0.0614943 -0.0905873 -0.0841359 0.0286089 
-0.0760703 -0.0508308 0.00599203 -0.0617678 0.0300329 
-0.000829235 -0.0700221 0.0101795 0.0899234 -0.0273592 
5 5 0.0142221
-0.00767441 0.0175984 -0.0535259 0.0513093 0.0464674 
0.0803473 -0.0245706 0.0351219 -0.0840431 -0.0908475 
0.0756782 0.0775579 0.048681 0.062628 -0.0344957 
-0.0580767 0.099155 0.0432121 0.0391384 0.0409727 
-0.0558892 -0.0241909 -0.0437399 -0.0080763 0.0422716 
5 5 0.0480249
-0.0694955 0.0805898 0.0702568 -0.0412479 0.0916494 
0.0856494 0.0605655 -0.0414738 0.0160102 0.0325803 
-0.0130323 0.0969211 -0.0101312 -0.0849129 0.00931057 
-0.0299842 0.0992887 -0.0447541 -0.0763208 -0.0962399 
-0.0783083 0.0510168 0.0433032 0.0376062 -0.0963123 
5 5 -0.029818
0.0412975 -0.0830121 0.00326276 -0.0543138 -0.00861194 
-0.0922016 0.0824622 0.0316099 -0.0731807 0.028013 
0.0229195 0.0683737 -0.036582 -0.0848555 0.0565394 
0.0238602 -0.0937881 -0.0717071 0.0845448 -0.0409356 
-0.0235875 0.0918739 0.0700139 -0.0230804 -0.011221 
5 5 0.0780238
0.0836106 0.0127996 0.0111472 0.0105797 0.0807161 
0.0141527 0.032658 0.0607007 0.0016102 -0.0161649 
0.0859777 -0.0590794 0.0634994 0.0187127 -0.0660901 
0.0958375 0.0319198 0.0219097 -0.0314069 -0.0538076 
-0.047041 0.0312993 0.0475616 -0.0942098 -0.0737987 
5 5 0.0358599
0.0981615 0.0909293 -0.00101418 -0.0320863 0.0251568 
-0.0683505 -0.0331094 -0.0711656 -0.0558267 -0.0179037 
-0.0457045 0.0664099 0.0841856 -0.0518644 -0.0343635 
-0.0987049 -0.0191356 0.0294642 0.0815743 0.0522828 
0.0960185 -0.0136833 0.0840531 0.0857344 0.0938505 
5 5 0.0350564
-0.008953 0.0359976 -0.0953327 -0.0136012 0.0829827 
0.0529872 0.00847166 -0.0890488 -0.0997893 -0.0678416 
0.067921 -0.0265399 -0.00486474 -0.0152518 -0.0561458 
-0.0924299 -0.0814767 0.00342054 0.0232146 -0.0424402 
0.0220548 -0.0201693 0.0913228 -0.0132493 -0.0420742 
5 5 -0.0672038
0.0793835 -0.0401425 0.0572453 0.0867403 -0.0813485 
-0.0948097 0.0678926 0.00629631 0.0328976 -0.0366691 
0.0336209 0.0605482 0.0991066 0.0286135 -0.00457589 
0.0559888 0.00946805 -0.0112602 0.0962669 0.0448115 
0.0647905 0.070239 -0.0294171 0.0810787 -0.0697127 
5 5 0.0954991
-2.89853e-005 -0.0211333 -0.0137901 -0.0460854 -0.0837838 
0.0290539 0.0034813 -0.0946324 -0.0677596 -0.0702602 
-0.0240612 0.00257049 0.0835903 0.0881362 0.0406336 
0.0581892 -0.039585 -0.0510028 -0.0827635 0.0511357 
-0.0879886 -0.0935766 -0.00214336 -0.0177293 -0.0953659 
5 5 0.0601543
-0.0812339 0.0856568 -0.0851735 -0.0628297 -0.0569473 
-0.00136338 0.0360359 -0.0596676 -0.00839117 0.00451863 
-0.0123904 -0.0935604 0.0452772 -0.0559023 -0.00271989 
0.00195806 -0.0442636 -0.0903335 -0.0539471 0.0102688 
-0.00613734 -0.0749862 -0.046709 -0.0989156 -0.0327031 
5 5 -0.0822162
0.0839886 0.032112 0.037789 -0.00923145 -0.0385941 
0.042847 0.0724955 0.0991009 -0.0395184 -0.0106519 
0.0538311 -0.0635654 -0.028783 -0.0145309 -0.0120169 
-0.0585862 0.00752692 -0.0997717 0.0359185 0.0265668 
0.0448746 -0.0300823 -0.0974217 -0.0628265 -0.0326813 
5 5 0.0805552
0.012986 0.0472357 0.00631199 -0.0213813 -0.0921811 
0.0972558 -0.0488506 -0.0374396 -0.0101984 0.0814328 
-0.0867155 -0.0833189 0.0510174 -0.0105514 -0.0747531 
0.0386325 -0.0863375 0.0100038 -0.0445381 -0.0805042 
0.0146793 -0.0983898 0.0207061 -0.0677541 0.0657332 
5 5 -0.0626074
-0.0233201 -0.0156087 0.0201436 -0.0701035 0.0685809 
-0.00851167 0.0772703 -0.0577319 0.0226894 -0.0723712 
-0.0435138 -0.00798513 -0.0398849 0.0089534 -0.028829 
-0.0464963 -0.0859325 0.0668032 -0.0654118 -0.0343677 
0.031942 0.0663253 0.0284848 -0.0491557 0.0435044 
5 5 0.0171713
0.0663816 -0.0480058 0.0763914 -0.0964824 0.0790592 
0.0910142 -0.00094312 0.0756395 0.0663665 0.0617604 
-0.0245157 0.0142143 0.0207446 -0.0428638 0.00992427 
-0.0267374 0.0850904 -0.0659997 -0.0366706 0.0633023 
-0.0453842 -0.0636288 0.0226329 -0.0362598 -0.0407883 
5 5 -0.119728
-0.0924851 0.0324373 -0.0427281 -0.0827792 -0.0093407 
0.0742043 0.0907663 0.0870865 0.0258191 0.0921842 
0.0776196 -0.0687862 0.0218693 -0.0486626 -0.0485921 
0.0389455 0.0190603 -0.000459821 -0.0699697 0.0658855 
0.0821096 0.02183 0.0204792 -0.0162965 0.0156452 
5 5 -0.000698507
-0.0315903 -0.0097364 0.00349284 -0.0414657 -0.0832819 
0.0650887 -0.0090453 0.0851784 -0.0740074 -0.0852093 
0.0797241 -0.0903838 -0.00166705 0.0426086 -0.0588806 
-0.0243075 -0.0811775 -0.0627286 0.0696317 0.0140311 
-0.041484 0.0977999 -0.0604805 -0.0124411 -0.0386205 
5 5 0.0707122
0.0605349 0.0647793 0.0542566 -0.0543797 -0.00667892 
0.0714798 -0.0952778 -0.085487 -0.0645898 0.090414 
-0.0390372 0.0669238 -0.0749334 -0.0501954 0.00590097 
-0.0389065 0.0722779 0.064456 0.0531511 0.0762863 
0.0835104 -0.0115701 -0.0804972 0.0188415 0.0647309 
5 5 -0.067681
-0.0949275 0.0103765 0.0833477 -0.00906667 -0.0896297 
0.0614017 0.072404 -0.0307719 0.0218697 -0.0620186 
-0.0414419 -0.0830526 0.0991175 -0.0740738 -0.0096426 
0.0696502 -0.00704601 -0.0984828 -0.0469373 -0.0713452 
-0.0733649 -0.0871036 0.0495282 -0.0554539 0.0710179 
5 5 -0.0195077
-0.0720248 -0.041417 0.0455169 -0.0878935 0.0380918 
0.0585388 -0.0245769 0.071824 -0.00232169 0.00505426 
0.0368683 0.0531796 -0.0507137 0.0857578 -0.0784677 
0.019162 -0.0100445 -0.0485906 -0.0487136 0.081304 
0.0540152 0.092425 0.0746716 0.0353781 -0.0691792 
5 5 -0.0901315
0.0759238 0.058546 -0.00138751 0.043106 0.0287246 
0.0738413 -0.0448154 0.0946463 -0.0749931 -0.0110442 
-0.0723564 0.0335549 -0.0896722 -0.0853028 0.0414983 
0.00944216 0.057196 -0.0301315 0.0311326 0.0470261 
-0.0923061 -0.0212389 -0.0277894 -0.026175 -0.0837894 
5 5 0.0669708
-0.0822018 0.0367892 0.0244366 0.0654656 -0.0809377 
-0.0352728 0.0978055 -0.0823629 0.0122127 -0.0670266 
0.0583755 0.0157045 0.0526476 -0.0140205 0.0406685 
0.0514539 -0.0224402 -0.0254858 0.00589635 -0.0987784 
-0.0217712 -0.0366038 -0.0567915 -0.053523 -0.0364024 
5 5 -0.0273125
0.0905758 -0.0629987 -0.004235 -0.0357568 -0.0950684 
0.00234362 0.079008 0.0616391 0.0163392 -0.0806456 
-0.015481 -0.0588127 0.0922839 0.0407183 0.0890038 
0.0683066 0.0482482 -0.00971428 -0.0863785 0.00304004 
-0.0682134 -0.0668077 -0.0615658 0.0808175 -0.0855855 
5 5 -0.0818328
-0.0230617 0.00697551 -0.0775963 -0.0507674 0.0992437 
0.0375123 -0.0650578 -0.0560139 -0.0435591 0.0837583 
0.0834119 0.0335623 -0.0595797 0.00663759 -0.0188893 
0.0557547 -0.000716794 0.0711771 0.0156589 0.00985363 
-0.0668427 -0.0170542 0.0421408 -0.0856572 0.0377515 
5 5 0.0959562
-0.00545808 0.0999232 0.0682767 0.0350071 0.0464263 
0.0130746 0.0188526 0.0670259 0.0834898 -0.0215934 
0.0970111 -0.0582035 0.0692935 -0.0124033 -0.0389203 
0.0763062 0.0792088 -0.0548116 0.0148032 -0.00442084 
0.00710129 0.0681562 0.0449086 -0.0317492 0.081005 
5 5 0.0376578
-0.0420984 0.0952347 0.0406323 0.0345049 -0.0713924 
0.00119896 0.0743871 0.0411367 -0.0771651 -0.00950425 
-0.0410913 -0.087669 0.0745364 0.0350271 -0.0450674 
0.0517146 -0.0869315 0.0241273 0.060165 -0.03081 
-0.0936131 0.0572201 -0.0372124 -0.0591509 -0.0894813 
5 5 0.0228254
-0.0714808 0.0698236 0.00138088 0.0222103 -0.04764 
-0.0348319 0.0770823 -0.099228 0.00115697 -0.0672802 
-0.0989323 0.0281776 0.0850592 0.0906005 -0.0208457 
-0.000482713 -0.0196404 -0.0807652 -0.0571474 0.00646822 
-0.0550069 0.0400557 0.0278221 -0.0663671 0.0537189 
5 5 -0.0512463
-0.0816874 -0.0601922 0.0781207 0.0709713 -0.0416826 
-0.0213437 -0.0460051 -0.0773765 -0.032086 0.0155737 
-0.0397222 0.0741561 -0.0802547 -0.0167901 0.0402544 
-0.0802106 0.0746256 0.0779554 -0.00784981 0.00779268 
0.0115618 -0.0146282 -0.011913 0.0513098 0.0177387 
5 5 0.0111087
-0.0957517 0.0317739 0.0145816 -0.0137826 -0.063237 
0.0893705 -0.0808829 0.0104341 0.015683 0.00520543 
-0.0183895 0.0321364 0.0395412 0.00809328 0.036883 
0.0989662 0.0879626 0.0703094 0.0127078 -0.00304288 
0.022162 0.0373312 -0.0288618 0.0224479 0.00956578 
5 5 -0.0653502
0.0925701 -0.0547559 0.00866514 0.0519119 0.0931788 
-0.0123834 -0.0650756 -0.0548234 -0.0447108 -0.0171204 
-0.0470964 -0.0996421 0.0250004 -0.0720932 0.0198426 
0.0427094 -0.0933892 0.0118775 0.0838827 0.0356774 
-0.0950115 -0.000824218 -0.0452405 0.079321 -0.0130715 
5 5 0.104035
-0.0308487 0.0508967 -0.083334 -0.0819118 0.0161957 
0.0172551 0.0260702 -0.0208007 0.0409329 0.00972318 
-0.0148271 0.0826185 0.0175517 -0.0571611 0.0435948 
0.00780237 -0.0781392 0.0368945 -0.0127525 -0.0476487 
0.00114912 -0.0587755 -0.000363267 0.0709758 -0.027773 
5 5 0.0589511
-0.0887768 0.067685 0.085432 0.0921297 -0.00304489 
0.0746952 0.0752551 0.0779473 0.059225 0.0121952 
-0.0499914 -0.00975692 0.0960669 0.0483252 0.0281727 
-0.0646221 -0.0949923 -0.0749288 -0.0370988 0.00402392 
-0.0270704 0.0240912 -0.0107978 0.0536402 -0.0651735 
5 5 -0.0573624
-0.085295 0.0459203 -0.0163374 -0.00215939 -0.0837813 
0.0535699 -0.062724 -0.030288 0.00124411 0.0891653 
0.0775098 0.0583531 0.063787 -0.059203 -0.0703516 
-0.0872169 -0.0125762 -0.0341132 -0.103028 -0.00499862 
0.0632065 -0.0362728 0.0642631 -0.0981115 0.0442259 
5 5 -0.0557143
-0.0589331 0.0715848 0.0714003 0.051809 0.012526 
0.00190415 -0.0138266 -0.0303118 -0.0740797 0.0947036 
-0.0944619 -0.0667754 -0.0693409 0.00913541 -0.0727589 
-0.0824907 -0.00105212 0.03841 0.045447 0.0207403 
0.0910339 0.0368475 -0.0100951 0.0741465 -0.0501935 
5 5 -0.040685
0.0204652 -0.0161218 -0.0965065 -0.000589534 0.0103048 
0.00592065 0.0601003 0.0804449 0.0452442 0.0680392 
-0.0235152 0.0311019 0.0797018 -0.0661744 -0.022763 
-0.0766032 0.0685282 -0.0698128 0.00826249 0.0368839 
-0.0854352 0.0299242 0.0107058 0.0686634 0.0589985 
5 5 0.00600075
0.0889386 -0.0443849 0.0471674 0.0494803 0.0563071 
-0.0432266 -0.0968764 -0.00948805 0.042994 -0.0416816 
0.0392624 0.0764397 -0.0568307 0.055618 -0.0629961 
0.0638899 -0.014766 -0.0328218 -0.0731538 0.00147721 
0.00561349 -0.0601462 -0.0998806 0.0178136 -0.0928603 
5 5 0.168242
0.0871785 -0.0747887 0.0850013 0.101488 -0.0835946 
-0.0737666 0.0889517 0.0373091 -0.0788505 0.0736162 
-0.0606477 0.0694343 0.085608 -0.0748229 -0.0728813 
-0.0813206 -0.0169134 0.0626092 -0.0877804 0.0882639 
-0.0656383 -0.0630993 0.00475579 -0.0330835 -0.0834553 
5 5 0.0681786
-0.0150367 0.0781977 0.0507791 -0.0989858 -0.0288372 
0.0219237 0.0138768 -0.0770847 0.0899104 -0.0398847 
-0.025781 -0.057841 0.0553905 0.0233149 0.0211673 
-0.050938 0.0215419 0.0740424 0.0926587 0.0524679 
-0.00482979 -0.00687299 -0.0578965 -0.0970608 -0.00997796 
5 5 0.390221
-0.0073737 -0.0743178 0.0246409 -0.0214227 0.0944093 
0.0749407 0.011115 -0.0248434 -0.0578813 0.0241134 
-0.0270773 0.0345844 -0.0410981 0.00869102 0.0291333 
-0.00534279 -0.0107183 -0.0162776 0.00282861 0.0758251 
0.0634051 -0.0405914 0.0828628 0.0797398 0.0570821 
5 5 -0.0058593
-0.0958438 0.0808932 0.0815377 -0.022149 -0.0821994 
0.0748726 -0.0426572 -0.057735 -0.0352664 0.0787527 
-0.0632483 -0.0852518 0.0114792 0.06339 0.0905943 
-0.0830528 -0.0126522 0.0533244 -0.0701741 -0.092822 
-0.0687184 0.0920516 -0.0567687 -0.0297015 0.0108062 
5 5 -0.0242952
0.0456924 0.0633845 0.0353122 0.0842816 0.0903754 
0.0203321 -0.0884985 0.0711989 0.0168746 0.0831742 
-0.0858514 0.016643 -0.0518831 -0.0699405 0.0655609 
-0.00664766 0.0267054 0.0486122 -0.0581108 -0.0205728 
0.0454255 -0.079116 0.0653674 -0.0752982 -0.0558568 
5 5 0.53769
0.0367977 0.0269463 -0.0390658 -0.0521736 -0.0613558 
-0.00663361 0.0829125 0.0634787 -0.0856061 -0.0046787 
0.0893225 0.0631035 0.0691813 -0.0211003 -0.0248464 
0.0466703 -0.0385158 -0.0256312 -0.081978 0.0526347 
0.101732 0.0238755 -0.0436126 0.0396684 -0.0526661 
5 5 -0.0240908
0.0849845 0.0289603 -0.0804005 -0.0424414 -0.0275612 
-0.00900767 0.058484 -0.0741909 -0.00557062 -0.015205 
0.0047673 0.0985372 -0.0317483 0.0685178 -0.0157559 
-0.0372926 0.00299789 0.0804353 0.0603141 -0.0939595 
-0.0235168 -0.0568172 0.0736378 0.0491326 0.0854228 
5 5 -0.0744395
0.0556834 -0.0070015 0.00511359 -0.0128688 -0.00470101 
-0.0407575 0.0378678 0.0239469 -0.0490254 -0.0952263 
0.0923224 -0.096381 -0.0341588 0.0179704 1.1829e-005 
0.098608 -0.0352156 -0.0502935 -0.00164141 0.0447161 
-0.0232837 0.0976939 -0.0768788 0.00883134 -0.0390047 
5 5 0.0859992
-0.0653684 0.0746772 0.0314987 0.019239 -0.0575608 
0.00771463 -0.0553911 -0.0408266 0.0850549 -0.0695532 
0.0395751 -0.0204251 0.0756732 -0.0182757 -0.0753753 
0.0671758 -0.0101647 -0.075463 0.0767918 0.0160203 
0.0678336 0.0197497 0.0295685 -0.0178382 -0.0823761 
5 5 -0.0404687
-0.0522747 0.0774262 -0.086191 0.0991349 0.050331 
-0.00616156 -0.0905034 -0.0317133 0.0970914 -0.0578513 
-0.0239459 0.0949542 -0.019652 -0.0464468 -0.0118066 
-0.000650518 0.0171549 -0.0620681 -0.0421821 -0.0653394 
0.0333878 -0.0591787 0.0496338 0.0114418 0.0185944 
5 5 -0.0653419
0.0571026 0.039197 0.0194968 0.0182215 -0.0577067 
-0.100428 0.0672679 0.0407315 -0.00810711 -0.0664756 
0.00747161 -0.0579325 -0.00705072 -0.0248691 0.0306425 
-0.0559837 0.0132065 -0.0624079 -0.0338837 -0.0330255 
-0.0636701 -0.0742018 -0.0588106 0.00679419 -0.0296445 
5 5 0.0403574
0.060336 -0.00317271 0.0877278 -0.0709816 -0.0965743 
0.0199775 -0.0169205 -0.0319442 -0.0496313 0.0467242 
-0.0699176 0.0695423 0.0211538 0.0226782 -0.0582445 
0.0358771 -0.0595322 0.061731 -0.0530948 0.0949439 
-0.0849642 0.0551428 0.055633 0.0217351 -0.0673803 
5 5 -0.0564667
0.0371316 0.0997629 -0.0443303 0.0654797 -0.0167344 
-0.0521835 0.0138471 0.101241 -0.00417735 0.0962896 
-0.0202064 0.0677417 0.0170733 -0.051823 0.049971 
0.0571165 0.0128037 -0.0210051 -0.0146034 -0.0743901 
0.101933 0.0662976 -0.0499239 0.095165 -0.0223028 
5 5 -0.0164093
-0.0638096 -0.0260497 0.040787 -0.0556668 -0.0996426 
-0.00263752 0.0168307 -0.0982736 0.0699286 0.0368711 
-0.0147164 -0.101107 0.0792424 0.0717948 0.0909004 
-0.0696061 -0.0447853 0.0895426 0.0681223 0.0376374 
-0.067418 -0.0174363 -0.0571266 -0.0685446 0.0356472 
5 5 -0.0857811
-0.0550301 -0.0171294 -0.072073 -0.0377172 -0.0571908 
-0.0139587 -0.0154654 0.0871282 0.0853309 0.0597302 
-0.0891933 -0.0666013 -0.0937681 -0.00389885 0.0567864 
-0.0267216 -0.0292928 0.0526327 0.0935778 -0.0433588 
-0.0061865 -0.0732709 0.103078 0.0363693 0.0460329 
5 5 0.0811117
0.0587445 -0.0139715 -0.0214973 -0.0936056 -0.011027 
-0.0977239 -0.0734492 -0.0881858 0.00447225 -0.0144605 
-0.0310105 0.0909968 0.0453585 0.0483767 0.0367926 
0.0171567 -0.00500075 -0.0803509 -0.0539459 0.0301034 
-0.0651997 -0.0318882 0.0435871 0.0626497 0.0524733 
5 5 -0.378166
-0.0222525 0.00625796 -0.00866245 0.13728 0.0113243 
-0.00582434 0.0995726 0.0204133 0.0401346 0.111327 
-0.0279015 0.0483574 0.0971669 0.142446 0.135859 
0.091559 0.0863725 0.0323464 0.0756353 0.0511061 
-0.0416663 0.079491 0.0514195 0.119611 0.103097 
5 5 -0.296541
0.111467 0.0520985 0.12796 -0.016474 0.0203112 
0.0233285 0.0607173 0.017638 -0.0100952 -0.0176291 
0.0702051 0.00101048 0.0114376 0.090426 -0.0248076 
0.072511 0.103317 0.0881063 0.10659 -0.0570879 
-0.0457387 0.0596596 0.0151905 0.0445614 -0.0239831 
5 5 -0.0085986
0.0934432 0.0337457 -0.00745368 0.0915065 0.0255509 
-0.0361571 -0.0715466 -0.0103065 -0.0428767 0.0525064 
-0.0758722 0.08421 0.0312654 -0.0499066 0.0878952 
-0.0290639 -0.00423158 -0.0916623 0.0815796 -0.0877006 
0.0183893 0.0566771 -0.0824661 -0.0286084 -0.0892241 
5 5 0.0568659
0.0150271 -0.0331114 0.0886794 -0.0491529 0.0980041 
-0.0960826 -0.0975241 0.0854038 0.0155563 0.039967 
0.0670921 -0.0436099 0.0653524 0.0382433 0.024027 
0.0419189 -0.0982774 -0.0313838 -0.0330488 0.0537638 
0.00996987 0.00903916 -0.0397575 -0.0937184 0.0279505 
5 5 0.0106792
0.0834245 0.00668715 0.0970086 -0.0532781 0.0324708 
-0.0232086 -0.0791573 -0.0890429 -0.0919492 0.0125118 
-0.0830194 -0.0640063 0.025725 -0.0177603 -0.0602839 
-0.023772 0.0715202 0.0784237 -0.0434676 -0.00321687 
0.0446856 -0.0797158 -0.0398486 -0.0354909 -0.0911069 
5 5 -0.129877
0.0944693 -0.010351 -0.0106647 0.0199156 0.0841108 
-0.0195387 0.0497896 -0.00694336 -0.0697176 0.0531012 
0.0646571 0.034879 -0.020237 0.0704758 0.0407522 
0.0362319 -0.0745055 -0.0445449 -0.097011 0.0489405 
0.0349275 -0.0648675 -0.0199803 -0.0479031 -0.0215982 
5 5 -0.0199757
-0.0757023 0.0223825 -0.0527254 -0.0224342 -0.012589 
0.00930814 0.0251689 -0.0741804 -0.0949725 0.0446362 
-0.0719399 0.0679904 0.0906195 -0.0412572 0.0529881 
0.0498702 -0.00523447 -0.065091 -0.0537873 0.0468634 
-0.0497367 0.0981581 -0.039695 -0.0829666 -0.0631997 
5 5 -0.0517522
-0.0171921 -0.0620302 -0.00493959 0.0377595 0.0209774 
-0.0161585 -0.0755919 0.0129815 -0.0827934 0.0959104 
-0.00934255 0.00556503 -0.0155999 -0.0937296 0.0806398 
0.0999882 0.036789 0.0717461 0.0292397 0.0715387 
-0.00149213 -0.030492 -0.0416084 -0.0958881 -0.026444 
5 5 0.0153694
-0.0524604 0.0978494 -0.0436114 0.0484564 0.0755855 
0.0625705 0.0634574 -0.0205211 -0.0328515 0.0167685 
0.0700785 0.086612 0.0634487 0.0893027 -0.0694657 
-0.0119538 -0.0378778 0.0296974 0.066458 -0.0955601 
0.0478614 0.0412994 0.0987233 -0.0171982 -0.0507981 
5 5 -0.0681841
0.011654 -0.0688151 0.0527887 -0.0939245 0.0268776 
-0.0698659 0.00466871 -0.0291257 -0.0391878 0.0645294 
0.0305375 -0.086188 -0.0327083 0.0399579 0.00783509 
0.00738278 0.0230884 0.0454751 -0.0853967 -0.0217099 
0.0527591 -0.0970955 0.000809694 0.0318152 0.0693125 
5 5 -0.0620112
0.0902739 0.0489085 0.000557428 -0.0363687 -0.0175994 
-0.0262458 0.0394311 -0.070654 -0.0761727 0.0267607 
0.0712612 -0.0647366 -0.0542495 0.0771716 -0.0825066 
-0.044663 0.0648666 -0.0510495 -0.0153015 0.0727356 
0.0796383 -0.0439675 0.0806196 -0.104759 0.00102008 
5 5 -0.0432948
-0.0460754 0.0702377 0.0608664 -0.00910059 0.0960193 
0.0454243 0.0633365 0.0519728 0.0579167 -0.0139557 
-0.0608921 0.0658361 -0.0526778 0.0586032 -0.000849681 
-0.0933701 0.0906751 -0.0407193 0.0696781 0.0350731 
-0.09765 0.00514981 0.0106317 -0.0344586 0.0393173 
5 5 0.0294629
0.0164301 0.0512509 -0.0370139 -0.0268842 0.0297794 
-0.0413371 -0.0766428 -0.0904205 -0.0393891 -0.0743967 
-0.0400856 -0.0521911 -0.0374537 0.0910006 -0.0360619 
-0.0375451 0.0651789 -0.0959052 0.09412 0.0693647 
0.0224256 0.0957455 0.0670915 -0.0991566 -0.0967247 
5 5 0.374778
0.112974 0.0109026 0.0813438 0.102036 0.0562591 
0.0933745 0.134024 -0.0588164 0.119088 0.107903 
0.0671963 0.00906997 0.0814417 0.0514373 0.00555696 
0.118638 0.0225448 0.0114179 -0.0154966 -0.013922 
0.0737685 0.0577998 0.103784 0.0515558 -0.0129866 
5 5 -0.0185524
-0.0702572 0.0791037 -0.0123386 0.0445959 0.0484586 
-0.003855 0.0945151 0.0858276 0.0892798 0.0889348 
0.0461966 0.0167132 0.044406 -0.05707 -0.0502536 
0.0708614 -0.00337974 0.0140081 -0.00457573 -0.0511311 
0.0043007 -0.0751875 -0.0164681 0.0945789 -0.0783125 
5 5 -0.047894
-0.0238417 0.0373675 -0.105109 -0.0574333 0.0773455 
-0.0117687 -0.0224811 0.0622959 0.0342093 0.0482607 
-0.0523466 -0.0548565 -0.0662256 0.0610602 0.0426303 
0.0143241 0.0296522 0.00405509 0.0516405 0.0485823 
-0.0023013 -0.0719113 0.0807633 0.0697036 0.0788352 
5 5 0.308618
0.0119924 -0.0709022 0.0536275 -0.058002 -0.0697141 
0.0438034 -0.0939048 -0.116959 -0.0379476 -0.131938 
-0.0533524 0.0073945 -0.0045952 -0.0113202 -0.000658276 
-0.0572405 -0.0980984 0.0165679 -0.131452 -0.111218 
-0.0682034 -0.0645813 -0.106916 -0.121635 -0.0435661 
5 5 -0.0881228
-0.0168169 -0.0785123 0.0227762 0.0814431 0.0245231 
-0.0575383 -0.0566799 -0.0519728 -0.0559815 -0.0353163 
0.0968909 -0.0285703 0.038501 0.101837 0.0313127 
0.0958973 0.0315332 0.0343833 0.0579536 0.0242396 
-0.0272131 0.0442758 -0.0425066 0.0466474 -0.0284909 
5 5 -0.0465079
0.0422332 -0.0334271 0.0448952 -0.0345477 -0.0605237 
-0.0621365 -0.0869709 -0.0585288 0.0557882 0.0600384 
-0.0992916 0.047493 -0.0256109 0.0292833 0.077457 
0.0658373 0.0956817 -0.0958955 0.00143747 0.0203106 
-0.0777803 -0.0267311 -0.078592 -0.0692763 -0.00140619 
5 5 0.114628
0.0645324 0.0560323 0.0303005 -0.0915612 0.0262597 
0.0498411 0.0432985 -0.0121853 -0.0669687 5.40064e-005 
0.0679645 0.0143256 -0.0455154 0.0166718 0.0218561 
0.00130739 0.053009 -0.093756 -0.0994409 0.0199609 
-0.0505711 0.0030718 -0.0900387 -0.0784011 -0.0155945 
5 5 -0.0993101
0.0783958 0.0311051 0.0614485 -0.00795583 -0.0298413 
-0.0809108 -0.059907 0.0151833 0.0459541 0.0703882 
0.0879999 -0.0661344 0.0820655 -0.0678442 -0.0622319 
0.029701 -0.00432593 -0.0323952 -0.0439023 0.033834 
-0.0994599 0.0140276 -0.00426417 -0.0044817 -0.0740674 
5 5 -0.0415103
-0.0871226 -0.0472277 0.0286569 -0.011587 -0.0644102 
-0.0372493 -0.066768 -0.0249402 -0.0479782 -0.056215 
0.0247967 0.040842 0.0195977 0.0876981 -0.0671564 
-0.0277402 0.056703 -0.0954488 0.0315028 0.0325306 
0.0106602 0.0443797 -0.00599335 0.0286606 0.0779361 
5 5 -0.0611734
0.0270474 -0.0624978 0.0603958 -0.0204165 -0.0875327 
0.084192 0.0304053 -0.0146926 -0.0949059 0.00290685 
0.0099223 -0.0299439 -0.00487292 -0.0436973 0.00974849 
0.0011676 -0.0182446 0.0443736 -0.0618468 0.029308 
0.0841694 0.0960075 -0.0506597 -0.0299075 -0.0785142 
5 5 0.0414371
-0.0881399 0.0186236 -0.00757258 0.059005 -0.0134523 
0.0566966 0.0909737 -0.0603915 -0.0221517 0.0978974 
-0.0249317 -0.0897016 0.0637303 0.0422478 -0.0591867 
-0.00971075 -0.0342758 0.0873938 0.0144618 -0.0542232 
-0.051629 0.0517719 0.00490529 0.0607985 -0.070376 
5 5 -0.0307316
-0.0590612 -0.055153 0.08091 0.0146078 -0.0674124 
0.0867182 0.00367616 -0.0950871 -0.0246135 -0.0511757 
0.0509347 0.0470696 -0.0567354 -0.0747038 0.092067 
-0.0223609 0.0912197 -0.0432072 0.0896111 -0.0441899 
-0.0981364 -0.0859577 -0.0261336 0.0640151 0.00885387 
5 5 -0.0349117
-0.00448246 0.0726996 0.0248901 -0.0386019 0.0411841 
0.0278229 0.0113185 0.0653611 0.0832226 0.0121913 
0.0106136 -0.0384686 0.0596324 0.0413245 -0.0133057 
0.0245224 -0.0476607 -0.0491648 -0.00968058 -0.0706232 
-0.0481505 0.0263187 0.0925623 -0.0186678 0.0885501 
5 5 0.0343135
-0.0906682 0.0675427 0.0105287 0.0278632 0.0496705 
0.0242802 0.0857488 -0.0779406 -0.0720239 -0.0513917 
-0.0739637 -0.0974233 0.0548636 0.030354 0.0895951 
0.0134053 0.0537454 0.0365987 0.0589459 -0.0535766 
-0.0743106 0.0428648 0.0767994 0.065789 -0.00500125 
5 5 -0.0545663
-0.0896251 0.0305404 0.0660638 -0.0282111 -0.0530674 
0.0755365 0.0354207 0.0703452 0.0526289 0.0834212 
0.0591547 0.0215208 0.0515192 -0.0686837 -0.0516024 
-0.0525627 0.0372849 0.0671314 0.0821388 0.0383168 
-0.0657445 -0.0531262 -0.0891455 -0.00456673 -0.0199895 
5 5 -0.107293
-0.0560864 -0.01413 -0.0893631 -0.0353867 0.0708856 
-0.0144246 -0.0683317 -0.0388066 -0.0437627 -0.0526507 
0.0571201 -0.0516271 -0.0835746 0.0807353 0.090862 
-0.0767485 0.0269967 0.053537 0.0418199 -0.0765858 
0.087228 0.0277583 0.0436993 -0.0138645 -0.0294216 
5 5 -0.067502
-0.0295783 0.0313961 -0.00220206 0.0639464 0.0188909 
0.0294103 0.0544523 0.074365 0.0545063 -0.0906391 
0.0956941 -0.0394345 -0.0228635 -0.0348877 -0.0392782 
-0.0421904 -0.0839403 0.00385904 -0.0637127 -0.0193304 
-0.083583 0.0147327 -0.0149615 0.0481995 -0.0976738 
5 5 -0.00665647
0.0928374 -0.0234723 0.0106144 0.0968036 0.0445271 
-0.0327871 0.0432002 -0.0435022 0.076539 -0.0101226 
-0.0308463 -0.05059 -0.0770698 -0.0441317 0.0109046 
0.0401709 0.097777 0.00193922 0.0219432 -0.0244785 
-0.0617995 0.0844793 -0.0697039 0.0804668 0.0423069 
5 5 -0.00936882
-0.0713132 0.0116727 0.0326802 -0.025826 -0.00585743 
-0.0734405 0.0756218 -0.0793297 0.0153336 0.0219233 
0.0894675 0.0491362 -0.0865239 -0.0999913 0.0711161 
0.0565931 0.0334298 -0.0818571 0.0735263 -0.0888717 
-0.0106381 -0.0232548 0.0646721 0.000362405 0.0452563 
5 5 -0.0938518
-0.00168984 0.0404032 0.00986491 0.0929173 -0.0670713 
0.0551484 -0.0664149 -0.0547118 -0.0811687 0.0242208 
-0.0240468 -0.0198162 0.0993378 -0.084321 -0.0598783 
-0.0355778 -0.0548768 -0.0964958 0.0449973 -0.08117 
0.0599158 0.0772291 0.0202945 -0.0415492 0.085335 
5 5 0.054059
-0.0953058 0.0209861 -0.0615851 -0.0228113 0.0325938 
0.0445435 -0.0884315 -0.028795 -0.0255443 0.0417083 
0.066247 0.0558167 -0.0557612 0.0318594 0.0540428 
0.02681 0.0189259 -0.100135 -0.013526 -0.0495299 
0.0738975 -0.090559 -0.0906024 0.0914992 0.00977787 
5 5 -0.136284
0.0783239 -0.00352179 -0.0555495 0.0765693 -0.000680229 
-0.0810511 -0.0178692 -0.0400456 0.0209063 0.089035 
-0.0240486 0.0762868 -0.0934531 0.0540236 -0.0512444 
0.00507219 0.060911 0.00920415 -0.0173544 0.0686957 
0.103863 0.0474947 0.00613255 -0.0838794 -0.0814923 
5 5 -0.308496
-0.0153901 0.0930147 0.0073249 0.0782355 0.16071 
0.0924035 -0.00887659 0.169696 0.10996 0.138196 
0.169217 0.163183 0.0240874 0.134855 0.046872 
0.0850261 0.147013 0.124202 0.13359 0.171887 
0.0309529 0.014409 0.149873 0.119737 0.143388 
5 5 0.0109976
-0.0229494 -0.0439016 0.0965578 -0.0847059 0.0137333 
-0.0604934 -0.0439058 0.0524817 0.0320617 0.0619152 
0.0484899 0.0205751 -0.0719406 -0.0246294 -0.0950649 
0.0673673 -0.0683506 -0.0343266 0.0362527 0.053977 
-0.0200331 -0.0362016 -0.0749803 0.000612427 0.0996703 
5 5 -0.0823383
-0.0631755 0.0891947 0.0390296 0.0370869 0.0208771 
0.0611706 0.0630141 0.0925852 -0.000557473 0.102057 
-0.0230964 -0.0743818 -0.0878703 -0.0758974 0.0635184 
-0.0794207 -0.00380473 -0.0609331 0.00853889 -0.0234082 
-0.00131311 0.0563681 -0.0889311 -0.0152495 -0.0117999 
5 5 0.388234
-0.0097592 0.0516198 -0.0965912 -0.0903533 -0.0113974 
-0.0360124 -0.112216 -0.0701625 -0.00799947 -0.0429985 
0.0436806 -0.132097 -0.0645509 -0.0472597 0.0587245 
-0.115981 -0.00907023 -0.0484805 0.0383747 -0.102302 
-0.104149 0.00434407 -0.139882 -0.0216706 -0.0372143 
5 5 -0.0523955
-0.0159012 -0.00166875 0.144445 0.0637908 0.096274 
-0.0148238 0.107171 0.135927 0.00558988 -0.0436266 
-0.0565494 0.113967 0.149972 0.0617273 0.157237 
0.0953642 -0.0328633 -0.031471 0.0999195 0.119378 
0.139215 0.011031 0.0745006 0.092256 0.0705501 
5 5 -0.0474312
0.0764546 0.000642657 -0.0856183 0.0486572 -0.0258426 
-0.0460321 0.0103553 0.0631547 -0.0126739 -0.053728 
-0.024786 -0.0554753 -0.0771299 -0.0766225 -0.0418862 
0.0406778 0.0260482 0.0164083 0.0687041 0.0530963 
0.0344418 0.0871894 -0.0369854 -0.0467542 -0.0361851 
5 5 -0.230488
0.0937301 0.131821 0.173672 0.0729738 0.0959346 
0.0830605 0.164066 0.190146 0.10488 0.115127 
0.150333 0.159061 0.132642 0.19631 0.0815881 
0.0205089 0.11823 0.143256 0.184337 0.082947 
0.103388 0.00882594 0.0526935 0.138287 0.138552 
5 5 -0.0786244
-0.0144454 0.086897 0.0727601 -0.0727936 -0.0247733 
-0.0529412 -0.0682696 0.0446334 -0.0858428 -0.0519574 
0.0119561 -0.054983 0.0245399 -0.0895512 0.0963681 
0.0540654 -0.00637298 -0.0308849 0.0763533 -0.0942613 
-0.094156 -0.0889027 -0.0291979 -0.00246076 0.102992 
5 5 -0.0622625
-0.0679213 0.0826433 -0.09417 0.0891347 0.0416028 
-0.0040544 0.052146 -0.0264231 0.0979812 0.0795883 
-0.0905369 0.0858888 0.0893684 -0.0193752 -0.000339683 
-0.0279179 -0.0517938 0.0917817 0.0798318 0.0582818 
0.00151973 -0.078468 0.0534842 0.0484971 -0.00452811 
5 5 -0.0528878
0.0259788 0.0777245 0.0669073 0.0272946 -0.0556579 
-0.0838139 -0.0332321 0.0605512 -0.0406763 0.0268962 
0.0724671 0.055639 -0.0926345 0.0183433 -0.0818368 
0.0706703 0.0945309 0.028962 0.0117017 -0.0736181 
-0.029315 0.0282775 -0.0261311 0.0585476 0.0466826 
5 5 0.0116084
0.0623703 -0.0887451 0.0963037 0.0454887 0.0765143 
0.0792873 -0.096021 0.0699639 -0.0870024 0.0698431 
-0.0733887 -0.0625144 -0.0345799 -0.0381164 0.0519114 
-0.0940119 0.00584022 0.0986061 -0.0263789 0.0192854 
0.0141564 -0.0754087 0.100993 -0.0798559 -0.0617819 
5 5 0.0445068
0.00803265 0.0154215 0.0419013 0.0464791 -0.0112976 
-0.0333994 0.0993939 -0.0375936 -0.0917511 0.00583778 
-0.0147286 0.0953609 -0.0732674 -0.0697973 -0.0216821 
-0.0979171 0.0932432 0.0329016 -0.0248404 0.0634569 
-0.0445104 0.00110981 0.0233606 0.00802965 0.012928 
5 5 0.0853098
0.0523457 0.0439589 -0.0545016 -0.0857225 -0.0151606 
-0.0433149 0.0499319 -0.0394228 -0.0975742 0.0246489 
0.0118859 0.0984735 0.0593711 -0.0864783 0.049552 
-0.0750921 0.013263 0.00499439 -0.0449985 -0.0483946 
0.0617323 0.0121095 0.0706103 0.00454077 0.0632816 
5 5 0.0466817
-0.073781 0.0400851 0.0232735 -0.0354656 -0.031985 
0.0716705 -0.0707721 0.0246639 -0.0797853 0.0262397 
0.012809 -0.00944503 -0.00594646 0.0283058 -0.0778129 
-0.0438285 0.0922473 -0.0807883 -0.0138739 0.0761911 
0.0283482 -0.0785145 0.0487478 -0.0141236 0.0975755 
5 5 0.046692
0.058672 -0.0438552 0.031236 -0.021383 0.09432 
-0.0515231 0.0597365 -0.0290694 0.00197536 0.0195325 
-0.0760424 -0.0270263 -0.0654723 0.0336722 -0.0395768 
0.0849804 -0.0334663 -0.0578895 0.0912782 -0.0889603 
0.0698866 -0.0195476 0.0562504 -0.00627872 0.030819 
128
5 5 0.422612
-0.144346 -0.0128503 -0.0746205 -0.0640387 -0.140125 
-0.0844625 -0.0864734 -0.0875418 -0.157712 -0.0443025 
-0.120277 -0.0478024 -0.148753 -0.0844945 0.0082032 
-0.153599 -0.134329 -0.157319 -0.0922691 -0.0375163 
-0.000345917 -0.102084 -0.155687 0.0312082 -0.110763 
5 5 0.263871
-0.00149567 0.100745 0.0708819 6.31141e-005 0.131206 
0.170692 -0.00258338 0.161687 0.0118348 0.065055 
0.126455 -0.0179816 -0.00694562 0.0665877 0.0577278 
0.176564 0.16183 0.122557 0.177916 0.14753 
0.0986211 0.124717 0.0510817 -0.0131359 0.0181325 
5 5 -0.123263
0.070344 -0.0710019 -0.0182588 4.95925e-005 -0.0673463 
-0.0526135 0.0570267 -0.0249219 0.0267643 -0.0782996 
0.00880838 -0.020242 0.0266553 -0.0663438 -0.0149207 
0.0667268 -0.0413383 0.0442695 0.0875779 -0.0101274 
0.0908954 -0.0441212 -0.000392809 0.0327016 0.0790399 
5 5 0.0115193
-0.00393422 -0.0623276 0.0272428 -0.0279165 -0.0449016 
0.0606894 -0.0875764 -0.0485979 0.0882485 -0.0775574 
-0.0253998 -0.0426934 0.0808062 -0.0534391 -0.0174833 
0.0762366 -0.0111517 -0.04596 -0.0119044 0.0696242 
0.0828117 -0.0380699 -0.000459036 0.0583079 0.0408551 
5 5 0.643091
0.00589227 -0.00788908 -0.0625876 -0.0890561 -0.0582005 
-0.134145 -0.0558394 -0.113965 -0.0710463 -0.0541739 
-0.129735 -0.147479 -0.136337 -0.108848 -0.0796678 
-0.0979629 -0.130292 -0.0019692 -0.0934459 -0.0824038 
0.0161156 -0.0169359 -0.114745 -0.142837 0.00791216 
5 5 -0.215579
-0.136471 -0.122878 -0.117988 -0.0630121 -0.0827818 
-0.0339661 -0.048862 -0.118491 -0.0952822 -0.0605899 
-0.0425076 0.00695496 -0.0873355 -0.111462 -0.121392 
-0.0265838 -0.0543325 -0.0959552 -0.111918 -0.122989 
-0.125011 -0.114998 -0.0111044 -0.0491233 -0.142879 
5 5 0.11553
0.128583 0.0480631 0.0503035 0.145762 -0.00057999 
0.0345427 0.109058 0.140283 0.119532 0.0431434 
0.110672 0.119248 0.142821 0.0346618 0.0715465 
0.130046 0.044114 0.126584 0.0190034 0.151168 
0.174047 0.114816 0.159742 0.146054 0.129259 
5 5 0.389009
0.0664808 0.0215738 -0.0108069 0.180661 0.0483311 
0.112708 0.145733 0.0971079 0.154398 0.00763664 
0.0747464 0.165711 0.0550378 0.096286 0.117906 
0.0297221 0.162131 0.188368 0.0181003 0.0701147 
0.149605 0.179717 0.0822485 0.196138 0.208878 
5 5 -0.0575352
0.0598869 -0.0566113 -0.0667568 0.0804693 -0.029218 
-0.0211346 -0.0795308 -0.0783917 0.0705766 -0.0706335 
0.0798156 0.051969 -0.0690171 -0.0538542 -0.081995 
-0.000971593 -0.0382823 -0.0401048 0.0502472 -0.0270598 
0.0154132 0.0229379 0.020918 -0.0311876 -0.0454942 
5 5 0.0696636
-0.061396 -0.0761626 -0.0505898 0.0991378 -0.0267603 
0.0845362 -0.0646475 -0.0443958 0.0728524 -0.00324614 
0.0776077 -0.0466519 0.0376734 -0.0631533 0.0175948 
0.0380799 -0.0903939 0.0332908 -0.0800021 -0.0256937 
-0.086663 -0.0393927 -3.14717e-005 0.0936637 0.0238305 
5 5 -0.450626
0.0540362 0.0609491 -0.0587375 -0.0335586 -0.0214106 
0.102856 0.0942905 -0.0708089 -0.0583509 -0.00526192 
0.0451299 0.0691794 0.0555687 0.0723705 0.0742116 
0.0473988 0.0533847 -0.000325786 0.0313313 -0.062488 
0.0378693 -0.0698182 0.0960783 -0.0511072 -0.00320751 
5 5 0.486292
-0.0949598 -0.133517 -0.10089 -0.148465 -0.0226655 
-0.0507647 -0.0825795 -0.0166238 -0.106963 -0.0487436 
-0.178115 -0.0941387 -0.0970814 -0.175513 -0.121056 
-0.0915976 -0.177448 -0.140998 -0.0498107 -0.126699 
-0.0112082 -0.102286 -0.128793 -0.0606078 -0.00573392 
5 5 0.567702
-0.162048 -0.102406 -0.0386952 -0.155175 -0.152949 
-0.0804004 -0.13535 -0.122442 -0.155524 -0.037009 
0.0299579 0.0264549 -0.0711456 -0.163574 -0.053296 
-0.0198535 -0.0202273 -0.116918 -0.100993 -0.136794 
-0.106378 -0.0783045 -0.124955 0.00436784 0.0351593 
5 5 -0.0118313
0.0290264 -0.0161668 -0.0270322 0.0313319 -0.0711278 
-0.0582931 0.0221154 -0.0797758 -0.0165539 0.0854438 
-0.0710641 -0.0468841 0.0856204 0.0613897 -0.00511848 
0.0704054 -0.0868295 -0.0821078 0.0259825 0.0718592 
0.00962575 -0.0543984 0.0591878 0.0961846 -0.00876304 
5 5 -0.0549837
-0.0782795 -0.0555635 0.045704 0.0952043 0.0134921 
-0.0556453 -0.0684503 0.00374904 -0.0874352 0.0289214 
-0.00819697 0.0289737 -0.0933113 0.0422655 -0.00942196 
-0.025082 -0.0385105 0.00927223 0.0623817 0.052559 
-0.0411232 0.100275 0.0850496 0.0507462 -0.0693278 
5 5 -0.265009
-0.0244241 -0.152883 -0.151295 -0.0408295 -0.101645 
-0.103539 -0.026038 -0.101338 -0.108919 -0.177618 
0.0113679 0.0109822 -0.14078 -0.125647 -0.0387869 
-0.0410235 -0.0820912 -0.0635835 -0.0418285 -0.140752 
0.0175948 0.00111361 -0.12495 -0.16627 -0.0857246 
5 5 -0.105323
-0.100676 0.0554129 -0.0382958 -0.0154151 -0.00295933 
-0.10078 -0.0745652 0.0928512 0.0187112 -0.0447421 
-0.0971674 -0.0123668 0.0532771 0.0887457 0.00942214 
0.0957287 0.00674173 -0.0739613 0.0330553 -0.0493741 
0.0806416 -0.056891 -0.00673322 0.0419106 0.0593932 
5 5 -0.027589
-0.0308294 0.0868119 -0.0614989 0.0801688 -0.0689526 
-0.0514918 0.0921817 0.0524488 -0.0358743 0.0537086 
0.00375546 -0.0831054 -0.0733043 0.0322381 0.0661469 
-0.0498316 -0.0712871 0.0364828 0.0736063 -0.0899928 
-0.0315852 -0.0437532 0.00566552 0.0163549 0.016357 
5 5 0.192171
0.0362648 0.0586255 -0.0683682 -0.0603422 -0.0184751 
-0.0849599 0.069244 0.0469542 -0.0234536 -0.0536047 
0.0162843 0.00654924 -0.0705995 0.0927766 0.0620974 
-0.0826271 -0.0553721 -0.0597924 0.0422087 -0.00888353 
-0.0712051 0.0394448 0.0107069 0.0586886 0.102387 
5 5 0.0763809
-0.0746356 0.018705 0.0559895 0.0276316 0.0608169 
0.0253524 -0.087644 0.0859076 0.0331523 -0.0230762 
-0.0753088 0.0363998 0.0532002 -0.00931185 -0.0139994 
-0.0374067 0.0869772 0.0232046 -0.0303641 -0.0804833 
0.0435796 0.0270768 0.0788419 0.0109995 -0.0333226 
5 5 -0.10621
0.0294255 -0.0263447 -0.0847559 -0.0211013 -0.0123099 
0.0668244 0.0994949 -0.0674274 -0.0841201 -0.0098664 
-0.0204363 0.0207984 0.0305184 0.0148914 0.0793323 
-0.0408614 0.0234383 0.0503896 0.0163153 -0.0412158 
-0.0303814 0.0457575 -0.0787322 -0.00719947 -0.0461532 
5 5 0.0338148
-0.0703989 0.0447225 -0.052319 0.0264515 -0.0709981 
-0.00049768 -0.0294209 0.0595719 0.0361871 -0.0755851 
0.0579964 0.004795 -0.00434424 0.00797806 0.0800141 
0.0463087 -0.0277636 -0.096531 -0.0681333 0.0316162 
-0.0766286 -0.0614067 -0.0679204 0.00282066 0.0306619 
5 5 -0.0747755
-0.0440416 -0.088091 -0.0291182 -0.0394794 -0.0508387 
0.0389327 -0.0810092 -0.0168378 -0.0793317 0.0883187 
0.0343464 -0.0182152 0.0880131 -0.0884857 -0.0476968 
-0.0176125 0.0747779 0.0293302 0.0316768 0.0428886 
0.00551596 0.0756246 0.0511531 0.0878952 0.0243971 
5 5 -0.00597712
-0.0636343 0.0603502 0.0738322 0.0832313 -0.0128263 
-0.065782 0.050189 -0.0705213 0.0150204 0.0732052 
-0.00109658 0.0864711 0.033343 0.053739 0.0401326 
-0.0542642 -0.0886425 0.0366884 0.0859186 0.087427 
0.0604086 0.0330615 0.0681296 -0.0789722 -0.0635422 
5 5 -0.216217
-0.0770504 0.106177 0.0516823 -0.0135158 -0.0112051 
0.0857823 0.00521018 -0.0395246 0.0373985 0.0208251 
-0.00757192 0.105602 0.0108106 0.0945559 -0.0651148 
-0.0438976 0.0997337 0.0585829 0.0994938 0.0476686 
0.00446363 -0.0212685 0.0943286 0.0347571 0.0255314 
5 5 0.0670929
-0.0469252 -0.0726854 -0.086248 0.0812669 -0.0654395 
-0.0011442 -0.0403301 0.0376463 -0.0429513 -0.0651089 
-0.0946683 0.0461574 0.0754895 -0.0917612 -0.0791904 
0.0314896 -0.0892668 -0.0305643 0.0130731 -0.00335231 
0.0824681 0.075328 -0.0345652 -0.0705453 -0.0870996 
5 5 -0.116888
-0.072623 -0.0414138 -0.0145497 0.0911243 0.0868262 
0.0640768 0.0359975 -0.0955964 -0.0491856 -0.050176 
-0.0364202 -0.0821887 0.0797867 -0.0181953 0.0356889 
-0.0721042 -0.0135263 0.00381246 0.0709697 -0.0731144 
0.0488198 -0.070082 0.0862266 0.090085 -0.0413733 
5 5 -0.125214
-0.0204862 0.0491377 -0.0649235 0.0727101 -0.0590364 
-0.00544103 0.0494859 -0.0431793 -0.0412481 0.0641483 
0.0692153 0.0278097 -0.081051 -0.0176622 -0.028289 
-0.00591585 0.0655063 8.81221e-005 -0.0484915 -0.0709735 
-0.0890957 0.092602 0.0526064 0.0975478 -0.0278618 
5 5 0.092824
0.0551208 0.015627 0.0182806 -0.0371949 -0.0449181 
-0.051108 0.0111668 -0.0710949 0.0566428 -0.0538191 
0.012711 0.0478769 0.0196963 0.029557 0.0509125 
0.053517 0.0875466 0.035038 0.019007 -0.0382977 
0.0272693 -0.0834015 -0.0103296 0.0508176 0.0144178 
5 5 -0.0177684
0.0264733 -0.0517002 -0.00800891 -0.0901396 0.0794854 
0.0889037 -0.0581498 -0.0669966 0.0281538 0.0802488 
-0.0176058 -0.0120665 0.0783704 0.0585802 -0.0538755 
-0.0488943 -0.0264806 -0.0293074 -0.0458978 0.0747624 
0.0143153 0.0477483 0.0207944 0.0943349 -0.0416384 
5 5 0.0255797
0.0242618 0.0488524 -0.00851624 -0.0444327 0.0633167 
-0.0881883 0.0358728 0.00122356 -0.045432 0.0603259 
0.00384133 0.0167115 0.0711462 0.0596947 0.0449212 
-0.0831665 0.077153 -0.00846596 -0.00752653 0.0673628 
-0.0205988 0.0233266 0.0800616 0.0591778 0.0298031 
5 5 0.0369945
-0.0844586 -0.0754859 -0.0879349 -0.0475193 -0.0268411 
-0.0640906 -0.0727966 -0.0437551 0.0345059 0.0832319 
0.0510041 0.014881 -0.00671258 -0.0673141 -0.0601227 
-0.00721018 0.0561711 -0.0358846 -0.0440858 0.10043 
-0.000431093 -0.0752958 -0.0711759 -0.0629467 0.0669634 
5 5 0.0880964
0.0821416 0.0233404 -0.012385 -0.016531 0.0731567 
0.0426522 -0.0924488 0.0246018 -0.0575182 0.0691462 
0.0860743 0.0314377 -0.0530344 0.0250903 -0.0218998 
0.0732062 0.0765711 0.0470365 -0.0462108 -2.96671e-005 
-0.000852598 -0.0226697 0.0487105 -0.0826914 0.0613953 
5 5 0.0722572
0.0223086 -0.0697658 0.0763833 0.0266882 -0.085731 
0.0209791 -0.062617 -0.0558537 -0.0405536 -0.00363344 
-0.0320576 -0.0859649 0.0701509 -0.0119493 0.0676616 
0.0537211 -0.0539687 0.0418822 -0.0361464 0.0864315 
0.00174453 0.0605432 0.00868248 0.0748449 -0.00845836 
5 5 0.043121
0.0530582 -0.0705072 -0.0861539 -0.0423816 0.0208885 
-0.0087898 0.0693947 -0.0398941 -0.0665045 -0.0878852 
0.0723325 0.0266911 -0.00864103 -0.0829791 0.0718721 
-0.0610688 0.0612224 0.0695417 -0.0165343 -0.0680964 
-0.00489451 0.0424584 0.0028989 0.0754543 -0.0889888 
5 5 0.00220672
-0.0131342 0.0567622 0.068337 0.0915669 -0.0175496 
-0.0762111 0.0696642 -0.0134993 0.0809346 0.0385309 
0.0159676 -0.0860211 0.0853627 0.00504064 -0.0466201 
0.0595276 -0.0322107 0.0230036 0.0373006 -0.00489646 
-0.00181244 0.0239833 -0.053096 -0.0401088 -0.0722209 
5 5 0.0722667
-0.0187939 0.0954626 -0.0942533 0.0147185 -0.0291992 
0.0455797 -0.084015 -0.0503222 0.0274582 0.0166384 
0.00363659 0.0126341 0.0754028 -0.0809392 0.0875477 
-0.00333085 -0.0136363 0.0851501 0.0289596 0.0445805 
0.0527598 -0.0261008 -0.0585578 0.0434674 0.030337 
5 5 -0.0338626
0.02433 0.0522537 0.0818133 0.0736995 0.0962227 
0.0160615 0.0481953 0.0136619 -0.0807076 -0.067232 
-0.00892125 -0.0502481 0.0843837 -0.0851044 0.02083 
-0.0927152 -0.0552258 -0.0872519 -0.045435 -0.0690699 
-0.0204923 -0.0483345 0.0295745 0.0684717 0.0653465 
5 5 0.0388414
0.00472918 -0.00867604 0.0401893 0.00286019 0.082001 
-0.0413349 0.0397545 0.00275048 -0.0241195 -0.0722377 
-0.0149581 -0.00617065 -0.0326393 -0.0779748 -0.0925272 
0.076922 0.0689426 0.0591206 0.0885544 0.0041369 
-0.0656415 -0.0531387 0.0969723 -0.00771058 0.0438727 
5 5 0.0525088
-0.0952926 -0.0993228 -0.00424115 -0.0448371 -0.0379885 
-0.0708089 0.0359625 0.0765817 0.0144492 0.0942487 
0.056983 0.0153665 -0.0586138 0.0370838 -0.00306538 
0.0717768 -0.00157456 0.021912 0.0703238 0.0809143 
-0.0555888 0.0796735 -0.0382752 -0.043304 0.0345765 
5 5 -0.168005
0.00921402 0.0489447 -0.0437694 -0.000631397 -0.0649168 
-0.0533703 -0.0836322 -0.0791566 0.0897204 -0.0337067 
0.0923327 0.0319924 0.0272094 0.0232116 -0.0818469 
-0.00940221 -0.0247407 -0.0815037 0.0281892 0.0933643 
-0.0354503 0.0823039 0.0425258 0.0176382 0.039474 
5 5 -0.147688
-0.086739 -0.0406446 0.0884802 0.0616536 -0.0611312 
-0.0144075 0.0664334 0.0828801 0.0494001 0.0874888 
0.0999015 -0.0712005 -0.00106556 -0.00507332 0.0974726 
0.078806 0.0575789 0.0704228 -0.0621594 0.0793027 
-0.0645292 0.0653283 0.0310647 -0.00286628 0.0253462 
5 5 -0.0814294
-0.0314847 -0.0184918 -0.0566183 -0.00649545 -0.0725958 
0.0423639 0.0879292 0.0927751 0.0972119 -0.00281136 
-0.0974684 -0.0189625 0.0276497 -0.00948445 0.0507779 
-0.0643155 0.0114878 0.0887283 -0.0180656 -0.0723323 
-0.0980217 -0.0559969 0.0117125 0.0930618 -0.0712964 
5 5 0.152164
-0.0883732 -0.0656126 -0.062192 0.0749887 0.0261693 
-0.0230283 -0.0592061 0.00559247 0.0180635 0.0307053 
-0.0660315 0.0247561 -0.0241536 0.076644 -0.0600625 
0.069638 -0.0274675 -0.0582801 0.0389499 -0.0819812 
-0.0833355 0.0736476 0.0671266 0.020676 0.0795215 
5 5 0.0671607
0.0115915 0.00732004 -0.023879 -0.0050925 0.0844831 
-0.0863464 0.024633 -0.0812952 -0.0120368 -0.0713635 
-0.0479348 -0.0273152 0.0563518 0.0140503 0.0792935 
0.0752211 -0.00839096 -0.00763312 0.053147 0.0434286 
-0.030148 -0.0468992 0.0518549 -0.098523 -0.0585515 
5 5 0.127223
-0.0636173 -0.0549087 0.0549428 0.0820968 -0.0611898 
0.0296762 0.0465172 0.00842476 -0.0575017 0.011454 
-0.100176 -0.0777839 -0.0280579 0.032447 0.0422265 
0.079684 -0.0550904 -0.0188831 -0.0172907 -0.0693717 
0.0806971 -0.00672681 0.033465 0.0794278 0.0426054 
5 5 -0.0232521
0.0431429 0.0061781 -0.00441717 0.0206156 -0.0205734 
0.0604838 0.0667523 0.0334063 0.0766864 -0.0814418 
-0.0268072 0.0815239 0.000390074 0.0311749 -0.0792515 
-0.0260388 -0.0553705 0.0522955 -0.0621032 -0.0471261 
-0.100315 -0.0381746 -0.0663575 0.0457964 0.019741 
5 5 0.0820842
0.0601909 -0.0907027 -0.0756845 -0.0705631 0.0515222 
-0.0905424 0.0533746 -0.00202984 -0.0537839 -0.0781644 
-0.0650267 -0.0275629 0.0392166 -0.0276949 0.0596427 
-0.0232212 0.0712991 0.000784536 0.0210707 0.0897874 
-0.0735818 0.0940672 0.042593 0.0906873 0.0201462 
5 5 0.032458
-0.0760874 -0.0513498 0.0620536 0.000141407 -0.0682102 
0.0539046 -0.0369331 0.0303317 0.0864643 -0.0815969 
-0.00513326 0.0229831 -0.0541611 -0.0756729 -0.052337 
-0.0955798 -0.0586966 0.0435499 -0.00586738 -0.0206617 
-0.0101789 -0.0630232 0.0301118 0.033736 0.00784395 
5 5 -0.116008
-0.0220726 -0.0390792 0.0707405 0.0525793 0.0190972 
-0.0461576 0.0255329 -0.0645195 0.0707028 0.0497822 
-0.0691636 0.0255376 0.0425833 0.0460879 0.101005 
-0.0442958 -0.00468989 -0.0294216 -0.0731506 0.0171639 
-0.0443896 -0.0459238 0.0936732 0.0420349 0.0813102 
5 5 -0.0865162
-0.109748 -0.106591 -0.062171 -0.106452 0.00188702 
-0.00935261 0.0783289 -0.0747563 -0.0591584 -0.0380281 
0.0215111 -0.0171315 0.0631104 -0.0585681 -0.1035 
-0.0261101 0.0766381 0.0184098 0.0429648 -0.0892251 
0.0901303 0.0664288 -0.0331648 0.000203768 0.0439222 
5 5 -0.0922254
0.0248881 -0.0685701 0.0367041 0.0594283 0.0511524 
-0.0196522 -0.0761442 0.0479947 0.059501 0.0407842 
0.0654829 -0.0511251 -0.0855624 -0.00968204 0.0949334 
-0.0496711 0.0911389 -0.0131936 -0.0951404 -0.0309262 
-0.0593939 -0.0196339 -0.0657625 -0.0705558 0.0673256 
5 5 -0.0840207
-0.022195 0.058354 0.0830417 -0.00772832 0.0544226 
-0.0211141 -0.0665418 -0.00585109 -0.0131421 -0.06523 
0.0741735 -0.0747144 -0.00883072 -0.0742074 0.0648182 
-0.0783072 -0.0746992 0.0852549 0.0775774 0.0474024 
-0.0659184 0.0820985 -0.0931561 0.0144066 -0.0985901 
5 5 0.085922
-0.0642637 -0.00292612 0.0608995 0.0225756 0.057343 
-0.0325987 -0.0142061 0.00132697 0.0499294 -0.0618914 
0.0980564 0.0705531 -0.0514627 -0.0350402 -0.0983259 
0.0237482 -0.0853593 0.0316934 -0.077499 -0.0496112 
-0.00689407 -0.0735782 -0.0770596 0.0837227 0.0265236 
5 5 0.176759
-0.0175895 -0.0837442 -0.0901253 0.0505214 0.00933067 
-0.0872519 0.0591856 -0.0314728 -0.0909948 0.032791 
0.104992 0.0871337 -0.0647104 -0.0532357 0.0363702 
0.0644796 0.0222278 -0.026178 0.0578289 -0.0365583 
-0.090926 0.0249322 -0.0452125 0.0335263 -0.00356077 
5 5 0.113281
-0.0233682 -0.090424 -0.0581669 -0.0556596 0.0100947 
0.015736 -0.0186185 0.015657 0.0263829 -0.0668729 
-0.0958314 0.0101712 0.0819892 0.00167738 -0.0366055 
-0.106264 -0.0273474 -0.0431081 -0.0281282 0.044664 
-0.0317669 -0.068066 0.0963001 0.0628316 -0.06495 
5 5 0.0189052
0.0715336 -0.0510249 -0.0393158 0.0262869 -0.0739093 
0.0381895 0.0638159 0.0172241 0.027295 0.00386983 
0.0973696 -0.0862208 -0.0300666 -0.00477282 0.105561 
0.0139543 0.079574 0.0890125 0.00747897 0.0138536 
0.00206932 0.0348084 -0.016186 -0.0230585 0.0305632 
5 5 -0.0505162
0.040525 -0.0617196 0.0848026 -0.0350208 -0.0231925 
0.0451133 0.0183147 -0.0502509 -0.0797804 0.0973519 
0.0925756 0.060246 -0.0268475 0.0432556 -0.0443234 
-0.0951427 -0.0724569 -0.047951 -0.00548866 0.0728086 
0.0759438 0.0819534 -0.0965872 -0.062811 -6.63006e-005 
5 5 -0.0460983
0.0164343 0.0366457 -0.0862771 -0.00823468 -0.0258979 
0.0531687 0.00978648 0.0282999 -0.0139049 -0.0596713 
0.0952733 -0.0199839 -0.0361881 -0.064379 0.0477918 
-0.0612651 -0.0408714 -0.00888436 -0.014155 -0.0816959 
-0.0916509 0.071205 0.000550724 0.000331511 0.0105747 
5 5 -0.050083
0.00982926 0.0546538 -0.030782 -0.0705656 0.0776185 
0.0257729 0.0729251 -0.047457 0.0636851 -0.0633976 
0.0280674 -0.0642845 0.0285313 -0.0868939 0.0353002 
0.0458872 0.070052 -0.0281565 0.0187704 0.092493 
-0.0871104 -0.026694 -0.011143 -0.0354672 0.0282283 
5 5 -0.0805329
-0.0333225 -0.000859235 -0.0342683 0.0547761 -0.0242162 
0.0677325 0.0591377 0.101413 -0.00564314 -0.056865 
0.0381724 -0.0551558 -0.0876595 0.0805758 0.0615846 
0.0515986 -0.00157533 -0.0358895 0.101699 -0.0704322 
-0.0303704 0.0199071 0.0369797 -0.0359525 -0.0900569 
5 5 -0.0359281
-0.0547085 0.0568874 -0.0426844 -0.00020839 -0.0138322 
-0.0518631 0.00817733 -0.0430908 -0.081982 -0.0680002 
-0.0542463 -0.00203765 0.0792013 0.0704807 0.0489419 
-0.0152482 0.0815112 0.0325673 0.097851 -0.0841443 
0.00837863 0.0228496 0.010408 -0.0574749 -0.00131654 
5 5 -0.201984
-0.0767673 -0.0285864 -0.0220185 -0.0803953 0.0614847 
-0.115166 -0.0725774 -0.0250417 0.0432254 -0.104442 
0.000679521 -0.0960828 0.0372294 -0.0842504 -0.0710668 
-0.00145855 -0.00177674 0.0736791 0.0317734 -0.108687 
-0.0423229 -0.0127337 0.0130613 -0.115083 0.0555605 
5 5 0.00235135
-0.068322 0.0407924 -0.0288207 0.0321658 -0.0814906 
0.0756269 -0.0164997 -0.0605252 0.0811964 -0.0193402 
-0.0532196 0.0393972 -0.0638689 -0.019595 -0.031332 
-0.0330286 0.00343051 -0.0609901 0.0823397 0.0456363 
-0.0549387 0.0719368 -0.0623488 -0.0634792 0.0437687 
5 5 0.564022
0.0584054 0.174141 -0.000934137 0.0345889 0.0142179 
0.0199719 0.0486875 0.0668184 0.0346959 0.00399167 
0.151628 0.0356489 0.0742495 0.180104 0.024042 
0.156258 0.183336 0.040488 0.051604 0.110553 
0.114373 0.150302 0.015962 0.0171274 0.149583 
5 5 -0.145763
0.0177686 0.0517419 -0.0741695 -0.0381379 0.0557815 
-0.0489187 -0.0386573 0.0191032 -0.0616377 -0.0847379 
0.0203706 0.0942635 -0.0680667 -0.0385892 -0.0755718 
0.0198804 0.0313221 -0.00161592 0.0610149 0.0419019 
0.0599046 0.000524654 0.0130703 0.0913893 0.000827636 
5 5 -0.326773
-0.0797261 0.0793882 0.0605944 -0.0102721 -0.0450836 
0.00115833 0.0666966 0.0759361 0.0342334 0.00172692 
-0.0605984 0.0262804 0.0679064 -0.0525518 -0.0558885 
-0.0448337 -0.0703231 -0.0808483 -0.0275215 0.0208411 
0.0746138 0.0593021 0.0203026 0.0491406 0.00909819 
5 5 -0.321538
-0.180505 -0.184875 -0.0821056 0.00750617 -0.150184 
-0.178679 -0.119469 -0.072277 -0.0513033 -0.157078 
-0.136763 -0.151025 -0.0765665 -0.0254869 -0.0805203 
-0.138988 -0.158022 -0.131511 -0.116827 -0.108811 
-0.11392 -0.0797872 -0.139613 0.0104355 -0.130061 
5 5 0.0686686
-0.0593082 -0.065748 0.0614191 -0.0942441 0.102677 
-0.0812867 0.04227 0.0413518 -0.0877855 0.031743 
-0.0316533 0.0811499 0.0634176 0.0267976 0.0792976 
-0.0359227 0.00777704 0.00523484 -0.0540669 0.0625209 
-0.0294609 -0.0453893 -0.0769409 0.0332778 0.0264797 
5 5 0.254137
0.0900635 -0.00871048 -0.0518829 0.0789041 -0.0134961 
-0.0804773 -0.0216433 0.0455462 -0.0308813 -0.0686039 
0.0121085 0.0689479 -0.0957025 0.0318186 -0.0866024 
0.0298079 -0.0187753 -0.0190735 -0.1074 -0.0733796 
0.058784 -0.00899027 0.0499929 -0.0516262 0.0167369 
5 5 -0.168923
0.00631016 -0.0877337 -0.0941583 -0.0769653 0.0544755 
-0.0933251 -0.0660901 -0.00485697 -0.0405176 0.0591854 
-0.0163636 0.0226238 0.0578462 -0.0425489 -0.00221025 
-0.0748613 -0.0601298 -0.076744 0.0799377 0.0902095 
-0.0103083 0.0886007 0.0420525 -0.0724462 -0.0882871 
5 5 0.191361
0.0905472 -0.071349 0.0355168 -0.0857613 -0.0199932 
-0.0914545 0.00485029 0.0332221 0.0107437 -0.071933 
-0.023771 0.0569425 -0.041959 0.081049 -0.0223591 
-0.0402241 0.0850884 -0.0721832 -0.0503502 -0.0837005 
-0.0427046 0.0076739 0.08267 0.0544294 0.0122432 
5 5 0.103381
0.0291194 -0.0794357 -0.0112924 -0.0384857 -0.0538002 
0.0770912 -0.0289938 -0.0484514 0.0128222 -0.0880814 
-0.0576423 0.0266976 0.0979551 -0.0829317 0.0534068 
0.0325475 0.0770991 0.0689669 0.03114 -0.0895706 
0.0958419 -0.0151979 -0.038195 0.0711666 0.00579081 
5 5 0.0265137
0.0991651 -0.0924325 -0.0818149 0.0956197 0.088004 
0.00597083 0.092832 -0.0140074 0.0988604 -0.0623926 
-0.0778409 0.0895883 0.0297744 -0.0630561 0.0160029 
-0.0807642 0.058855 -0.0334183 0.0927456 0.010877 
-0.0373365 -0.0923573 -0.00538507 0.0713142 0.0298756 
5 5 -0.24173
0.065871 -0.033984 0.00517657 -0.0183342 -0.0579786 
-0.0496495 0.0742802 -0.0662758 -0.0177066 0.0999647 
-0.0178697 0.0163587 0.00704716 0.0822947 0.0458046 
0.080082 0.0142514 -0.0223492 0.103889 0.0449047 
0.0273625 0.0404465 0.0867603 -0.0681753 0.052523 
5 5 -0.131403
-0.0318452 0.103066 -0.0717036 -0.0796494 0.0253097 
-0.0739878 0.0575383 -0.069943 0.0724259 0.0252113 
-0.0059941 0.00402643 -0.0852399 -0.0442637 0.0423991 
-0.0552926 0.0671514 -0.0640326 -0.0698811 -0.0849066 
0.0951766 -0.017799 0.0217343 0.0895729 -0.0861638 
5 5 0.394562
-0.0496826 0.0667321 -0.0580966 0.0616393 0.0575869 
-0.091118 -0.00771998 0.0275151 0.00464634 -0.0202819 
0.082683 -0.0920522 -0.0672719 -0.0335315 -0.041602 
0.0846713 -0.0176114 -0.0986459 0.0841169 0.0442328 
-0.0582018 -0.0531244 0.0342369 -0.0581817 -0.00492513 
5 5 0.161007
-0.0499343 0.0547534 0.06457 0.0597006 -0.0743397 
0.0225836 -0.0308051 0.0365773 0.0659745 -0.0069246 
-0.0464931 -0.00198532 -0.0664574 0.0562577 0.00544413 
0.0379125 -0.0486988 0.100503 0.0533125 0.0557067 
0.0129568 -0.0321664 -0.0674648 0.0202638 0.108113 
5 5 -0.333111
0.128965 0.195035 0.0229868 0.0194923 0.0230703 
0.0748617 0.191974 0.140783 0.133003 0.178176 
0.156503 0.107723 0.139323 0.0621051 0.0437317 
0.0811541 0.18376 0.027764 0.170399 -0.00124604 
0.00503176 0.157382 0.150246 0.0877423 0.000988901 
5 5 0.400051
-0.0776602 -0.00340562 -0.146007 -0.107053 -0.0741899 
0.0375358 -0.0399564 -0.114764 -0.0408415 -0.0561383 
-0.113629 -0.139543 -0.0118332 -0.118329 -0.0656115 
0.0104682 -0.0454567 -0.0896101 -0.017395 -0.121786 
-0.0297029 -0.0418768 -0.0503465 -0.0912432 -0.126088 
5 5 -0.0888495
-0.00487644 0.0935459 -0.057908 -0.0205179 -0.0264337 
0.0052071 -0.028353 0.0841494 0.027748 -0.096843 
0.00832686 0.0481199 -0.0839692 0.0920047 0.0987305 
-0.0464112 0.0278919 -0.00229979 0.0817214 0.0317604 
-0.0752985 0.069329 -0.0890644 0.0225166 0.0879931 
5 5 0.0651242
0.0358495 -0.0458299 0.00572601 0.0928817 0.0245752 
-0.00115407 0.0254341 0.0240351 -0.0909118 -0.0359496 
-0.0879588 0.098733 0.0347147 0.0712055 -0.0660947 
0.0167422 0.0920215 -0.0194777 0.0120499 0.006634 
-0.0827284 -0.0814344 -0.0347164 0.0190698 -0.0622163 
5 5 0.128562
-0.0215101 0.0424488 0.0476865 0.0418256 -0.0680572 
0.0534182 -0.0057188 -0.095509 -0.0916948 -0.00585755 
0.0522007 0.019319 -0.0650028 -0.0992503 0.0708341 
0.0534733 0.0602777 -0.0208853 0.0765311 0.0913244 
0.0217028 -0.0667268 -0.0877834 0.0533499 0.0230294 
5 5 0.0575001
0.0779769 0.0543989 0.0496615 0.0744805 -0.0859532 
-0.0892309 -0.101459 -0.0716032 -0.018627 -0.0668654 
0.0313297 -0.0816659 0.0805119 -0.0815829 -0.0479833 
-0.0550193 -0.0252571 0.0813951 0.00801942 -0.108078 
-0.0607531 -0.0749108 0.00245768 -0.0869596 -0.0821518 
5 5 -0.0844849
0.0471647 0.0385689 -0.0307637 0.0248761 -0.0684222 
0.0450749 -0.0618325 0.0477902 -0.0221384 0.0337699 
-0.0369371 0.0791274 -0.069429 -0.0581016 0.0194856 
-0.0714424 0.0480556 0.0298007 -0.0790657 0.068533 
0.0719033 0.0958737 -0.0981842 0.0119191 -0.0822398 
5 5 -0.0670446
0.0708148 0.0740325 0.0135615 0.031266 -0.080565 
-0.026451 -0.0783858 0.0465332 -0.0352859 0.0305561 
-0.0261891 0.0141563 -0.0924469 0.0139503 -0.0515094 
0.0427834 -0.0113533 -0.00126084 -0.0752289 0.0775741 
-0.0769239 0.0885567 -0.0559269 0.0423534 0.0964242 
5 5 -0.066193
0.00805904 -0.0275261 -0.00475942 0.065955 0.0421176 
0.033503 -0.0291478 -0.0791814 -0.0292072 0.0438978 
0.0962259 0.00909279 -0.0869087 0.00411463 0.00997107 
-0.00900675 0.0439902 0.0311371 -0.0633164 -0.0161895 
-0.0473617 0.0145518 -0.0643105 -0.0828146 0.022552 
5 5 -0.0157591
-0.00382553 -0.00981057 0.0753406 -0.0221426 0.0292746 
0.00125954 -0.0120884 -0.0313635 -0.0391635 0.0162694 
-0.0518991 -0.0267124 -0.0101161 -0.0948035 0.044982 
-0.0729657 0.00301396 0.0263889 0.0464458 0.0901978 
0.0230005 0.00505101 0.0927282 0.0983565 0.0760216 
5 5 -0.0659093
-0.0717979 -0.0138415 -0.0499819 0.0576555 0.0144417 
-0.0192485 0.0374192 0.0817561 -0.0575741 -0.0216468 
-0.0615694 -0.00759784 0.0927335 0.100403 -0.000807817 
-0.0939061 -0.0472233 0.0539609 0.0725278 0.0374224 
0.0505431 0.0789122 0.0933722 -0.0867676 0.100337 
5 5 -0.110944
-0.0646417 -0.0344954 -0.0619703 0.0612738 0.100164 
0.0436305 -0.020647 -0.0656726 -0.0077503 0.0383769 
-0.0491765 -0.0445058 -0.0338392 0.109402 0.0254688 
-0.0714618 0.061229 -0.0860372 0.0698282 0.0360813 
0.02892 0.0731151 -0.0578536 -0.0755838 -0.00677598 
5 5 0.00712226
0.0662114 -0.0676896 -0.0716049 0.0446212 0.0150158 
0.0103938 0.0457657 -0.0980065 0.00370317 -0.063246 
0.00608007 -0.0332514 -0.0716986 -0.076125 -0.0217796 
-0.0165542 -0.0886788 0.0400751 -0.0381225 0.0426467 
0.0787577 0.00628541 0.00203711 0.0868368 0.0678647 
5 5 0.401566
0.110185 0.173968 -0.0112279 0.178106 0.126005 
0.171667 0.0931859 0.0253555 0.0510355 0.143748 
0.151998 0.136398 -0.000447069 0.169848 0.122844 
0.139562 0.104537 0.0869398 0.0879089 0.0934339 
-0.0164275 -0.0060944 0.155599 0.112459 0.049261 
5 5 0.294012
-0.0767546 -0.0295891 0.019708 0.0702464 -0.0356753 
-0.0686166 -0.0422987 0.0822336 0.0671948 -0.0840889 
0.0541879 -0.05831 0.0800193 0.00617233 -0.00925775 
-0.0946313 -0.0702086 0.0497103 0.0827871 -0.0596276 
0.0180878 -0.0540411 0.00676874 -0.0241055 -0.0285623 
5 5 -0.125548
-0.060442 -0.0369913 0.0505846 -0.0638149 0.011532 
-0.0163859 0.0920368 0.0965909 -0.0379266 -0.0188456 
0.0741022 0.000625694 0.0348232 0.00753187 -0.0421306 
0.0015862 -0.00643234 0.00408026 -0.0815549 0.0539728 
0.0815294 0.00854225 0.0015943 0.0380803 -0.10028 
5 5 -0.338431
-0.0956555 -0.117336 -0.139488 -0.0764323 -0.124392 
-0.0236732 -0.0347356 -0.034116 -0.175265 -0.077503 
-0.0510306 -0.068621 -0.0393126 -0.112794 -0.000517235 
-0.160477 -0.142367 -0.136979 -0.0960178 -0.15865 
0.0019214 0.0224294 -0.0672308 -0.0912428 -0.0547242 
5 5 -0.131092
0.0215773 0.0554419 0.0508253 -0.0165872 -0.0737268 
0.0740761 0.0039827 0.0944581 -0.0800979 0.0756528 
0.0167032 -0.0737085 0.02308 0.097168 -0.0157875 
0.0936247 0.0485599 0.04292 0.037797 -0.0628256 
0.0284329 -0.0459321 -0.0182739 -0.0109299 0.0624372 
5 5 0.0245798
0.0589926 0.0904443 -0.105333 -0.0214713 -0.0772764 
-0.0754184 0.0667469 -0.0165458 -0.0512299 -0.0566046 
0.0765678 0.0721483 -0.00550482 -0.0827172 0.0879038 
0.0273127 -0.0350353 0.0883372 0.00774 -0.0513052 
0.0186542 0.0779622 -0.0161769 0.0524295 0.0273382 
5 5 0.134006
0.0498905 -0.0683307 0.0535232 -0.0609434 -0.0178332 
0.0902597 -0.0477247 0.029144 0.0656951 0.0932214 
0.078685 -0.0286531 0.078476 -0.0777293 0.0396478 
0.0122432 -0.0172391 0.0836478 0.0234073 -0.0480935 
0.0140806 0.0752889 0.0487798 0.0940959 0.0617206 
5 5 -0.113849
-0.0896181 -0.050691 -0.0540037 0.00269176 0.0271829 
0.0654381 0.0369529 -0.090195 0.101634 0.0814699 
0.0169668 0.056719 0.0820615 0.0255113 0.0775119 
-0.0491777 -0.0892965 -0.0136661 -0.0924548 -0.0438694 
0.102923 0.0976869 -0.0286521 -0.0120465 0.0906642 
5 5 0.0121921
0.047876 0.00412133 -0.0435052 -0.0965113 -0.0653984 
0.0755217 -0.0859094 0.0296809 0.0473001 0.029661 
0.100976 -0.0380908 0.0595339 -0.0932985 -0.0944175 
-0.0900913 -0.0782672 0.0211101 -0.0113757 -0.0204104 
-0.0473703 0.0111642 -0.0392599 0.0671289 -0.0177041 
5 5 -0.0312195
-0.0611091 -0.0950153 0.0344745 -0.0863425 -0.0732332 
0.078049 -0.0741676 -0.0454083 0.0172377 0.0919301 
0.0517691 0.00499935 -0.00515106 -0.0715498 -0.0354235 
0.00938549 -0.0719832 -0.0218271 0.00196199 -0.072311 
-0.091516 -0.045324 -0.0370264 0.0421786 -0.047179 
5 5 -0.058943
-0.0970191 -0.0979944 0.0122701 -0.0704213 0.0227835 
-0.0597901 0.101237 0.0657305 -0.0325683 -0.0358875 
-0.0911183 0.0493471 0.0650099 -0.0770047 0.0851918 
-0.0631577 0.0264624 -0.0547247 -0.0371644 0.0763821 
0.0699925 0.0884185 -0.0667263 -0.0957409 -0.0438041 
5 5 -0.029324
0.00721395 -0.022999 -0.0880969 0.0586317 0.00871179 
-0.0464226 -0.0627299 0.0213708 0.0940324 -0.091426 
0.043686 -0.027562 0.0761546 -0.0800686 -0.0506625 
0.0019146 0.0498642 -0.0927584 -0.0200324 -0.0202614 
-0.0349533 0.0405542 0.0678202 0.0823607 0.0735013 
5 5 0.00318484
0.0255622 0.0776551 0.0793763 0.0454506 0.00295189 
-0.0457893 -0.052083 -0.0400953 0.0381447 0.0831252 
-0.0584552 -0.0123629 0.07698 -0.0445265 -0.101467 
-0.021657 -0.0263635 0.0889901 -0.0790587 -0.0460363 
-0.0198254 0.0853661 0.0326935 0.0608996 -0.0970563 
5 5 0.0230005
0.0304596 -0.0508758 0.00529542 -0.00164119 0.0527796 
-0.0398964 0.0310514 -0.0992079 -0.0810965 0.0703296 
0.0621572 0.0781766 -0.0479566 -0.0611503 -0.0617914 
0.0290709 -0.0890748 0.0290736 -0.0401576 0.0826688 
-0.0158504 -0.0453233 0.0574478 0.0466112 0.0588086 
5 5 0.0648919
0.0708028 0.0584531 0.00124877 -0.0458313 -0.0245986 
0.0927652 0.00606943 -0.0654284 0.0673934 0.0468998 
0.0716534 -0.089995 -0.0403232 -0.0708574 -0.0752091 
-0.0589548 0.0259209 0.0440501 0.0716556 -0.0478981 
0.0835207 0.064525 0.0077896 0.00348507 0.00409788 
5 5 0.0728386
-0.0637157 0.0550519 0.0176814 0.0523663 0.035486 
-0.0347382 0.0242777 -0.068126 -0.0593401 0.0494035 
0.0348473 -0.0877713 -0.0262676 0.00137371 -0.107728 
-0.0289134 -0.0340273 -0.0774017 0.00849988 0.0353888 
-0.0497868 -0.0218908 0.0109262 -0.0360023 0.0327611 
5 5 -0.0918305
0.0910336 0.0687302 -0.0939644 -0.00381366 0.0692715 
0.0586168 0.0459893 -0.0231686 -0.0690097 0.045794 
0.00795037 -0.0215511 0.0762261 -0.073786 -0.0790829 
0.0656369 0.0470589 -0.0307605 -0.0111855 -0.0984559 
-0.0600606 -0.0937148 0.042517 -0.00015989 0.0967154 
5 5 0.00342989
0.0133843 0.0422434 -0.0429427 -0.0501536 0.0322218 
0.0902634 0.0437817 -0.0293662 0.00835043 -0.00625337 
-0.0159278 -0.0487069 0.00143701 -0.010054 -0.0776402 
-0.0107971 0.0266428 0.0122875 0.0233915 -0.00338305 
0.0236069 -0.0914955 0.0411435 -0.0782835 0.0201596 
5 5 0.0783731
0.0331016 -0.0717343 0.0192907 -0.0697796 0.00408626 
-0.0124163 0.0452103 0.0795589 -0.0389005 0.0432227 
0.0752833 0.0672403 -0.0432608 0.0024794 0.0921647 
-0.0667537 0.00679988 -0.0901165 -0.0140499 0.0346366 
0.0603421 -0.0383027 -0.0618403 0.0172418 -0.0946327 
5 5 -0.0909331
0.0191952 -0.0479384 -0.0106154 -0.0525409 0.0274169 
-0.0641451 0.038146 -0.06983 -0.0926556 -0.0315899 
0.0532749 -0.0410042 -0.0272741 0.00798533 -0.0323524 
-0.0898753 0.0653629 0.0134581 -0.0553457 0.0714937 
0.0873041 0.0801513 -0.00272501 0.00841956 0.0296192 
5 5 0.049573
-0.0891335 -0.0838987 -0.0644255 0.0646696 -0.0430547 
0.0242209 -0.0739201 -0.0102753 -0.0418914 0.0929014 
-0.0835456 0.00577799 0.0165836 -0.0249488 -0.0359534 
-0.00961611 0.0622231 0.093396 0.064411 0.0626697 
-0.0876481 -0.0175137 -0.0533957 -0.0633975 0.0257171 
5 5 0.272367
0.0770466 0.0266088 0.0203128 -0.0994467 0.0154554 
0.0951126 -0.0484605 0.0891581 -0.0302716 -0.0414658 
0.0212673 0.0558429 0.0210897 0.0486352 -0.0773286 
0.0884647 -0.0449688 -0.0490889 0.0388089 -0.0908298 
-0.0960738 -0.0929099 -0.0409299 0.066039 -0.0503509 
5 5 0.352745
-0.15409 -0.0111496 -0.165945 -0.0148935 -0.17663 
-0.141839 -0.189655 -0.196194 -0.155465 -0.0840975 
-0.00220789 -0.16271 -0.148794 -0.111267 -0.165809 
-0.0645003 -0.150937 -0.19568 -0.0726584 -0.135327 
-0.144135 -0.158909 -0.144502 -0.151759 -0.144591 
5 5 -0.127238
0.0928923 0.0521532 -0.0334199 0.0288402 0.00698232 
-0.0443363 0.00646121 -0.0105987 0.051925 -0.0905044 
0.0812242 -0.020092 -0.0423389 -0.0429653 0.0455738 
-0.0160804 0.0428143 0.0209833 -0.00726358 0.0133641 
-0.0927785 -0.0579601 -0.0216381 0.0617101 -0.0528064 
5 5 0.209578
0.0580166 -0.0524835 -0.10261 -0.0491916 -0.0927942 
-0.0681526 -0.0316391 0.00655773 0.0359052 0.0278543 
-0.013225 -0.0669868 0.0697492 -0.0947977 0.0558733 
-0.0576799 0.0384926 0.0937281 0.00904113 -0.0069824 
0.0198008 0.0031978 -0.0570668 0.0700625 0.0828277 
5 5 -0.501278
-0.168414 -0.165 -0.0739631 -0.0593337 -0.0569101 
-0.010064 -0.155938 0.0159552 -0.150779 -0.0859182 
-0.146462 -0.0464617 -0.0558854 -0.101889 -0.0660389 
-0.0974296 -0.088919 -0.17045 0.0178482 -0.0984952 
-0.171259 -0.168411 -0.0437138 -0.0788521 -0.126607 
5 5 -0.473137
0.0165958 0.120861 0.170717 0.0605126 -0.0198866 
0.122245 0.165985 0.104627 0.12348 0.045802 
0.00980469 0.159086 -0.0134859 0.0626089 -0.0359545 
0.13077 0.00319446 0.067635 0.0166981 0.0404152 
0.0937539 0.154456 0.110989 0.0103024 0.113822 
5 5 -0.157372
0.00887857 -0.0496214 0.00193617 0.0683949 0.054294 
-0.0157272 -0.0831837 0.0604125 0.0444199 -0.0908611 
0.0597007 0.0336117 -0.00918626 -0.0264407 -0.00281193 
1.56667e-005 0.0437183 -0.10149 -0.0331484 -0.00725346 
0.0673583 0.0544534 -0.0159966 -0.0158144 -0.0362115 
5 5 -0.284373
0.111233 0.141079 0.0972567 0.249751 0.24337 
0.0847 0.229847 0.0485204 0.198379 0.206151 
0.109844 0.119716 0.194455 0.176095 0.235085 
0.218769 0.225742 0.105914 0.0770827 0.135283 
0.130668 0.0712871 0.132527 0.123953 0.0889354 
5 5 -0.0282056
0.0725013 0.0702225 0.0512829 -0.0260853 -0.034929 
-0.0272607 -0.0589347 -0.095866 -0.0746233 -0.0896666 
0.011862 0.0467057 0.0502163 -0.0180748 0.09295 
-0.00429763 0.0257479 0.0311314 0.0527305 0.036147 
-0.0134509 -0.00268233 -0.0381189 0.018973 -0.0985097 
5 5 0.125165
0.0119247 -0.106862 0.0170997 -0.0963402 0.0282275 
-0.0626975 0.0249993 0.0431952 -0.00098608 0.0274982 
0.000888746 -0.000291354 0.0710123 0.0481942 0.0465153 
0.0732243 0.0171223 -0.0335367 -0.0951752 0.0343378 
0.022412 0.0200893 -0.010865 -0.0432174 0.0246131 
5 5 0.0439508
-0.0226542 -0.000726649 0.0359949 0.0883652 -0.0608574 
-0.00543567 0.0312605 -0.0763294 0.0668368 0.000214374 
-0.0358934 -0.066732 0.069116 -0.0865356 -0.0255779 
0.071762 0.070572 -0.0753753 -0.0735546 -0.0362571 
0.0165473 0.0168264 -0.0981653 -0.0292543 -0.0825731 
5 5 -0.0941316
0.0242778 0.0293033 -0.0447869 -0.0441117 -0.0924211 
0.0190837 0.00679503 -0.0816671 -0.0826063 -0.0758293 
-0.0243173 0.0801268 -0.0904494 -0.059302 0.095386 
-0.0603596 0.0313613 -0.0137567 0.0475977 0.0972791 
0.0761277 -0.0396255 -0.029737 -0.0868573 -0.0335331 
5 5 0.0389367
0.0428149 0.0680167 0.0457438 0.0830141 -0.0313791 
0.0924767 -0.0407749 0.00487042 -0.0509881 -0.0862026 
0.005656 -0.0635595 -0.0687645 0.0675562 -0.0514108 
-0.0198749 -0.0716465 0.0554811 -0.0413631 0.0947022 
-0.0467472 0.0690666 0.0710926 0.0449015 -0.00274038 
5 5 0.0138589
0.045359 -0.0396049 -0.0135582 -0.00224204 -0.010186 
-0.0522361 -0.0674793 -0.0781336 0.0692513 -0.0522435 
0.0447983 -0.0335333 0.0321276 0.0436439 -0.0100649 
0.083888 0.0687297 0.0170655 0.0600675 -0.0128492 
-0.0257345 -0.0115517 0.0736777 -0.0260279 0.0939673 
5 5 -0.0202044
-0.0620908 -0.0333679 0.0340743 -0.0610578 -0.0955743 
0.0650315 0.0205978 -0.0879729 0.0520013 0.02918 
0.0893034 0.0833867 0.0252194 -0.0148253 -0.018461 
-0.0310973 -0.0393627 -0.027565 -0.0678188 0.103391 
0.032427 0.0312142 0.0310478 0.084116 -0.0514586 
5 5 -0.000442466
-0.0682495 -0.0525963 0.0233349 0.00204295 0.0218838 
0.0684259 -0.0120279 0.0190464 -0.0442137 -0.0405173 
0.0951513 -0.0183087 -0.0618195 0.0291345 -0.0504309 
0.0848755 0.0598616 0.0801767 0.0189143 -0.00293321 
-0.00212126 -0.0674192 -0.0106704 -0.077916 0.0570438 
