50100
8
5 5 -0.0454197
0.0999496 -0.00224032 0.0638266 -0.0886938 -0.0751599 
-0.0418435 -0.0829612 -0.0524666 0.0531571 0.0554838 
-0.0203273 0.0519183 -0.0905074 0.0562058 0.0966453 
0.0366907 0.0277397 -0.0396243 -0.00289525 -0.00739616 
0.0801365 -0.0724962 -0.0137509 -0.0141537 -0.011833 
5 5 0.0128549
0.0234275 0.0710868 0.0361143 0.014072 -0.00119096 
0.0244066 0.0273188 0.027568 -0.0664793 0.0288129 
0.0506943 0.0434236 0.0589182 0.017899 -0.0994738 
-0.0139296 -0.0914853 -0.0142492 -0.0179433 -0.0437257 
-0.0689017 -0.042192 0.016833 -0.0372119 0.0590199 
5 5 -0.0163115
0.0374464 -0.0464053 0.0409816 0.0272535 0.0827196 
-0.0063903 -0.0171377 -0.031878 0.0114662 -0.0558608 
-0.017856 0.000548573 -0.00556847 -0.0699663 0.0174606 
-0.0573617 0.105439 0.0554318 -0.0787621 -0.0752307 
0.0756471 -0.0442247 0.0157813 0.023162 0.0121354 
5 5 0.0860707
-0.106873 -0.000134744 -0.0967325 0.055199 -0.0378137 
0.0856563 0.064282 0.0741624 0.0298753 0.0820327 
-0.0801714 0.0508445 -0.107355 -0.0316138 -0.0364047 
0.0122128 -0.0547615 0.018029 0.0722736 -0.0262183 
0.0138846 -0.0627535 0.0574528 -0.0226676 0.076144 
5 5 -0.0955213
-0.0690653 0.0359229 0.0923354 0.0318662 0.0485038 
0.0463964 -0.044315 0.0204138 -0.0188814 0.0774812 
-0.0339353 -0.066778 0.0727705 -0.0466625 -0.000478489 
0.0865529 -0.0193854 -0.036993 0.0694697 -0.0910012 
0.00207108 -0.0860485 -0.0659743 0.0456595 -0.0525427 
5 5 -0.0903698
0.0495672 -0.0478636 -0.0205817 -0.0304727 0.0491374 
-0.0523726 0.0697119 0.0905319 0.0920728 -0.0803018 
-0.0478593 -0.038971 -0.016629 0.0100616 0.0301529 
0.0111135 0.00480666 -0.0493031 0.0618955 -6.86759e-005 
0.103309 -0.0742298 -0.0859844 -0.044296 0.00249829 
5 5 0.0486154
-0.0101623 0.0211472 0.0652292 -0.0333391 -0.0149045 
0.0695255 0.0124506 -0.0180817 -0.0595981 0.0506028 
-0.0117272 0.0387929 -0.0717038 0.0663122 0.0167679 
-0.0941972 0.0614747 0.0318113 -0.0829138 -0.0792729 
-0.028348 0.0571501 0.0510044 0.046914 -0.0879082 
5 5 -0.00603082
0.0440434 -0.0545064 -0.0285542 -0.0692141 0.0388249 
0.0413507 0.050179 0.00546199 -0.0770365 0.0048824 
0.0710925 -0.0595705 -0.0519887 0.0497913 0.0156597 
-0.0700345 -0.0759061 0.0564102 -0.0219225 0.0173588 
-0.0414032 -0.00836872 0.0780326 0.0467326 0.0438692 
32
5 5 -0.0704659
-0.0575797 -0.0881644 -0.080513 0.0511973 -0.00748562 
0.051874 0.0354675 0.0629343 -0.0323782 0.0353611 
-0.0483775 -0.0609024 -0.0183406 -0.0900838 0.0538392 
0.0401652 -0.0971365 -0.0814679 -0.0339494 -0.0677821 
0.024608 -0.0882789 0.0418876 -0.065304 -0.0570291 
5 5 -0.0579675
-0.0966647 -0.0669606 0.0423839 0.0308645 0.080238 
0.0865008 -0.0982829 -0.0325474 -0.092252 -0.0406868 
0.0238835 -0.0441185 -0.0628584 -0.0899261 -0.00500065 
-0.0417476 0.0202273 0.0664128 0.0802511 -0.065753 
-0.0814551 -0.0777845 -0.0395876 0.0519289 -0.00329687 
5 5 0.0825914
0.0192952 0.0496032 0.0544638 -0.00610009 0.0890096 
0.0393214 0.0556244 -0.0187298 0.0478228 -0.0828365 
0.00659641 0.0344778 -0.00485691 0.0776141 -0.0539977 
0.0684625 -0.00540833 0.0048727 0.096621 0.0897165 
0.099457 0.0221448 -0.0599561 0.000414176 0.0636282 
5 5 -0.015804
0.0660221 0.0735346 0.0449734 -0.0104681 -0.0441211 
0.0250673 -0.0914055 0.099976 -0.0431793 -0.078488 
0.0338701 -0.0589593 -0.000267512 0.0479033 0.0338146 
-0.0296206 -0.0798741 -0.0295005 0.0918517 0.0934238 
-0.0630774 -0.075015 -0.0785704 0.00771861 -0.0539548 
5 5 -0.0362522
0.0572425 -0.0441648 -0.0146711 -0.0242312 0.0774291 
0.0688968 -0.0757298 0.067985 0.0883371 -0.018668 
-0.0624623 -0.0664845 0.0208603 -0.0814151 0.0151143 
-0.0454765 -0.0826278 0.0743164 0.0936668 0.0900346 
-0.0366817 -0.0498199 -0.0163348 0.040203 -0.0151729 
5 5 0.0698254
-0.0384141 -0.0727559 0.0461785 0.0730037 -0.00662945 
0.0369525 -0.0311062 0.0849225 0.00412434 0.0817153 
-0.0955013 0.0960487 -0.00663474 0.0304113 -0.0446898 
0.0922232 0.00678524 0.0310294 -0.0838431 0.0757707 
-0.00993992 0.0779563 0.00678964 0.0763978 0.0887456 
5 5 -0.0616343
0.0227179 -0.0795512 0.0464317 -0.0444722 0.00963698 
0.0624731 0.0801054 -0.0685143 0.0468084 0.0223457 
0.0337354 -0.0145145 0.0739053 -0.0468862 0.0356789 
0.0653192 -0.0529189 0.0917373 0.0686336 0.0503538 
0.0392504 -0.0205423 0.0266452 0.0110378 -0.00985138 
5 5 0.0454235
-0.0871092 0.0556487 -0.083443 -0.00593601 -0.0920666 
0.056478 0.0553947 0.069847 0.0483882 -0.0127658 
0.0325802 -0.0419889 -0.044672 0.0674431 0.0448449 
-0.00807182 -0.0469307 0.0511428 -0.0451605 -0.0836506 
-0.0945897 -0.0584719 0.0639029 -0.00566785 0.0288265 
5 5 -0.0216461
0.0696728 -0.0793162 0.0317271 0.0122611 0.0632468 
-0.00909634 0.0845036 -0.0289067 -0.0414551 0.0551602 
0.0438989 -0.0306641 -0.10823 0.0510488 -0.0276361 
-0.0691263 0.0221042 0.00200263 -0.0164062 0.0745221 
-0.0472593 -0.0141296 0.0780853 -0.0144492 0.0798012 
5 5 -0.0930265
-0.00532795 -0.046281 -0.0908052 0.0187602 0.00724 
-0.003708 -0.0846527 0.00515086 0.0528077 0.0487156 
0.0124424 0.0280093 -0.0665756 -0.0796725 0.0341634 
-0.0454565 0.0159596 0.0942922 0.0560727 0.088341 
-0.0469536 -0.00302746 -0.0624081 -0.0867873 0.0122584 
5 5 0.0188233
-0.0284593 -0.0242435 0.0824146 -0.0324271 -0.0799836 
0.0869262 0.0787364 0.0145875 -0.01418 -0.0931563 
0.0406539 0.0556682 -0.0645717 0.0874629 0.0605781 
-0.0515407 0.0858949 -0.0884936 -0.0990412 0.0861473 
-0.0932639 -0.0919476 0.056809 0.0390316 0.0323585 
5 5 0.041214
-0.0819111 0.0809456 -0.00347719 -0.0575055 -0.00441141 
-0.0490029 0.0818757 -0.0193626 0.0557252 0.0620675 
0.00520032 0.023996 -0.0707812 -0.0926213 0.037463 
-0.0905446 0.0454022 0.0778289 0.0700213 0.0761456 
0.0506254 0.0341548 0.0234423 -0.0419402 -0.0358263 
5 5 0.0601937
-0.0766734 0.0116056 0.0422196 -0.0727803 -0.00819897 
-0.0729945 -0.0474677 0.0985351 0.0100523 0.00524894 
-0.0728108 0.028105 -0.0702603 -0.0357845 0.0116836 
-0.0592853 0.0472564 0.0923985 0.0880752 0.0613996 
0.0360497 -0.0160455 0.0217136 -0.0688131 -0.0278236 
5 5 0.068651
-0.0133714 0.0780207 -0.0249624 -0.0292142 -0.0381969 
-0.0287016 -0.0758591 -0.0835334 -0.0169553 0.0967769 
-0.0943834 0.0323426 -0.0317718 0.0720237 0.0755347 
-0.0103423 -0.0637494 0.0266155 -0.0370907 -0.0321427 
0.0220014 -0.00879148 0.0528036 0.0519961 0.0624697 
5 5 -0.0501681
-0.0419936 -0.0287095 0.0306697 0.0256055 0.0134137 
-0.0393422 8.8543e-005 0.0933745 -0.0862164 0.0557942 
0.014331 0.0986667 -0.0862666 -0.0820949 -0.0909523 
-0.023194 -0.0121379 -0.0176623 -0.00196261 0.0194734 
0.0579262 0.00228997 -0.0294119 0.0136487 0.0936855 
5 5 -0.0284251
0.0448523 -0.0136457 -0.0148512 -0.106674 -0.0355598 
-0.0841489 0.0422899 0.0417985 0.0322848 -0.0592074 
-0.0912976 0.0570079 0.0139247 -0.0431764 0.0453829 
0.0223973 -0.0859139 0.083775 0.00251354 0.0874858 
0.00022581 0.0198225 0.0789242 0.0835703 -0.0739538 
5 5 0.0896848
-0.0713816 -0.0392423 -0.0572588 0.0916758 0.040888 
0.0325459 -0.0581815 0.0639322 -0.051912 0.0185327 
0.0888139 -0.0319912 -0.0373684 0.0841287 0.0845042 
0.030977 -0.0831691 0.0927283 -0.0449561 0.0280557 
0.0360896 0.0103653 -0.0321278 -0.0505815 0.0691511 
5 5 -0.057373
0.0503677 -0.0253803 0.0786635 -0.0133013 -0.0420254 
-0.00203733 -0.00222054 -0.0201281 -0.0523815 0.0271922 
-0.0334297 -0.0690977 0.0214831 0.0829556 -0.0584922 
0.00521625 0.0851992 -0.0535758 -0.00730377 0.0550831 
0.086669 -0.0327441 -0.000540396 -0.0306177 0.0860841 
5 5 0.0744632
-0.0620716 0.0321853 -0.0815789 0.0237474 0.0692719 
-0.0443937 -0.0025723 -0.002089 0.0638653 -0.0103425 
-0.0743889 0.011873 -0.0924975 -0.0176286 0.0576484 
0.0365772 0.0572962 -0.0535961 0.092062 0.0792991 
-0.0809413 0.0591908 0.00636236 -0.0359581 0.0590892 
5 5 0.0456892
0.0467154 0.00494476 0.0699831 0.0223793 0.0832931 
-0.0426653 0.0624145 0.0280793 0.0213079 0.0313018 
-0.0651846 0.0413083 -0.0115745 -0.0598741 -0.0106461 
-0.04967 -0.0148804 -0.0376418 0.0366885 -0.0931089 
-0.0567016 0.00286388 -0.0604643 0.0723531 0.0472309 
5 5 0.0521175
-0.0328954 -0.00716725 0.0858286 -0.00707775 -0.0766298 
0.0433569 0.0479898 -0.0493265 -0.0289941 -0.0109225 
-0.00205737 -0.0234428 -0.0502815 0.0426453 0.00613131 
0.0399592 -0.0961082 -0.0911798 -0.0593 0.0924927 
0.0204787 -0.00218702 -0.0467629 0.0261186 0.0843591 
5 5 0.0835704
0.0244278 0.046431 0.0540057 -0.00760807 0.044877 
-0.0663598 0.0853244 0.00633045 -0.0813536 0.0393046 
-0.0461325 -0.063312 0.0432005 -0.0485792 0.0585303 
-0.00362763 0.0465741 0.0855225 -0.044327 0.0106556 
0.0701254 0.0621532 -0.0498056 0.0672418 -0.0536557 
5 5 -0.00106422
-0.0463423 -0.014612 -0.0644645 -0.0578197 0.0863205 
0.0567052 -0.0588666 -0.0262672 0.100263 -0.079186 
-0.054329 0.0406055 0.0351148 -0.0616041 -0.0853497 
-0.000927709 -0.0151305 -0.056109 0.0952218 -0.0575254 
0.051258 0.00740705 0.0585516 -0.081388 0.0971408 
5 5 0.00129904
-0.0837689 0.0929856 -0.00416002 0.0532104 -0.0997549 
0.0719154 0.0196089 0.0637089 -0.0868973 0.00133855 
0.00494227 -0.0287875 0.076635 0.0110284 -0.0251901 
-0.0534809 0.0663704 0.0157811 0.0728602 -0.00347385 
0.0265639 -0.00863751 0.0480363 -0.0440382 -0.087763 
5 5 -0.0219959
-0.0314428 -0.0385929 0.0107988 -0.0673422 -0.0125981 
-0.0366766 -0.0895889 0.0625194 0.0733746 -0.0128867 
0.0557383 -0.0260615 0.0896251 -0.0973839 -0.0396203 
0.0609037 -0.0519469 -0.00837338 0.026737 0.0724957 
0.0347657 0.0960025 0.0295715 0.0855609 0.0163576 
5 5 0.0247617
0.020887 0.0162071 0.032032 -0.00245062 -0.088527 
0.0982161 -0.0208405 0.0231314 0.0844179 0.066161 
0.0968355 -0.0342677 -0.096523 0.0630896 -0.044765 
0.00586581 0.0588873 0.0209901 0.053005 0.0653536 
0.0213304 -0.0744665 -0.0597812 0.0760093 -0.0480162 
5 5 -0.0870479
0.0558096 0.0847944 -0.0738452 0.0186857 0.000657837 
0.058102 0.0289213 -0.0813719 0.044954 -0.0123499 
-0.0204222 0.0868217 -0.0194756 -0.0405819 0.0345125 
-0.0961562 -0.0813747 -0.0165566 0.0326951 -0.0538536 
-0.0546484 0.053636 -0.0630005 -0.0097113 0.0364999 
5 5 0.030962
-0.0688769 -0.0358671 -0.0517958 -0.00155592 0.00287492 
-0.0500813 0.0497034 -0.058178 -0.0667572 -0.0548713 
0.0963062 -0.0533555 -0.0305221 0.00418838 0.0304929 
-0.0449991 0.0894033 0.0866766 -0.000573664 -0.0572435 
-0.00184498 0.0900278 -0.0229157 0.0952403 -0.0856025 
5 5 -0.0860009
0.074341 0.0728557 0.0912003 -0.0907284 -0.00541338 
-0.0384274 -0.01849 0.0772927 0.0452833 -0.0852037 
0.0871145 0.0378113 0.03943 -0.0176275 0.0906984 
-0.0681224 0.0891218 -0.0746538 -0.0756001 0.0173405 
-0.0548051 0.0195677 0.0775113 -0.018355 -0.0203955 
5 5 -0.0638301
0.0812771 -0.0887757 0.0155438 0.0729209 0.0302223 
-0.0692027 -0.0868497 0.0244035 -0.0852377 0.0685501 
-0.0821208 -0.0360962 -0.0158324 -0.039529 0.0731646 
0.0253333 -0.0656464 -0.0781014 -0.0858162 0.0615178 
-0.046483 0.0390142 -0.0726533 0.0685296 -0.0119068 
5 5 -0.00856474
0.0115821 0.0366886 0.0918016 0.0409081 0.0253679 
-0.0594323 -0.00558882 -0.0665033 0.032736 0.0216328 
-0.0249723 -0.0878953 -0.0475864 0.0625551 -0.0278075 
0.0113221 0.0226167 0.0193517 0.00128468 0.0369207 
-0.0190139 -0.0915911 0.0226043 -0.0248668 -0.0317092 
5 5 -0.0823192
-0.0686018 0.0523139 0.0646837 0.0331552 0.0153384 
-0.0108172 0.0569243 -0.0546212 -0.060044 0.0698682 
-0.0468866 -0.0598608 0.0145167 -0.0342249 0.0442656 
-0.0640329 0.000931644 -0.0657723 0.023906 -0.0420664 
0.0168778 -0.0634924 -0.0382315 0.0304853 -0.00967062 
128
5 5 0.100647
0.0516124 -0.0410781 0.0252031 0.038749 -0.0645126 
0.000946407 -0.074319 -0.0735865 0.0958856 0.0888253 
0.0454016 -0.0589078 -0.0531426 -0.00335569 -0.0846176 
0.033295 -0.0893377 -0.0703612 -5.48265e-005 0.0722971 
0.0964842 -0.0849343 0.0461507 0.0245843 0.0838543 
5 5 0.0819535
-0.0237794 0.0990184 0.015021 0.000602473 -0.0146958 
0.0830561 -0.0948793 -0.0230315 -0.00606692 0.00867177 
-0.0183466 0.0682565 -0.083265 -0.0300906 -0.0531184 
-0.0867529 -0.0982351 0.0314494 -0.0197081 -0.0487794 
-0.00353106 0.0556359 -0.0168696 -0.0858845 -0.00348859 
5 5 -0.0208241
0.0716583 -0.0281994 -0.0654328 -0.0266461 0.0255814 
0.0133669 -0.0341374 0.0135288 0.0968753 0.0414515 
-0.0971991 0.0972849 0.0876298 -0.0328924 -0.0395315 
0.0346627 -0.0990874 -0.0186643 -0.0343905 0.0464222 
0.0716963 -0.0131051 -0.013788 0.0999132 0.0844723 
5 5 0.0710987
0.0381245 0.0140689 -0.016744 -0.099029 0.0251397 
0.0645898 0.0798678 0.0212324 -0.032277 -0.0785235 
0.0687334 -0.0612677 0.0789124 0.0480945 -0.0485695 
-0.0292349 -0.0591001 -0.00365132 0.0793539 -0.0578405 
-0.060162 -0.0745792 -0.0788761 -0.0899936 0.0161116 
5 5 -0.0222349
0.05861 -0.000788587 0.0838399 0.0436958 0.0200975 
-0.0720275 -0.0203275 -0.0557688 0.0561424 -0.094392 
0.0913289 -0.0357298 0.0639597 0.0851236 -0.0712324 
-0.0320075 -0.0335076 0.0490918 -0.0099789 0.0269898 
-0.0464381 -0.0880947 -0.0218276 -0.00703705 0.0903025 
5 5 -0.0803543
-0.0728776 -0.0554345 -0.0996668 -0.0708334 0.0917216 
-0.0589658 0.025758 0.0448724 -0.0395863 0.0157575 
-0.0218955 -0.00162908 0.0405278 0.0375338 0.0783275 
-0.0502091 -0.018864 -0.0295935 -0.0019417 0.0923097 
0.0832522 -0.0315077 0.00286594 -0.0574044 -0.0440314 
5 5 0.03107
-0.0900121 0.0945456 -0.0250044 0.0570108 0.0628798 
-0.0756355 0.098484 0.0119454 -0.072198 0.020298 
0.0985835 0.0690032 0.022418 0.0245025 -0.0375559 
0.0252052 -0.0198365 0.065004 -0.0788476 0.0410713 
0.0570479 0.060317 0.0613812 0.0309536 0.0869112 
5 5 0.0772431
-0.0232721 -0.0656551 -0.00706398 0.023133 0.0140793 
-0.000225794 0.0589751 0.0553826 -0.0270438 -0.0860642 
0.0699107 -0.0129166 0.0125763 -0.0953414 -0.0751659 
0.0714127 0.0232663 0.0522799 0.0301939 0.0460017 
0.0185079 -0.0624472 0.0806925 0.0178744 0.00430597 
5 5 0.0590011
-0.0689363 0.071794 0.0811917 -0.048931 -0.0326793 
-0.0194076 0.0369097 0.0336193 0.0835649 -0.098821 
-0.0170857 -0.075621 0.0695308 0.0365148 0.0944249 
0.0453003 -0.0842173 -0.0553044 0.00802561 0.0548362 
0.0428661 0.076363 -0.0662468 -0.0636846 -0.039226 
5 5 0.0224939
0.0378374 0.0744178 -0.0360095 0.0520555 -0.0472253 
-0.0488717 -0.0298439 0.0238172 -0.0300704 -0.00876847 
-0.0933779 0.0495768 -0.0276588 -0.00964812 -0.0475206 
-0.00654018 0.0627416 0.0554646 0.0420886 -0.013278 
-0.0564243 0.0895557 -0.0640245 0.0402796 0.00524192 
5 5 -0.048125
0.0656927 -0.0644024 -0.0205599 -0.0765604 0.0576968 
0.0738546 -0.088633 0.0140937 -0.0536067 0.0694739 
-0.0884835 -0.0660463 -0.0240447 -0.0369675 0.038588 
0.0686138 0.00398016 0.0378358 -0.0269111 0.0847759 
0.00876726 -0.0770002 0.0350558 0.0993485 -0.0916187 
5 5 -0.0391618
0.00551473 0.0411164 -0.0023759 -0.0764108 -0.0940036 
-0.0599501 0.00722795 0.0549593 -0.00963837 -0.0281252 
0.0955467 -0.0741031 -0.0896704 -0.00982649 -0.0251221 
0.078157 -0.0941392 -0.020659 0.0803168 -0.0582911 
-0.0205696 -0.0439175 -0.0110712 0.00446297 -0.0899477 
5 5 -0.0465991
-0.00777723 -0.0816495 0.0618582 0.018054 0.0312422 
-0.079808 0.0467705 0.0504132 0.0983958 0.0498256 
-0.00720119 0.0216558 -0.0863832 -0.0522796 0.0786182 
-0.00362981 -0.0196619 -0.0888096 0.0884443 0.0935531 
0.0280772 -0.00755832 0.0432402 0.0165525 -0.0526666 
5 5 0.0191334
0.0658957 0.0834816 0.0232821 -0.0843865 -0.0644254 
-0.0107574 -0.0250975 0.0155418 0.0874346 0.030445 
0.00495624 -0.0679121 -0.0849886 0.0244633 -0.0320244 
0.0814496 -0.0699205 0.0540415 0.061746 0.0328567 
0.0373904 0.0681012 -0.0508489 -0.0318459 0.080135 
5 5 0.0715053
-0.0839614 0.0328779 -0.0879533 -0.0693231 -0.028 
0.0593312 -0.0471462 -0.0632173 0.0997298 0.0434477 
0.0834924 -0.058753 -0.040504 0.0560214 0.0366492 
0.0112462 0.054945 -0.0297165 -0.0607906 0.026387 
0.0668278 0.0864706 -0.0368612 -0.0488417 -0.0400773 
5 5 0.035211
-0.0591813 0.0141629 -0.0295563 0.04161 -0.0989863 
-0.0744754 0.079732 -0.0737252 -0.018331 -0.0372209 
0.0805525 -0.0651145 0.0761658 0.0577353 0.0420205 
-0.0336375 0.0687235 -0.0852701 0.0798932 0.0877032 
0.0158814 0.0916645 0.0379076 -0.0853574 -0.0704453 
5 5 0.072223
-0.0130498 -0.0602128 -0.080908 0.0832551 -0.0526951 
-0.0125298 -0.0550406 0.0186934 -0.0561052 0.0820622 
-0.0516284 -0.0829581 -0.0079181 -0.0944403 0.00257726 
-0.0889434 -0.0688254 -0.0768566 0.0527766 0.0444945 
-0.0940978 -0.0306494 0.0871676 -0.0290898 0.001469 
5 5 -0.0353863
-0.0869773 0.0586182 0.0414616 -0.0483574 -0.02235 
-0.0521818 0.0507471 -0.0791315 0.00445527 0.0766079 
-0.00448129 0.0254709 0.084834 0.0197192 -0.0991465 
0.0478993 -0.00111636 -0.0411047 -0.0443756 -0.0889753 
0.00787845 -0.072629 -0.0890802 -0.0919223 0.0822532 
5 5 -0.0488079
-0.0239805 0.0418097 0.0169635 -0.0707062 -0.0788256 
-0.0525559 -0.00435514 -0.0426536 -0.0138667 -0.0267593 
0.0556755 -0.0251854 -0.0853994 -0.0818535 0.00928528 
0.0135996 -0.0935638 -0.00445492 0.0801373 -0.0857796 
0.00205083 -0.0971709 0.0142578 0.024344 -0.0951684 
5 5 -0.0138052
-0.0893516 -0.0761324 -0.0597615 -0.0221149 -0.0568459 
0.0914955 -0.0281566 0.0826825 0.0152645 -0.0387949 
-0.0342897 -0.0970597 -0.0849743 0.0847444 0.0201814 
-0.0216283 0.018513 0.0440005 -0.0391499 0.0240505 
-0.0959994 0.0336863 -0.0886976 0.0454259 -0.069912 
5 5 -0.0458684
-0.0565362 0.0164238 -0.0645702 -0.0573567 0.00708724 
0.0859899 -0.0930936 -0.0327062 0.0718002 0.0318607 
-0.00127383 0.0309474 0.0424274 0.0949974 -0.0754199 
0.000626979 -0.00351779 -0.0957637 -0.0966853 0.00125284 
-0.0715982 0.0729943 0.00161165 0.00278247 -0.0892008 
5 5 -0.0619516
0.0397881 -0.0682691 0.0769314 0.0327585 -0.086334 
-0.0514935 -0.0547218 -0.0402601 0.0780908 -0.00633004 
0.0583286 0.0629068 0.0655224 0.074602 0.085054 
-0.030247 -0.0146474 -0.0123763 -0.0359408 -0.0139963 
0.0618212 -0.0717526 -0.00130563 0.0276112 -0.0308315 
5 5 -0.0859344
-0.0808192 0.0651567 0.0184041 0.0462511 0.0065652 
-0.0334005 -0.0497654 -0.0403217 0.0991807 -0.0781611 
-0.00478118 0.0616549 -0.0317226 -0.0768907 -0.0458236 
-0.0768941 0.0885538 0.0873927 -0.0473896 0.0322943 
0.0974802 -0.0973969 0.033126 0.0486333 -0.0465203 
5 5 -0.0248451
0.0306433 -0.00991242 0.097614 -0.0377966 -0.0888641 
0.0916088 0.037967 0.0743388 -0.0295882 -0.06317 
0.0304272 0.0192236 -0.0515256 0.0248424 -0.0965948 
-0.0221689 0.0150093 0.0146372 0.0970922 0.0893349 
0.0418933 -0.0752692 -0.0427803 0.02661 0.000625453 
5 5 -0.0285509
-0.0446514 -0.0525298 0.0453243 -0.0536215 0.0496876 
-0.0143913 -0.0764548 -0.00788846 -0.0507102 -0.00169185 
-0.0965106 0.0689981 -0.0335677 -0.0743048 0.0332788 
-0.0148134 0.0973389 0.0177516 -0.0706121 0.0887966 
0.0494701 -0.0194054 0.0986272 0.0829231 -0.0503474 
5 5 0.0548543
0.00949112 0.0510546 -0.0463009 0.0583465 -0.0671273 
-0.0194729 0.0234654 0.0160409 -0.0973283 0.0720799 
-0.0732194 0.034415 0.0882686 0.0762522 -0.069165 
0.0315108 0.0937123 0.0114305 0.00138179 -0.0533119 
0.0681421 0.055741 0.0399525 0.0831166 -0.0278606 
5 5 -0.01901
-0.0770381 0.00672041 0.0503749 -0.0991234 0.0751362 
0.0233655 -0.0959939 0.0124161 0.000755866 0.0629519 
-0.0533846 -0.0877559 0.0212488 0.0448601 0.0764762 
0.0743995 0.0919157 0.0692467 -0.0165134 -0.0381566 
-0.0394858 -0.0293318 0.032045 -0.032144 0.086269 
5 5 -0.0236836
0.0238554 -0.0115547 0.0440877 -0.0471268 -0.0648282 
-0.0365232 -0.0464017 0.0520904 -0.0356639 0.0661918 
-0.0357814 0.00253021 -0.0424528 -0.0195937 0.060734 
0.0409916 -0.0692189 -0.0266059 -0.00939992 -0.0261652 
0.0234743 0.0641457 0.0858154 -0.0667576 -0.0587418 
5 5 -0.0798681
0.0888181 -0.0735509 0.0354948 0.0331196 -0.0044522 
-0.046474 -0.0896301 -0.0504434 0.000224745 -0.0470101 
0.0506142 -0.0235861 -0.0179478 -0.000681577 -0.00440253 
-0.0899056 0.0130103 -0.00242723 -0.0310675 -0.0366671 
-0.0972871 0.0719125 0.038164 -0.0877427 0.0866828 
5 5 -0.0737158
-0.0417673 -0.00898958 0.0638125 -0.0413245 -0.0460951 
-0.0292933 0.0876161 0.0100113 -0.00249475 -0.0510018 
-0.0799365 -0.0709122 0.0392382 0.0851196 -0.047994 
0.0346565 -0.0542212 0.0103703 0.0988391 0.0564535 
0.00239054 -0.0558815 -0.0254602 0.0358526 -0.0628132 
5 5 0.049297
-0.0471683 -0.0333432 -0.0792999 0.0537612 0.0211104 
0.0595308 -0.0998366 0.0792717 0.0336828 0.00934697 
-0.0775737 0.0921977 0.0680639 -0.0530154 0.00241572 
-0.0749175 0.0950582 0.0573775 -0.00573777 0.0881694 
0.0647035 -0.0548174 0.020074 -0.0912001 0.0168716 
5 5 -0.0721154
-0.0869197 0.0248493 -0.0783642 -0.05854 0.0320359 
-0.0312433 0.0561404 0.031544 -0.0975196 0.0685618 
0.0241621 -0.0761158 0.0401603 0.000659195 0.0236691 
0.0427895 0.0156757 0.0233572 0.0707568 0.0667648 
-0.0868188 0.0239658 -0.015991 1.50389e-005 0.0420332 
5 5 0.0112684
0.0338274 0.0378052 0.0535549 -0.0301195 0.0787946 
0.0243285 -0.0635288 -0.0361753 0.0568986 -0.0564372 
0.00401279 -0.0893971 0.0882448 0.0776877 -0.0126324 
-0.0175492 0.0562195 0.074773 -0.0517215 0.0815234 
0.0922382 -0.0785648 0.0825073 0.0535199 0.0640366 
5 5 -0.0907488
-0.0287367 -0.0376094 0.0797179 -0.0762181 -0.0695748 
0.0532815 0.0943462 0.081047 0.0184502 -0.0393268 
0.067884 0.0702079 -0.0272538 -0.0595979 -0.0729578 
0.0875021 -0.00617838 -0.0714971 -0.0325628 0.0351075 
0.0707983 -0.0132297 0.019825 0.0860476 -0.0114123 
5 5 -0.082914
-0.0599444 0.0266101 0.0665232 0.041568 -0.0399883 
0.00158432 0.00736102 -0.0798794 -0.0891226 -0.0964583 
0.0866998 -0.0109566 0.00476514 0.0391277 0.0533296 
0.0850259 -0.0096837 0.0886497 -0.0079223 0.0751339 
-0.00919728 0.0155221 -0.0852773 -0.0787781 0.028197 
5 5 -0.0826888
-0.0790429 0.0214337 -0.0624367 -0.0772461 0.0887409 
-0.0592776 0.0843351 0.0284626 -0.027122 -0.0176499 
-0.0162579 -0.0922047 0.02326 -0.0764813 0.030226 
-0.0813827 0.0246053 -0.0688129 0.0540872 0.0844849 
0.0863329 0.0187913 0.0831208 0.00809254 0.0477562 
5 5 0.0516714
0.0519377 -0.0242616 0.060712 0.0464812 0.0432509 
0.072981 -0.01846 -0.0218027 -0.03619 -0.0377983 
-0.0321081 0.0509712 0.079956 -0.0868439 -0.0989202 
0.0420537 -0.0986308 -0.0259384 0.00677543 0.0618011 
0.0285342 0.0532896 -0.0683209 -0.0443728 0.0674855 
5 5 -0.00198321
0.0245499 0.0853325 0.0182698 0.0700819 0.0812295 
-0.0879332 0.0411822 0.0280742 -0.0867316 -0.077857 
0.0172855 -0.0704488 -0.00836432 -0.0832515 -0.00893001 
-0.0101525 -0.0739128 0.00682342 -0.0829012 -0.0263547 
0.0288452 -0.0612011 0.0134077 -0.0356232 -0.07127 
5 5 0.0782302
-0.075297 -0.0970956 0.081738 0.0939406 -0.00148887 
-0.0248918 -0.0425783 0.0669385 0.0951814 0.013257 
-0.0944351 0.0494022 0.0177376 0.0321307 -0.0732084 
0.0171128 -0.0165146 0.0334237 -0.0407918 0.0412096 
0.0359873 -0.00601932 0.039395 0.0138395 0.00774325 
5 5 0.00289275
0.0129298 -0.0558369 -0.0562604 0.0407112 -0.0648822 
-0.0276 -0.0331258 -0.0352419 0.0314174 -0.0625535 
-0.0659584 -0.0022947 -0.0436474 0.00662792 0.0525238 
0.0936153 0.0220869 0.018134 -0.0201219 0.0634123 
-0.0522076 0.0608896 0.00983555 0.0412082 -0.0155828 
5 5 -0.0772749
0.0513462 -0.0272622 -0.0264848 -0.0554482 0.00683549 
-0.0915038 -0.00503386 0.0899575 0.0534791 -0.0199481 
-0.0387636 0.000490755 0.0383226 0.0435136 0.0127306 
0.0272508 0.0893681 0.0701773 0.0719716 -0.00418802 
0.0508093 0.0647213 0.0120627 -0.0742396 0.0486918 
5 5 -0.0056401
-0.00471052 0.03858 -0.00700623 -0.092076 0.0396574 
0.0840628 -0.079248 -0.0714717 -0.0320437 -0.0810979 
-0.00863577 0.098564 -0.00401877 -0.0367406 0.032939 
-0.0395766 -0.0814946 0.0752927 0.0524047 0.0512199 
-0.0564922 0.0653831 0.0136968 -0.0014904 -0.0619572 
5 5 -0.0117561
0.0870636 -0.00967497 -0.0628081 0.0376063 0.0813618 
-0.0920505 0.0731872 -0.00985752 0.06133 0.0982073 
-0.0172388 0.00150916 0.0571286 0.0696812 0.0464179 
-0.0830156 0.0733574 0.0890551 -0.081667 -0.0934469 
-0.0967348 -0.0330725 -0.0994673 -0.0345561 -0.0468878 
5 5 0.00485994
0.0210523 -0.0915617 -0.013967 -0.00594122 -0.0319891 
-0.0113858 -0.0119547 0.0388947 -0.0600772 -0.0256294 
0.0649407 0.0927158 -0.0343626 0.0121455 -0.0248695 
-0.016601 -0.0479097 -0.0889524 0.00549458 0.0114887 
0.0140241 -0.0252217 -0.0044622 -0.097688 -0.0547706 
5 5 0.0192891
0.0170725 -0.00877935 -0.0178631 0.0947701 -0.0852728 
0.0281567 -0.075624 -0.0309132 0.0162672 0.0744862 
-0.0425245 0.063492 0.0117029 0.0853089 0.0440569 
-0.0868532 -0.0823567 0.0432814 0.0378385 0.05701 
-0.0747205 0.0396953 -0.0332394 0.00296457 0.0412109 
5 5 -0.0246218
0.0568067 -0.0156682 -0.068681 0.0660156 -0.0583062 
-0.0453813 0.0585566 0.0314204 0.0202956 -0.0539066 
-0.0539905 -0.0491589 0.0138957 0.0178736 0.0480301 
0.0660796 0.0827375 -0.0677143 0.0485742 -0.087232 
-0.0429707 -0.0129004 0.0892745 0.0615776 0.0384586 
5 5 -0.0624137
-0.0662147 0.0505804 -0.0711745 0.0267276 -0.0264806 
-0.0111788 -0.0581214 0.0938302 0.0860387 0.0151566 
0.0540624 -0.0733765 0.0429417 0.0913782 0.0518072 
0.0554928 0.0832857 -0.0905989 -0.069073 -0.0204802 
-0.0469541 -0.00199466 -0.0977865 -0.0285135 0.018534 
5 5 0.00739524
0.0635973 0.0863797 -0.0392695 0.0538883 0.0937899 
-0.0879879 0.0542217 -0.0951508 0.0193094 0.0847314 
-0.0601016 0.085549 0.0177736 -0.0917658 0.096669 
0.0910487 -0.0903285 -0.0974858 -0.0827272 -0.0178012 
0.0961108 0.0168203 -0.00374517 -0.0537272 -0.00165537 
5 5 -0.0631828
-0.0639129 -0.0922259 -0.0453131 0.013482 0.0737626 
-0.0359113 0.0332834 0.0572422 0.0443626 -0.0656015 
-0.085242 -0.0911875 -0.0277577 -0.0012909 -0.0979573 
0.0376377 0.0109849 -0.0937386 0.0142118 0.0877459 
0.0303468 -0.0592288 0.0173529 0.00581008 -0.0416633 
5 5 -0.0785669
-0.0451723 0.0815839 -0.0136921 0.0109886 0.0209372 
-0.0719029 -0.0665358 0.0389266 -0.0385118 -0.0513935 
-0.000462073 0.0833483 0.0150165 -0.0976771 -0.0155911 
0.0242287 -0.00797748 -0.0958812 0.0039803 0.0343876 
-0.0768996 -0.0975932 -0.0119004 0.0972303 0.0429527 
5 5 -0.0521136
-0.0141645 -0.082961 -0.0332836 -0.0824764 -0.0238673 
-0.072466 0.0041367 -0.0482886 -0.0179029 -0.044773 
0.0812437 -0.0558051 0.00892234 0.0385399 0.0208773 
-0.0811093 0.00508548 -0.0313886 0.0366495 -0.0234379 
-0.0473938 0.0443705 -0.00604531 -0.0709733 0.0935323 
5 5 0.0172445
-0.0970625 0.0468842 0.000374852 -0.0913248 -0.00624545 
0.0674196 0.09235 0.0787384 0.0283156 0.0734268 
-0.0899421 0.0331723 0.0102929 -0.00714556 -0.0505229 
-0.0567288 -0.052614 -0.0608073 -0.0363297 -0.0347652 
0.0192853 -0.072038 -0.0595166 -0.0641003 0.0131789 
5 5 -0.00329
0.0562948 -0.0688635 -0.0225884 0.0775922 0.0234513 
0.0636944 -0.0463934 0.00569377 -0.0835956 0.0025438 
-0.0580811 0.069874 -0.0866965 -0.00606889 -0.0444959 
0.0659979 0.0319074 0.0740439 -0.0825167 0.0229834 
0.0807488 0.0414811 0.0673058 0.0195121 -0.0739467 
5 5 0.0829327
0.019881 0.0329034 0.0811044 0.00301899 -0.0632217 
0.0382662 -0.065138 0.0230562 -0.0240555 0.095622 
0.0021153 -0.00452273 0.0625035 0.0608051 -0.0713794 
0.0427543 -0.0567078 0.0436807 0.0395241 -0.0668264 
-0.0184189 0.0463355 -0.0549064 0.0906264 0.0498782 
5 5 -0.0834448
0.0036699 0.0247212 -0.0295922 0.0480711 -0.0432331 
0.0501947 0.0673422 -0.0511897 -0.0629381 0.0959742 
0.0812353 -0.0775874 -0.0451913 0.0646203 0.0056224 
-0.0140777 0.0706804 -0.0622986 0.0991504 0.055018 
-0.0360085 -0.0991159 0.0321752 -0.0691036 0.0966198 
5 5 0.0757518
0.0213052 -0.0814969 -0.0156852 -0.0676408 -0.0864802 
0.005884 -0.0260335 -0.0278666 0.0657885 0.0442111 
0.0480556 -0.0475923 -0.0107313 0.0441026 0.0460806 
0.0458292 0.00312824 0.0347129 0.0152541 0.00634438 
0.0630106 0.00805321 -0.0987639 -0.076435 0.014214 
5 5 -0.0134627
0.0794224 0.0535556 0.0260978 -0.0703473 -0.0613616 
-0.0952516 0.0712828 -0.05672 0.0121755 0.0511897 
-0.00365268 0.0771432 0.0780727 0.068632 0.0453364 
-0.0162284 -0.0771787 0.065274 -0.00752245 -0.0536413 
-0.0203168 -0.00930001 -0.0617559 -0.0855222 -0.0522058 
5 5 0.00629573
-0.0734039 0.0768968 -0.00326631 0.0920465 0.0393935 
0.00478521 0.0640741 -0.0141443 -0.0761979 0.0938728 
0.051775 0.0126429 0.00858771 -0.060332 0.0273285 
-0.0911407 -0.0328562 -0.025759 0.0368365 0.00835446 
0.0818907 -0.00168827 0.0350245 0.076682 0.0668366 
5 5 -0.0619997
-0.0604795 -0.0262097 0.0047641 0.0581423 -0.0851529 
0.025889 -0.0449773 -0.0353914 0.093278 0.0896723 
0.0883005 0.0239186 0.0378363 -0.0127063 -0.0950627 
-0.0650337 -0.0459348 0.0959646 -0.00826906 0.0812938 
-0.042855 -0.028226 0.0758564 -0.0030047 0.000192391 
5 5 -0.0107291
0.0293044 -0.023901 -0.029404 0.0798059 -0.0174947 
-0.0423218 -0.0410887 -0.0542916 0.00209512 -0.0821538 
0.00950679 0.0370739 0.089348 0.0989787 -0.0435818 
0.0677851 -0.0444714 -0.0910549 0.0518622 -0.0456695 
-0.0695103 0.0197291 -0.00574765 -0.0418277 0.0608357 
5 5 0.0965534
0.060578 -0.0868197 -0.0455103 -0.0977816 -0.0496433 
-0.0832106 0.0230938 -0.0379816 0.0466902 -0.0256561 
0.0911317 0.00101225 -0.0972231 -0.0366846 0.0110621 
-0.0980727 0.0566359 0.0153853 0.0517631 -0.0354546 
-0.0165973 0.0845083 -0.0830929 0.0824281 0.0887393 
5 5 -0.0130206
-0.0572721 -0.0277617 -0.0466638 -0.0897883 -0.060853 
0.0779735 -0.0717529 0.0118127 0.0150289 -0.0974316 
0.0986415 0.00196422 0.0795647 -0.0435464 -0.0878983 
0.0647984 -0.0740052 -0.0802827 0.0669653 -0.00982622 
-0.00754226 -0.0243729 0.0128417 -0.0564234 -0.0535098 
5 5 -0.0996205
0.00221904 -0.0964661 -0.0712601 -0.0776209 0.0613718 
0.000957824 0.064195 0.069139 0.0395428 -0.03685 
0.021705 0.061482 0.0792869 -0.0488101 0.0484286 
0.0609685 0.0900669 -0.0399674 0.0940991 -0.0866239 
-0.059389 0.0636115 -0.0013697 0.0184145 -0.0245307 
5 5 0.0897119
-0.00987688 0.0578183 -0.0378344 0.00696722 0.0529127 
-0.0939326 0.0743178 -0.00307549 0.0308376 -0.0350322 
0.016589 -0.094048 0.00210585 0.050074 0.0990993 
0.044875 0.00112968 0.0508007 -0.0297069 0.0262449 
0.034701 -0.0891354 0.00198946 0.0184644 0.0493919 
5 5 -0.0494458
0.0505399 0.0906162 0.00828255 0.0653831 -0.00908952 
0.0451792 -0.0721245 0.0279265 -0.0734152 0.00459706 
0.0431163 0.0318068 0.0888668 -0.0598934 -0.0576472 
-0.0982464 -0.0713313 0.0231441 0.040107 -0.0942167 
0.00544242 -0.0191966 0.0372673 -0.00136112 -0.0162299 
5 5 -0.0653709
-0.0723929 0.0284516 -0.0613283 -0.0946307 0.00447165 
-0.0646057 0.0800695 0.0687171 0.0295247 0.0785842 
-0.0989836 -0.0660591 0.0120347 -0.0809627 0.0543936 
-0.0643666 -0.0389587 -0.011748 -0.0306312 0.0164269 
0.0632075 -0.0213179 -0.0940286 0.0816155 0.0460548 
5 5 0.0848288
0.0623375 -0.0936931 -0.0221567 0.0173476 0.0339116 
-0.0221873 0.0644903 0.0518812 0.0385162 0.0564679 
0.0996405 0.0930504 0.00262338 -0.0709148 -0.0793363 
-0.0650383 -0.0736243 -0.0556989 -0.0710493 -0.0794432 
0.0268364 0.00730058 0.0348904 -0.0597693 0.0688085 
5 5 0.015909
0.0759466 0.000149578 -0.0130414 0.0146886 0.0685766 
0.0881709 0.00598663 0.0617437 -0.0502846 -0.0249895 
-0.0315774 0.0682406 -0.0346858 0.0756442 0.0713808 
0.0148314 -0.041207 0.00633005 -0.0773788 0.00786432 
-0.0800242 -0.0334464 -0.0813774 -0.0304316 0.0456511 
5 5 -0.0228906
0.05511 0.032923 0.0743699 -0.0900194 -0.027486 
0.0325135 -0.0555569 -0.073305 -0.0578443 -0.0367549 
-0.0622909 0.0814973 0.00545916 -0.0050193 -0.0379018 
0.0955966 -0.0352119 -0.0777349 -0.0708487 0.0485764 
0.0371165 0.0285605 0.0849708 0.0123411 0.0752433 
5 5 0.0492281
0.0483858 -0.0374551 -0.0384445 0.0107709 0.012689 
-0.0063096 0.0837422 0.0329413 0.0702651 -0.0248641 
0.0958988 0.0695495 -0.0874388 0.0738908 0.0720322 
0.0725021 0.0638726 0.079488 0.0584479 -0.0413558 
-0.0958709 -0.0407156 -0.0681394 0.0623506 0.037536 
5 5 -0.0234747
-0.0320759 0.053436 0.0641611 0.00647702 0.0281272 
0.00235462 -0.0921591 -0.031533 -0.030198 -0.0255277 
-0.0398871 0.026697 -0.0130034 0.0331142 -0.00550671 
0.0700695 0.08689 0.0347866 -0.0932844 -0.0851341 
0.0095516 0.095769 0.0397335 -0.0439065 -0.00421172 
5 5 -0.0870018
-0.0525528 -0.0971836 -0.0897707 0.0181036 -0.0467204 
-0.0763572 -0.0736484 -0.049946 -0.0376612 0.0387302 
0.0785206 0.0226926 0.0805633 0.0851228 0.088567 
0.0727977 0.0995121 0.0909922 -0.0296388 0.0653183 
-0.000108961 -0.014739 0.0237185 -0.0578974 -0.0666357 
5 5 0.0776813
-0.081179 -0.008076 0.0382452 0.0401691 0.0784552 
-0.0761904 -0.0554759 0.0185281 0.0707163 -0.0754904 
-0.0797817 0.00705475 0.00655386 0.0856756 -0.0727438 
-0.0836128 0.0569398 0.073 -0.0685557 0.0709162 
0.0957101 0.0258886 -0.0751411 -0.0414648 -0.0282109 
5 5 -0.0262887
0.0219328 -0.0316987 0.0174314 -0.0864844 0.0822282 
-0.0513745 0.0939004 -0.0736722 0.0162033 -0.0804843 
-0.000148703 -0.0371659 0.0291739 -0.0423143 -0.0813066 
-0.0756262 -0.0366115 0.00241536 -0.0642521 -0.0637339 
-0.0109492 0.00308218 -0.0762012 -0.0781041 0.00663226 
5 5 -0.0602971
-0.00129647 0.0577592 0.00906889 -0.044542 0.0592669 
-0.0120687 -0.0257449 -0.0802643 0.00587476 -0.0275087 
-0.0798922 0.0667941 -0.0393263 0.0682996 -0.0944997 
0.0321998 0.0816751 -0.0924236 0.0143143 -0.0789477 
0.0829777 -0.0373366 0.0872391 -0.0616539 0.0660716 
5 5 0.0765991
0.0548747 0.0155856 -0.0315791 -0.0594532 0.0290713 
-0.0392818 0.0373602 -0.0994008 0.00848228 -0.0343472 
0.0322908 -0.0262457 -0.0442762 0.0011031 -0.0356173 
0.0551017 -0.0995932 -0.0683676 0.0778851 -0.00233023 
0.0265573 0.079913 0.0813927 -0.0556158 -0.00151034 
5 5 0.0772238
-0.0660054 -0.00297143 0.0824362 -0.0941433 -0.00955079 
-0.00198774 -0.0804449 0.0327216 0.0171272 -0.0864658 
-0.0896668 0.0612723 0.0819699 -0.00876258 0.0592048 
0.0286809 0.0220393 -0.0167551 0.0432099 0.0267362 
0.0954714 4.13736e-005 -0.0454214 -0.00364056 -0.0661441 
5 5 0.0966661
0.0766117 0.0158732 -0.0151765 -0.035847 -0.0409637 
-0.066343 -0.0349114 -0.0147991 -0.0845559 0.045907 
-0.0751434 0.0894759 0.0527351 0.084145 0.0225617 
0.0256711 -0.0620421 0.0232049 0.0349964 0.0750552 
-0.0192882 -0.0589113 0.0902501 0.0797385 0.0966061 
5 5 0.0683632
0.0341853 -0.0480168 0.0948591 0.0702538 -0.0519161 
-0.0415668 -0.0625383 0.0520418 0.00891778 -0.037922 
-0.047169 -0.0260764 0.00644181 0.0959536 -0.0622778 
-0.0406473 -0.0788214 0.0525505 0.0118181 -0.0399665 
0.0706178 0.0705848 -0.0174081 0.0866363 0.0302175 
5 5 0.00347432
0.0700931 0.0536141 0.0311378 -0.0647944 -0.0416831 
0.0559411 0.0463769 -0.0361135 0.0176474 -0.0792066 
0.0724207 -0.0241768 0.0674864 0.0543009 0.00323693 
0.0431357 -0.0789929 0.0243565 0.0154069 -0.0989946 
0.0796462 -0.0973718 0.0608358 0.0902663 0.0298091 
5 5 0.00309291
-0.0209773 0.0485449 0.0961333 -0.0537943 0.0315265 
-0.0725166 -0.0903535 0.0761004 -0.03157 0.0226335 
0.047139 -0.0287618 0.0294949 -0.00697279 0.0973278 
0.0694078 -0.0113193 -0.0472497 -0.090066 -0.0540312 
0.04738 0.0163599 0.0843733 0.0722294 0.0826734 
5 5 -0.0205053
0.0542515 -0.012415 0.0569855 -0.0853542 0.0235863 
-0.0849619 0.0948504 -0.0353204 -0.0886685 -0.0469379 
0.0345646 -0.0847512 -0.0393865 0.0730909 -0.0411642 
0.0261189 -0.0316456 0.0557527 -0.0878084 -0.0958852 
-0.00820481 -0.00425747 -0.0887394 0.0982264 0.0884551 
5 5 -0.0954463
0.0533076 -0.00186571 -0.0542893 0.0603653 0.0298307 
-0.0826609 -0.0446313 -0.0170629 0.0532252 -0.0578095 
-0.00924147 -0.0480082 0.097559 0.0304687 0.0415148 
-0.0851029 0.0662864 -0.066334 -0.03459 0.0645776 
-0.0110263 0.0334324 -0.09463 0.00560624 0.0536711 
5 5 0.0685488
0.0386174 -0.0660586 -0.0156796 0.0267032 0.00713377 
-0.0270495 -0.037114 0.00966613 0.0878742 0.0875148 
0.00989777 -0.0947117 0.0572974 -0.0868255 0.0253758 
0.0975079 0.00970179 -0.0731671 -0.00231286 0.0647279 
0.0830346 0.0951216 -0.0152506 0.0581722 -0.0510146 
5 5 0.0296249
-0.0226683 -0.0602801 0.0245395 -0.0254047 0.0459038 
-0.0402999 0.0581623 0.076037 0.0850723 -0.0393407 
0.0532559 0.0361771 -0.0491368 -0.0194293 -0.0229141 
0.0100017 -0.0930509 -0.0574227 0.017815 0.0606714 
-0.0191269 0.0106351 0.0422683 0.0104186 -0.0617839 
5 5 0.0930423
0.0125487 0.0151995 0.0801067 0.0703735 0.0164671 
0.0993728 -0.0264129 0.0455147 0.0719121 -0.0290819 
-0.0889067 -0.035618 -0.0493173 -0.0312225 0.0198301 
-0.0727828 -0.00697252 0.0445792 0.0215089 -0.0558945 
-0.0412063 0.0382673 -0.064303 0.032091 0.0728239 
5 5 -0.0410276
-0.0423265 0.0182646 -0.070259 -0.0719309 -0.00817054 
-0.0551524 -0.011237 0.0524863 0.0748452 0.0603044 
-0.0422206 -0.0335534 -0.0394774 0.0606427 -0.0212754 
0.0637769 -0.096591 -0.0280288 0.100283 -0.081498 
-0.06923 -0.0391989 -0.0235582 0.00449687 0.0135894 
5 5 0.041136
0.0589454 -0.0601103 0.0429224 -0.0149131 0.0424938 
0.00912264 0.0211327 -0.0410398 -0.00861668 -0.0412612 
-0.0399372 0.0542615 -0.0537513 0.0348131 -0.0841648 
0.0163349 0.0335682 0.0717027 0.0453031 0.0933411 
0.0485981 -0.0325251 -0.0964326 -0.0265033 -0.0345755 
5 5 -0.0245331
0.0806149 0.0972012 -0.0715895 -0.0283791 -0.0106834 
-0.0782436 -0.011928 0.0396416 -0.0937412 0.0174388 
-0.0741292 0.0541953 0.0760511 -0.0145795 0.0346834 
-0.0560183 -0.0178498 0.068905 0.0098236 0.0552058 
-0.00934448 0.043535 -0.000742259 0.0219158 0.075531 
5 5 0.0685513
-0.0226135 0.0664966 0.0326364 0.0753975 0.0950734 
-0.0259507 0.0775299 -0.011088 -0.0340366 0.0686874 
0.0533255 -0.0637509 -0.0637127 0.0186778 -0.0641283 
-0.0465547 -0.0948626 0.00327172 0.0538917 -0.0472975 
-0.054926 0.0773956 -0.0758406 0.0377358 0.0812897 
5 5 0.0592188
-0.0868211 -0.0526296 0.0843844 -0.0247457 0.0259895 
-0.0906598 0.0350377 -0.00718199 0.0361016 0.0843428 
-0.0856481 0.0717496 0.0511802 0.0854555 -0.0215414 
0.066738 -0.067056 -0.0553213 -0.0265204 -0.0878677 
0.0706072 0.0206677 -0.058009 0.0175028 -0.0840424 
5 5 0.0206681
0.0871552 -0.0911167 -0.0170232 0.0145403 0.0411389 
0.0463336 -0.0722568 0.0393872 -0.000711526 0.0447127 
0.00111395 -0.0511508 0.0744059 0.0367113 0.0923087 
-0.0853348 -0.070958 0.00140305 0.0651454 0.0456407 
0.0396929 -0.00505444 -0.0101855 -0.0871452 0.0518952 
5 5 -0.0874493
-0.0172842 0.0553375 -0.0193128 -0.0841744 0.0566161 
0.0556644 -0.0903847 -0.0537706 0.0891647 0.0626418 
-0.0449638 0.0750229 -0.0870305 -0.059929 -0.0617659 
-0.097606 0.0383773 -0.0736452 -0.0688206 -0.0540525 
0.0118892 -0.0132709 -0.0713345 0.0491014 -0.0844052 
5 5 -0.0636444
0.00459421 -0.0604028 0.0169801 -0.0861101 0.00668268 
-0.0290209 0.0744103 0.0985426 -0.054045 -0.0267383 
-0.098148 0.0329792 -0.0592452 0.0515247 -0.0976484 
0.0494968 0.0673924 0.0587337 -0.0242756 -0.0267234 
-0.0255904 -0.0254493 -0.0940075 -0.0146263 0.0194879 
5 5 -0.0780957
0.0350001 0.0272194 -0.0183149 0.0546733 -0.0726071 
0.0262045 -0.0909705 0.0425975 0.0379724 -0.0748637 
-0.0484121 -0.00884909 0.0803263 -0.00131572 -0.0557518 
-0.0789216 -0.0916564 0.0322891 -0.00874047 0.0446452 
0.0150667 0.0500654 0.00532112 -0.0320916 0.0560456 
5 5 -0.0286589
0.0636577 0.0448991 -0.0962385 0.0775747 -0.0627923 
0.0249702 0.0335717 0.0690457 0.0400079 0.0170051 
-0.0415461 -0.00612473 -0.0303004 -0.0975786 -0.0915078 
0.0315315 0.0821615 0.0344221 0.0655556 0.0101786 
0.0631932 -0.0543542 -0.0367009 0.0395743 -0.0471626 
5 5 -0.0973852
-0.0503888 -0.0554922 -0.0233334 0.0293322 -0.0748077 
0.0715689 0.0436215 0.053865 0.0629842 -0.0396404 
0.0622265 -0.0292147 -0.0872611 0.0523474 -0.0647367 
0.0889276 -0.00170528 -0.0755541 -0.0137154 -0.0265429 
-0.0859041 0.0245889 0.0775539 -0.0801126 0.0266555 
5 5 -0.00575896
-0.02791 0.0923006 -0.0127497 -0.052277 -0.00210355 
-0.045956 -0.0385101 0.0206186 -0.0292678 -0.0745091 
-0.0152541 -0.0812465 0.0316166 0.0968643 -0.0544022 
-0.00288611 -0.0454686 -0.0693773 0.00633701 0.022074 
-0.0192061 -0.0187935 -0.0338329 -0.0930902 -0.0622629 
5 5 -0.0345496
-0.0270238 0.000481806 0.0949147 0.0204099 0.0911027 
0.0131871 -0.0802291 0.0591774 -0.0709654 -0.0457898 
-0.0204086 0.0893427 0.0349585 -0.0295252 -0.0429959 
-0.00570084 0.0673288 0.0618914 0.0263853 0.0255944 
0.0443598 -0.0428606 -0.046272 -0.0680551 0.0800104 
5 5 -0.0709068
-0.0291316 -0.0408269 -0.087083 0.0372565 -0.0152418 
0.0484271 0.03386 -0.0367024 -0.0247522 0.0673586 
-0.0813571 -0.0551452 -0.0611614 0.00376325 -0.0283892 
-0.0347719 0.0345401 -0.0467866 0.0881186 0.0945046 
0.0878522 0.0323964 0.0386021 -0.0413902 -0.0906835 
5 5 0.0474647
-0.0153506 0.0166816 -0.0180201 0.0593141 -0.0683494 
0.0336067 -0.0187967 0.0453439 0.0210928 0.0184006 
0.0697673 0.0421264 0.0760335 0.0215422 0.0385145 
-0.0537871 0.0981567 0.0656864 0.0404967 -0.0626096 
-0.0727916 -0.00915045 -0.0221088 -0.0548264 -0.0316514 
5 5 0.0983086
0.0961108 0.090543 -0.00619162 -0.0287572 0.0417249 
-0.0678554 -0.0772367 -0.0407397 -0.0559849 0.0542279 
-0.00981271 0.0990168 -0.029429 0.0203475 0.00579162 
-0.0400205 -0.0825425 0.0290881 -0.0868605 -0.0070499 
0.088451 -0.0987413 -0.0465583 0.0632831 0.0201561 
5 5 -0.0710706
0.0407075 -0.0498388 -0.0909387 0.023187 0.0554812 
0.0933159 0.0959687 0.0765688 0.0597664 -0.031372 
0.0668457 -0.00431499 -0.0548721 -0.0282393 -0.0775196 
-0.0876247 -0.0849525 -0.00472672 -0.0246064 0.0172434 
-0.089215 -0.023662 0.0310874 -0.0569107 -0.0141805 
5 5 -0.00198662
0.00779885 -0.0698206 -0.0647148 0.0273599 0.0515029 
-0.0954403 -0.0128382 0.065393 0.00519928 0.0992324 
0.0597948 -0.001499 -0.0175476 -0.0461172 -0.00532461 
-0.0737515 -0.0910278 -0.0835497 0.0699583 0.049233 
-0.0164931 0.0867308 -0.00318108 0.0991972 -0.0845214 
5 5 -0.0726655
-0.0879592 -0.0115812 0.0968204 -0.0235326 -0.0318164 
0.0658785 -0.0387878 -0.0114266 0.028365 0.0565605 
0.0914784 0.0430817 0.0727675 0.0668063 -0.0724574 
0.0434683 0.0227244 -0.0624523 0.032288 -0.0566408 
-0.0114296 -0.0747173 -0.0266425 -0.0717524 0.0476098 
5 5 -0.00660423
-0.0259717 0.0866876 -0.0416038 0.0945389 -0.00754832 
-0.000717147 -0.082338 -0.0753799 -0.0174959 -0.021875 
-0.0341462 -0.0691098 -0.00436 -0.0114776 -0.05188 
0.0547967 0.0775024 -0.0166531 0.0361306 -0.00923482 
0.0170049 0.0812921 -0.0819451 0.0416122 -0.0966841 
5 5 -0.0787293
0.0616316 -0.0463722 -0.0532089 0.0205935 -0.0414084 
0.0109073 -0.0775838 0.0778851 -0.0467592 -0.0297293 
0.0877786 0.0359965 -0.0338008 -0.0816114 -0.0636947 
0.0522379 -0.0849127 0.0340161 0.0380181 -0.00251005 
-0.0590441 -0.0671755 -0.0716092 0.0184426 0.046038 
5 5 -0.020773
0.0966235 -0.00551043 0.0498194 0.0475527 0.0346893 
0.0192357 0.0663236 -0.0943637 -0.00232273 -0.0602677 
0.0150966 -0.0841483 0.0382002 0.0820134 -0.033822 
0.0218767 -0.0346321 -0.00217061 0.0276155 -0.090116 
-0.0120219 -0.0400948 -0.0166399 -0.0778038 0.0970731 
5 5 0.0405823
-0.0155062 0.00674948 -0.0560134 0.0984644 -0.0966253 
0.0818444 0.070356 -0.0786505 0.0535865 0.0985521 
0.0466854 0.0275313 0.0855361 -0.0189403 -0.0250947 
-0.0125022 -0.0393968 -0.0725846 -0.0882829 -0.0230612 
0.0130783 0.051204 0.0690821 0.000814839 0.0030962 
5 5 0.0440867
-0.0515944 -0.0822454 -0.0303894 0.0487692 0.0623781 
0.0953066 -0.011879 -4.08565e-005 0.00565994 0.0291185 
0.0394145 0.0528228 -0.0765945 -0.0438916 0.0961734 
-0.0558214 -0.0588149 -0.0090579 0.0338721 0.0864362 
0.00908938 0.0225893 0.0698318 0.0718924 -0.0851351 
5 5 0.0892668
-0.0573412 -0.0322045 -0.0733036 -0.080985 -0.0734703 
0.0787562 0.0113791 0.000695287 -0.0945543 -0.0246449 
-0.0927656 -0.0975327 -0.00670826 0.0427745 -0.0222531 
0.0748455 -0.0812916 -0.0451463 -0.0766156 -0.0490262 
0.0773829 -0.0585432 -0.0978001 0.0119939 0.058517 
5 5 0.034188
-0.0877711 0.059753 -0.0513471 -0.01826 0.00125942 
0.0324609 0.02993 -0.0180707 -0.0590837 -0.0230765 
-0.0425191 -0.0347924 -0.0536885 -0.0658485 0.0479538 
-0.0369937 0.079449 -0.0501584 -0.0325006 0.0664977 
0.0994635 -0.0503062 0.0313129 -0.0487076 0.0140493 
5 5 -0.0911881
0.0223626 0.0482701 0.0896436 0.0443727 -0.0675504 
-0.0547255 -0.0230932 0.0695673 -0.0660243 0.0950805 
-0.0950666 0.0302174 -0.0120058 0.0178265 0.00407039 
-0.036233 -0.0050124 0.0732966 -0.0883518 -0.0921655 
0.0939912 -0.0118568 -0.0834582 0.090295 0.0173896 
5 5 0.0177972
-0.000231083 0.0320915 -0.0936392 -0.0802511 0.0284079 
-0.00423545 0.0949984 0.0367842 0.0533645 -0.0938065 
0.0673734 0.0421467 -0.0223306 -0.0202626 0.0945409 
0.0565139 -0.0587018 -0.00673996 -0.0428821 -0.0986849 
0.0841945 0.0191502 0.0639795 -0.0265767 0.0424063 
5 5 -0.0375701
-0.0339009 -0.071967 0.0324719 -0.0718402 -0.0241006 
0.0404822 0.0846761 -0.0468554 0.0997722 0.0388937 
0.0752556 -0.0681153 -0.0127075 0.080236 -0.0819391 
0.0661462 -0.0969379 0.0583871 -0.0300352 0.0732747 
0.0299233 -0.0814517 0.00833185 0.0808207 -0.0906089 
5 5 -0.0348491
0.0332011 0.0413482 -0.0777716 0.0431629 0.0557867 
-0.00330681 0.019277 -0.0329747 -0.0768667 0.024955 
0.00821084 0.0916008 -0.0592266 -0.000821638 -0.000525066 
-0.00483059 -0.0536539 -0.00868828 -0.0787052 -0.0403038 
-0.00788129 0.0507012 -0.0914329 0.0306915 0.0908788 
5 5 -0.00838684
0.0706038 -0.0635312 -0.0167903 -0.0916026 0.048212 
0.0488973 -0.0180217 0.0835645 0.0578265 0.0659881 
0.0496009 -0.0354085 0.0402297 -0.0040571 -0.0341637 
0.0977517 0.0108238 -0.0693727 -0.0630556 -0.0862542 
0.0236086 -0.0193579 -0.0857855 0.00611416 0.0512094 
5 5 0.0613579
-0.0357283 0.0421419 -0.013681 -0.0964478 -0.0418523 
-0.073945 0.0794821 -0.0247834 -0.0738451 -0.0520518 
0.00878853 0.0985044 -0.0552417 -0.0440158 0.0912204 
0.0323003 -0.0947908 0.0776166 0.0461457 0.0119409 
0.0192947 0.0223808 0.0118298 -0.076298 0.0232156 
5 5 0.0967783
0.024368 0.0941859 -0.0676921 -0.0354695 0.0631299 
-0.0211615 -0.0949361 0.0802791 0.0698936 -0.0738796 
0.0704597 0.0335211 0.0498404 -0.0962815 0.0763175 
-0.0733197 0.0570721 -0.0348214 0.0151247 0.0239933 
-0.0265364 -0.0613992 0.0820961 0.0017632 0.0856974 
5 5 -0.0812495
0.0235208 0.0275285 -0.0304343 0.0439756 -0.0684073 
0.00490872 0.0820244 -0.0595315 0.0364475 0.0115736 
-0.0265007 -0.0885177 0.0657782 0.0595148 -0.0757774 
0.0560081 0.0089273 0.0204574 -0.0940392 -0.000928567 
0.0570968 0.0291338 0.0898942 0.00717707 -0.0297326 
5 5 0.00859786
-0.013095 -0.0129029 0.0230387 0.0612726 0.039918 
-0.074584 4.1857e-005 -0.0993621 -0.0247782 0.0710789 
-0.0265871 -0.0495664 -0.0896669 0.0313987 -0.0568698 
0.0464793 -0.0687807 0.0655542 0.0801328 -0.0684615 
-0.0565676 -0.0436984 0.0359404 -0.0475355 -0.0962646 
5 5 -0.0582488
0.0715317 0.0965591 0.0366473 0.0882964 0.0651485 
-0.00355451 -0.0546345 -0.0134085 -0.0487352 0.0351846 
0.0194812 -0.0518903 0.0503029 -0.0160883 0.0497012 
-0.0101132 0.0433817 -0.098825 0.0528347 -0.0163195 
0.0496483 -0.0727191 0.0145371 0.0522418 -0.0385825 
5 5 -0.0949646
-0.0440831 -0.00522441 0.0934042 0.0496071 0.0303839 
0.0215117 -0.0963689 0.0248783 0.0565413 -0.0201536 
0.0401113 0.014065 -0.00607084 -0.0475204 0.0718234 
-0.0404766 -0.0327839 0.00895636 -0.0414579 -0.0232253 
-0.0540659 -0.0077573 0.0163041 0.0825549 0.08529 
5 5 -0.0783905
0.0352292 0.0668392 0.0347034 0.090123 -0.0948063 
0.0404913 0.0197105 0.0474525 0.00615049 0.089528 
0.00459253 -0.0667573 -0.0808529 -0.0326803 -0.059103 
-0.0416296 -0.0860321 0.0555362 0.00878133 -0.0939387 
-0.0294269 -0.0738652 0.056921 0.0363345 -0.010376 
5 5 -0.066089
-0.0520896 0.0759494 -0.0513646 -0.0241789 0.0145339 
0.0737618 0.0598829 0.0345737 -0.0664258 0.00372935 
0.0880787 0.0614954 0.0241475 0.0957041 0.0796579 
0.00555374 0.0756886 -0.0224115 0.0650141 -0.0669459 
-0.0880963 0.00678922 -0.0124626 0.0684018 -0.00266121 
5 5 0.0747615
0.0146109 0.0832569 0.0936769 0.064688 0.0894948 
0.0685992 0.0708772 0.0452138 0.0775348 -0.0821737 
0.0780912 -0.0221697 -0.0345645 -0.0439867 -0.0160208 
0.0234912 0.0681059 -0.0562948 0.0900924 0.0271715 
-0.0995061 0.0872817 0.024798 0.0618995 0.0693743 
5 5 -0.0122662
0.0229969 0.014522 0.0429705 -0.043636 0.0981535 
0.0923236 -0.0472893 0.0359181 -0.0857318 0.0352614 
0.0858887 -0.052855 0.0617795 -0.0892856 0.0223385 
-0.0972691 -0.0543256 0.0757615 0.0743194 -0.0867787 
-0.00952328 -0.0132888 -0.015749 -0.0805925 -0.0304491 
5 5 0.0361517
-0.0630659 -0.0189898 -0.035779 0.0998795 0.0417853 
0.0525392 -0.0405497 -0.0227176 -0.0563715 -0.0204722 
-0.0184343 -0.000660181 -0.0854413 0.0444222 -0.0141878 
-0.00513269 0.0871424 0.093903 -0.00212622 0.0885494 
-0.0173724 -0.0200814 -0.0826601 -0.0838457 -0.00962323 
128
5 5 -0.0474762
0.0888868 -0.062536 -0.0423679 0.078389 0.0461828 
0.0225612 -0.0607744 0.0891605 -0.0620559 0.0117262 
0.0733329 -0.0928005 0.037446 -0.00246916 0.0346222 
-0.0452241 0.0495501 0.0423588 0.0118782 0.0266026 
0.00829973 0.0977618 0.0841142 -0.00974345 0.0891617 
5 5 0.000732078
-0.0600044 0.0558227 -0.0750843 -0.0461026 -0.000975697 
0.0430564 -0.0549262 -0.0779502 0.0875585 -0.0367156 
-0.0670844 -0.00746155 -0.065502 -0.0315795 -0.0820936 
-0.0782443 0.0346212 -0.0176485 0.00268176 0.080516 
-0.0598831 0.0527704 0.0316816 0.0719667 -0.0658813 
5 5 -0.0471598
-0.0907105 0.00107614 -0.0546053 0.0699574 0.073729 
0.0801557 0.056671 0.0924722 -0.0687895 -0.0497964 
0.066568 -0.0393158 -0.0419781 -0.000718467 0.0591889 
-0.0219306 0.0769242 0.0594295 0.0378305 -0.0645431 
0.0128823 -0.0363139 -0.0200999 -0.028252 0.0355906 
5 5 -0.0557532
-0.0313009 0.00397314 -0.00542771 -0.0506097 -0.0420586 
0.057586 0.052667 0.0732342 0.0259936 -0.0711072 
0.0253458 -0.0415339 0.0768048 -0.0910653 -0.0692025 
-0.0273019 0.040947 0.00421471 0.0570949 0.0303939 
-0.0639409 -0.0202858 -0.044818 0.0422849 0.0414045 
5 5 0.0607386
0.0591818 0.0758801 -0.0565073 0.0211711 -0.054583 
0.00626121 -0.0917446 0.0928333 -0.0677614 -0.0614404 
-0.0634775 0.0229035 0.0300599 -0.014544 -0.0415153 
-0.0854251 -0.0541158 0.0782221 -0.074743 -0.0203763 
-0.0514709 -0.00522997 0.0507491 0.036379 -0.0974563 
5 5 0.083145
-0.0367954 0.0818835 0.075392 0.0659183 0.0191931 
-0.0289877 0.0250783 0.00297468 -0.0591013 -0.0664237 
-0.0269291 -0.00470615 0.0285022 -0.0392697 -0.0289849 
-0.088894 -0.0936945 -0.0080123 0.0656175 -0.0838228 
0.0579158 -0.0671997 -0.0304805 0.0878054 -0.091559 
5 5 0.0317903
0.0413721 0.0962687 -0.0936487 0.0764737 0.0859375 
0.0321752 -0.0328535 0.0546456 -0.0228843 -0.0381586 
-0.0732435 0.0497816 0.0100292 0.0956445 -0.0312143 
-0.0320454 -0.00932225 -0.0564984 0.0797906 0.00484424 
-0.0319134 -0.0556392 0.084101 -0.0372606 0.0141181 
5 5 -0.050454
-0.0796232 0.0449345 -0.0385138 0.0411585 -0.0863243 
0.0648201 0.0974893 0.0640075 0.0995975 -0.0989022 
-0.0685738 -0.0416229 -0.0435456 -0.0748622 0.0319723 
0.0685031 0.000954618 0.0373803 0.0456822 -0.0877388 
0.00613577 0.0399528 -0.0975716 -0.00902401 0.09531 
5 5 -0.021729
-0.0876661 -0.0774487 0.0691621 -0.00938723 -0.0374289 
0.0772754 0.0232684 0.0689712 -0.0816555 -0.00143546 
0.00979054 -0.0897089 0.0357804 -0.0102361 0.00260714 
0.0408806 0.0923498 -0.0514755 -0.0804899 -0.0247816 
0.0407945 0.0290736 -0.04022 0.0290892 0.0933725 
5 5 0.016501
0.0116662 -0.0784955 0.0426584 -0.0174283 -0.0126896 
-0.005474 -0.0759986 -0.0643398 0.0407391 -0.014345 
0.0280637 -0.00385516 -0.0745503 -0.0208915 -0.0320153 
0.0269291 0.0473034 0.0722374 0.00696739 0.0726302 
0.0696709 -0.0151779 -0.0451291 0.0960047 0.0271497 
5 5 -0.0570551
0.0375938 -0.00550936 0.00265323 0.077508 0.0470898 
-0.0252814 -0.0736045 0.0402412 -0.0224932 0.070281 
-0.0491694 -0.0839661 0.0538863 0.079801 -0.0401976 
-0.084886 -0.0403125 -0.0907572 0.0664917 -0.094551 
-0.0306132 -0.000899448 0.0569619 -0.0934859 -0.00747626 
5 5 0.0178202
0.0358779 -0.0232674 0.0352521 -0.0999772 0.0307153 
0.0272769 0.086321 0.0201899 0.00966107 -0.00913238 
-0.0688217 -0.033554 0.0715537 0.0803993 -0.0955832 
-0.0877603 0.0611752 -0.0338926 0.084528 0.0577982 
-0.0313816 0.00185305 -0.0628624 -0.0736595 -0.0322242 
5 5 -0.0670258
-0.0874523 -0.00605762 0.0515694 0.0255098 0.0052838 
0.0349487 -0.0822615 0.0176943 -0.0176282 0.0665603 
0.063083 0.0756017 0.0832709 0.070132 -0.056844 
-0.0661703 -0.0985189 -0.0267131 -0.0486151 -0.0170711 
0.051714 0.0725063 0.0761695 -0.0755793 -0.0699588 
5 5 -0.0203004
-0.00951089 -0.073968 -0.027541 0.0634533 0.0313916 
-0.090974 -0.0807513 0.097052 0.0248317 0.0978338 
0.089582 0.0431008 0.012758 0.0642874 -0.0251256 
-0.0926409 0.0383503 -0.0030346 -0.0449932 0.012532 
0.0455954 0.0273875 0.0452871 -0.0167072 0.0495143 
5 5 -0.0584358
0.0791653 0.0216641 0.0334768 -0.0749294 0.0346624 
-0.0438079 -0.0696926 0.0229203 -0.0922962 0.0423408 
-0.0588957 0.0281788 0.0420772 -8.47855e-006 -0.0483624 
0.0482411 -0.0792522 0.065183 -0.100045 0.0295764 
-0.0765277 -0.0594695 0.0518077 -0.0448613 0.0597797 
5 5 0.0223041
0.0415227 -0.0512193 -0.0189905 -0.00861665 0.0319022 
0.0168183 0.078428 -0.0629452 0.0533918 0.0601352 
-0.0244844 -0.0864767 0.0744115 0.0852427 0.017275 
0.0920255 0.0621679 0.0477082 0.0656223 0.00106107 
-0.0111288 0.0583336 0.00584071 0.0317795 0.039945 
5 5 -0.00388048
0.0714922 0.0921571 -0.0179031 -0.0280566 -0.0111242 
-0.0162488 -0.0620492 -0.0670169 0.0592678 3.59683e-005 
-0.0532254 -0.0878011 -0.0273246 -0.0978062 -0.062314 
-0.0220416 0.0607503 -0.0212943 0.0903326 -0.0373975 
0.00716654 -0.0518626 0.0412726 0.0795657 -0.0928802 
5 5 0.0148265
0.0725914 -0.0347226 0.0818543 -0.0217777 -0.0261813 
-0.0491207 -0.0115067 0.088736 0.0817202 -0.0799283 
-0.041115 0.0790628 0.0168548 -0.0349294 -0.041575 
0.0122002 0.0179345 -0.00953958 -0.0882757 -0.0964775 
-0.0360026 0.0776543 -0.0741774 0.0811144 0.0239473 
5 5 -0.0523467
0.0106624 0.047037 0.00319629 -0.0109317 0.0056018 
-0.0802984 -0.0749718 0.0615128 -0.0797988 0.0474106 
-0.075296 -0.0851792 -0.0175654 0.0717203 -0.0046868 
-0.0643016 0.025461 0.00813127 0.051299 -0.00446002 
0.092701 0.0461404 0.0600933 0.079243 0.0831376 
5 5 0.0381664
-0.0991499 -0.0744462 -0.0568016 -0.0336501 -0.0910105 
0.0261768 -0.0025569 -0.0595205 -0.040953 0.00308538 
-0.0529487 0.0633985 0.0421275 0.098739 -0.081389 
0.0886798 -0.00482821 0.0119359 0.086981 -0.0170767 
-0.059016 0.00554663 0.0707603 -0.0325507 0.0889767 
5 5 -0.0741575
0.0060128 -0.0797008 0.0616351 0.0542625 -0.0954399 
-0.0872366 -0.00903242 0.0347652 0.0145315 -0.0216586 
-0.0451496 -0.00534904 -0.0325267 0.0802795 -0.0014568 
-0.097837 0.0378667 -0.0397637 -0.0920428 0.0824081 
-0.0886156 0.0566067 -0.02724 -0.0618787 0.0699047 
5 5 -0.0265251
-0.0795637 -0.0235971 0.00934504 0.0645719 0.0597903 
0.0125597 -0.029878 0.0578843 -0.00647582 0.0487269 
0.0196335 0.0265345 -0.0417726 0.0768875 -0.0294552 
0.0687524 -0.049093 -0.0696478 -0.0512915 0.0259327 
0.0912405 0.0185478 -0.0836298 -0.06274 -0.0172644 
5 5 0.0681128
-0.0420104 0.0109023 -0.0781192 -0.0571901 0.0291161 
-0.00742638 -0.0829627 -0.0504535 -0.0124377 -0.0863328 
-0.0230732 0.0728115 -0.00537896 0.0953388 0.0112128 
0.0552585 -0.0894243 0.000466439 0.013169 0.0830784 
-0.0228345 -0.00106168 0.074857 -0.0339384 0.00443133 
5 5 0.0444465
0.088732 0.0489023 -0.0427499 -0.0680852 -0.0867819 
-0.00825997 -0.0445893 -0.0794264 -0.0103719 0.0324851 
-0.00731795 0.00860175 0.0931164 0.0799061 -0.0194641 
0.030301 -0.0684618 0.0745843 0.0135905 0.0679177 
0.0465095 -0.0817704 0.0831692 -0.0478909 0.0400997 
5 5 0.0421793
-0.0720598 -0.0682222 0.0783511 0.0840032 0.0243895 
-0.0936158 -0.0678785 0.0427234 0.0592124 0.0818763 
-0.0783101 0.0139832 0.0270706 0.0576221 0.00777068 
-0.0276073 -0.0765923 -0.0119504 -0.00318526 -0.0142809 
-0.00197029 0.0425661 0.0974476 -0.0526661 0.0968484 
5 5 0.0463951
0.0165309 -0.0572832 0.083869 -0.0886393 0.0161953 
0.0778326 0.0479264 0.0400781 -0.0971946 -0.0663402 
-0.0636284 0.0900905 0.0291323 0.00716702 0.06433 
-0.0597796 0.0158201 -0.0297346 -0.0641154 0.00826135 
0.0838683 0.0798585 -0.0860043 -0.0906302 -0.0438409 
5 5 -0.0595097
0.0782257 0.0811986 -0.0668074 -0.0258877 0.0436215 
0.00957442 0.0187027 0.0853527 0.0767296 0.00236729 
-0.0199255 -0.0926586 0.0954101 0.096581 0.0534238 
0.000673613 0.0925139 -0.0209587 0.0725983 0.0926527 
-0.075122 0.0578343 -0.0188617 -0.0584672 0.0560233 
5 5 0.0472283
0.0123306 0.0308454 -0.0197922 -0.0594038 0.069138 
0.0523062 0.0952012 -0.0151345 -0.0262741 -0.00456569 
-0.0131303 0.0867101 -0.069094 -0.0349987 0.0742862 
0.0765101 0.0739042 -0.022846 -0.038446 0.0935689 
0.0429924 0.0503459 0.0810129 0.0685775 0.0495991 
5 5 0.0274947
-0.0505108 -0.00209619 -0.00833179 0.082441 0.0226912 
-0.0246489 0.0641258 0.0592442 0.0852537 0.0823058 
0.0367439 -0.0756355 -0.051316 0.0971161 0.0376429 
0.00619519 -0.0129307 -0.0826106 0.0125834 0.051797 
-0.0921705 0.0739474 -0.091107 0.0978701 0.0645053 
5 5 0.0159687
-0.0560904 0.0907017 -0.0806723 -0.0469728 0.0131873 
0.0904822 -0.0401589 -0.0765393 -0.00789664 -0.0149742 
0.0766491 0.0893596 -0.0080061 -0.0494914 -0.0896301 
-0.0781966 -0.0768394 -0.0134794 -0.0294295 0.0664537 
0.0226841 -0.04244 0.0362046 -0.0301984 -0.0968863 
5 5 0.0712643
0.0413068 0.0447972 -0.0228297 0.0342134 -0.0456447 
0.0608638 0.0174337 -0.0126455 0.0547813 -0.0649535 
-0.096562 -0.0997842 -0.0832432 0.00941335 -0.0840469 
-0.092073 -0.0976951 -0.00550219 0.032505 0.0503293 
0.0732836 0.0594419 -0.0183889 -0.064376 -0.0729729 
5 5 0.0517477
-0.089277 -0.0406541 0.0606438 -0.078626 0.0255487 
0.0129065 -0.025568 -0.0507176 0.0563202 -0.0899153 
-0.085093 0.0308028 -0.0934094 0.0643192 -0.031396 
0.0251188 -0.05785 0.0478465 -0.0897421 0.0347614 
0.0754637 -0.036795 0.0123294 0.00172815 -0.0979193 
5 5 0.0542388
-0.0737453 -0.0949217 0.0480066 -0.0747941 0.01499 
-0.0828576 -0.0327018 0.0794671 -0.0813047 0.0561232 
-0.0126377 -0.0829434 0.0385839 0.0538115 0.00532596 
0.00816459 -0.0363605 -0.0619421 0.0373401 -0.0964438 
-0.0238778 -0.0569303 0.034948 0.078797 -0.035832 
5 5 -0.0257563
-0.0344523 -0.078314 -0.0462871 -0.0684919 0.000770585 
0.0350159 -0.0615822 0.0609495 -0.0701708 -0.0411591 
0.0576757 0.023644 -0.0746757 -0.0684216 -0.00721402 
0.0576912 -0.0382742 0.0714342 -0.0139539 -0.0759466 
-0.0432174 -0.0478631 0.0353257 -0.00937006 0.00946336 
5 5 -0.0661523
0.00748595 0.0987201 -0.0444254 0.0845565 0.0240806 
0.0510936 0.0579927 0.00179301 0.0934624 0.097762 
-0.000219114 -0.0119662 -0.0736941 -0.0501947 0.0224943 
0.0981935 -0.0844935 0.0522433 0.0147547 0.0938432 
-0.00069801 0.023861 -0.0782156 0.0350415 0.00934111 
5 5 0.0165075
-0.0641732 -0.0569427 0.0136773 0.0122223 0.00995458 
0.0556273 0.0506526 0.0342252 -0.0199601 -0.0704349 
-0.0167736 0.0330633 0.0136002 0.0920955 0.0482578 
-0.0577079 0.0684999 0.0912665 0.0348722 0.00101628 
-0.0888957 0.0717844 0.0798023 -0.0126327 -0.0545542 
5 5 -0.0904155
-0.00452899 0.056466 0.0156635 0.0198618 -0.0630912 
-0.0221721 0.0384859 -0.0757112 -0.0956054 0.0325313 
0.00730478 0.0100193 -0.0976115 -0.0237824 0.0479932 
0.0184987 0.0489558 -0.0691074 0.06524 -0.0749838 
0.0489588 -0.00743591 0.0420511 0.0667795 -0.0674637 
5 5 0.0290473
-0.0560053 0.0483756 0.0669853 -0.0896022 0.0954476 
0.0532189 -0.0424544 0.0610025 -0.0313005 0.0867012 
0.0173632 0.036433 0.0505948 0.00128277 0.0458628 
0.0847136 -0.0492953 0.00583217 0.00169976 0.0673995 
-0.0112115 -0.0773428 -0.0277732 -0.0426389 0.0337169 
5 5 0.112377
-0.0293106 0.0968807 0.0473254 -0.000146618 0.0261085 
-0.0941176 0.0685011 0.0676262 0.0353789 0.0215142 
-0.0558549 -0.0151131 0.00147821 -0.0452216 0.0930164 
-0.0351431 -0.060227 0.0101488 0.0372687 0.0357274 
-0.0856761 0.0117383 -0.0283385 -0.0943952 0.0184589 
5 5 -0.0439095
-0.0872414 -0.0332577 0.0315604 -0.0684596 -0.0776318 
0.0554613 -0.0933536 -0.000392554 0.0848343 -0.074574 
0.0493854 0.0378431 -0.00125508 0.0118529 -0.0384481 
0.0164226 0.0281629 0.0984042 -0.0348201 0.0514539 
0.0764707 0.0208175 0.0145775 -0.00413761 -0.0628195 
5 5 0.0378956
0.0997773 0.0542409 -0.0233948 0.0210636 0.0482106 
-0.00106241 0.00749646 0.0292964 0.0337606 0.0731471 
-0.0918143 -0.0911242 -0.00517758 -0.0412385 0.0425506 
0.0403419 0.0711016 0.0912016 0.0396519 0.0302747 
0.0640641 -0.0960872 -0.0134721 -0.0441948 0.0272634 
5 5 0.0820776
-0.00761078 0.0970717 -0.00698353 0.00507543 -0.0196953 
-0.00950725 -0.0576307 0.0682942 0.0603269 -0.071045 
0.0220864 0.0486506 -0.0554717 -0.0528617 -0.0805414 
0.0120139 -0.045256 0.0180977 -0.00452902 -0.0660046 
0.0854385 0.0940291 0.0880817 -0.0812724 0.0726863 
5 5 -0.069272
-0.0126796 -0.00463518 -0.0718645 0.0699507 0.0921078 
-0.0242849 0.09333 0.0818047 0.0523672 -0.049056 
0.0725355 0.0129122 -0.0962879 -0.087686 0.0961735 
0.057821 -0.0982372 0.074301 0.076443 -0.0865813 
-0.0393866 -0.0162135 0.00619954 0.0023363 -0.0965047 
5 5 -0.00710724
0.0617109 -0.00606886 0.0301635 -0.0172219 -0.0372848 
-0.052682 0.00890103 -0.0892714 0.0464968 -0.0869611 
-0.00238171 0.072934 0.0142841 -0.0780188 0.00283272 
0.0543072 0.00265254 -0.00641509 -0.0209269 0.0510554 
-0.0609026 0.0939934 0.079487 -0.0519013 0.037298 
5 5 0.0752146
-0.039795 0.0304914 -0.0120728 -0.0632819 -0.0559244 
-0.0896699 -0.0994812 0.00316272 -0.0418227 -0.0484461 
-0.0450515 0.018166 0.036825 -0.0249085 0.015751 
-0.0882241 -0.0879354 -0.0816428 -0.0291175 0.0199889 
0.0851697 0.042252 0.0401527 -0.0264991 0.0941653 
5 5 -0.0442304
0.0243193 -0.0207634 -0.02043 0.0480077 -0.058442 
-0.0563396 0.0512328 -0.00085981 0.00558297 -0.0486816 
-0.026407 -0.0358862 0.0112099 -0.0594615 0.0628955 
0.0993083 0.074996 -0.0953339 0.0101073 0.0191279 
-0.00859317 0.0488819 -0.0657211 0.0617611 -0.0407933 
5 5 0.0332963
-0.0281621 -0.0528953 -0.0649214 -0.0497962 -0.0922883 
-0.0952514 -0.0303206 -0.0881947 0.0568651 0.0588984 
-0.0144879 -0.0252591 -0.0997632 -0.0552634 -0.0527595 
0.0343889 0.0805828 -0.0578726 0.0860904 -0.017665 
0.0685318 -0.0926289 -0.0677382 0.0340824 -0.0996682 
5 5 -0.0154379
0.0101333 0.0650076 0.0958906 0.0613784 -0.0417565 
0.0844932 -0.0339052 -0.0916803 -0.0800055 0.0770242 
0.00661233 -0.0192662 -0.0269069 -0.0539377 -0.00244598 
-0.0287851 0.046202 -0.0124633 -0.0970406 -0.073041 
0.0810291 0.0290302 -0.0163029 -0.0640054 0.0972043 
5 5 0.0564918
0.0296671 0.0622112 -0.0850736 0.0885753 -0.0910122 
-0.0930381 -0.00909697 0.0560863 -0.04051 0.0810059 
-0.0716046 -0.0615781 0.00328543 -0.0279244 -0.0912217 
0.0657359 -0.0873309 0.0745649 0.0149971 -0.00684059 
-0.0795161 0.0830871 0.0828066 -0.0429683 -0.0124048 
5 5 0.0153048
0.0568489 0.0345909 0.032893 -0.0562159 0.0983384 
0.0605539 -0.0709947 0.055342 -0.00761169 0.00624917 
0.0679186 -0.0580696 -0.0698756 0.0728451 0.0164534 
0.0882124 0.00624193 0.0232257 0.0480319 0.088328 
0.0939033 -0.021237 0.0742583 0.0810721 0.0548145 
5 5 0.0335566
-0.029866 -0.00497231 -0.0660872 0.0116607 0.0117512 
0.0739339 -0.0927802 0.00868189 0.0112211 0.0721998 
0.0250614 0.0308192 0.0868326 -0.0104387 -0.0814484 
-0.0168169 0.0442228 -0.0527103 -0.0883058 -0.0737774 
0.0931552 0.0619601 -0.0816415 0.0262724 -0.0997177 
5 5 -0.0756561
-0.0449979 0.042969 0.0776338 -0.0933632 0.0374929 
0.0487246 -0.0657645 0.0218344 -0.0764573 0.0412146 
-0.0311886 -0.00630303 0.0452656 -0.036267 -0.0680941 
-0.0679878 0.0961088 -0.0283992 -0.0486608 -0.0305238 
0.0253637 0.0731037 -0.065783 0.0849461 0.0959464 
5 5 -0.0235978
-0.0525012 -0.01543 -0.0330536 0.0865839 -0.0132334 
0.0241482 0.0463183 0.0349543 0.0340334 0.0559128 
0.0838284 -0.0388895 0.0180022 -0.0252191 0.0510352 
0.0854516 -0.0222419 0.0530512 0.0623519 -0.0336001 
0.0366354 0.0394593 0.00601417 0.0367722 0.0991184 
5 5 -0.0812461
0.027811 -0.0184045 0.062676 0.023421 -0.0720246 
-0.0453671 0.0643324 0.0433106 0.0357274 0.00286103 
-0.0309501 0.0781766 0.007779 0.0908711 -0.00901274 
0.0476065 -0.0980807 0.0922622 0.0673018 -0.0203279 
0.00315239 -0.0529967 0.0927862 -0.0536972 -0.0632275 
5 5 -0.0554691
0.00372742 0.0188573 -0.0656469 -0.0581744 0.0424816 
-0.0820842 0.0173993 0.0692462 -0.0134654 -0.0644626 
-0.073822 -0.0743661 0.0590683 0.0310916 -0.0116844 
0.0224404 -0.0658069 0.0529452 -0.0438215 0.0986508 
-0.0806145 -0.00170759 -0.0273085 0.0318608 -0.0475845 
5 5 0.0690385
-0.0593152 -0.0232476 0.0959448 -0.0312865 0.0198451 
0.0742491 -0.0612536 0.000827158 -0.0571451 -0.0443404 
0.0238972 -0.0696232 0.0752735 -0.037792 0.09849 
-0.0932292 -0.097358 -0.0702968 0.0873769 -0.048209 
0.0757242 0.0606945 0.00874593 0.0371097 0.0949398 
5 5 -0.0931476
-0.0686064 0.0398332 -0.0324919 0.0312947 -0.0175945 
-0.046574 -0.0879024 0.0880303 -0.0961492 0.0254291 
0.0527502 -0.00299867 -0.0223651 0.019831 -0.0300297 
-0.0972678 0.0143756 0.0715675 0.0564664 -0.0681252 
0.0173579 -0.0782578 -0.0604006 -0.0460431 0.0254222 
5 5 0.00814537
-0.0773413 0.0794536 -0.0565057 0.0154755 -0.0950349 
-0.0724301 0.0646406 -0.0954272 -0.066455 -0.00619358 
0.0916497 -0.098794 0.0451754 -0.0501685 -0.0365924 
0.0281168 -0.0458906 0.00566037 0.0922714 0.0198314 
0.041153 -0.0336399 -0.0800314 0.0813241 0.00169617 
5 5 -0.0858025
-0.00399566 0.0760074 0.00754304 -0.0539919 0.0876693 
0.0231701 -0.0597029 -0.0977417 -0.0750248 0.0859571 
-0.0496833 -0.090042 0.0887586 -0.0674722 -0.0995525 
0.080147 0.0481057 0.0497204 -0.0519686 -0.0147135 
0.0518148 0.0925656 0.0233339 0.0496395 0.0821568 
5 5 0.050117
0.0594395 0.0841489 -0.0244015 -0.0982843 -0.0693323 
0.0964467 -0.0824659 -0.030313 -0.0447121 0.0075626 
0.0171594 0.0080842 -0.0809813 0.00656416 -0.031234 
0.0500006 0.0753816 -0.0256636 -0.094748 0.0701988 
0.0794097 -0.0923568 0.0507282 0.052542 -0.0893275 
5 5 -0.0170414
0.0790476 -0.0571893 -0.0568555 -0.0636014 -0.0199703 
0.0630009 0.0110677 -0.0483883 -0.0506977 0.0832123 
0.0459836 -0.074485 0.0971252 -0.0900316 -0.0857407 
-0.00218689 0.089181 -0.0075749 0.031696 -0.0721287 
-0.0768893 0.0163006 0.00685257 -0.00584322 -0.0525401 
5 5 0.0783886
0.0624209 -0.050028 -0.0692012 0.070417 -0.0933793 
0.0550376 0.0837764 -0.0939985 -0.0262498 -0.0724277 
0.0456524 -0.0781799 -0.0393768 0.0177146 -0.0609778 
-0.021491 -0.0712115 0.100794 0.079509 -0.0909093 
0.0926516 -0.0702554 -0.0915708 0.0070319 0.0299794 
5 5 0.0547655
0.0633527 -0.00333904 -0.0509471 -0.00494753 -0.024117 
0.0910717 0.023575 -0.0649266 -0.0535838 -0.0343203 
-0.019001 -0.080421 0.0380945 -0.082172 -0.0414 
-0.0630947 -0.0228971 -0.00754301 0.0557588 0.0879849 
-0.0312505 -0.0465392 -0.0565236 -0.0202108 0.0397077 
5 5 0.0903528
-0.0118118 -0.0245747 0.0117353 0.089825 0.0473297 
0.0326453 -0.0962241 -0.0849996 -0.00675664 -0.034046 
0.0896515 0.0992161 -0.0822925 0.0506729 -0.00613122 
-0.0854713 0.0750452 0.0164072 0.0459728 -0.0781064 
-0.0737243 -0.0529687 0.0980878 -0.049152 -0.0716723 
5 5 -0.0631647
0.00582042 -0.0265756 0.0357502 -0.0220485 -0.0102501 
0.0597136 -0.0292778 0.0602267 0.0674442 0.0865321 
0.000632339 -0.0335469 -0.0190193 -0.00563721 -0.0931796 
0.0442304 -0.0889338 0.0629313 0.0781761 -0.0632604 
-0.0065288 -0.0085881 -0.000721117 -0.0502598 -0.0609421 
5 5 0.065691
0.0787578 -0.0161043 -0.0359093 -0.0259546 0.0840643 
0.0589352 -0.059508 0.0145397 -0.0666436 -0.0346839 
-0.0321004 -0.0278482 0.0992495 0.070865 0.077484 
0.0495706 -0.0115523 0.0168042 0.070601 -0.0287158 
-0.0576049 -0.0689281 0.000682937 -0.037002 0.0258043 
5 5 0.104303
-0.0948409 -0.0143346 0.0534253 0.0844718 0.085851 
0.098758 0.00822655 -0.0609834 -0.033565 -0.0480903 
-0.0800035 -0.0457906 -0.00439503 0.0575906 -0.0560432 
0.0687607 0.0454094 0.0574814 -0.0896133 0.0462518 
-0.0276385 0.0358215 0.0880091 -0.00164528 -0.0236607 
5 5 0.0902854
0.0312848 0.0781079 0.046155 -0.0179719 0.0576822 
0.0753342 -0.089851 -0.016189 0.0116433 -0.064661 
-0.0201614 -0.0128641 0.0792151 -0.0488265 -0.0802397 
0.0727487 -0.0968017 0.043651 -0.0759855 0.0875221 
-0.0457197 0.0685076 -0.0782411 0.0566164 0.018795 
5 5 -0.022962
0.011198 -0.0937111 -0.0429186 -0.0191587 -0.07018 
0.0770395 -0.0130892 0.0961727 0.0674475 -0.0899355 
0.0531231 0.0918062 0.0289844 -0.0148922 -0.06601 
-0.0223101 0.0503494 0.0955199 0.0441718 0.0233756 
0.0776764 0.0380159 -0.00889145 -0.0818093 0.012679 
5 5 0.097546
0.0368033 0.00558422 -0.067441 0.0228265 -0.0731368 
0.0255531 -0.00992949 -0.06701 0.0377778 0.0938813 
-0.000419791 0.00319713 -0.0962767 -0.0489616 0.0154942 
-0.0568103 0.0734191 0.0107513 -0.0898318 0.092592 
-0.0398431 0.0417667 0.0561923 -0.00299889 0.0338288 
5 5 0.00525588
-0.0785737 0.0520696 0.0181941 -0.0784416 0.0783255 
0.0922819 0.0430267 -0.0251746 0.0418285 -0.0881057 
0.0142335 0.0922243 0.0332933 -0.00819186 -0.0477247 
-0.0779885 0.0827413 0.0203319 -0.0423104 -0.0344705 
-0.0267018 0.0846557 -0.0389004 -0.0444849 0.0338346 
5 5 -0.0843286
-0.0884088 -0.0855761 0.0877928 0.0706219 -0.0391746 
0.0267504 -0.0364804 0.0259224 -0.0991365 -0.0457781 
0.0685104 0.0714372 0.0049974 -0.0730403 0.0447493 
-0.013899 -0.0574864 0.0438328 -0.00382183 -0.0356332 
-0.096817 -0.0948882 -0.0922794 -0.00726663 0.00563753 
5 5 0.0182417
-0.0461145 -0.0572982 -0.060936 -0.0948056 -0.0889421 
-0.0286749 0.0898665 -0.061956 -0.0335713 -0.0976913 
-0.0808218 0.0382956 -0.0518829 -0.0234311 0.0361043 
0.0727806 0.0633705 0.0494731 -0.0621259 0.0704763 
-0.0306492 0.0146897 0.0547373 -0.0980454 0.0659899 
5 5 -0.0533345
0.0736074 -0.0615006 0.0325048 0.0891101 -0.0151146 
-0.0568874 -0.0979455 -0.0683427 0.0111267 0.094362 
0.0834663 0.0789721 0.078671 0.0104463 0.0435954 
0.0814585 -0.0177275 0.0703179 0.0492706 0.0267705 
-0.0968741 0.0897559 0.0715558 0.042914 0.0345324 
5 5 0.0703296
0.0725921 0.0730299 -0.0245668 0.0425817 -0.0382591 
0.0117804 0.0325392 -0.0215421 0.0518167 -0.00909093 
-0.0814876 -0.0660233 0.0958788 0.0755911 -0.0329302 
0.019434 -0.0721999 -0.029377 -0.0547363 -0.00907848 
0.00752726 0.00953555 0.009533 0.00677657 0.0780685 
5 5 0.0109072
0.0638682 -0.0221784 0.0392896 0.0802329 0.076301 
0.0425071 0.0450789 -0.0572695 0.00999665 0.000480762 
-0.0674693 0.0825906 -0.075584 0.0317351 -0.0147011 
0.0771067 -0.0959747 -0.0635492 -0.0588622 -0.000333779 
-0.0296132 0.0244562 0.0466896 0.0781922 0.032874 
5 5 0.0950541
0.0696985 0.0884337 0.0364739 -0.0174703 0.068745 
0.0610198 -0.0416065 0.0592634 0.0356561 -0.0110551 
0.0177006 -0.0316848 0.00798868 -0.0880014 -0.0541705 
0.0652865 -0.0401426 0.0593393 0.0780077 -0.035092 
0.087526 0.0388144 -0.0748264 0.0551346 -0.0226108 
5 5 -0.0706597
-0.0296451 -0.0852644 0.0756777 -0.0573016 -0.0306189 
0.0669166 -0.0238129 -0.0724139 0.079791 -0.0106893 
0.0891396 0.0183785 -0.0922536 0.0156553 0.0641773 
0.00412433 -0.00399524 0.0755446 -0.0901707 -0.0282903 
0.0473738 0.0800489 -0.0463655 0.0535506 0.00127344 
5 5 0.0959451
0.0417956 0.0694917 0.0428675 -0.0517141 0.0725594 
-0.0681269 0.0976195 -0.0472872 0.0867343 0.0132033 
0.0648963 0.0583995 0.00762531 -0.0532409 -0.0548359 
0.0810674 0.0449025 0.0362609 -0.0813268 0.0879675 
0.0651652 -0.0258181 -0.0636514 0.0591616 -0.0611968 
5 5 0.0349145
0.0702295 0.0525575 -0.0386922 -0.0105928 -0.0113534 
0.0113031 -0.0336176 0.0736624 0.00485943 0.034491 
0.031021 0.0265075 0.0625372 0.053738 -0.0248636 
0.0415943 -0.0915137 -0.0616151 -0.0285906 -0.0336944 
0.00927488 -0.0378712 0.063371 -0.0330664 0.0752495 
5 5 0.0713932
-0.0978491 -0.0550695 -0.0626592 0.059981 -0.0933234 
0.0810176 0.0404036 -0.0629362 -0.0458432 -0.0113893 
-0.0914709 -0.0625146 0.00725712 0.0581541 0.0352259 
0.0849028 -0.0169308 0.0745164 -0.0423692 -0.00800944 
0.0712639 0.0873647 -0.0293892 -0.0564759 0.00784514 
5 5 0.0145186
0.035945 -0.0057858 -0.091204 -0.0286992 -0.0561667 
-0.0908054 -0.0266852 -0.0271625 0.0820687 0.0802033 
0.0592321 0.0474318 0.0704427 0.0489569 0.0392591 
-0.0148803 0.0153141 -0.0324542 -0.0567596 -0.0630163 
0.0412085 0.0287525 -0.00683711 -0.0647456 0.0557927 
5 5 0.00165073
-0.063176 -0.0836335 0.00374949 0.0667937 -0.0120858 
-0.0686451 -0.0314027 -0.00406801 -0.0253204 -0.0832832 
-0.0282251 -0.0848975 0.00795315 -0.0805011 0.0344731 
-0.022489 0.0735576 -0.0552337 -0.0467763 0.0589941 
0.0532595 -0.0829464 -0.0569793 0.0476573 -0.0165433 
5 5 -0.0663101
0.0115486 -0.0489994 0.0561082 0.0734118 0.0123751 
-0.046654 -0.0345435 0.00184395 0.0431485 0.0589379 
-0.0834435 -0.04543 -0.0663509 0.0436415 0.0881403 
-0.0212031 0.0891592 -0.0487204 0.0681814 0.054488 
0.0417261 0.0668275 0.0590159 0.0994623 -0.0355953 
5 5 -0.00513552
-0.0339481 -0.0696839 -0.0914773 -0.0176351 -0.0290735 
-0.0328407 0.0153597 0.0925567 0.0981207 -0.0394097 
0.0631004 0.00428907 -0.0202854 -0.0791174 0.00205292 
0.0237494 -0.0744855 -0.067399 0.0359218 0.0670925 
-0.0953796 0.0352586 -0.0948185 0.0357968 -0.0554637 
5 5 0.064657
-0.0703173 -0.0813089 -0.0442838 -0.0560342 0.0598356 
0.0429908 0.0769786 -0.0238744 -0.0908256 0.0310732 
-0.022958 0.0793779 0.00520994 0.0529696 -0.021437 
0.0750728 0.0262405 -0.050612 0.0369134 -0.039633 
0.0780057 0.0239324 0.0823154 -0.078362 -0.034741 
5 5 0.0618265
-0.0872567 0.074071 -0.0875378 -0.0542344 -0.0387934 
-0.00882059 -0.0959712 -0.0437013 -0.0696135 0.0112954 
0.0720335 -0.0623423 0.0146126 0.00864587 -0.0806312 
-0.0951556 -0.0960949 0.00455591 0.00959606 -0.0181788 
0.0809237 0.0985832 0.0978384 0.0395159 0.0191916 
5 5 -0.0876043
-0.0537243 0.0753257 -0.0199987 -0.022279 -0.014279 
0.0483778 0.0304685 -0.0143673 0.0815116 0.0104907 
-0.0294878 -0.0402098 -0.0445803 0.0645098 -0.0121343 
-0.0509547 -0.0769574 -0.0229826 -0.0572768 -0.00623531 
-0.0984745 -0.0198732 0.0875328 -0.0102478 -0.0556952 
5 5 0.00367848
-0.06958 -0.0768741 0.059255 -0.0123347 0.0470742 
0.0601619 -0.0331275 -0.0465296 -0.0509829 -0.0289991 
-0.048407 -0.0510355 0.00895466 -0.0300996 0.0676718 
-0.0797811 -0.0404807 0.0511219 0.0544245 -0.0176964 
-0.0384675 -0.0928075 0.0108879 0.0135445 -0.0452055 
5 5 -0.0942291
-0.00397009 0.0830107 0.0939228 -0.0130913 0.00391444 
-0.0502355 -0.0235206 0.0445698 0.0719639 -0.0380258 
0.070512 0.0246226 -0.0198252 -0.0110831 0.0486196 
-0.0253243 0.0931788 -0.0868062 0.0306035 -0.0677133 
0.00719407 -0.0809357 0.0452564 -0.0344201 -0.0465072 
5 5 -0.0970421
-0.084208 -0.0581849 0.0164929 0.0560947 0.0756474 
-0.0930052 -0.0753904 0.0981109 -0.0794929 0.0536335 
0.0632963 0.0765423 0.000850684 -0.0351371 0.0769929 
-0.0163844 0.0671521 -0.091971 -0.0938836 0.0671621 
0.0674638 0.0656064 0.022174 -0.047819 -0.0928872 
5 5 0.0798917
-0.0854137 0.00684226 0.0749596 0.00741503 -0.0162961 
0.0840384 -0.0538679 0.0160607 -0.0982563 0.0692959 
0.0614177 -0.00678723 -0.00921082 -0.0334855 -0.00376809 
-0.0449818 0.0808499 -0.0475221 -0.0812563 -0.00587791 
-0.00111715 -0.0661803 0.0501874 -0.0723564 -0.0515836 
5 5 0.036342
-0.0712789 -0.0685927 -0.0664044 -0.0646196 0.0829255 
-0.0604732 0.0885909 -0.0587153 0.0285939 0.0887874 
0.0603538 0.0265349 -0.0206018 -0.00174691 -0.0915753 
-0.0264716 -0.00141991 -0.0517055 0.0782155 0.083199 
-0.0200313 -0.039107 0.0938569 -0.088716 -0.0266904 
5 5 0.0503638
-0.0585753 -0.052982 0.0608948 0.00411552 -0.0108598 
0.0821309 0.0837666 0.0621453 0.00149086 -0.0125624 
0.0347731 -0.0742738 -0.0921088 0.0351731 0.0165771 
-0.0706343 0.0779992 0.0964065 -0.0259146 0.0640643 
-0.0373921 0.0456926 -0.0944277 -0.0329408 0.0531431 
5 5 -0.0953361
-0.0367811 0.0481267 0.0224056 0.0451937 -0.0570672 
0.0428009 -0.00834097 0.0164633 -0.0256225 -0.0325243 
-0.0053424 -0.0267022 -0.0821164 -0.0431897 -0.016833 
0.0896413 0.0683447 -0.0276344 0.0331365 -0.041594 
0.0811986 0.0522952 -0.0854374 -0.0855547 -0.080104 
5 5 0.0952033
0.0690096 -0.0791993 -0.0672031 0.0509411 -0.0369062 
-0.064941 0.0687574 -0.0997853 0.0671696 0.00127255 
-0.0664009 -0.0877879 0.0160754 -0.0102632 0.0950914 
-0.0486924 0.0107354 0.0165277 -0.0543525 -0.080925 
0.0153194 0.0794045 -0.0784017 -0.0852789 0.00549916 
5 5 -0.0694054
-0.00435174 -0.0107769 0.0271063 -0.0428136 0.0375515 
0.0800717 -0.085705 -0.0127246 -0.0393525 0.00709091 
0.0354465 -0.0562275 0.0497609 -0.0936523 -0.0893799 
-0.0162954 -0.0155495 -0.0121974 0.0636086 -0.0282334 
-0.040049 -0.00319873 -0.0353127 0.0800223 0.0138841 
5 5 0.0658629
0.0166031 0.0494352 -0.0368906 0.0947187 0.047147 
-0.0504956 0.0621587 0.0748694 0.0532203 -0.0447731 
-0.0222227 -0.0899289 0.0650833 -0.009995 0.000118276 
0.0477101 0.0784204 -0.0499188 0.0897652 -0.0393197 
-0.0854493 -0.0491054 0.0642437 0.00824484 -0.0373535 
5 5 -0.0812919
-0.0647385 0.0500116 0.0639922 -0.0131068 0.09938 
0.0939188 0.0878101 -0.0490279 -0.00511269 -0.0371683 
0.0631473 -0.0618234 -0.0807219 0.0554417 0.0162356 
-0.0996357 0.0255886 -0.0118937 -0.0265109 0.0338684 
-0.00310031 -0.00559372 0.0850254 0.0345438 0.00746278 
5 5 0.0701916
-0.0749028 0.0208015 0.0761432 -0.077899 -0.0741432 
0.0591755 0.0205687 -0.0342876 -5.94593e-005 -0.0816603 
-0.0877741 -0.0539271 -0.0903689 -0.0114072 0.0469502 
0.0720018 0.0375192 -0.00483256 -0.0682345 0.0782585 
-0.0844508 0.0356155 0.0941644 0.0190381 -0.0321257 
5 5 -0.0307689
0.0236244 0.0715427 0.0251908 -0.0709671 0.0476346 
-0.067705 0.0671683 0.0652124 0.0515222 0.0805847 
-0.0554447 0.0556078 0.046392 -0.0971236 -0.0568091 
0.0106898 0.0920895 -0.0553208 -0.0552197 0.0255486 
-0.016934 0.0841836 0.0371018 -0.0282355 -0.00151109 
5 5 -0.09855
-0.0648257 0.0637487 -0.0693407 0.0169421 0.061092 
0.0298954 0.088021 -0.0861644 0.0543223 0.0261572 
0.091091 -0.0280865 -0.0502476 -0.0858377 -0.0446097 
0.0439679 -0.00661885 0.042352 0.0748182 -0.0716464 
-0.0529945 -0.0421783 0.0122035 0.0264327 0.0379515 
5 5 -0.0135607
0.0974905 -0.0324099 0.0103316 0.0751492 -0.0508706 
0.0822176 0.0379135 -0.0585853 -0.0895098 0.0992959 
-0.0548403 -0.0321195 -0.0743879 -0.0429242 -0.0954822 
-0.0295838 0.0456738 -0.0953164 0.0583785 -0.0495444 
0.0802724 -0.0246911 0.0251278 0.00284026 -0.00346939 
5 5 0.0115003
-0.0564057 0.00714703 -0.0267832 -0.0687568 0.0125524 
0.0286608 -0.0836932 -0.00437141 -0.014076 0.0683048 
-0.0559469 -0.0057165 -0.0288383 0.0836126 0.0431542 
0.0928455 -0.00427708 -0.0823982 0.00605226 0.0477923 
0.0928388 0.0666775 0.0541478 -0.0407753 -0.0351597 
5 5 -0.0851111
0.0551723 0.0479592 -0.0219699 -0.0186731 -0.0625398 
0.0354396 -0.0510246 -0.0350366 0.0100372 0.00787201 
0.0762856 0.000384538 -0.00513534 -0.0526269 0.0734376 
0.0704978 0.0749863 0.00920453 0.0598575 -0.0401929 
-0.0320723 -0.0714051 0.0673201 -0.0384066 -0.0715505 
5 5 0.0320635
-0.0840266 0.0730311 0.0873834 0.0672776 -0.0812087 
-0.0890801 0.0353839 0.0379088 -0.0327211 0.0742131 
0.0508286 -0.0196749 0.058203 -0.00786446 0.0875728 
0.0100143 0.0156032 -0.0172206 -0.0786344 -0.0908507 
0.0642755 -0.0432028 -0.0354575 -0.0921853 0.0121418 
5 5 0.0924421
-0.0449906 0.0436267 0.0967996 -0.0604628 0.0233392 
-0.01965 0.0519481 0.00556414 -0.0500206 0.0689161 
0.0528474 -0.0141636 -0.0891137 -0.0700715 0.0926354 
0.0374417 -0.0755091 -0.0608336 0.049752 0.00741336 
-0.0968189 0.0987297 0.000207122 -0.0795965 -0.0841805 
5 5 0.0744258
0.0317332 -0.0401996 -0.0322627 0.0776475 -0.0823954 
0.0757181 -0.0936185 -0.0176964 -0.097847 0.0474164 
-0.0468191 -0.0573905 -0.0401436 -0.0647462 0.0757736 
-0.0909348 -0.0202787 -0.0486314 -0.0993078 -0.0865573 
0.0331299 0.0807953 -0.025076 -0.0918728 -0.018435 
5 5 0.0797827
0.0832551 0.0396981 -0.020735 0.0119248 0.027292 
-0.0600142 -0.0704995 0.0672393 -0.0301669 -0.0883593 
0.0460167 -0.0625939 -0.0443165 -0.00501435 -0.0172015 
0.0376558 -0.0885151 -0.00654413 0.080716 -0.00938034 
-0.0684588 0.0397744 -0.0055071 -0.0257098 -0.0433509 
5 5 -0.0207017
0.0498704 0.0717148 0.0514563 -0.00914918 -0.00638616 
0.0523645 -0.0118175 0.00673662 0.0845808 -0.085394 
-0.0612602 -0.0874758 -0.00726986 0.0235055 -0.0122327 
0.00926331 0.0494858 -0.0236867 0.067217 0.0381085 
-0.0806779 0.0187274 0.0228623 0.00878384 0.0363969 
5 5 -0.0332484
0.01633 0.0214498 0.0749306 -0.0211194 -0.0373367 
-0.0498896 -0.0117153 -0.0634447 0.0371714 -0.000512977 
-0.0898927 -0.0974405 -0.0894129 -0.018651 0.0313598 
-0.0572308 -0.0344209 -0.094546 -0.0593704 -0.0678415 
-0.0276121 -0.0206522 -0.0363126 -0.0534225 0.0395348 
5 5 -0.0282938
-0.0264222 0.0555598 -0.0563786 0.0712969 0.0306084 
0.0716248 0.0531149 -0.0878484 0.0721309 0.0384554 
-0.0719041 0.0100542 0.063825 0.0466849 0.0358894 
0.0439447 0.0252998 -0.0313642 0.0636929 -0.0586891 
-0.0934738 0.0575961 0.0436558 -0.0719113 -0.0365712 
5 5 0.0435232
-0.00456695 0.0252818 -0.00572081 0.0482504 0.0926258 
-0.0262465 0.0883692 -0.0312156 0.060389 0.0691476 
0.0471044 0.0344014 0.00745679 0.0883711 -0.0693832 
-0.00653068 0.00219039 -0.0128262 0.0886532 0.0457236 
-0.00277406 -0.0482955 -0.069217 -0.0420931 0.00854379 
5 5 0.0887381
-0.00878843 0.0913857 -0.0432941 -0.0877706 -0.0525974 
-0.0248317 0.0746466 -0.0264119 -0.0551407 -0.047353 
0.0908665 -0.0900143 0.0880841 -0.0644274 0.0917587 
0.0967459 0.05167 -0.00284061 0.068309 0.0251044 
0.0672849 0.0331923 0.0596887 -0.0996823 0.0464333 
5 5 0.0224922
0.0926716 0.0494687 0.0885734 -0.076964 0.0262674 
0.00981494 -0.0600126 -0.0768961 -0.0915781 0.0846286 
0.0500438 0.0967825 -0.0501505 0.0458364 -0.0109838 
-0.0226683 -0.0774778 -0.034776 0.0781826 0.089122 
0.0871951 0.0560709 -0.00866269 -0.030719 0.0577762 
5 5 -0.0941485
-0.0161047 -0.0946179 -0.0918463 -0.0231691 -0.0956831 
-0.0731158 -0.0723904 -0.0283664 0.0449814 0.0753497 
-0.0676063 -0.0820672 -0.00986224 0.0893486 -0.0631843 
-0.0179239 -0.0869616 -0.0669437 0.0936003 0.0728217 
0.0850179 0.0988236 -0.0924787 0.0269905 0.0452935 
5 5 -0.0711121
0.0278611 0.0530629 -0.00580239 0.0157474 0.0296828 
0.0178349 0.0614054 -0.0863969 0.0858195 0.0508433 
0.0107111 -0.0385454 -0.0617832 0.0589144 0.0274065 
-0.0169753 0.0727841 0.0205152 -0.0398024 -0.0155857 
-0.0886921 0.0462733 0.0589455 -0.0343843 -0.0891382 
5 5 0.0908096
-0.0282193 -0.0500305 -0.00196743 0.0896584 0.0574076 
0.0727629 0.0258596 0.00265181 -0.0301573 0.0587197 
0.0690377 -0.0409697 -0.0355299 -0.0819418 0.0632533 
-0.0371724 0.095267 -0.0112762 -0.00781947 -0.0410151 
-0.0553781 -0.030361 -0.0733985 -0.0656347 0.0508427 
5 5 0.0556537
-0.0682292 0.0269682 0.0920673 0.0328568 -0.0634827 
-0.0549229 -0.0303752 0.0192431 -0.0227325 0.0530327 
0.0641614 -0.049209 -0.0757342 0.0236981 0.008419 
0.0764669 0.0916268 0.0299796 0.0365692 -0.0656676 
0.0418523 -0.0419338 0.0692555 -0.0755597 -0.0118959 
5 5 0.0306416
-0.0142446 -0.0842011 -0.0988442 0.0810857 0.0432309 
0.0152778 -0.0696692 -0.0218713 0.096851 -0.0709165 
0.0377736 0.082907 -0.0197904 0.0517054 0.0598691 
-0.0761465 0.0957003 -0.0879996 0.097606 0.0424163 
-0.0176739 -0.0973342 0.0446151 0.0388329 -0.0960238 
5 5 -0.0688284
-0.0462057 0.0902 0.0251174 -0.0573792 0.0565755 
-0.0829736 0.0233673 0.0586901 -0.0614694 0.0923114 
-0.0996721 0.0204059 0.0705153 0.0618925 0.0414343 
0.00572202 0.0133595 -0.0384564 0.0869008 0.0504643 
0.0922152 0.0152642 0.0645185 0.0717451 0.0535902 
5 5 -0.00982132
-0.0546108 0.0285786 -0.0922283 -0.0985075 0.074224 
0.0511457 0.0624867 0.0177762 0.0359843 0.0726818 
-0.040974 7.97032e-005 0.00892975 -0.00953294 -0.0909947 
0.00173025 -0.0349671 0.0908573 -0.0541974 -0.0550475 
-0.0280343 -0.0313261 -0.008135 0.0420178 -0.0467288 
5 5 0.0676999
-0.0492315 -0.0539436 -0.0368076 -0.0993062 0.0277029 
0.00941388 -0.0689771 0.000121333 0.0894562 0.0365192 
-0.0649561 -0.0348175 -0.03652 0.00586951 -0.043281 
0.000498526 0.0878138 -0.0531363 -0.0237299 0.0603123 
0.0158708 0.0513163 -0.0370474 -0.0982651 -0.0182493 
5 5 0.00356202
0.0172667 0.0808796 0.0335234 -0.00766893 0.0242401 
0.0284242 -0.0572782 0.0402758 0.0647871 0.0247441 
-0.0123383 0.0395514 -0.0455941 0.0197034 0.0304725 
-0.029298 -0.0447064 -0.0816563 -0.0182612 -0.0751432 
0.0224068 0.0670554 0.0660118 -0.0653425 0.0393605 
5 5 -0.0230401
-0.00798958 0.0878767 -0.000851961 -0.0170136 0.0340606 
-0.0902769 -0.0116879 -0.0375348 -0.0689844 0.0874969 
-0.0728158 0.0922239 0.00885439 -0.0691573 -0.0735528 
0.0289468 0.034496 0.0344745 0.01369 -0.0521604 
0.00435612 -0.0618771 0.0869757 -0.0907345 -0.0238646 
5 5 0.0560699
0.0516276 0.0721597 -0.0495768 0.0498642 -0.00379644 
-0.00915642 -0.0952237 -0.0319161 -0.0363395 -0.0755316 
-0.00744951 0.0581064 -0.0231068 -0.0106153 0.00760707 
0.00858973 0.0699199 0.0899375 -0.0795733 -0.0443365 
-0.0153956 0.052662 -0.000671993 -0.0482 0.087153 
5 5 0.098252
-0.0853418 0.0781909 -0.037468 0.0917891 -0.0646021 
0.075987 0.0426603 0.0699539 0.0263199 0.0819848 
-0.0773399 -0.0682656 -0.050732 -0.0497226 -0.0769345 
-0.0325422 -0.024435 -0.0616004 -0.0452866 0.0922757 
-0.0833378 0.0420539 0.0414471 -0.0969168 0.0779093 
5 5 -0.0434434
-0.0429486 -0.00829708 0.0432917 -0.0464524 -0.0668112 
0.0469997 0.0952222 0.0356389 0.0939594 -0.0247615 
-0.021413 0.081279 -0.0253149 -0.0292218 0.0115277 
-0.071245 -0.0220586 -0.0307831 0.0534767 -0.0982798 
-0.0716916 0.0128584 -0.0668027 -0.0512088 -0.02384 
