64
7 7 0.734199
-0.0164452 -0.107737 -0.000930112 -0.052343 0.151585 -0.10978 -0.0973827 
-0.112577 0.124583 -0.162194 0.135264 -0.0716931 0.050738 -0.103661 
-0.1453 -0.0348918 -0.087834 -0.010689 -0.160765 0.0437709 0.00434424 
0.0213917 0.105812 0.136679 -0.114401 -0.161111 -0.115071 -0.0966735 
-0.0781093 0.132543 -0.00373689 0.0453589 0.0299086 0.103676 0.00120853 
-0.130211 0.0657216 -0.113816 -0.132651 0.0979203 0.0276047 0.0220687 
-0.147141 0.0346121 -0.0455728 0.0887064 -0.110898 0.1202 0.0327157 
7 7 -0.721504
-0.070806 -0.144714 0.0490831 -0.119788 0.0608786 0.0095776 0.0535201 
-0.0602814 0.0233785 0.162371 0.0767313 -0.171732 0.0877477 0.0865477 
0.128776 -0.0496852 0.166042 -0.15681 -0.163127 0.159027 0.116079 
-0.146302 0.147438 -0.00147092 -0.177357 0.0599522 -0.0688442 -0.0717858 
0.0327519 -0.169093 0.0985454 0.0339389 0.02617 -0.0888048 -0.0544797 
0.0713786 -0.00222797 -0.0301999 -0.0571427 -0.0167917 -0.141843 0.0729139 
-0.0556721 -0.0401609 0.107306 -0.109915 0.00885639 -0.0774231 0.0531513 
7 7 -0.424848
0.16074 0.188114 -0.0048325 0.194301 -0.132566 -0.0442029 -0.0970624 
-0.102218 0.0208124 0.119092 -0.0440752 -0.157155 -0.0923812 0.173282 
-0.0234567 0.108125 -0.185074 -0.0882695 -0.0150626 -0.0367723 -0.121814 
0.157165 0.0332901 -0.122415 -0.147572 -0.0809344 -0.0862605 0.0155637 
-0.097448 0.162538 0.161358 0.168283 -0.137312 0.132606 -0.0876689 
-0.155195 0.164816 0.0450135 -0.193313 0.190134 -0.18717 0.0650633 
0.0681358 0.174659 0.155799 0.116227 -0.190362 -0.0921883 0.188828 
7 7 -0.655315
0.152207 0.119242 0.0144735 0.133136 -0.00938727 -0.134291 0.1716 
-0.088297 0.145824 0.140613 -0.172925 -0.0851745 0.0847745 -0.132409 
0.0337971 0.0261975 0.0554852 -0.0238663 -0.114151 -0.0870857 -0.171778 
0.111418 0.0551019 0.0282955 0.0872982 0.118994 0.143173 0.0310978 
-0.100816 -0.0169557 -0.00634799 0.163822 -0.0913791 -0.026981 -0.162182 
-0.0327781 0.17514 -0.0270112 0.0842098 -0.183809 -0.0103967 0.0859891 
-0.0447637 -0.0847884 0.135644 -0.131864 0.12128 -0.0682394 -0.154773 
7 7 0.31685
-0.013293 -0.0824815 0.186636 -0.0282164 -0.179297 -0.0501911 -0.223062 
0.0804099 0.246881 0.0599925 0.0188793 0.248826 0.0461711 0.002856 
-0.167095 0.0865336 0.243298 -0.080377 0.17246 0.173732 -0.204946 
0.0759797 -0.186557 -0.0967545 -0.17916 -0.00136648 0.0554109 -0.193509 
0.00120355 0.0811418 -0.0806112 0.150996 0.0413278 -0.00830824 0.0456156 
0.144625 -0.145277 -0.0607266 -0.120268 0.153238 -0.146672 0.182966 
-0.186068 0.0702355 -0.0679757 -0.249926 -0.0411207 -0.0489676 0.149965 
7 7 -0.513869
0.0171802 -0.0930553 0.0861005 0.013151 -0.201146 -0.125685 0.0460654 
-0.0472652 0.192654 -0.072155 -0.180722 -0.0544446 -0.102484 0.0501844 
0.113417 -0.125937 -0.211567 0.0976618 -0.0209895 -0.20403 -0.158935 
-0.128693 -0.191223 -0.151002 0.147951 -0.131987 0.10631 0.159461 
0.188832 -0.183045 -0.0124416 0.0169895 -0.120426 0.0640974 -0.154786 
-0.0785854 0.0132619 0.0606666 -0.00337755 -0.143368 0.0472617 -0.170285 
0.188583 0.0226216 0.157372 -0.0765827 0.0967515 0.121558 0.025475 
7 7 -0.603125
-0.0559156 -0.174715 0.0384445 -0.0848203 -0.0358739 -0.1798 -0.129333 
-0.0242771 0.0517087 0.161206 0.157477 0.057364 -0.0428249 -0.0551003 
0.058272 0.175897 0.132246 0.153231 -0.150302 -0.0703459 0.14864 
0.121401 0.154736 0.091091 -0.0445014 0.0088548 -0.0693379 0.0317281 
0.00278272 -0.094743 -0.06033 -0.147235 -0.0802454 0.0458776 0.0899866 
-0.181309 0.0305068 -0.211036 -0.100204 -0.131258 0.0669813 0.186796 
-0.0430717 0.0358714 -0.0763702 0.06604 -0.131944 0.20011 -0.186691 
7 7 -0.257873
0.0252565 0.0193272 -0.143536 -0.234855 0.07058 0.00915714 0.0637019 
0.219184 0.239184 0.0865821 0.032288 -0.00455439 -0.166276 0.0190706 
0.0678618 0.219672 0.130246 -0.204158 -0.120075 -0.193869 0.175808 
-0.0665186 0.0384825 -0.0465659 0.231081 0.219142 -0.0348878 -0.170809 
-0.227574 0.182528 -0.150111 -0.0522329 0.0176114 -0.235913 -0.048956 
-0.0535429 0.0657237 0.20365 0.14008 0.117541 -0.0865574 -0.0526267 
0.146198 -0.204875 -0.0638745 -0.0436918 0.00842778 0.100612 -0.175673 
7 7 -0.441498
0.0049016 -0.102231 -0.0134285 0.115459 0.167771 0.115119 -0.145003 
-0.0887707 -0.09094 -0.0815318 0.122355 0.0510795 -0.0894429 0.0339609 
-0.174033 -0.184516 0.125819 -0.125619 -0.193029 -0.0864272 0.146891 
-0.173084 0.191937 -0.190619 -0.0122727 -0.0690599 -0.206832 0.104089 
-0.184999 0.122151 -0.0567177 -0.0649727 0.174573 -0.112506 -0.146757 
-0.0427849 -0.172696 0.176124 0.0618521 0.0822516 0.172314 -0.0170169 
0.194552 -0.0946007 -0.00528624 -0.204122 -0.0507012 0.0374673 -0.168074 
7 7 0.381478
0.208524 -0.184316 0.137256 0.0238954 0.125117 0.0245969 -0.0910261 
0.0415494 0.216177 0.107179 -0.0630323 -0.0488768 -0.139655 -0.066461 
-0.0622778 0.0219693 0.121277 -0.135444 0.0541761 0.258142 -0.0709132 
0.155204 0.102262 0.0967773 0.0486113 0.247683 0.146756 -0.22538 
0.106332 0.236988 -0.0144779 0.021793 0.112044 0.188012 -0.0925569 
0.149003 0.0406812 -0.148778 -0.0445499 0.0818165 -0.0698264 -0.0932143 
-0.103423 0.235941 0.0180459 0.243103 -0.166714 -0.0612115 0.0260288 
7 7 -0.637667
0.0502401 -0.0509797 -0.0783244 0.0766381 -0.0413597 0.103772 -0.0662712 
0.108982 0.199189 -0.0911784 -0.0215391 -0.191048 -0.0594211 0.0182212 
0.102821 0.201371 -0.0790618 0.154433 0.0346578 0.180839 -0.106639 
-0.0656448 -0.0234066 0.110309 0.0765263 -0.116935 -0.0747921 -0.0767731 
-0.175929 0.141971 0.0949674 -0.0640326 -0.0444661 0.0924334 0.0612517 
-0.164046 -0.10056 -0.0525853 0.0372647 0.140797 0.179154 0.00702104 
-0.106787 -0.1047 0.0864259 -0.141848 0.176948 -0.159279 -0.0765678 
7 7 -0.600093
-0.168076 -0.0923227 0.0756326 -0.132209 0.114486 -0.1081 -0.0764009 
-0.12077 0.0926632 -0.146725 -0.115222 0.112823 -0.184723 0.0704411 
0.172886 -0.161881 0.1024 -0.0996796 0.140591 0.145289 -0.0475539 
-0.0348392 -0.0586656 0.181266 0.136823 0.0440867 0.155596 0.0134889 
0.126213 0.0785669 0.153374 -0.0741767 -0.0380114 -0.154828 -0.121515 
-0.0375587 0.139469 0.136185 0.109473 -0.115154 -0.106984 0.0358444 
-0.145248 0.135145 0.097579 -0.0393083 -0.0418385 0.0334262 -0.123627 
7 7 0.658668
-0.0787889 0.0247083 -0.0478859 0.0543148 0.100178 -0.158901 -0.117978 
0.0551781 0.0877834 0.11252 0.0605505 -0.0275175 0.0188211 -0.170821 
-0.118544 0.185295 -0.0607029 -0.144598 0.0358145 0.172406 0.0791817 
0.131161 -0.126396 0.032153 0.0935814 -0.0406439 -0.192159 -0.00111435 
0.0208173 0.159838 0.0035611 -0.140277 0.1731 -0.0833658 0.166528 
0.122662 0.0878987 0.0605227 -0.0445598 -0.0787369 -0.118556 0.0411163 
-0.100109 0.167558 0.0454065 0.103484 -0.125807 0.153067 -0.0700567 
7 7 -0.606929
0.0640258 0.0912737 0.000863487 0.197229 -0.099619 -0.0976628 -0.0329519 
0.0540135 0.0144227 -0.142876 -0.119336 0.104723 0.0317934 -0.22556 
0.0468271 0.182457 0.229502 -0.155601 0.0563827 0.0272448 0.0373963 
-0.133502 0.234949 0.0614947 -0.155662 0.13437 -0.0819517 0.106897 
-0.112647 -0.0181395 0.0874158 -0.0524707 -0.0775669 -0.0285115 0.0215832 
0.0679052 -0.0714941 0.049876 0.227081 -0.0132127 0.0494215 0.0596631 
-0.142141 -0.140013 -0.0695242 0.127198 0.0278338 0.165752 -0.120304 
7 7 -0.76697
0.0963909 -0.11636 -0.105889 -0.0213664 -0.157128 -0.10698 0.0250614 
0.0837933 0.118809 0.0756033 -0.0149442 0.086931 -0.0568019 0.144315 
0.0449154 -0.00906564 -0.13314 -0.0239535 -0.0590679 0.115111 0.0113213 
0.0630722 -0.0798655 -0.164394 -0.149736 0.0636123 0.151256 -0.0780373 
-0.0248369 -0.00249362 0.145985 0.0888554 -0.00965938 -0.16585 0.0854648 
0.0440263 0.0590793 -0.0317621 -0.0536052 0.015449 -0.0536632 0.108384 
-0.159687 -0.00708072 0.0416815 -0.117639 -0.0982146 -0.102101 -0.0402036 
7 7 -0.766004
-0.035767 0.146084 0.060039 0.111645 -0.0841756 0.0347033 -0.0460052 
0.125263 0.0741224 0.129392 -0.0556163 0.141684 -0.105427 0.0830257 
0.0995477 0.14447 -0.143956 0.141753 0.0809339 -0.0729671 0.143589 
0.141175 0.0754079 -0.0573754 -0.0632499 0.0783041 -0.0406701 -0.150019 
-0.0449163 0.148584 -0.00918193 -0.0475781 0.0640607 -0.0499349 -0.0345591 
-0.0789983 0.0734585 0.05349 -0.00339332 0.060477 -0.138216 0.039946 
0.0312471 -0.125889 -0.0367039 -0.0339269 0.0939703 -0.105254 0.0735945 
7 7 -0.736478
-0.0308102 -0.0382509 0.0338322 0.0693274 0.136195 0.0622651 0.0823853 
-0.0791457 0.0508224 -0.0786424 0.145343 -0.0857724 -0.0599744 0.0621826 
0.0992222 0.141207 -0.143425 0.134555 0.111499 0.00184287 0.107258 
-0.0529104 0.00994889 0.133469 -0.0984556 0.00727802 0.139705 -0.143635 
-0.0210823 0.163029 -0.156604 -0.102537 -0.0971869 -0.0800888 -0.158804 
0.0461194 0.0580727 0.11876 -0.131325 -0.0961679 -0.146383 -0.0228301 
0.0422264 -0.0322225 0.11041 0.037893 -0.0944023 -0.0956686 -0.0184503 
7 7 0.532443
-0.132224 -0.0205543 0.0556237 -0.0744077 0.167857 0.0867574 -0.0475649 
0.0965392 0.102183 -0.0772683 0.0141734 -0.115781 0.191456 -0.152217 
-0.11334 -0.113215 0.0989579 0.0474834 0.09986 0.197468 -0.112784 
-0.0258114 0.0415297 0.172313 0.0677844 0.192375 0.148642 0.196357 
0.0945864 -0.0957869 0.127287 -0.00882269 0.192134 0.139794 -0.170347 
-0.0455476 -0.137033 0.0342908 0.115543 0.181104 -0.0278414 0.0215471 
0.137765 0.0804549 0.179912 -0.167548 0.106169 -0.110719 0.142791 
7 7 -0.0416854
0.0881602 -0.0195011 0.219432 -0.168964 0.0456752 0.140262 0.20622 
-0.0199162 -0.198433 0.172454 -0.136442 0.00727133 0.0985432 -0.0364396 
-0.118549 -0.187345 -0.177705 0.0463405 -0.129334 0.0208639 0.0126892 
-0.169431 -0.16942 -0.0761404 -0.213512 0.119051 -0.0469876 0.174377 
0.0806681 -0.193726 -0.171362 -0.152482 -0.194151 -0.228875 0.0645932 
-0.141677 0.170124 0.205456 -0.216145 -0.0380482 -0.178308 0.105017 
0.104256 -0.16426 -0.156684 0.152546 0.0449817 0.0740772 0.166787 
7 7 -0.275811
-0.0248331 -0.123796 -0.191993 -0.170176 0.16533 -0.0992014 0.103334 
0.218851 0.224999 0.188619 -0.125337 -0.00200911 -0.204609 0.0680256 
-0.0753604 0.0479985 -0.0259802 0.214674 0.0600405 -0.189031 -0.138277 
-0.0275786 0.00385666 -0.144003 0.00961255 0.116803 0.0538405 0.113385 
-0.089834 0.222116 -0.174728 -0.0959376 -0.16832 0.100321 -0.070494 
-0.0157721 -0.169549 0.202425 -0.0652465 -0.180185 -0.00827648 -0.211737 
0.222939 0.138896 0.0870968 0.170857 0.105703 -0.00381945 0.157303 
7 7 -0.426533
-0.0197582 0.0658883 -0.0872952 -0.180734 0.068397 -0.122831 0.185225 
-0.0127038 0.168835 0.185164 -0.111625 0.0183725 0.0757994 -0.106294 
0.156669 0.0924959 0.0654815 -0.00556165 -0.163885 0.189333 -0.0811753 
-0.091577 0.158477 0.078729 0.21228 -0.148894 0.119643 0.146817 
0.0207733 -0.107775 -0.00615869 0.0687182 -0.0742374 0.15595 0.153228 
-0.211336 0.179409 -0.190175 -0.013006 0.191588 -0.141343 0.170045 
0.220603 0.15341 -0.124784 -0.0260254 -0.0980434 -0.0742811 0.0647182 
7 7 -0.452895
0.101398 0.189075 0.172452 0.173305 -0.142047 0.108335 0.0725017 
0.00542264 0.100511 0.0354615 0.186678 0.0831706 -0.18691 0.196647 
0.082103 0.111205 -0.2006 0.181581 0.00712539 -0.118377 0.154768 
-0.0469043 -0.167113 0.232349 0.153567 -0.0125791 -0.0785843 -0.080665 
-0.112874 -0.0826708 -0.00482243 0.179066 -0.0281671 0.0216862 -0.123628 
0.0208922 0.116522 0.0960499 0.164281 0.0426051 0.0331419 -0.160517 
0.163046 0.187068 0.0566195 0.0583013 -0.0874239 -0.189703 0.123881 
7 7 -0.234427
0.0599497 0.0387204 0.193575 0.0332996 0.158186 -0.0592105 0.0538142 
0.249919 0.0200715 0.0883589 0.144004 0.208901 0.0897622 0.189346 
-0.0142556 0.0462988 0.0109981 -0.133763 0.229482 0.0406501 0.15972 
0.217977 -0.210834 0.0988369 -0.0795005 -0.100845 -0.187977 0.124317 
-0.0147612 0.00567862 0.00602762 -0.0849321 -0.121974 -0.192662 0.0347529 
0.107833 0.0766084 0.218011 0.188222 -0.247717 -0.140831 -0.00693036 
-0.241481 0.19426 -0.181399 0.125385 0.0705493 0.132214 0.110697 
7 7 -0.675199
-0.0583899 0.150502 -0.126281 0.116273 0.0375692 -0.0794283 -0.104229 
0.0160127 0.142493 0.129025 0.103984 -0.0637432 -0.033078 -0.0439033 
-0.0360836 -0.0957317 -0.171455 0.0517546 0.00133086 -0.0710096 0.130211 
-0.129356 0.0780393 -0.163778 -0.0842081 0.0140366 -0.112875 0.103696 
-0.033747 0.129222 0.0924722 0.1476 0.088708 0.0808206 -0.182233 
-0.0951802 -0.14143 -0.140775 -0.0745213 0.0448914 -0.105029 0.184028 
-0.107896 0.0893888 -0.0724827 -0.0431482 0.186757 0.0669062 0.0817888 
7 7 0.381825
0.0663824 -0.200818 -0.0684377 -0.133012 -0.12395 -0.181558 -0.19532 
0.0995087 0.0640308 0.199748 -0.215165 0.0639136 -0.034598 -0.16774 
0.184234 0.0543885 0.14645 -0.117349 -0.0228086 -0.0277224 -0.119262 
0.0942275 0.117182 0.105109 -0.0631247 0.0590895 0.0905827 -0.147268 
0.0774398 -0.113769 0.181229 0.0840393 0.112044 -0.0792463 0.187064 
0.115568 0.171087 -0.0576031 0.207121 0.135184 0.0300602 -0.150224 
-0.141145 -0.197055 0.00565291 0.21928 0.211662 0.112684 -0.0267932 
7 7 -0.514734
0.140707 -0.0471438 0.03433 -0.0682682 -0.153681 -0.10243 0.17918 
0.0999006 0.0899522 0.0280872 -0.13541 -0.150044 -0.087925 -0.201748 
0.168716 -0.136965 0.116161 0.0382649 0.0932049 -0.211469 0.119069 
0.0789217 0.0178372 0.19613 -0.0622536 0.153525 0.0341699 0.142469 
-0.172511 0.12173 -0.161564 0.150556 -0.117643 -0.117711 0.141674 
-0.0656536 -0.0865113 -0.102532 -0.130921 -0.00989035 -0.193907 -0.018323 
-0.151875 0.217059 0.0865665 0.0906889 -0.000560074 -0.0280112 0.0621371 
7 7 -0.0637585
0.0744479 0.0216133 -0.0318423 0.130455 0.00703732 0.0987171 0.105722 
-0.240317 -0.140742 -0.11758 0.0798912 0.179992 0.056147 -0.171704 
-0.0570601 -0.104646 -0.0622727 0.134253 -0.139429 0.19607 0.189558 
-0.147877 -0.112166 0.142476 -0.228485 -0.0177084 0.237867 -0.186789 
0.00677399 0.086342 -0.202273 -0.136948 0.0415259 0.0798251 -0.212871 
-0.222391 0.161666 0.0382041 0.235876 -0.0197148 0.17558 -0.136429 
-0.173516 0.116845 0.212758 -0.181645 0.043999 0.179463 0.0138794 
7 7 0.788954
-0.156222 0.117048 -0.15879 0.128449 -0.0315991 6.81643e-005 -0.0998546 
0.0309438 -0.0781801 -0.0937087 -0.0885728 -0.0721044 -0.0993009 0.0378657 
-0.101585 -0.0614281 0.10626 -0.160433 -0.0632204 0.00609594 0.0336705 
-0.121132 0.102364 0.109267 -0.0884189 0.0495628 0.0403518 0.0158448 
0.0825502 -0.0674835 -0.0136883 0.0356943 -0.126241 0.00139296 -0.139028 
-0.00815652 -0.0810027 0.0306963 0.156378 0.100534 0.0935533 0.0250514 
-0.0542747 -0.0333277 0.0963054 0.0358296 -0.0996602 0.108002 -0.072235 
7 7 0.388949
-0.170759 -0.0930976 0.0841488 -0.191388 -0.0251644 0.0888917 0.106877 
-0.0331618 0.0461924 -0.210527 0.0419865 0.20792 -0.0755938 0.0466644 
0.189664 0.0243485 0.185902 -0.00204622 -0.133132 -0.188505 0.0541096 
0.0760249 0.2057 -0.109913 0.188498 0.197684 -0.0653923 -0.199588 
-0.175454 0.119871 0.158229 0.0456772 0.126011 -0.0733573 0.193331 
-0.113356 0.129525 -0.0112476 0.0626641 -0.0841485 -0.156927 0.120702 
-0.0857958 -0.0875931 -0.179943 -0.16431 -0.155473 -0.0788477 0.157816 
7 7 -0.378349
-0.0858434 0.191999 -0.128967 -0.180751 -0.0682572 0.113039 0.011492 
0.0707559 0.185846 0.14677 -0.0371552 0.20086 -0.0664264 0.160967 
-0.0588725 0.198705 0.121597 0.116769 -0.204754 -0.112833 -0.17562 
-0.134678 0.201958 0.209107 0.162829 0.105451 0.0953813 0.083017 
0.0240471 0.0815039 0.0391976 -0.13628 -0.0929848 -0.0852147 0.095886 
-0.129033 0.0466952 -0.107349 -0.203891 -0.218292 -0.0911628 0.191987 
-0.00699973 0.00837897 0.0350072 -0.174623 -0.137749 -0.127743 -0.123128 
7 7 0.42573
-0.19028 -0.0935831 -0.0655834 -0.0458994 -0.13419 -0.011427 0.143602 
0.0937363 -0.202853 -0.190522 -0.172696 -0.202485 -0.133266 -0.20298 
0.0200901 -0.0958026 -0.143856 0.0017773 0.0647074 -0.0527962 0.119772 
-0.0931101 0.160173 -0.0432084 0.0483934 0.152398 0.0583718 -0.0168872 
-0.159708 0.19164 -0.197609 -0.129609 0.117818 -0.103724 0.163436 
0.162091 -0.0602903 0.195878 0.0157507 0.135934 0.0947848 -0.100062 
0.158939 -0.104797 -0.13552 0.0200654 -0.139942 0.202433 -0.0674358 
7 7 0.600561
0.0202524 -0.0840385 0.0232619 0.0242917 0.139044 -0.133489 -0.217959 
0.0931156 0.0899922 0.0532583 -0.0714924 0.161276 0.0107898 -0.0596222 
-0.204468 0.215144 -0.0723377 -0.166987 -0.0410204 0.183678 0.133029 
0.0189507 0.00233457 0.0614809 -0.118768 0.140476 -0.0194431 -0.077559 
0.116907 0.0587138 0.217793 0.210712 -0.0430166 0.0975152 -0.0407801 
0.0633279 0.115475 -0.0468752 0.102692 0.207801 -0.179336 0.119553 
-0.024445 -0.0956839 0.111115 -0.0288778 -0.0220973 0.0733411 -0.0496554 
7 7 0.79383
0.0483042 0.00246693 -0.0919512 -0.0260395 0.115466 0.0925302 -0.00424313 
0.0621908 -0.0518484 0.0374493 0.0701754 -0.044247 0.085455 -0.0223664 
0.0247743 0.120132 0.135289 -0.106931 -0.123154 -0.146628 0.0889196 
0.135807 -0.0590355 0.0579191 -0.0123079 -0.0319372 -0.0414228 0.0257112 
0.0470495 0.0734129 0.15724 -0.149558 0.110706 0.0828417 0.152322 
-0.142786 -0.0815162 0.0286321 -0.076133 -0.0406412 0.0121132 0.000909762 
-0.157188 -0.0283747 -0.0961959 0.0678388 0.0174194 0.00172951 -0.153227 
7 7 0.0669201
0.183991 -0.100123 -0.199101 -0.191413 -0.213229 0.036684 0.134548 
-0.131489 0.0905195 -0.196206 -0.162167 0.168238 -0.129653 -0.0983525 
-0.159861 -0.0203991 0.196392 -0.16808 -0.19439 -0.1148 -0.0859659 
0.18137 -0.133459 0.154107 -0.0661861 -0.181323 0.126503 0.0904969 
-0.212744 0.192834 -0.178586 0.178615 0.180969 -0.105006 -0.046909 
-0.103573 -0.195221 -0.0659679 -0.0631028 -0.0154671 0.13039 -0.143292 
-0.0666135 -0.134662 -0.0897462 -0.0837546 -0.168607 -0.125689 0.0964278 
7 7 -0.520744
0.0342096 -0.129429 0.0164244 0.19632 0.174346 -0.0656413 -0.204516 
0.084205 0.190165 0.0421981 0.127318 -0.207836 0.185472 -0.0850703 
-0.0172744 -0.143541 0.0153108 0.0477689 -0.0479722 -0.0921845 -0.076569 
0.104637 -0.0996369 -0.119469 0.050786 0.189668 0.0624308 -0.126102 
0.110043 -0.0579004 -0.0234227 -0.148493 0.183293 -0.144263 0.196971 
-0.0204582 -0.00834463 -0.0581294 -0.203201 -0.0135273 0.134531 0.102455 
0.118108 -0.180874 0.0470416 -0.0283225 0.00454609 -0.137099 -0.205431 
7 7 -0.176978
-0.191741 -0.121271 -0.0748127 -0.12366 -0.0445723 0.0273372 -0.197004 
0.0554987 0.126552 0.0585143 -0.0779011 -0.234306 0.234419 0.0314283 
-0.166823 -0.154556 0.131409 -0.181671 -0.0659426 -0.183904 -0.253013 
0.181496 0.0781631 0.188353 -0.204055 -0.232428 0.137918 0.168635 
0.148342 0.0452129 -0.000126844 -0.0537927 0.0296419 0.0872977 -0.00454519 
-0.153801 -0.154541 0.0146022 -0.245755 -0.18962 -0.0839789 0.0821256 
0.129583 -0.169261 0.136683 -0.153814 -0.0752954 0.0269507 -0.0773556 
7 7 -0.634857
-0.077471 0.0618582 -0.121991 -0.123242 0.020935 -0.208019 -0.169011 
-0.0797134 -0.0461484 0.120175 0.0393976 0.0431926 -0.0743033 -0.0144384 
-0.149978 -0.0202294 -0.12395 -0.0406127 -0.111526 0.0191862 -0.0575838 
0.0519243 -0.0962094 -0.185262 -0.15811 -0.0275048 -0.197846 0.152135 
-0.0601812 0.137598 -0.108066 -0.0993341 -0.0228159 0.0656709 0.0340605 
0.187428 0.0059393 -0.0441286 -0.14386 0.132114 0.140079 -0.0308915 
0.18466 0.0344487 0.152361 0.14593 -0.0237913 -0.178967 -0.0635076 
7 7 0.128627
0.138102 -0.204145 -0.193765 -0.00300118 0.0172129 -0.232749 -0.214231 
-0.0779831 0.016873 -0.0478097 0.204128 0.178031 -0.193329 0.0422939 
-0.0681882 0.10734 0.116692 0.0126456 -0.0493451 0.0409949 0.165744 
-0.193541 0.198628 0.0407906 -0.0322309 0.139005 -0.0657793 -0.217544 
-0.125444 -4.73253e-005 -0.142692 -0.206413 0.143546 0.0073404 -0.220817 
-0.0307441 -0.0833332 -0.105417 0.0131105 -0.17946 0.127727 0.0519725 
0.156271 0.164856 0.114369 0.21553 0.236713 -0.147237 0.210061 
7 7 -0.170907
-0.205983 -0.0199738 0.215417 -0.171268 0.151363 0.191149 -0.0560426 
0.0749161 0.219968 0.145237 -0.0364364 -0.0960857 -0.0385478 -0.155113 
0.16234 -0.0298088 0.209864 -0.0386892 0.186139 -0.171698 0.196565 
0.140992 0.159086 -0.0449677 0.0528056 -0.166569 -0.158825 0.0444042 
0.114596 -0.171924 -0.186901 -0.160336 -0.176953 -0.201764 -0.0563721 
-0.0325226 -0.149808 0.164279 0.0948327 0.0138928 0.120439 -0.120535 
-0.206051 -0.0207061 -0.183762 0.151249 -0.148658 -0.0938393 0.0166192 
7 7 0.475547
0.163372 -0.0489486 -0.160372 -0.106272 0.033911 0.0881377 0.170646 
-0.00988186 0.00469388 -0.0395985 -0.0310592 -0.0165945 0.12312 -0.106278 
-0.0969292 0.161566 -0.153722 -0.155389 0.218912 0.0831748 -0.184393 
0.184545 0.11542 0.079868 -0.0579253 0.0721633 0.113168 0.203979 
0.0851906 0.104855 -0.0608928 0.154652 0.0999382 -0.0427674 -0.0815384 
-0.200766 -0.0767953 -0.0516862 0.204 0.148784 -0.199574 0.0852457 
-0.147827 0.160266 -0.159261 -0.0868305 -0.215614 -0.0219575 -0.00189049 
7 7 0.696641
0.0443812 -0.0765271 0.0891353 -0.123301 0.0854849 0.0790695 0.0913848 
0.159774 -0.10217 0.169728 0.151931 -0.0806705 0.139955 0.0475532 
-0.0681875 -0.164352 -0.14568 0.046512 -0.081482 0.00572327 -0.104181 
-0.0127931 -0.065427 -0.0579498 0.0565198 0.104752 -0.106208 0.16405 
0.123427 0.142164 0.107413 0.0894291 0.170164 0.00286186 0.0308494 
0.114313 0.00598994 -0.0825405 0.0756957 0.179901 0.127112 -0.0778584 
-0.156465 0.0225701 -0.0111667 -0.116998 0.038491 0.0862785 0.00159857 
7 7 -0.697055
-0.132189 -0.151721 0.116475 0.13559 0.111364 0.0849648 0.0959116 
-0.0195398 -0.0400495 0.0768021 0.151948 -0.045254 0.0136648 -0.0264326 
-0.0958803 0.108272 -0.103928 -0.0353524 0.0924372 0.0133914 0.13803 
0.140064 -0.064877 -0.158922 -0.151501 -0.0776028 -0.0213515 0.116205 
0.0455702 -0.0437312 0.135267 -0.0419878 -0.0849192 0.156643 -0.121059 
-0.144778 -0.0255727 0.125343 -0.143284 0.126333 0.13742 -0.017444 
0.0693625 -0.0448595 -0.0279877 -0.131996 -0.152524 0.073561 0.0949844 
7 7 -0.142051
-0.167688 0.232479 -0.10364 0.0483048 0.116494 -0.216291 -0.103097 
-0.231861 0.218714 -0.068161 0.133804 -0.0193245 -0.100362 -0.11873 
0.112753 -0.0132498 0.207687 0.211991 -0.250376 -0.113973 -0.135005 
0.216166 0.0878288 0.0831688 -0.129192 0.123848 -0.102517 0.00881327 
-0.0375895 -0.142778 -0.102422 0.0222042 -0.194068 -0.0810434 0.126484 
-0.183873 0.0765015 -0.174927 -0.208874 0.0455941 -0.181323 0.0484827 
-0.0754826 -0.243979 0.148296 -0.12217 -0.0953293 0.0247724 -0.100096 
7 7 0.784766
0.0428796 0.114617 0.0239334 -0.112873 -0.114363 -0.0906934 0.0161918 
0.0396921 -0.0999832 0.155342 0.118684 -0.0893466 -0.0813703 -0.0515158 
-0.128761 0.0579182 0.0162015 -0.0492452 -0.156365 0.0672494 -0.0957018 
0.076677 -0.146242 0.108826 0.147564 0.00738624 -0.119645 0.0400724 
-0.0387311 -0.0282049 -0.118614 0.115288 0.014846 -0.0957772 0.0515437 
0.110433 -0.00408052 0.103842 0.0511789 -0.0658283 -0.108971 -0.0718247 
-0.075397 -0.0174085 0.108514 -0.0115138 -0.0515144 -0.0711356 0.123815 
7 7 0.0600997
-0.217025 -0.230262 -0.184724 -0.155599 -0.0140458 0.0263542 -0.0776177 
-0.209847 -0.109723 -0.010101 0.20192 -0.188735 -0.217748 0.0104323 
-0.169596 -0.0694292 0.049884 -0.140009 -0.000316348 -0.11064 -0.0580101 
-0.0329945 0.0450394 0.107289 0.14094 -0.095851 0.22137 0.0319832 
-0.185598 0.126686 -0.0722529 0.00807378 0.0775835 -0.169641 -0.221441 
0.16225 -0.0672438 0.030095 -0.0529767 -0.0986452 0.150983 0.0806232 
0.063927 0.249547 0.216708 -0.148237 -0.234426 0.245869 0.14843 
7 7 -0.564429
0.0780372 -0.0229537 0.0179811 0.18792 0.165865 -0.128938 -0.13476 
-0.147746 -0.172903 -0.0436087 0.0364216 0.173116 5.93693e-006 0.0730865 
0.130579 0.142454 0.10105 -0.0377289 -0.0451502 0.146586 -0.146424 
-0.0878976 -0.00744584 0.102408 0.12976 -0.140102 -0.124904 -0.0368407 
0.127223 -0.139338 -0.169083 -0.0113593 -0.118745 -0.148604 0.10268 
-0.142623 0.101491 -0.195586 -0.0353825 0.126718 -0.0666538 0.0501152 
0.0795618 -0.178865 -0.149535 0.168546 -0.111112 0.101051 0.0715158 
7 7 0.671956
-0.119924 0.168519 0.097587 0.0682557 0.0631199 -0.0872346 0.03953 
0.151308 -0.0473922 0.177185 -0.0111397 0.022208 0.0834152 0.0184998 
0.113561 -0.0992712 0.0806756 -0.037226 0.172555 -0.12467 -0.158011 
-0.0623303 0.0557425 -0.146228 -0.00331112 -0.00903861 -0.127374 0.0903535 
0.0916444 -0.0940368 0.186736 -0.176819 -0.083468 -0.0836818 0.0393774 
0.0672107 0.187448 -0.0639806 0.00673135 -0.00548547 0.138497 0.150256 
0.156512 -0.0451287 -0.0488711 0.0626556 0.155398 0.0752173 0.113961 
7 7 0.0287853
-0.0882419 -0.179905 -0.220957 -0.165245 -0.0347627 0.0478683 0.0979905 
0.198282 0.100405 0.216328 0.103546 -0.0261283 -0.055368 0.195089 
-0.170096 0.167315 -0.136516 0.220703 0.0173672 0.19701 0.185026 
-0.117716 0.196089 0.0297416 -0.0835719 -0.0721753 -0.186047 0.166442 
0.0536769 -0.0365338 -0.0333386 0.0237805 -0.23032 0.142176 0.0123181 
0.071531 0.153162 0.193973 -0.168489 -0.027875 -0.212278 -0.146221 
-0.233536 -0.091893 -0.0882009 -0.026032 -0.190657 0.174195 -0.128415 
7 7 0.723348
0.131489 0.128437 0.0895477 0.0245329 0.123536 0.0653833 -0.143077 
0.09272 -0.0342322 -0.170962 0.0935906 -0.0117156 0.172557 0.13993 
-0.0790741 0.116623 -0.0632606 -0.156761 0.07502 0.181126 -0.00855066 
-0.0675303 0.0248325 -0.0313416 0.0841291 0.0330263 0.150867 0.0610253 
-0.0197376 0.12394 0.00489145 -0.117075 0.114641 0.0438424 0.0552668 
0.0994851 0.0539683 -0.146067 0.0600911 -0.0554478 -0.13596 0.0744921 
0.0627681 0.0980345 0.0303991 -0.155883 -0.00712834 -0.133714 -0.0136389 
7 7 -0.613944
-0.0315532 0.0661057 -0.124995 -0.205181 0.122384 -0.151795 -0.0201101 
0.104278 0.156871 0.013741 -0.0920755 -0.0325939 0.202944 -0.171494 
0.0974891 0.0260291 0.170255 -0.0904805 -0.0555291 -0.206474 0.0774492 
-0.0110241 0.0307368 -0.0676801 -0.0256853 -0.0431003 -0.049408 -0.205544 
-0.116926 -0.0587421 0.00208355 0.166053 -0.161788 0.144009 0.149196 
0.000303572 0.00864563 0.0228582 -0.117124 -0.182949 0.0341972 -0.150957 
0.114219 0.107802 0.146022 0.0323316 -0.0867066 0.113335 -0.0285593 
7 7 0.230376
0.237288 0.236584 0.241233 0.230662 -0.0331728 -0.196926 0.154769 
-0.00886733 -0.0214936 0.221702 -0.147011 0.0485792 -0.0748781 0.0360439 
0.049498 0.0290653 0.149695 0.153423 0.0296995 -0.147701 -0.0494682 
0.0851458 -0.165367 0.0577645 0.147501 -0.20445 -0.0844586 0.211729 
0.0889666 -0.15624 0.176776 -0.181218 -0.118794 0.0937345 -0.00685562 
-0.125442 0.143922 0.198305 -0.161594 -0.225648 0.0630069 -0.108713 
-0.119583 0.00172707 -0.0883756 0.0123609 -0.13916 0.104796 -0.102183 
7 7 -0.254803
0.222125 -0.119371 0.126698 -0.0743016 -0.128675 -0.224866 -0.0936229 
-0.214264 0.188563 -0.179246 -0.0644133 -0.0553279 -0.0467492 -0.0521253 
0.209973 -0.117369 -0.0852059 -0.152251 -0.150764 0.0172822 0.0080745 
-0.107244 0.15412 0.126005 -0.0273833 -0.120264 -0.16127 0.148023 
-0.1841 -0.0365892 0.0230521 0.196468 0.220955 -0.0521001 0.0411328 
0.119085 -0.125886 0.0256813 -0.195406 0.00705044 -0.134 0.0205652 
-0.0795517 0.188418 0.230083 0.212591 0.105241 0.208129 0.115808 
7 7 -0.549999
0.0016686 0.00915553 0.0402461 -0.0728362 0.116655 -0.0195484 0.191717 
0.0125565 0.210241 -0.0846396 0.196141 0.0717284 0.0592818 -0.0560742 
0.161522 0.138018 -0.0303326 -0.0886333 -0.15936 -0.059285 0.11216 
0.061803 0.188092 -0.141228 0.149893 0.174628 -0.148969 -0.0677742 
-0.182022 -0.0511162 -0.140756 -0.0391739 -0.197786 -0.173381 0.0787537 
-0.0505398 -0.184612 0.0368566 -0.17807 0.0245399 -0.0662216 0.0172152 
-0.142492 0.0157196 0.0249928 0.19766 -0.140646 -0.0939705 -0.0856269 
7 7 -0.680581
0.0437837 0.0649494 -0.187541 0.141615 -0.171926 0.000521968 0.0826387 
-0.0213103 -0.143928 -0.123029 -0.00655223 -0.0130024 -0.114158 -0.117938 
0.0171832 -0.0418297 0.130287 0.0765045 -0.0704727 0.113438 -0.0506054 
-0.132787 -0.111878 -0.189962 0.110105 -0.122242 -0.0981859 -0.0876602 
0.0168814 -0.163368 0.0593175 -0.0826192 -0.168074 0.0961279 -0.0730478 
0.178947 0.039658 0.0368971 -0.153148 -0.0756721 0.102169 -0.154058 
-0.0645846 -0.0449561 0.0237238 0.0449993 -0.128718 -0.0883594 0.0899899 
7 7 0.178577
0.236803 0.235256 -0.0101841 0.0509809 0.210059 0.16992 0.0324417 
0.119095 0.00902398 -0.184444 0.161268 0.240424 -0.0670078 -0.000995218 
-0.0269178 0.195636 -0.184512 0.213272 0.176053 -0.226337 0.0137985 
-0.204373 0.0813874 0.128274 0.177855 0.0367021 -0.15907 -0.100379 
-0.0384427 -0.0575454 0.0918229 -0.127945 -0.0494405 -0.139168 -0.174883 
0.0930076 -0.121954 -0.225633 0.133919 -0.0710971 -0.226733 0.00198732 
0.21411 -0.0654615 0.0371204 -0.108675 -0.068062 -0.0680051 0.0762146 
7 7 -0.739927
-0.102246 0.0997352 0.136794 -0.135878 0.124335 0.0994344 -0.0769966 
0.0752694 -0.13829 -0.068214 -0.0852987 -0.119504 0.0377086 -0.140841 
0.106259 0.137775 -0.0375938 0.0902091 -0.0531777 -0.0620901 -0.00195158 
-0.0710758 -0.00999025 0.116817 -0.138211 -0.134749 0.148001 0.136553 
-0.101252 0.00340037 -0.0770918 0.0862684 -0.132432 0.0574801 0.0899905 
-0.0265715 -0.0231013 -0.129956 0.0157444 0.135891 -0.0318788 -0.0792731 
0.132427 0.0541627 -0.0843746 -0.0540545 0.0139197 0.133306 -0.0554206 
7 7 0.694724
0.103518 -0.115899 -0.0504081 0.0783778 -0.0509627 0.161458 -0.0274975 
-0.006412 0.0609912 0.0473306 0.115372 0.0913296 0.184498 -0.12725 
-0.0893722 0.0827981 0.104483 -0.152893 0.0658095 -0.101497 0.112221 
-0.0119429 0.0239859 -0.0791189 -0.0565184 -0.145974 0.0933955 0.00171988 
0.0103556 -0.141528 -0.121478 -0.0952244 0.0134819 0.178319 0.0748218 
0.160181 -0.14888 0.00180458 -0.00801916 0.0166073 -0.177681 -0.125394 
0.144281 -0.0325162 0.151008 -0.12179 0.0366877 0.0492485 -0.142718 
7 7 0.493018
0.119618 -0.172394 0.137718 0.15199 -0.142442 -0.117365 0.0396145 
-0.145576 -0.134777 0.18965 0.130105 0.12156 -0.0142094 0.1776 
-0.181934 0.120184 0.00789964 -0.0864584 -0.159064 0.157176 0.148085 
0.0976832 0.178815 -0.0998272 0.0785141 0.196211 0.190887 -0.0691238 
-0.149517 0.060664 -0.0404516 0.14682 0.0563715 -0.0378561 -0.00098214 
-0.186907 0.0745981 -0.149603 -0.112518 -0.0804779 -0.18618 -0.11557 
-0.0799767 -0.00137329 0.0697271 -0.0391047 -0.185646 -0.000377616 -0.0303914 
7 7 -0.756274
0.00854565 0.0151744 -0.063539 -0.135794 0.0716307 -0.0656627 -0.109853 
0.137915 -0.147209 -0.0792688 0.147198 0.0100596 0.0364188 0.0794316 
0.0500358 -0.120571 -0.0113336 -0.131117 -0.108529 0.120308 -0.082437 
0.149951 0.0474609 0.0573854 0.096558 -0.123269 0.0525085 0.0615547 
0.0807875 0.0808966 0.0806138 0.0330799 0.0347202 -0.0664215 0.0648019 
-0.151337 -0.153783 0.0120067 0.107748 0.0790458 0.106595 0.146642 
-0.0112906 0.00885862 -0.105265 -0.0296947 0.144058 -0.134298 -0.0449068 
7 7 -0.157713
-0.0285887 0.105145 0.231424 -0.123087 0.191947 0.186391 -0.227229 
0.0779312 -0.123422 -0.0893536 0.135312 0.218587 -0.0348069 -0.0662648 
-0.0695283 -0.179498 -0.180514 0.0792963 0.18462 0.227227 0.235124 
0.19778 -0.223888 0.0882905 -0.186601 -0.00386354 0.175384 0.076403 
-0.0882122 -0.163493 0.0762694 0.146114 0.115853 0.00515687 -0.0942021 
0.219718 -0.0679613 -0.0553627 0.02197 0.0717052 0.00912776 -0.0619543 
-0.175394 -0.0805273 -0.220912 0.104418 0.137236 -0.0192293 0.138873 
7 7 0.198128
0.162169 -0.045331 0.00997476 -0.195321 -0.127848 0.23591 -0.00203809 
0.107738 0.201312 -0.178997 -0.135388 -0.0614721 0.167033 -0.147729 
-0.0789512 0.0255743 -0.0822925 0.191829 -0.0994816 0.126142 0.208523 
0.0892522 0.0829076 -0.0204463 -0.114985 0.193948 0.184707 -0.147258 
0.118849 0.176533 -0.188921 0.195934 0.13197 -0.0578415 0.221991 
0.128072 0.176069 0.0947122 -0.0238132 -0.168 0.221886 -0.153738 
0.0912937 0.0643731 -0.127303 0.146759 0.0752785 0.119709 0.0826039 
7 7 -0.146264
-0.00249901 0.0450484 0.0520417 0.112485 -0.194526 0.100605 0.196646 
-0.0422082 0.170791 -0.14573 -0.227007 -0.100904 0.0200687 -0.10019 
0.218603 -0.130909 0.0188418 0.0515919 -0.0680655 0.177217 0.18494 
-0.188721 -0.230299 0.217673 0.00738162 0.219629 0.238008 -0.11879 
-0.0825163 0.00412312 -0.0702578 0.16414 0.0432254 0.0280773 0.194869 
-0.20476 -0.103686 0.155592 -0.0485658 -0.0240157 0.0373211 -0.0950427 
-0.104119 0.176121 0.159772 0.178134 -0.15097 -0.181988 -0.179877 
7 7 -0.473601
0.180127 0.165119 0.173622 0.0347787 -0.00373636 -0.0153597 -0.170312 
-0.0386526 -0.0637245 -0.082586 -0.145662 0.113573 0.0981865 -0.155851 
0.0809853 -0.0923145 -0.17651 -0.127802 0.170624 -0.203824 -0.0864121 
-0.0787656 -0.113594 -0.190814 -0.142885 -0.152332 0.123513 -0.0410862 
-0.0211495 0.160099 -0.124275 -0.0342782 0.148298 -0.00517812 0.140179 
-0.173346 -0.0919414 -0.034456 -0.0150138 -0.192134 -0.0841469 -0.15736 
-0.199164 -0.168017 0.0903574 -0.171105 0.0907085 -0.0090928 -0.107215 
7 7 0.687623
0.139882 0.1527 0.0600442 -0.11213 0.0678069 -0.163645 -0.124262 
0.0971464 0.00993349 -0.117328 -0.0442743 -0.0487922 0.152054 0.0950196 
-0.0729044 0.0248205 -0.135044 0.00920561 0.0256354 -0.0584582 -0.0355549 
0.143013 0.107285 -0.140056 -0.160618 -0.040991 -0.0025191 -0.0667114 
-0.0950422 0.137754 -0.00497487 -0.0625512 -0.0992678 -0.164436 -0.158206 
0.126174 0.0388936 0.0975648 0.0285917 0.118291 -0.141611 0.0987993 
0.110587 0.12997 -0.061051 -0.111478 -0.145613 -0.0563177 -0.115323 
256
5 5 0.0933317
-0.256957 -0.00800413 -0.163945 -0.158437 0.181637 
0.215473 -0.0718167 -0.167576 0.123838 -0.215429 
-0.188304 -0.107167 0.176502 0.180474 0.287814 
0.258649 -0.227893 -0.215592 -0.262714 -0.251027 
0.261328 0.153154 0.195306 0.186422 -0.208124 
5 5 0.683648
0.0777893 -0.109777 -0.131111 -0.0780592 0.151496 
-0.186678 0.159682 0.210161 -0.229869 -0.172207 
0.195478 -0.071422 0.0081774 0.0945006 -0.0885177 
0.132429 0.0499337 0.00326634 0.208922 0.201308 
-0.029611 0.224933 -0.0886201 -0.0185254 0.239272 
5 5 0.164283
-0.16204 0.254383 -0.205222 0.209857 -0.22727 
-0.27061 -0.199348 0.249894 0.0238904 -0.113211 
0.272301 0.208238 -0.132463 0.0446183 -0.0657058 
0.164749 0.248451 0.213116 0.276074 -0.0733044 
0.19199 -0.251511 0.221664 -0.1389 0.172168 
5 5 0.550649
-0.199596 -0.22473 -0.174611 -0.27232 0.214995 
0.214655 0.126051 -0.106941 0.16406 -0.0730752 
0.189721 0.0104466 0.085725 0.253365 0.143988 
-0.0758127 0.0474549 0.216764 -0.109819 0.284911 
0.133248 -0.0602691 -0.0905586 0.202174 -0.0534266 
5 5 -0.310983
-0.292838 0.173291 -0.254249 -0.0177968 0.286359 
-0.134744 0.113094 0.0927553 0.217174 0.21941 
0.230714 0.1833 -0.0708806 -0.281898 -0.0302174 
-0.158612 0.214255 0.162804 0.0271647 -0.165873 
-0.0106597 0.201505 0.260619 0.233216 -0.21121 
5 5 0.428473
-0.263893 -0.145407 0.0962918 -0.192607 0.118254 
-0.0280802 -0.130045 -0.0745421 -0.204377 -0.259825 
-0.23283 -0.155255 0.190389 0.0398295 0.157951 
0.161816 0.17686 -0.222862 -0.165578 0.0660205 
-0.20847 0.245777 -0.205364 -0.172453 -0.277409 
5 5 0.632616
-0.111294 -0.086532 -0.0981035 -0.26385 0.0461092 
0.119259 0.241914 0.0688529 -0.0854008 0.187837 
0.241426 0.121273 -0.196477 -0.2134 -0.0623912 
0.190034 0.0724622 -0.137218 0.0344981 -0.100637 
0.214984 -0.0383477 -0.155877 0.045948 0.268061 
5 5 0.569297
0.188949 -0.0458186 -0.225595 0.224149 0.133503 
-0.102872 0.0629071 0.165489 -0.0982496 -0.229848 
0.0656681 -0.15384 0.140807 0.177803 0.0619382 
-0.115193 -0.134691 0.216741 0.117708 -0.218307 
0.232751 0.184669 -0.243749 -0.0328992 0.206887 
5 5 0.792879
-0.0226936 -0.155218 -0.12912 -0.171327 -0.000963195 
-0.0725798 0.19533 -0.153242 -0.0533754 0.199185 
-0.0889745 0.183442 0.132206 -0.00760908 0.0100371 
-0.132057 0.125986 0.135205 0.0070201 -0.0902775 
0.0898855 -0.174629 0.17305 -0.06088 0.00759891 
5 5 -0.830942
0.0465214 -0.151826 0.00869684 -0.144493 -0.129134 
0.083851 -0.127339 -0.173635 0.0105786 -0.0132668 
-0.0399686 0.0883352 0.117183 -0.136147 -0.0839482 
-0.17773 0.0476268 0.0613001 -0.131429 0.0983834 
0.112981 -0.10209 -0.179485 -0.121083 0.0982964 
5 5 -0.63291
0.140503 -0.183752 0.000354634 0.155203 -0.0738683 
0.110578 0.165191 0.00563927 -0.0677959 0.225163 
0.0970336 0.271421 -0.220281 -0.246242 0.115594 
0.0709974 -0.15622 0.0155306 0.279421 0.274627 
-0.0959217 0.0276893 0.0285582 -0.00645531 0.148048 
5 5 -0.164362
-0.28908 -0.0121072 0.0456487 0.0344603 0.2535 
-0.18787 0.161156 0.233256 0.0854782 -0.00402793 
0.063078 -0.102672 0.000121095 -0.254779 0.160857 
0.133703 -0.380278 -0.278922 0.285023 0.383829 
0.236373 -0.0161639 -0.0134228 0.0150538 -0.260853 
5 5 0.725622
0.0256593 0.206091 -0.0391605 -0.0206157 0.127788 
0.0364589 0.0777708 0.174033 -0.20001 -0.262299 
0.0539591 0.0982133 0.0134924 -0.0662262 -0.264511 
-0.0640408 0.188362 -0.133365 -0.000102046 -0.188901 
0.00146519 0.0734941 0.244864 -0.0643472 -0.12624 
5 5 -0.652196
0.0429986 -0.251802 0.00956909 0.168928 -0.113854 
-0.226946 -0.101199 -0.239567 -0.0831462 0.0926362 
-0.235377 -0.0370213 0.0502807 0.0295978 0.208713 
0.0300412 0.09573 0.238148 -0.231049 0.11253 
0.125994 0.165917 -0.138865 -0.0805543 -0.165595 
5 5 0.367975
0.153511 -0.188107 -0.17195 -0.120636 0.151359 
-0.26366 -0.00333283 -0.237456 0.0907379 0.282326 
-0.127365 -0.317533 -0.0730435 0.262863 0.326105 
-0.152946 0.0366777 0.0999189 -0.0110576 0.11451 
-0.0748853 0.18654 -0.0944175 0.137096 0.332963 
5 5 0.774084
0.144411 0.0980715 -0.0961095 -0.0721895 0.0149626 
0.0322245 -0.126889 -0.114407 -0.189929 -0.145405 
0.156113 0.0767785 0.0358754 -0.202594 -0.203063 
-0.0456931 -0.00251768 -0.0326491 -0.183313 -0.17967 
0.0747182 -0.0417784 -0.167277 -0.164404 0.151625 
5 5 0.228714
0.0122567 -0.295202 0.0210518 -0.102372 0.384491 
-0.275159 0.118852 0.0717412 0.292775 0.196031 
-0.133861 -0.133568 0.12529 0.0966581 -0.041748 
0.0345196 0.363824 0.240578 0.102164 0.0542044 
0.177205 -0.167722 -0.254674 -0.078242 0.290929 
5 5 0.865754
0.0185635 -0.090015 -0.0558609 0.162797 0.0288682 
-0.103176 0.0368278 0.115515 0.0762231 0.0141325 
0.0418286 -0.125346 0.00600928 -0.064939 -0.0513632 
0.142331 0.12446 0.176606 0.0948428 0.0816642 
0.113456 0.0890428 -0.0157124 -0.155882 0.16706 
5 5 0.809592
0.111501 0.114392 0.117277 0.0721578 0.139849 
0.118349 -0.11495 0.183159 0.141923 0.0550065 
-0.0171622 -0.146457 -0.033317 0.148273 -0.128275 
0.116217 -0.0726658 0.0970082 -0.168708 -0.0235529 
-0.0275924 0.132011 -0.13845 0.123112 -0.159903 
5 5 -0.811982
0.0606183 0.0126133 -0.0781779 0.142917 0.0667257 
-0.11472 -0.151732 0.000872162 -0.164164 0.0363575 
-0.00492084 0.0202581 0.183268 0.170366 -0.106236 
0.164926 0.0368355 -0.0890112 -0.168114 -0.145603 
0.086992 0.133612 -0.0360113 -0.133716 0.191141 
5 5 0.872509
-0.105887 -0.0126673 0.100664 -0.147732 -0.17558 
0.0556573 0.0236475 -0.116243 0.128424 -0.0520937 
-0.0370731 0.0154244 0.00111711 -0.11964 0.108384 
0.129863 0.00656714 0.141609 0.107668 -0.0809064 
0.105217 0.0745635 -0.104106 -0.0730928 -0.112291 
5 5 -0.805844
0.166988 -0.113362 -0.124369 0.124605 -0.133033 
0.0187847 -0.0987226 -0.0348059 -0.115789 -0.173187 
0.19485 0.0112453 -0.0283199 0.0141586 0.179798 
0.0289776 0.0266887 -0.147303 0.0784213 0.168245 
0.192737 0.173143 -0.0988941 -0.0122881 -0.0170281 
5 5 -0.285857
0.285261 -0.0565571 0.143521 -0.147813 0.12668 
-0.204956 0.309121 0.149356 0.235923 -0.0355334 
0.158464 -0.171494 0.0132102 -0.254664 -0.096989 
-0.246007 -0.154469 -0.237857 -0.211548 0.305846 
0.115122 -0.174291 -0.215191 -0.207769 -0.130818 
5 5 -0.803367
0.0809893 0.0406984 -0.0767074 0.013103 -0.137871 
0.059433 0.146772 0.016867 0.0661747 0.135896 
0.201518 -0.00343348 0.0931747 -0.189772 -0.0120932 
-0.180458 0.153465 0.0727343 -0.0711978 0.105082 
0.137377 0.0318403 -0.203318 -0.133312 0.176462 
5 5 -0.361556
0.0772287 0.195365 0.203098 0.225465 0.190688 
-0.0344682 -0.140668 -0.120508 0.14195 -0.171417 
0.229344 -0.0824683 0.090252 0.247972 0.11674 
-0.2191 0.167811 0.246206 0.0814639 0.245405 
-0.269426 -0.277269 0.216343 -0.261445 -0.0271513 
5 5 -0.46525
0.23616 0.180625 -0.0856966 0.0981953 0.241275 
-0.199369 0.176379 0.141659 -0.275128 0.0575808 
0.155833 0.1632 -0.23565 0.226737 -0.256981 
-0.10035 -0.107427 0.240785 -0.0381895 0.154648 
0.133947 0.164723 -0.072854 -0.136338 0.228426 
5 5 -0.724128
-0.0656206 0.137404 -0.0694951 0.235888 -0.22539 
0.0540345 0.0503004 -0.0992853 -0.132832 0.185664 
0.0808431 -0.120798 0.0481785 -0.232247 0.0203233 
0.0293823 -0.026331 -0.0405408 0.132806 0.218443 
-0.239028 0.0395231 0.0518016 0.162838 -0.198757 
5 5 -0.195357
0.184532 -0.260532 -0.177276 0.275498 -0.122404 
0.0948813 -0.116803 -0.143609 0.30392 0.207277 
0.110322 -0.248541 -0.0340943 -0.0494594 0.0469845 
-0.103739 0.139122 -0.223899 0.196637 0.0152747 
-0.262767 -0.276278 -0.294503 0.214756 -0.286118 
5 5 -0.351277
0.307984 -0.0543475 0.172856 0.0097519 -0.00243053 
0.0822071 0.287259 0.247799 -0.0316751 -0.272481 
-0.0977565 -0.2829 0.0866152 0.12375 -0.0520857 
-0.213344 -0.153031 -0.150017 0.155702 0.145668 
-0.229707 0.29247 0.178629 0.31601 0.0281549 
5 5 0.842737
-0.172006 0.0490248 0.143124 0.0866867 0.179935 
0.101273 0.0127511 -0.177622 -0.0708709 -0.0143824 
-0.0389097 -0.0800906 0.0200245 -0.0962779 -0.0506803 
0.175861 -0.150116 -0.0230637 0.134429 -0.0608634 
0.134781 -0.0111099 -0.0869862 -0.156231 -0.0634831 
5 5 0.579089
0.161383 0.149594 0.185155 -0.257782 0.0047744 
0.0744675 -0.138021 -0.00148421 0.233472 -0.171266 
-0.0578475 -0.267016 0.238612 -0.00975689 0.042916 
-0.189033 -0.013161 0.16315 -0.246829 -0.244618 
0.223269 -0.171945 -0.0633693 0.0823863 0.00402186 
5 5 -0.889482
-0.0618934 -0.0110365 -0.0152956 0.00899468 0.129323 
0.107042 0.139783 -0.134891 0.0975824 0.0885539 
0.0643191 0.121366 -0.0254031 -0.125384 0.170511 
0.0783403 0.0664964 -0.168571 -0.0455494 -0.000743628 
-0.0488021 -0.0563946 -0.0741687 -0.011837 -0.0686408 
5 5 0.777989
-0.199588 0.0424748 0.058139 0.0206365 -0.194272 
0.0561462 -0.135602 0.0113281 -0.208688 -0.11834 
0.00853128 0.0945406 -0.137849 0.132628 -0.209485 
-0.0190408 -0.00572076 0.0431532 0.0947898 -0.189327 
-0.139459 0.108986 -0.14192 0.054871 -0.203148 
5 5 0.563732
-0.13506 -0.0506063 -0.111182 -0.115595 0.225075 
-0.140478 0.0511871 -0.0580112 0.268692 -0.176422 
0.161136 0.00605318 0.214187 0.0229485 -0.00204508 
0.0826028 -0.190952 -0.284456 0.306791 0.176156 
0.187111 -0.0740407 0.157089 0.111165 -0.238104 
5 5 0.5102
-0.180074 -0.117463 -0.0778908 0.0436609 -0.242521 
-0.096515 0.0168335 -0.235344 0.246465 -0.0675701 
0.12541 0.170411 0.0187354 0.175138 -0.27334 
0.067179 0.223092 -0.184842 0.237818 0.220772 
0.250865 -0.270905 -0.0439753 -0.0616145 0.100393 
5 5 -0.681378
0.103278 -0.152868 0.0978179 0.0542012 -0.165578 
0.0248927 0.0970596 -0.0150622 0.242088 -0.231307 
-0.139676 0.0554345 0.238268 0.231079 -0.0180223 
-0.234861 -0.238669 -0.0512779 -0.0933843 0.147973 
-0.113036 0.152549 0.0652469 -0.0353785 -0.139239 
5 5 0.300647
0.206979 -0.0785019 -0.0609782 -0.0389064 0.0135601 
0.145615 -0.0549325 -0.246144 0.317216 0.171854 
-0.239128 -0.166967 -0.110905 0.201559 0.252318 
0.170186 0.0929903 -0.0363579 -0.239548 0.181976 
-0.279706 0.316059 -0.308702 0.0186157 0.188073 
5 5 -0.806577
0.118906 0.122486 0.174992 -0.021509 0.0574245 
-0.15666 0.12215 0.00914125 0.170983 0.134209 
0.04043 -0.172561 0.0875441 0.13593 0.0396834 
-0.101148 0.135759 -0.0630446 0.0241672 0.179271 
-0.166767 0.15303 0.104729 -0.00274676 -0.111467 
5 5 -0.704271
0.163215 -0.178253 -0.165379 -0.150286 -0.158647 
-0.163889 -0.0714245 0.135024 0.178131 0.0158312 
-0.101728 -0.0827044 -0.0987443 -0.213115 0.0646885 
-0.0314486 -0.21257 -0.127258 0.0839627 0.100303 
-0.20045 0.176519 0.199029 -0.0480138 0.137954 
5 5 -0.823512
0.042396 -0.0614242 0.0465385 -0.106496 0.179784 
-0.190354 0.134011 0.0632854 0.158817 0.141116 
-0.167533 -0.0828654 -0.117589 0.131578 -0.103071 
-0.0334597 -0.0679707 0.161069 0.104113 -0.0975059 
0.0300684 0.148575 0.0902157 0.0763498 -0.0376605 
5 5 -0.147046
-0.22501 -0.0254841 0.0146037 -0.260685 -0.0927639 
-0.0543198 0.258967 -0.130335 -0.0420492 0.254588 
0.270281 0.298065 0.257964 -0.233093 -0.282146 
0.0963287 0.0696525 0.0578481 -0.0511081 -0.270517 
0.162793 -0.314227 -0.196919 0.248093 -0.124597 
5 5 -0.526472
0.0449638 0.305066 0.0409308 -0.267057 -0.200068 
-0.0524163 -0.190565 -0.0517983 0.00718542 -0.226888 
-0.0209542 0.0375852 -0.0420156 0.100654 -0.300571 
0.0440076 -0.142608 0.251281 0.258831 -0.0884986 
0.0169129 -0.200711 -0.154556 0.270163 0.140229 
5 5 0.747821
-0.180035 0.0474802 -0.0226797 0.208563 -0.0599409 
-0.148873 -0.188122 0.066368 -0.0799423 -0.0937764 
0.00853967 -0.0151457 0.179434 0.257478 -0.0514342 
-0.151314 -0.134128 -0.0561453 0.156968 0.149763 
-0.00218159 -0.241942 0.150816 0.0764119 0.0409643 
5 5 -0.352111
-0.103377 0.0282029 0.211137 0.253711 -0.0394096 
-0.235124 -0.290458 0.0909757 0.181832 -0.2675 
0.198265 0.0635254 -0.0570942 0.0772611 0.141877 
0.0789276 -0.287287 -0.29223 -0.20065 -0.175457 
-0.0780988 -0.259328 0.133667 -0.252643 0.168918 
5 5 0.242302
-0.0502852 0.247927 0.258777 -0.26118 0.0180147 
0.0246159 0.0934826 -0.0508545 0.121623 -0.303282 
0.0294582 -0.0950197 0.176621 -0.305896 -0.239979 
-0.298035 0.246235 0.294338 -0.218418 0.235937 
-0.10621 -0.00142865 -0.0305217 0.268875 0.0828238 
5 5 0.816328
-0.111881 -0.0200616 0.143391 -0.195106 -0.0698342 
-0.0245659 0.0996139 0.0206731 0.127939 -0.17671 
-0.0805348 -0.0069892 0.152479 0.196955 -0.0143352 
-0.0657225 0.0928204 0.114138 0.164577 0.0806343 
-0.0562317 0.198124 -0.10144 0.0492751 0.123171 
5 5 -0.556131
0.0619984 0.119352 0.161144 0.150235 -0.217525 
0.0475407 -0.0098579 -0.194524 -0.0334171 -0.316847 
0.0269257 -0.0808119 0.207654 -0.234566 -0.187857 
0.0686453 -0.0872431 -0.238231 -0.0169536 0.276833 
-0.158993 0.279149 -0.145044 0.135661 0.0757304 
5 5 -0.795724
0.107533 0.0700851 0.184903 0.0237659 -0.0119135 
0.150263 0.182002 -0.0982617 -0.195779 -0.0521271 
-0.19871 0.0755158 -0.0995242 -0.159086 -0.0892744 
0.184039 0.0629008 0.138245 -0.0208082 0.0309822 
0.0136955 0.0481977 -0.18706 0.0578696 -0.146604 
5 5 0.259154
0.0384477 0.0486245 -0.238488 0.0189344 -0.229528 
0.283253 0.113094 -0.0828367 0.00153725 0.113086 
0.317477 0.0374003 0.157127 0.0424198 -0.0039005 
-0.0839758 0.297618 -0.0842446 -0.101279 -0.301642 
-0.346295 -0.203459 -0.281552 0.293937 0.216224 
5 5 0.459959
0.270793 -0.239732 0.073885 0.032556 0.132835 
0.0938646 -0.161289 0.152927 -0.319904 0.0388046 
0.1053 0.287187 -0.0104817 0.236889 0.149494 
-0.00860199 0.0524882 -0.11178 -0.285044 -0.213781 
0.0391211 0.187494 0.290353 0.0360262 -0.18632 
5 5 0.862924
-0.106938 -0.0689636 -0.0244199 -0.147557 -0.0248015 
0.104836 -0.163384 -0.125418 -0.0990044 0.0213328 
-0.136927 -0.0118211 0.0639677 0.09954 -0.141546 
-0.0910147 -0.145509 -0.0132971 0.14685 -0.020089 
0.157221 -0.0125221 -0.00734477 -0.0803305 -0.128867 
5 5 -0.869449
0.0984844 -0.111575 0.0433673 0.150829 0.155924 
0.0842243 -0.0710646 -0.146846 -0.0510428 -0.010205 
-0.0562398 -0.0598568 -0.060237 0.0773614 0.152374 
0.0771831 0.00611259 0.132962 0.0127364 0.105734 
-0.0479092 -0.167225 -0.0393345 0.153387 0.0813875 
5 5 0.859721
0.109555 0.0831737 -0.0600107 -0.0261746 0.150165 
-0.088721 0.127363 0.0486254 0.126053 -0.178964 
-0.0707073 -0.068838 0.0574632 0.0452688 0.0818767 
0.0588443 0.141131 -0.0771203 0.10758 0.157254 
0.0835117 -0.0560525 -0.112267 -0.0859856 0.152355 
5 5 0.582903
-0.0771214 -0.0999057 -0.0822503 -0.214219 0.230245 
0.19672 -0.0139573 -0.114092 0.0435895 0.265096 
-0.0551802 -0.0732749 0.115941 0.212992 -0.291268 
-0.255015 0.139956 0.123277 0.0784892 -0.045587 
0.0877302 0.2171 0.270189 0.0383754 -0.158499 
5 5 0.856556
0.00933882 -0.151268 0.0384005 0.0134567 -0.0255593 
-0.134097 -0.031404 0.0803922 0.0984755 -0.133731 
0.0102867 0.161024 -0.0285101 0.133141 -0.100678 
0.156659 -0.0375341 -0.138215 -0.0702433 -0.175447 
0.0945626 -0.116308 -0.0678262 0.152506 -0.0470412 
5 5 -0.791048
-0.094571 0.0948221 0.0831225 0.108872 0.180626 
0.175704 -0.167998 0.101161 -0.0501558 -0.145375 
0.182116 0.0140737 -0.0500994 0.10036 -0.0865716 
-0.122563 0.165525 0.123462 0.0227368 -0.203998 
0.181323 0.0445861 0.0548051 -0.0139471 0.143671 
5 5 0.626927
-0.0894841 -0.166377 0.115571 -0.206503 0.216502 
0.0831453 0.2065 -0.0133563 0.116151 -0.0922167 
0.220385 -0.228027 -0.183973 0.0253179 -0.12254 
-0.217004 0.151768 -0.156183 0.152775 0.203189 
-0.0420445 -0.239444 -0.0303232 -0.0853638 -0.141958 
5 5 0.83429
-0.135023 -0.136313 0.0961598 0.0927199 0.0670348 
-0.0537782 -0.123813 0.0435044 -0.0207849 -0.124123 
-0.0313967 -0.0508251 -0.120315 0.115948 -0.139253 
-0.0477341 0.170062 -0.0218222 -0.108702 0.150842 
-0.1359 0.0801171 0.106728 -0.167268 0.165759 
5 5 0.843371
0.044094 -0.0478713 0.0826275 -0.193533 -0.174469 
0.124495 0.0997723 0.0842436 -0.053673 0.0342392 
-0.0763369 0.028989 -0.102406 -0.202571 -0.0228862 
-0.0718537 0.0538657 0.0768144 0.0385854 -0.170478 
-0.117001 0.173646 -0.0726778 -0.0201867 0.14284 
5 5 0.384667
-0.284084 -0.173216 -0.310926 0.280421 0.131412 
-0.168203 -0.176073 0.0314774 -0.0365323 0.317252 
-0.132278 -0.0383227 -0.0104674 0.100569 0.260802 
0.201751 -0.0900042 0.145185 0.314513 -0.0235915 
-0.0325361 0.156656 -0.0457487 -0.0116051 -0.303452 
5 5 -0.891875
0.14907 0.0895435 0.179397 -0.0657115 -0.00222442 
0.0262681 -0.0515873 -0.132177 -0.151625 -0.0462094 
0.0037638 0.067155 0.0272962 0.161347 0.0194469 
0.0751667 -0.0258977 -0.00111324 0.0565866 -0.104868 
0.0650265 0.0136769 0.0598821 0.0355777 -0.174345 
5 5 0.894992
0.114419 0.012445 0.00914211 0.117281 0.00296874 
-0.173752 -0.0402259 -0.06142 0.0311969 -0.0452966 
-0.0209218 -0.133975 -0.0563804 0.0142296 0.1568 
0.105748 0.041808 0.129384 0.0990776 -0.0849606 
-0.154232 -0.0581498 -0.0385656 -0.037683 -0.100766 
5 5 0.655514
-0.219484 -0.117594 -0.159545 0.0385967 0.0736895 
-0.106523 0.0286369 0.210392 0.0205117 -0.18359 
-0.188969 0.188426 -0.0712935 -0.217586 -0.0165389 
0.201699 0.195005 0.160281 0.0313505 -0.209964 
0.194727 -0.0947666 0.162047 0.010261 0.196782 
5 5 0.288528
-0.182368 0.0140904 0.0282199 -0.0975372 0.215724 
0.0876254 -0.253152 0.0833711 0.304851 0.049343 
-0.0636627 0.250901 -0.0933189 -0.16867 -0.311077 
0.297879 -0.275404 -0.253056 0.202612 0.272033 
0.0428549 -0.0678448 -0.274382 0.0536785 0.15217 
5 5 0.774731
0.160689 0.136025 0.101812 -0.0361546 -0.223 
-0.161189 -0.0728296 -0.0447566 0.0592523 -0.0753174 
0.122251 -0.134075 -0.223909 0.0817193 -0.0551849 
0.225385 -0.122711 -0.172493 0.00886527 0.065959 
-0.0535833 -0.0762858 0.188732 0.0187644 -0.118793 
5 5 0.789549
0.000358474 -0.140616 0.165903 -0.0184334 0.0728808 
0.0149506 0.146488 -0.198013 -0.0524439 -0.0613672 
0.167596 0.0278969 0.180666 0.0716397 0.120004 
-0.142005 0.178373 0.161301 0.093068 0.0626863 
0.12419 0.104649 0.0203465 -0.160499 -0.179094 
5 5 -0.0759837
0.420691 -0.037947 -0.27039 0.148754 0.0104405 
0.0776119 0.0470276 0.0967792 -0.050936 0.331866 
-0.0390084 -0.0436943 0.105556 -0.112669 0.0944762 
-0.336816 -0.0198071 0.173099 0.233686 0.0872976 
0.141798 -0.177923 -0.400979 -0.248929 -0.270907 
5 5 -0.80919
0.173599 -0.035635 -0.158526 0.0600435 0.0247205 
-0.197719 -0.192693 0.139494 0.0690472 -0.00419556 
0.170176 -0.0159087 0.0628262 -0.103103 -0.0238873 
0.0284993 -0.144212 -0.0999569 -0.199895 -0.145254 
0.185001 0.0247706 -0.0730775 0.0753163 0.0334878 
5 5 0.840889
-0.131945 -0.138777 -0.104009 0.0310617 -0.136422 
0.19013 -0.070845 0.187734 -0.103062 -0.0263246 
-0.048392 0.120449 0.131054 -0.120096 -0.101981 
0.0188536 -0.185138 0.104174 -0.0530726 0.0584103 
0.0956036 -0.00468038 -0.110001 -0.0622262 0.0492136 
5 5 -0.0514032
-0.0587226 0.0597415 -0.222472 0.270848 -0.0730888 
0.254591 0.11356 0.19316 -0.023417 0.0004885 
-0.10072 -0.178482 0.328354 0.273742 -0.0686149 
0.250684 -0.0502235 -0.302817 -0.154831 0.0985433 
0.315946 0.229739 -0.301076 -0.0432965 0.285035 
5 5 -0.702795
0.200674 0.173769 -0.22274 -0.0402642 -0.195735 
-0.187469 0.165256 -0.189102 -0.040647 -0.178548 
-0.0841667 -0.0623233 0.223378 -0.167992 -0.0951299 
0.0210926 -0.0549458 -0.0821736 0.234034 -0.0555584 
0.0661091 -0.128652 -0.0841756 -0.129433 -0.0578693 
5 5 0.0671346
-0.28023 -0.350005 -0.0823363 -0.150434 -0.168706 
0.0452585 0.0899699 -0.156909 -0.205689 0.253765 
0.113871 0.0739004 0.145717 -0.354672 0.0269982 
-0.174122 0.129452 0.136913 -0.156626 0.250004 
0.327103 -0.157568 0.207215 0.317109 0.027631 
5 5 0.829672
-0.043393 -0.0313445 -0.0719377 0.103226 -0.175564 
-0.0253217 -0.1849 -0.13086 0.164675 0.137762 
0.142354 -0.0863794 -0.08424 0.0041969 0.0329986 
0.00742891 0.170099 -0.040994 -0.175165 -0.069929 
0.127088 0.0388046 0.148549 0.0824255 -0.124043 
5 5 -0.374769
-0.114899 -0.113171 0.270392 -0.276241 0.2601 
0.151966 -0.013812 -0.120843 -0.0892337 -0.128531 
-0.281801 -0.111996 -0.179775 0.234838 -0.230392 
0.0518197 -0.253762 0.268523 -0.118581 0.120192 
-0.208606 0.201601 -0.242443 0.0892169 0.054782 
5 5 -0.856092
0.0425567 0.0833356 0.0591873 0.160731 0.055571 
0.168186 0.151618 -0.0777841 -0.064995 0.122296 
0.114693 0.0120799 -0.130018 -0.0453492 -0.1835 
-0.117496 -0.173617 -0.0652378 -0.0473621 -0.00465905 
-0.00655354 0.00932085 0.0392944 -0.0637204 0.165172 
5 5 -0.636868
0.202948 0.136586 -0.0482935 -0.0775532 0.14607 
-0.143603 0.218035 -0.0259845 0.0847264 -0.117333 
-0.162038 0.0712495 0.224811 0.174856 -0.214751 
0.191214 0.138031 -0.0280922 -0.228794 -0.227222 
-0.00512986 -0.210235 0.0716249 0.2102 -0.0510387 
5 5 0.308279
-0.162118 0.0605494 -0.262046 -0.300872 -0.020298 
0.142757 -0.166781 0.171689 0.160581 -0.212486 
0.146423 0.218016 0.264248 0.215577 0.240285 
-0.223296 -0.0163723 -0.176454 -0.108216 0.16551 
-0.124209 -0.294086 0.128282 -0.179453 -0.229893 
5 5 -0.558304
0.14354 -0.0202864 -0.0750843 0.291922 -0.168384 
-0.0338744 0.254196 -0.00303232 0.084481 0.16474 
0.284664 -0.224243 -0.0309033 0.229066 -0.0501976 
0.0864596 -0.28246 -0.255031 -0.0142065 -0.102969 
-0.0853669 0.0725049 0.233593 -0.173633 -0.0199021 
5 5 0.585124
-0.192798 -0.120165 0.0357564 -0.20111 0.229914 
-0.147226 -0.154187 -0.234313 0.0767119 -0.108071 
-0.208678 0.181788 -0.0962586 0.0976898 -0.214849 
-0.124904 -0.0965359 0.13762 -0.17171 -0.00746491 
-0.244067 -0.242019 -0.146258 -0.196553 -0.0197779 
5 5 0.365139
-0.0871118 -0.193341 0.24685 -0.255629 0.0473259 
-0.0336297 0.00971416 -0.30402 0.0139011 0.297422 
-0.125912 -0.084246 -0.202181 -0.029357 0.152741 
-0.0878678 -0.148258 -0.262802 0.259925 -0.0441072 
0.302998 -0.0905869 0.0530432 -0.305683 -0.241486 
5 5 0.736569
0.072297 -0.0129481 -0.146101 -0.220321 0.0705895 
0.0304156 -0.114045 0.225288 0.0648994 0.197903 
-0.0210294 0.132134 -0.0899104 0.196978 0.17281 
-0.197336 -0.0090233 -0.122658 -0.0030859 -0.0745526 
0.176806 0.102276 -0.133952 -0.227549 -0.0583972 
5 5 0.74576
-0.0463651 0.179506 0.0182686 0.125735 -0.171213 
-0.0731734 0.134207 0.149517 0.0865113 -0.259748 
0.117565 -0.0127552 0.0530167 0.0393343 0.0260979 
0.0804304 0.0490938 0.0253884 -0.114718 0.216722 
-0.221803 -0.0993156 -0.19109 -0.228415 0.0831508 
5 5 -0.212719
-0.185903 -0.157685 0.0420299 0.302148 0.231622 
-0.00616412 -0.178171 0.0205001 0.247771 0.292659 
-0.0674575 -0.118787 -0.195337 0.0570845 0.30398 
-0.113971 -0.162961 0.214816 -0.251314 -0.253905 
-0.0271357 0.295796 -0.242993 0.0552202 -0.23076 
5 5 -0.735034
0.124602 -0.190863 -0.0612227 0.179502 0.14783 
-0.0249163 0.101738 -0.180356 -0.172131 0.17938 
0.196043 -0.125544 0.148515 -0.0776382 -0.0868001 
-0.188096 0.200396 -0.0919836 -0.113334 -0.0759416 
-0.149808 -0.139584 0.0872226 -0.0147478 0.0496578 
5 5 -0.793085
0.0661471 -0.06069 0.165823 0.164058 -0.0399346 
-0.155068 0.129413 -0.126294 0.0668474 0.0221639 
0.197632 -0.178925 -0.0512531 0.111185 0.160538 
-0.160354 0.0276724 -0.0966342 -0.0575742 -0.208588 
-0.109703 0.105657 -0.154258 0.00356605 0.061361 
5 5 -0.707504
0.158552 0.188394 -0.00642886 -0.0352319 -0.154759 
-0.173406 0.0905035 -0.156604 -0.181473 -0.187278 
0.0759267 0.144239 0.172743 -0.0642864 0.138673 
0.0289814 -0.13241 -0.0421025 -0.198001 0.13044 
0.090375 0.160551 -0.205766 0.212279 0.0728099 
5 5 0.782625
-0.0769193 0.0958223 0.0834858 0.0694335 -0.0561853 
-0.147057 -0.0683031 0.130541 0.172161 -0.184598 
0.181801 0.0241791 0.109611 -0.0692827 -0.161244 
-0.0320435 -0.108896 -0.207528 -0.0886152 -0.071696 
-0.128385 -0.0654599 -0.201301 0.208781 -0.0113188 
5 5 -0.426312
-0.235183 -0.0968257 -0.155315 -0.237405 -0.247659 
-0.0181569 0.128121 -0.0725915 -0.251095 -0.27066 
-0.268472 0.275689 0.0688272 -0.156794 -0.197797 
-0.253112 -0.154771 0.154148 -0.12888 0.14631 
0.0658339 0.157235 -0.0121683 -0.189217 -0.148662 
5 5 0.657293
0.0123686 -0.265668 -0.225963 0.161481 -0.130807 
0.0943236 -0.0842511 0.0985917 -0.153452 -0.062968 
0.107153 0.288375 0.161367 -0.230926 -0.226561 
-0.0844777 -0.017154 -0.159881 -0.112389 0.0230289 
-0.0968476 -0.128368 0.0307457 0.0367258 -0.223865 
5 5 -0.840929
-0.181726 -0.120229 0.0234435 0.129953 -0.143092 
0.00765495 0.127686 0.0325244 0.146054 0.0571413 
-0.164656 -0.074115 -0.148797 -0.0284931 0.0632061 
-0.0335049 -0.0850442 -0.0236854 0.0432192 0.0669408 
0.125963 0.172281 -0.170993 -0.108592 0.0635121 
5 5 -0.807344
-0.0104382 0.227427 0.0237198 -0.123985 0.0427882 
0.0248121 -0.0880124 0.0613327 0.0656976 -0.229068 
-0.027954 -0.0638386 0.116287 0.0973765 0.0157848 
0.0395762 -0.130565 -0.198413 0.236025 0.088031 
0.0170841 -0.0433222 -0.143942 0.178831 -0.0725834 
5 5 -0.779408
-0.0384176 0.11689 -0.0497673 -0.22696 0.0788 
0.023804 -0.00115788 0.0414854 -0.222022 0.0771112 
-0.0610431 -0.00504632 -0.0817929 -0.119267 0.0907471 
0.145496 0.21611 -0.0697842 -0.196003 0.163447 
0.10687 -0.0058847 -0.125172 -0.149307 0.198659 
5 5 -0.832967
-0.113599 -0.0145866 0.0186956 -0.0473417 0.159051 
0.122991 -0.157552 -0.171644 0.074396 0.00897363 
0.142106 -0.125959 -0.103963 0.156472 0.148775 
-0.102648 0.0190643 0.113666 -0.0453266 -0.147188 
0.0730117 0.0774866 0.0264939 -0.14918 -0.121731 
5 5 -0.461283
0.291083 -0.0835367 -0.126825 0.290685 0.311121 
0.138563 -0.017135 -0.055258 -0.312241 -0.272283 
-0.170008 -0.124865 -0.128424 0.165488 -0.0140124 
-0.0389683 0.0333165 0.0089302 -0.0698365 -0.327853 
-0.115829 0.216365 0.100491 -0.1714 0.0245675 
5 5 -0.407632
-0.0271338 -0.0451336 -0.1669 0.215552 0.203339 
-0.180177 -0.180707 -0.169467 0.109442 -0.278112 
-0.145538 -0.126976 0.044936 0.270977 0.327464 
-0.247196 -0.292265 -0.0182551 0.126082 -0.121038 
0.108225 -0.213009 0.0593759 -0.254129 0.098257 
5 5 -0.775341
0.0201775 0.186862 0.0332181 -0.0882256 -0.00879878 
-0.128662 0.101119 -0.213591 -0.128573 -0.143854 
-0.196004 -0.0667976 -0.0698578 -0.13946 -0.0544002 
0.0398729 -0.124022 -0.184723 -0.182889 -0.0860509 
-0.0294413 0.103046 -0.163439 -0.00595004 0.211151 
5 5 0.687034
0.0530655 -0.270651 0.0367532 0.0584053 0.0213585 
0.28838 -0.274901 0.0036365 0.0895419 -0.104106 
0.0465361 0.184962 -0.184029 0.159181 0.163382 
-0.0304694 0.0144251 -0.097329 0.0964626 -0.132039 
-0.00976489 0.114273 -0.118206 0.15617 -0.240741 
5 5 0.794736
-0.174035 -0.172537 -0.205088 0.13766 -0.159014 
-0.0089014 0.217872 0.182085 0.0747868 -0.00157866 
-8.26241e-005 -0.0331835 -0.0964138 -0.194699 0.0370496 
-0.0730203 0.134814 -0.0332188 -0.0786082 -0.0972372 
-0.0211982 -0.0608704 -0.166138 0.0187811 -0.1171 
5 5 0.257925
0.237703 0.289204 -0.258304 0.091357 0.294679 
0.00137783 -0.166513 -0.0364574 -0.186025 -0.244575 
-0.227671 0.053363 -0.312912 0.126057 0.203427 
-0.0330017 0.276824 0.0565819 -0.292047 0.0762707 
0.000819973 -0.19419 0.237595 -0.154058 0.090311 
5 5 -0.397767
0.221491 -0.167731 -0.183984 -0.189996 0.144431 
-0.129336 -0.127012 -0.260196 0.0357876 -0.0132502 
-0.00958035 0.300503 0.263807 -0.259222 -0.193562 
0.00417596 -0.0920982 0.065161 -0.124282 0.237859 
-0.0214556 -0.219517 -0.298159 0.269457 -0.110409 
5 5 0.69057
0.225878 0.059792 0.255757 0.0903164 -0.0169663 
-0.139725 0.167862 0.189027 0.010368 -0.150131 
0.0183835 0.0247684 0.014078 -0.136673 0.0204119 
0.0691878 0.248399 0.185125 0.128256 -0.120146 
-0.168801 -0.176567 -0.248008 0.0746733 0.0996842 
5 5 0.777055
0.134828 -0.106155 0.186438 -0.111273 -0.185092 
0.0338444 0.132484 0.182149 -0.0994612 0.178887 
-0.141919 -0.080191 -0.0729816 0.0599565 -0.0851367 
-0.0387158 0.0661783 0.0391584 -0.1133 0.12738 
-0.105651 -0.196543 -0.168131 -0.0282198 -0.183025 
5 5 -0.307753
-0.00934406 0.184793 0.235541 -0.122549 0.111986 
0.257933 0.266128 -0.012581 0.349341 -0.0335326 
-0.0440936 0.213366 0.0627387 -0.0122417 -0.208306 
-0.00458567 0.244694 -0.191875 -0.0361722 -0.00381932 
-0.363679 -0.190299 0.24616 0.145713 0.289921 
5 5 -0.0304502
0.251401 0.286296 0.195603 0.193247 0.149413 
0.228416 -0.17802 -0.297754 -0.118701 0.224051 
0.249588 0.0685139 0.238235 0.0844728 0.202844 
0.27596 0.258945 -0.0454201 0.23768 -0.230378 
-0.156852 0.0913366 0.0289574 -0.241858 0.0049597 
5 5 0.696454
0.129421 -0.182677 -0.113192 -0.207574 0.182697 
-0.168376 0.218945 -0.0286064 0.0683274 0.163441 
-0.0108327 -0.219589 -0.0411556 -0.139118 -0.0244886 
0.163937 0.0692309 0.202574 -0.15544 -0.0122391 
0.0210571 -0.116687 0.203503 -0.0992981 0.186369 
5 5 0.547194
-0.144828 0.179013 -0.0725012 -0.191834 0.215356 
-9.44004e-005 0.206949 -0.2629 -0.262568 -0.263569 
0.101657 -0.266826 -0.218482 0.212808 -0.0220609 
-0.130266 0.0112091 -0.101562 -0.255445 0.075054 
-0.155288 0.0453864 -0.00141675 -0.0952522 -0.0136278 
5 5 0.770433
0.185492 -0.125889 -0.121977 0.0242326 -0.117019 
0.0971702 0.119018 0.0151596 -0.159187 0.173318 
-0.113139 -0.178686 -0.154948 0.156742 0.0877397 
0.172992 -0.00998098 0.0312253 0.206695 -0.0646853 
-0.00106248 -0.0375539 0.138274 -0.13421 0.174201 
5 5 -0.84467
0.0987137 0.108659 -0.0291277 0.186927 -0.0795923 
0.00420824 0.0363011 -0.184322 0.0362171 -0.195629 
0.135765 0.00745918 -0.151212 -0.116812 0.0850836 
-0.128311 -0.087557 0.0543293 0.112783 -0.0901946 
0.0441278 -0.178091 -0.0337546 0.0543713 -0.00550111 
5 5 -0.529038
-0.0193379 0.0599046 0.23913 -0.156373 0.161033 
-0.0174808 -0.0386489 0.137555 0.206809 0.283145 
0.153538 -0.0245146 -0.145487 -0.234638 -0.268404 
0.247966 -0.21829 -0.143045 -0.161712 -0.0705482 
0.167673 -0.197522 0.231187 0.0888232 -0.0574182 
5 5 0.65468
0.134116 0.229821 0.0457792 -0.116791 0.154958 
0.190378 -0.0504503 0.150175 -0.236192 0.199723 
-0.0841603 -0.242415 0.102142 -0.140359 0.038061 
-0.196664 0.0698685 0.0165448 -0.0873865 -0.231784 
0.0868332 -0.202127 0.170456 0.143105 0.0572044 
5 5 0.193266
0.288523 -0.197289 -0.225252 -0.195489 0.299458 
-0.0470241 0.094879 0.244492 0.2652 0.201852 
-0.309135 0.00536096 0.211256 0.145632 -0.204803 
0.121221 -0.212725 -0.0659504 -0.214575 0.101539 
0.184213 -0.285834 -0.108441 0.120981 -0.117179 
5 5 0.874041
0.101228 0.167301 -0.12983 0.0854001 0.00578208 
-0.0456301 0.0851896 0.167445 -0.0879266 0.137696 
0.152395 -0.0531781 0.0402384 -0.0278437 -0.0674292 
0.130113 0.0321406 -0.0208163 0.0460885 -0.161813 
0.10526 -0.0690359 0.0778294 -0.0680986 0.0576794 
5 5 0.770929
-0.153651 -0.165579 0.202124 0.176093 0.00221454 
-0.171568 0.159995 -0.0674993 0.0727762 0.0645163 
0.141192 -0.0500911 0.0381565 -0.0140201 0.0289648 
0.164308 -0.164288 -0.097006 0.0233903 -0.208084 
0.0150448 -0.0635554 -0.200254 -0.092461 -0.169207 
5 5 -0.859258
-0.130382 -0.0649266 -0.0405088 0.134757 -0.133232 
-0.0881879 0.0536067 -0.00531666 -0.0722393 -0.107481 
-0.129341 0.157164 0.011024 0.0528057 -0.020794 
0.0800614 -0.14663 -0.0886999 0.118155 0.145106 
0.0481705 0.123602 0.0885298 0.0945152 -0.159766 
5 5 -0.77496
-0.0977727 -0.0243034 -0.217611 -0.128347 0.214038 
0.174448 -0.209724 -0.051059 -0.0221743 0.000636017 
0.0716807 0.126762 0.116571 -0.177545 0.096742 
0.0392162 -0.0690745 -0.0708635 0.0109766 0.157292 
0.16273 0.223619 -0.00931025 0.0645185 0.0976046 
5 5 0.743485
-0.172224 0.225877 -0.0152566 -0.157946 -0.0778536 
-0.00283056 -0.15531 0.060972 -0.0284668 0.221547 
-0.085392 -0.0248029 -0.200593 -0.135772 -0.177488 
0.159046 0.00697694 0.185647 -0.0993977 0.114548 
-0.106362 -0.166365 -0.139228 -0.0328678 0.131234 
5 5 -0.428869
0.145465 -0.212219 0.248704 -0.192203 -0.101949 
0.35492 0.273633 -0.352231 -0.145552 0.0477121 
-0.16318 -0.00114172 0.106926 0.093033 -0.191784 
0.188055 0.12441 -0.053065 -0.104561 -0.0220246 
-0.0222801 0.232012 -0.288686 0.077009 -0.0119496 
5 5 0.805342
0.0771304 0.191824 0.0496185 0.0226996 -0.0602043 
-0.083548 -0.109492 -0.208252 0.0905463 0.127723 
0.155225 0.0152634 0.1708 -0.112681 0.0962441 
0.175762 -0.0202908 0.148178 -0.140799 0.00197182 
0.0481429 -0.0489338 0.206415 -0.0765494 0.116187 
5 5 0.849125
0.0141343 0.0697628 -0.170967 -0.0134559 -0.169112 
0.0991407 -0.0538115 -0.1161 -0.00139237 -0.0245272 
0.0125249 -0.126088 -0.143479 0.0878324 -0.0933333 
-0.148452 -0.11685 0.110632 -0.0579992 -0.0232039 
0.0314894 0.131001 -0.15856 -0.116319 -0.165462 
5 5 0.233255
0.240356 -0.224424 0.0485994 -0.0817605 0.192407 
-0.048178 -0.165309 0.302292 -0.325011 0.0164258 
0.297496 0.0496513 -0.133036 0.296652 0.0596762 
-0.31889 0.120832 0.30541 -0.128556 0.0380775 
-0.165332 0.245169 -0.220924 -0.0208083 -0.000989315 
5 5 0.885146
-0.123132 0.161038 0.175156 -0.122233 -0.00587869 
-0.0354996 0.00357373 0.152248 -0.113291 0.0488952 
0.0384681 0.0802207 -0.0365122 -0.0207507 0.156263 
-0.0382267 0.105169 -0.14532 -0.111147 0.00861525 
0.0342916 0.00348588 -0.0456411 -0.032931 -0.0746235 
5 5 -0.38538
-0.173041 -0.275411 0.0566652 -0.0339709 0.211708 
0.0781538 -0.236748 -0.133703 0.0821169 0.00978777 
0.0550894 0.220045 -0.237488 0.278664 0.273811 
0.217009 0.258709 0.0669657 0.12646 -0.210382 
0.168032 -0.195572 -0.121424 0.292292 -0.061048 
5 5 -0.840447
-0.161672 -0.0230292 -0.076705 0.0178157 0.14518 
0.136229 -0.0898477 -0.0459423 -0.122201 0.143792 
0.173222 0.124876 -0.00975966 0.163558 -0.0742304 
0.158909 -0.026635 -0.12407 -0.014999 -0.0753097 
-0.0214728 0.071456 -0.0716548 -0.162629 0.113991 
5 5 -0.257702
0.259929 0.014495 0.253917 0.117536 0.30648 
0.226168 -0.0705403 0.0666736 -0.194522 -0.343084 
-0.0628419 0.0724871 -0.297422 0.21731 -0.0831573 
-0.0879146 0.174319 0.0521007 0.20451 0.257028 
0.170944 -0.184744 0.31891 0.108897 0.00671014 
5 5 -0.659364
0.0377757 0.0107833 0.138218 0.176732 -0.107912 
0.242926 -0.0532812 0.0689249 -0.236015 -0.110744 
-0.0890164 -0.226508 -0.18259 -0.227093 -0.0758614 
-0.160261 -0.0116493 0.127607 -0.0829796 -0.15902 
0.179944 0.0752867 0.226925 -0.146474 0.178812 
5 5 -0.289399
-0.0465741 -0.1475 0.230599 -0.247929 -0.0820786 
0.221969 0.148866 -0.0155963 -0.206281 -0.290775 
0.0191439 0.097878 0.301275 -0.159209 -0.290126 
0.223199 -0.290405 -0.211214 -0.00221637 -0.193703 
0.133432 0.0618983 -0.216585 -0.04734 0.2736 
5 5 0.142259
0.301713 0.172755 0.200817 0.197234 -0.327957 
-0.275019 0.0309714 0.181638 -0.288135 -0.00109894 
-0.168452 0.0706489 0.156115 0.00332651 0.275949 
0.00468038 0.303156 0.13105 -0.148959 0.0557811 
-0.154564 -0.241751 0.327421 -0.0447686 0.140187 
5 5 0.372278
0.127539 0.0588349 0.255732 -0.0431074 0.147822 
0.219444 0.242971 0.317364 -0.035109 0.173537 
-0.289251 -0.259406 0.238112 0.0727744 -0.168442 
-0.231264 0.0857032 -0.0128477 0.103589 -0.10501 
-0.312509 -0.126075 0.128139 0.0104581 -0.243216 
5 5 -0.226648
0.140839 0.139754 0.138388 -0.12571 0.204221 
-0.126531 0.166555 0.267632 0.0729695 -0.0617354 
-0.247363 -0.250972 0.278015 -0.279695 -0.0860665 
-0.14769 0.274007 -0.141576 0.216722 0.147531 
0.203513 0.0455165 -0.288901 -0.260819 -0.200837 
5 5 -0.13687
-0.135905 -0.0420778 -0.312405 0.291803 -0.0369148 
-0.255574 0.111421 0.256743 0.0947566 -0.261721 
0.305955 -0.075912 0.0622606 0.326532 0.0641804 
0.143278 -0.277539 -0.126857 -0.154683 0.178105 
-0.296909 0.208168 -0.154526 -0.105989 0.0768275 
5 5 -0.860164
-0.0475802 0.0566524 -0.130452 -0.0191661 -0.105311 
-0.115823 -0.133459 0.17975 -0.17906 0.169133 
-0.0335859 0.000295196 0.111864 0.0779964 0.044194 
-0.0496948 0.166992 -0.0351882 0.168992 0.0174801 
0.00498808 0.0171873 -0.00875122 0.0436106 0.132396 
5 5 -0.50563
-0.12391 0.0162768 0.258454 0.199133 0.236464 
0.0261239 -0.167204 -0.00990758 0.241736 -0.156234 
-0.170682 0.0390286 0.0549505 0.296997 0.0666937 
0.236475 -0.11961 0.252342 -0.149935 -0.233866 
-0.148736 0.00372027 0.0882865 -0.238564 0.174694 
5 5 -0.883319
-0.0107717 0.127729 0.0377933 -0.149694 0.0392116 
-0.0896947 0.142359 -0.155304 -0.0889132 0.181382 
-0.131838 -0.121682 0.0567721 -0.00530987 -0.0667535 
0.0317401 0.16136 -0.0220243 -0.0524929 0.0486636 
0.0691719 -0.0429838 0.022909 -0.0681662 0.0188785 
5 5 0.65073
0.154943 -0.235715 0.161534 0.0127115 -0.130103 
-0.0743028 0.249958 -0.0571345 0.0170547 0.192155 
-0.0527598 -0.14454 0.216925 0.0536933 0.244428 
0.221251 -0.0522979 0.232481 0.201129 -0.0791234 
0.0372053 -0.164599 0.0741303 -0.0281142 0.157329 
5 5 -0.816973
-0.149511 -0.074331 0.105482 -0.133522 0.0498538 
-0.14062 -0.118153 0.00699017 -0.148927 0.168896 
0.0252298 0.154814 0.148542 0.0531328 0.148863 
-0.126063 0.151734 -0.0745844 0.00727006 0.111501 
-0.0991335 -0.0274936 -0.0253387 0.149073 0.163358 
5 5 -0.825783
-0.160879 -0.0893761 0.130105 0.161196 0.148153 
-0.0345935 -0.0333307 0.0849065 0.0989527 -0.0777871 
0.117514 -0.0545599 0.125061 -0.000872163 0.146068 
-0.121525 -0.0987561 0.106685 0.058007 0.151069 
-0.106975 -0.142708 0.138174 0.0734309 -0.147802 
5 5 0.87439
-0.00239533 -0.14858 0.0249903 -0.106171 0.154366 
0.0920977 -0.134776 -0.0191195 0.0729445 -0.0979302 
-0.0197393 0.142117 -0.0742236 -0.0985695 -0.0321575 
-0.084263 0.150647 -0.00397061 -0.119685 0.0160021 
0.140033 0.107296 0.0640883 -0.0267932 0.136119 
5 5 -0.4211
-0.151804 0.228617 0.190823 -0.221131 0.275973 
0.179196 0.18877 -0.0640256 0.25187 0.236897 
0.105686 -0.223094 0.0672675 -0.193677 0.0280258 
-0.17302 0.107245 0.190947 -0.112872 -0.0154721 
0.161252 -0.170462 -0.27211 -0.0623188 0.258576 
5 5 -0.445284
-0.115791 -0.180349 0.185626 0.229265 0.146988 
0.153429 0.199767 0.265652 -0.187406 -0.0781063 
-0.309156 0.0992659 0.0236644 -0.0170813 -0.187822 
-0.204207 -0.292895 0.238581 -0.142948 -0.215877 
-0.165796 0.0758769 0.081586 -0.0244626 0.196004 
5 5 -0.0834389
-0.331162 0.0916819 0.18372 0.0750541 0.187486 
0.0450706 -0.0373338 0.252163 -0.0666842 0.155261 
0.210942 0.222957 -0.232069 -0.0663131 -0.110228 
0.104645 0.347101 -0.142327 -0.0949412 -0.162089 
0.18169 -0.276493 0.163611 -0.287426 -0.366657 
5 5 0.68931
-0.248098 -0.233553 0.21029 -0.203334 -0.177565 
0.00641389 0.133332 0.0358738 0.223978 -0.0345297 
0.0841182 0.165897 -0.0100122 -0.102969 0.0476245 
0.238783 0.180906 0.163155 -0.0395166 0.102969 
0.0525047 -0.105514 0.0784441 -0.157089 0.0193958 
5 5 0.457839
-0.00330895 -0.245368 -0.130451 -0.117421 -0.239886 
0.217266 -0.00588642 0.150733 0.232598 -0.271842 
0.0142032 -0.208315 -0.114887 0.141754 -0.246207 
-0.274119 0.0861939 0.265881 -0.0175221 0.132114 
0.0225129 -0.0650041 -0.0438145 -0.219601 -0.283631 
5 5 -0.762759
-0.17436 -0.181871 -0.0579399 -0.166722 0.0316197 
0.207286 -0.124271 -0.117808 -0.0607501 -0.213872 
0.0939981 0.136748 0.110296 0.151842 -0.0288395 
0.109899 -0.179656 -0.0938505 -0.0247433 -0.117587 
0.196647 -0.0461595 -0.162143 0.0344502 -0.0371269 
5 5 -0.439075
0.06026 -0.248628 -0.183387 0.128535 -0.0694965 
-0.227917 0.260327 -0.31018 -0.113074 0.028387 
-0.0162506 0.0979497 -0.185918 0.18496 -0.0987395 
-0.19983 -0.117005 0.0629702 -0.147905 -0.155688 
-0.167233 0.0398608 0.224675 -0.307218 -0.301265 
5 5 0.729068
0.0956485 -0.18999 -0.109561 0.0448926 -0.153165 
0.147345 -0.101218 0.137041 -0.0849974 -0.110952 
-0.059221 -0.223115 -0.21117 -0.104118 0.221012 
-0.034669 0.0618878 0.131947 -0.0387435 -0.187828 
0.0346987 -0.239573 -0.00940895 0.0836013 0.181658 
5 5 0.316009
0.0148882 0.315308 0.234028 0.161253 -0.354032 
0.0446681 0.284387 0.179802 0.315494 0.192771 
0.0923257 0.279781 -0.129625 0.110263 -0.072266 
-0.0597356 0.103647 -0.064648 -0.0148956 0.0357011 
0.225543 -0.175688 0.228408 -0.258374 0.029235 
5 5 0.2327
-0.147594 -0.309268 0.365049 -0.375213 0.238006 
-0.16065 -0.19217 -0.136266 0.214791 -0.262751 
0.0979644 -0.103492 0.0416134 0.00271023 0.0198744 
0.337633 -0.0799178 0.202037 -0.0104542 -0.00219538 
-0.0964268 -0.0420416 -0.0656088 0.109391 0.300256 
5 5 0.289448
0.117405 -0.29263 -0.163329 -0.0179903 0.211744 
-0.0490269 0.120834 -0.252361 0.15461 -0.244174 
0.207301 0.0574596 0.301214 -0.179576 0.0217222 
-0.159561 -0.203233 -0.0332082 -0.260552 -0.0355256 
-0.194415 -0.291637 -0.249054 0.239809 0.177838 
5 5 0.375912
0.0946698 -0.00800257 0.0844279 -0.136256 -0.281354 
0.0173475 -0.0128645 -0.107817 0.0269952 -0.213895 
-0.154074 -0.233804 0.218864 -0.223606 0.220736 
-0.270984 0.326185 0.0133392 0.328699 -0.217284 
0.163873 -0.132472 -0.234162 0.107667 -0.122968 
5 5 -0.353272
0.164824 0.320265 -0.133058 0.295631 -0.0939849 
0.20568 0.322631 -0.0589009 0.220732 0.27327 
0.0877707 0.175979 -0.19633 -0.201459 0.125463 
-0.0164701 -0.0412148 -0.242319 0.0846574 0.0740511 
-0.0622998 0.0103562 0.154195 0.224334 -0.270722 
5 5 0.599915
0.221781 0.163994 -0.166369 -0.1017 -0.0355657 
0.239892 0.0246084 0.0528956 -0.0563085 0.177208 
0.00621087 -0.0491604 0.0209302 0.211526 -0.13792 
0.251906 -0.227833 0.2276 -0.183472 -0.110234 
-0.20301 -0.0757183 0.0569736 0.195629 0.247201 
5 5 -0.837369
0.142151 -0.00549676 0.164012 -0.145405 0.158299 
-0.00163506 0.0443453 0.047064 -0.165815 -0.0813612 
-0.154063 0.0131727 0.0839149 0.1647 0.0629581 
0.155013 0.0641351 -0.0598937 0.165753 -0.016451 
0.0821302 -0.0894078 0.0986391 -0.142105 0.0316124 
5 5 0.518848
0.0565439 0.035544 0.108994 0.188414 0.108468 
-0.0837396 0.192933 0.0772321 -0.282108 0.0642218 
0.112374 -0.266088 -0.195475 0.187169 0.0746417 
0.25546 -0.180243 -0.150664 -0.266342 -0.258191 
-0.0547245 0.140397 -0.0134829 0.265508 -0.140024 
5 5 -0.678338
0.182733 -0.138137 -0.172463 -0.0631421 -0.203941 
-0.213527 -0.0263999 0.103356 -0.111239 0.00918667 
-0.0329953 0.142771 0.1978 -0.15678 0.0481278 
0.0461633 -0.138859 -0.205202 0.19251 0.150759 
-0.175891 -0.0993416 -0.0852097 -0.208293 0.200935 
5 5 0.841433
0.0906322 -0.152884 0.072973 -0.0831564 0.123719 
-0.0714238 0.128474 0.0612721 -0.0228321 -0.0447964 
-0.0515297 0.0729753 -0.086916 -0.145868 0.0375652 
0.00399326 0.115984 0.102635 0.163289 0.125973 
0.11348 0.153918 -0.167598 -0.0782702 0.171534 
5 5 -0.709266
0.164618 0.158756 -0.111564 0.13831 -0.0747939 
0.0672443 0.116581 -0.2082 -0.128245 0.133334 
-0.00167659 -0.00972919 0.00455866 -0.131145 0.1398 
0.202906 -0.14234 -0.117858 -0.204493 0.202325 
0.0256031 -0.0589267 -0.093067 -0.217839 0.237917 
5 5 0.803996
-0.143212 -0.0978695 -0.0542134 -0.0505457 0.00718441 
-0.203307 -0.1934 -0.0120818 -0.0824135 0.148263 
-0.163763 -0.0977475 -0.0821806 -0.154546 -0.119259 
-0.0368109 -0.00446137 -0.0738387 -0.0552148 0.096759 
-0.127472 -0.221744 0.0840758 -0.189809 -0.0362294 
5 5 0.852354
0.0661682 0.0985634 -0.0415591 0.0863075 -0.129091 
0.167189 0.0434601 -0.129978 0.180203 -0.147598 
0.00671154 -0.00991842 -0.0182283 0.106265 -0.161247 
0.00571365 0.0326297 0.173923 -0.0543616 0.14923 
0.127168 0.0949357 -0.0329595 -0.105474 0.0287913 
5 5 0.669905
0.0955927 -0.199658 0.165512 0.17732 -0.212666 
0.225335 -0.153858 -0.100713 -0.103694 -0.21418 
0.113505 -0.00138358 -0.0171098 0.110771 -0.0352751 
-0.144462 0.182805 0.232684 0.0862431 0.161959 
0.0241395 0.193502 0.116652 0.186175 0.0431341 
5 5 -0.572066
0.00483891 0.235257 -0.126867 -0.160599 0.276569 
-0.126596 -0.235285 0.134637 -0.265997 -0.291176 
-0.168811 -0.0409057 0.229451 0.0629724 -0.168437 
0.0429659 -0.139678 -0.13359 -0.0315129 -0.228678 
0.181224 -0.00667364 -0.0135926 -0.0327969 0.11024 
5 5 -0.748275
-0.112927 0.218232 -0.0992112 -0.139549 0.124826 
0.0793119 0.139271 -0.0690746 0.0580489 -0.06453 
0.247763 -0.242267 -0.141192 0.218391 0.157547 
-0.0624468 0.0937981 0.0276266 -0.0998998 -0.0269823 
-0.0648754 -0.147693 -0.0781654 0.110904 0.125242 
5 5 -0.813741
0.173724 0.145798 0.204756 0.153632 -0.0148644 
-0.169828 -0.14783 -0.167642 0.0531839 -0.114681 
-0.0665853 -0.0517448 -0.0819164 -0.050041 -0.131166 
-0.0723033 0.102166 0.175397 0.100425 0.138187 
0.054932 -0.0686046 -0.0243848 -0.0556369 0.0728452 
5 5 0.183632
0.165144 -0.217993 0.173903 0.0972835 0.22899 
-0.109512 -0.161913 -0.239412 -0.283468 0.0724349 
-0.168808 -0.285485 -0.0750849 0.270836 0.113252 
-0.258134 0.259564 -0.122015 0.32625 0.0389078 
-0.141161 0.039777 -0.263408 0.180453 -0.189996 
5 5 0.878842
-0.0456883 0.108247 -0.172204 0.0665039 0.0955492 
0.0764381 -0.0722649 0.110312 -0.0147274 0.0205704 
0.099641 -0.137484 0.146478 -0.0920753 -0.0935824 
-0.0639401 -0.0490362 -0.0594972 0.0700823 0.0258969 
-0.133387 -0.119739 0.1114 0.0129397 0.137507 
5 5 -0.814528
0.0158657 -0.0640095 -0.0294939 0.0143276 -0.155151 
-0.146162 0.166168 -0.110253 -0.099188 -0.168736 
-0.176439 0.0715183 0.126276 0.145591 -0.00432066 
-0.0563321 0.138008 0.0424856 0.0599253 -0.165511 
0.172108 0.149217 -0.074754 0.0420537 -0.141235 
5 5 -0.866359
-0.0865047 0.0684985 -0.0549555 -0.0420357 -0.141424 
0.0865054 -0.151613 0.0862104 0.133689 -0.112603 
0.137618 -0.0495152 -0.0348694 0.0431289 -0.00148881 
0.158307 0.0792028 -0.057643 -0.134434 -0.0458907 
-0.117243 0.033361 0.126507 0.104884 0.151121 
5 5 0.576169
0.0272682 0.0102224 0.178515 -0.185365 -0.128091 
-0.269551 -0.243385 -0.226837 0.139577 0.0187095 
-0.285652 0.153227 -0.108559 0.0589314 -0.168736 
0.0965245 0.199838 0.276262 -0.259973 0.00189404 
-0.0426127 -0.0276868 0.0306684 0.016183 0.188714 
5 5 0.280194
0.211946 -0.13049 -0.291347 -0.0570176 0.191663 
-0.285292 -0.105115 0.116664 0.0842747 0.178028 
0.26926 -0.191758 -0.17331 0.139879 -0.2338 
0.223481 -0.241532 0.24692 -0.198045 0.00477779 
0.173708 -0.279293 -0.191244 0.0617594 -0.138658 
5 5 0.7905
-0.133743 -0.0031342 0.17671 -0.130543 0.00412804 
-0.160369 -0.125117 0.163461 0.115875 0.148872 
-0.156713 -0.156788 -0.0343783 -0.11597 0.112915 
0.114627 0.00924032 0.0868587 0.146643 -0.17828 
-0.0309424 0.0559076 0.172493 0.0233209 0.142426 
5 5 0.773639
0.0950429 -0.0933582 0.192786 -0.14282 0.0347902 
-0.0373872 -0.136608 0.120279 -0.153223 -0.149562 
0.0568307 0.067979 0.11054 0.0773901 -0.0755169 
0.037177 -0.17058 0.186592 0.155628 -0.196979 
-0.0316022 -0.1876 0.067668 0.136266 -0.158642 
5 5 -0.431996
0.106184 -0.142967 -0.026609 0.0205079 -0.230563 
0.263582 0.186736 0.00333583 -0.138915 0.208118 
0.194142 -0.280453 -0.0752322 0.280881 0.180771 
-0.0539241 0.0733544 0.0106622 0.0642263 -0.26537 
0.297407 0.0328409 0.284282 0.199085 0.184128 
5 5 0.0056071
0.203651 0.245928 0.0146079 -0.0886663 -0.055289 
-0.142119 0.0549392 0.0851638 0.0148708 -0.216942 
-0.229442 -0.0664406 -0.213835 0.226117 -0.288952 
0.314023 0.0838425 0.14196 -0.226598 0.329966 
-0.177805 -0.332876 0.102142 -0.356004 0.0781794 
5 5 -0.170357
-0.108593 0.0786761 -0.230805 0.0718423 0.269615 
-0.190571 -0.102446 -0.242236 0.0898726 -0.368653 
-0.299495 -0.156847 0.371111 0.114648 -0.172526 
-0.000221455 -0.113854 -0.15126 -0.263848 -0.0898632 
-0.253933 -0.0570744 -0.20522 -0.13512 -0.189266 
5 5 -0.71345
0.10588 0.199768 0.21224 0.138518 -0.178524 
-0.0847722 0.16529 -0.0486705 -0.0503917 0.0408014 
0.209807 -0.154983 0.0957201 -0.025885 0.156133 
-0.135011 -0.197144 0.156947 -0.00503392 0.0838244 
0.190581 0.153112 0.042539 -0.202359 -0.0955939 
5 5 -0.581943
-0.150556 -0.178766 0.138845 0.094821 0.1293 
-0.115787 0.261665 -0.131935 0.13408 0.262762 
-0.132462 0.2199 -0.226338 -0.120837 -0.0260122 
0.273057 0.221301 -0.112142 0.0858828 0.0599809 
0.0746503 -0.233516 0.160459 0.0679425 0.0739498 
5 5 -0.346137
0.259655 -0.118478 -0.12796 0.19258 0.218281 
0.183835 0.262926 0.0483279 -0.00719032 0.243193 
-0.187775 0.253452 -0.143317 -0.235326 0.173204 
0.0546831 0.129349 0.224034 -0.224874 0.0233397 
-0.201855 0.210822 -0.216138 -0.132548 -0.239273 
5 5 -0.724621
0.0589212 0.137726 0.0209329 -0.15787 0.154292 
0.0404507 0.20894 -0.109448 -0.194654 0.18691 
-0.167839 -0.121782 0.206956 -0.132326 0.203835 
0.215014 -0.0150006 0.0505716 0.0629117 -0.045278 
-0.115466 -0.065554 -0.15334 0.105131 -0.145304 
5 5 -0.805572
0.0652054 0.0656489 -0.133893 0.0560207 0.179851 
-0.113305 -0.167415 -0.146424 -0.101124 -0.176896 
0.0205847 0.00101492 0.0626945 0.111678 -0.158205 
-0.15316 -0.00716573 0.0580289 0.0597071 0.128482 
0.136532 -0.155114 -0.168116 -0.0408656 0.154324 
5 5 -0.194464
0.157417 0.335778 -0.168627 -0.260258 -0.201013 
0.135776 -0.256461 0.0385475 -0.0316599 0.0247048 
0.142712 -0.196088 -0.0483776 0.0277796 -0.106762 
0.343494 0.334812 0.0466952 0.29913 0.0209608 
0.288976 0.327892 -0.0874137 -0.0120722 -0.0803415 
5 5 0.617064
0.25859 -0.276975 0.0863458 -0.14031 -0.0744462 
-0.0473025 -0.265124 0.051016 -0.23362 -0.0453134 
-0.00476995 0.219423 -0.203626 0.201437 -0.085035 
-0.177335 0.0469108 -0.0863745 0.139152 -0.0152627 
-0.233931 0.110711 -0.123426 0.00832307 0.175417 
5 5 0.0768318
-0.0265184 0.290176 0.151491 -0.308766 -0.0450978 
-0.175107 -0.196554 -0.207491 -0.043475 0.283414 
-0.291181 -0.0168356 0.178356 0.0285594 0.152504 
-0.0203858 0.0676837 0.285703 0.303047 0.24005 
-0.285568 -0.203501 -0.216891 -0.192207 -0.101611 
5 5 -0.871938
-0.0780993 0.128871 0.0191727 -0.0569277 -0.00096093 
-0.0287039 -0.143269 -0.0556041 -0.0898828 0.0368536 
-0.183709 -0.149446 0.0772694 -0.0213146 0.177273 
-0.164632 0.0309924 0.141272 0.0106369 0.0112413 
0.0110929 0.0721617 0.0546017 -0.160608 0.0568057 
5 5 -0.842752
0.0703943 -0.0561936 -0.142724 0.167851 -0.185004 
-0.136503 -0.0159291 -0.0917511 0.11639 -0.0430736 
-0.0374007 -0.0389336 0.0361854 -0.167324 -0.127794 
0.0609938 -0.132545 -0.0747906 0.118068 -0.0940673 
-0.0805498 0.124239 -0.0576401 0.165337 0.0733035 
5 5 -0.0647232
0.220624 -0.273015 -0.258521 -0.272117 0.147297 
0.170024 -0.115137 0.21437 -0.0737607 -0.147583 
0.281894 0.0168238 0.148203 0.111224 0.231998 
-0.170407 -0.2809 -0.207588 -0.248178 0.239141 
-0.0322649 0.0496053 0.243718 -0.207743 0.225613 
5 5 0.268942
0.164174 -0.0789134 -0.112281 0.261856 0.0826566 
0.0608255 -0.071748 0.299159 0.142972 0.0481613 
0.0382485 -0.00401118 0.243431 -0.245719 0.261432 
-0.0795106 0.200123 0.10383 0.323486 0.304932 
0.101711 0.119199 -0.300516 0.267374 -0.234062 
5 5 -0.285496
0.12137 0.226339 -0.20927 -0.208657 0.0385815 
0.241943 -0.249583 0.0399716 -0.245631 -0.253903 
0.0344933 -0.0868164 0.188716 -0.0557366 0.228172 
-0.275695 0.302689 0.0735867 -0.196667 0.192604 
0.213564 -0.297735 -0.0260728 0.168339 0.0698827 
5 5 0.781682
0.0964972 0.158486 -0.0910473 -0.036829 0.089766 
0.16134 -0.144299 0.1584 0.0817472 -0.11733 
0.0170572 -0.129787 0.0393449 -0.177884 -0.179747 
0.167233 0.0586945 0.0343652 -0.18787 0.177153 
-0.12676 0.106021 0.0371101 0.0659047 -0.171788 
5 5 0.802194
0.00969778 0.0103441 -0.0549685 0.169746 0.103949 
-0.0418837 0.125514 -0.0723518 0.0769775 0.185899 
-0.112618 0.00540749 0.0762138 -0.0925035 -0.105902 
-0.0680192 0.103357 0.20609 0.133309 -0.109718 
-0.199017 0.11243 0.198992 -0.076318 -0.163897 
5 5 0.463021
0.170939 0.125322 0.115949 -0.227979 -0.278262 
0.0860285 -0.0423033 0.106091 -0.118438 0.285076 
-0.228454 -0.0954643 -0.126703 0.0993473 -0.0387777 
-0.110754 -0.0501346 -0.280065 0.302423 0.00665539 
-0.0691114 0.355096 -0.194263 -0.0428337 0.195452 
5 5 -0.420099
0.120684 -0.277314 -0.00384589 0.241235 -0.119496 
-0.278213 -0.268494 0.0421322 -0.255287 0.129111 
0.265181 0.0397204 -0.16337 0.161387 0.0482164 
-0.0799928 -0.0885444 0.154945 0.151195 0.203946 
0.216222 0.285911 0.0165856 -0.0728071 -0.25044 
5 5 -0.741821
0.0906769 0.159413 -0.128031 -0.162664 0.172758 
-0.0222164 -0.0762015 -0.122882 -0.178606 0.200074 
0.207659 -0.0906936 -0.210406 -0.208905 -0.0466605 
0.156592 -0.212128 0.0132811 0.0763678 0.106039 
0.0961296 0.0790102 -0.0650979 0.0126708 -0.0441501 
5 5 -0.7479
-0.0582219 0.0860394 -0.167363 0.122389 -0.197239 
0.171399 0.0377399 0.170532 -0.196844 -0.135915 
0.218518 -0.114666 0.139145 0.122292 0.0181286 
-0.040847 0.0702947 -0.199631 0.181947 -0.053813 
0.13748 -0.112833 0.0938013 0.0512306 0.098967 
5 5 0.893601
0.102562 -0.175133 0.151989 0.0711978 0.00344845 
-0.10529 0.0302355 0.159522 -0.11005 0.0199936 
-0.0588065 -0.0762199 -0.045245 -0.0639607 -0.0816428 
-0.0734109 -0.063603 -0.0767139 0.0932732 -0.0890222 
0.012553 -0.0300841 -0.163435 -0.0154355 -0.0109679 
5 5 0.733811
-0.168214 -9.8397e-005 -0.0956821 -0.171085 -0.00830329 
-0.0305265 -0.170187 -0.111812 -0.0168274 -0.119419 
-0.162931 0.145477 -0.128047 0.0861344 -0.186897 
0.121746 -0.201687 -0.27158 -0.108478 0.0995635 
0.0384617 0.0888068 -0.00400939 0.256208 -0.0733157 
5 5 -0.74524
0.07156 -0.0157 0.208034 -0.104711 0.123437 
-0.184921 -0.175603 -0.0708492 -0.188088 0.202938 
-0.123892 0.0376632 0.144365 -0.0876699 -0.191222 
-0.0476868 0.0349205 0.188524 -0.0526597 -0.0867664 
0.169372 -0.193579 -0.06736 0.143657 0.0250333 
5 5 0.67922
0.145229 0.268669 0.0337081 -0.0882478 0.0307109 
-0.183473 -0.0381132 -0.106744 -0.0261526 0.104859 
-0.0662247 -0.249528 0.086222 -0.0197768 -0.254032 
0.175199 -0.0887675 -0.0520812 0.209844 -0.000868133 
-0.0463188 -0.221425 0.0214852 -0.202068 0.246035 
5 5 0.817321
0.00659931 -0.139242 -0.0392674 -0.0465755 -0.146295 
0.0533772 0.144256 0.0357424 0.1832 -0.0672306 
0.133332 0.106971 -0.113399 0.173041 0.0460151 
0.00703885 -0.136734 -0.174144 0.0845613 0.040997 
-0.129263 -0.194817 -0.0453962 -0.0354835 -0.185462 
5 5 -0.75543
0.174487 -0.00682788 0.207423 0.224362 -0.118517 
0.2236 0.114192 -0.0461669 0.0123157 0.00460071 
-0.207695 0.099417 -0.222729 -0.116794 0.0346662 
0.0774571 -0.0263831 0.0955669 -0.0537298 0.100494 
0.150606 -0.199832 0.00276714 -0.00997589 0.130671 
5 5 0.353566
-0.00312235 -0.336083 -0.270584 0.173467 -0.107667 
-0.0396756 0.0129583 0.231061 0.0760964 0.00262043 
0.127401 0.108279 0.0648135 0.33124 0.0118166 
0.371188 -0.264562 0.0953141 0.0357683 -0.160909 
0.12106 0.216038 -0.213345 0.0968893 -0.289698 
5 5 -0.684087
0.010488 -0.160337 -0.180581 -0.107708 -0.248435 
-0.158312 0.13028 0.121726 -0.00795899 0.194856 
-0.0972952 -0.174367 -0.244239 -0.154488 -0.173411 
0.192997 0.116105 -0.0197771 -0.0157951 0.0706739 
0.165185 0.0505187 -0.136802 -0.105559 0.189398 
5 5 0.301938
0.260557 0.290085 0.141523 -0.17381 0.0580001 
-0.111251 -0.0973983 -0.20066 -0.207109 -0.133881 
-0.22683 -0.16659 0.166491 -0.237657 -0.0350981 
-0.278433 0.173137 0.28805 0.131936 0.271529 
-0.211319 0.133864 -0.20575 0.0690996 -0.155939 
5 5 -0.567455
0.0773122 -0.114008 0.223283 0.220514 0.0981529 
0.00776161 -0.102349 -0.199604 -0.238409 -0.110189 
0.131293 -0.156538 -0.212234 -0.232061 -0.140054 
-0.194506 0.119251 0.0799638 -0.241396 0.0471511 
-0.147604 0.215913 0.232469 -0.170645 0.0279891 
5 5 -0.769272
-0.131884 0.0693996 0.156106 0.0801333 -0.119666 
-0.0766174 0.0861379 0.140781 0.153901 -0.197322 
0.0835019 0.206669 -0.0414419 -0.149024 -0.195643 
0.00729864 0.0431681 -0.111945 0.0607552 -0.157691 
-0.133195 -0.164241 0.135242 -0.0839132 -0.142232 
5 5 0.570835
-0.196761 0.0547976 0.0630374 -0.223108 -0.129625 
-0.130693 0.0145417 0.210678 0.154881 0.234957 
0.248183 0.26717 -0.0220699 -0.145672 0.00631588 
-0.0797445 0.188771 -0.00797779 -0.226418 0.0666479 
-0.161095 0.134403 0.244534 -0.17164 -0.18774 
5 5 -0.342553
-0.0571902 -0.0548916 -0.211114 -0.271766 0.0541183 
-0.0524454 0.141052 0.21832 0.203699 0.0942269 
-0.274898 0.00102768 0.00167854 0.153153 -0.26225 
-0.294751 0.0538896 -0.0802834 -0.341004 -0.0819292 
-0.16553 0.29665 -0.182601 0.306807 0.0665871 
5 5 0.815924
0.0553635 0.114403 0.021732 -0.187441 0.12189 
-0.0450697 0.0877513 -0.180723 -0.0818914 -0.171767 
0.0654707 0.165705 0.0547464 0.143158 -0.174756 
0.0504846 -0.167846 -0.0854745 -0.0585505 0.127916 
-0.116161 -0.0585366 0.0237643 -0.0688028 -0.15244 
5 5 -0.527879
-0.0366537 -0.185698 -0.222847 0.257843 0.115579 
-0.184471 -0.159955 0.0400734 -0.224806 -0.252813 
-0.216088 -0.222776 -0.116202 0.0803633 -0.170259 
-0.197287 0.102904 0.125171 0.13933 0.0177354 
-0.150793 0.0526912 0.155825 0.25318 -0.190434 
5 5 -0.812234
0.01047 0.0333797 0.124206 -0.0345116 -0.139338 
-0.213366 -0.110481 0.0598551 0.158842 0.0114082 
-0.00665911 -0.0706755 -0.0733556 0.190933 -0.165196 
0.147816 0.0318167 -0.172842 0.0780146 0.115435 
0.0667515 -0.0385099 0.118052 0.0146859 -0.223472 
5 5 -0.791718
0.0651655 0.129883 0.00414624 0.164541 0.174381 
0.119765 0.0887564 -0.169852 0.00682959 -0.166953 
-0.0782416 0.0141586 0.120608 -0.101885 -0.170941 
-0.103097 -0.0206727 -0.147533 -0.152787 0.123849 
-0.156266 -0.111321 0.160266 -0.00876018 0.14501 
5 5 0.564328
-0.267348 0.240343 -0.294973 -0.0534681 0.00717055 
-0.049555 -0.252766 -0.0179239 -0.175167 0.0887151 
0.0855174 -0.0850706 0.0691504 0.0983902 -0.0207165 
-0.0311859 -0.190073 0.272048 -0.207945 -0.204482 
-0.0510212 -0.178729 0.00866859 -0.28888 -0.116071 
5 5 -0.803026
-0.049642 -0.0976569 -0.245611 0.175115 -0.111871 
-0.0297213 -0.0275815 0.109213 -0.0689168 0.0874751 
0.0520206 0.189848 0.0358393 -0.0617769 -0.0262264 
0.0477044 -0.222289 0.0188424 -0.18631 0.13491 
0.111645 0.00280914 -0.151049 -0.0636638 -0.157596 
5 5 0.782365
0.121952 -0.188694 -0.210622 -0.0882874 -0.0675852 
-0.203627 -0.0797708 0.00887547 0.17748 -0.0680295 
0.0817636 0.173895 0.0184917 0.195633 0.0982468 
0.175585 0.0866865 -0.0586613 0.0753268 -0.115199 
-0.00582651 -0.101764 0.190884 -0.0456358 -0.0428815 
5 5 -0.585557
0.146272 0.250761 -0.0474972 0.224839 0.141627 
-0.232386 -0.150059 0.251904 0.0805759 -0.25113 
-0.105148 -0.0792981 -0.249044 0.0230031 0.158738 
0.0837101 -0.0922275 0.110304 0.112242 0.159291 
0.207575 -0.246649 -0.0365443 -0.0856931 -0.0842392 
5 5 -0.0582037
-0.180749 -0.204899 0.297943 -0.161331 0.121612 
0.0962389 0.0453283 -0.0687861 -0.00712336 0.199771 
0.0910799 0.201943 0.246345 0.12317 0.0663429 
-0.318053 0.272691 -0.190158 0.0819584 -0.105705 
-0.321032 -0.327311 0.189982 -0.164862 0.32248 
5 5 -0.228616
0.0425557 -0.235931 0.0258045 0.185255 0.279201 
-0.114519 -0.188424 0.32814 0.0628905 0.172263 
-0.0726587 0.25077 -0.0773992 -0.321187 0.210611 
-0.236124 -0.0504024 -0.0795638 -0.294585 -0.0785243 
-0.0863907 0.314829 0.0375216 0.151354 -0.277949 
5 5 -0.71489
-0.182281 -0.15412 -0.174789 0.0953849 -0.207306 
-0.192876 -0.080439 0.120672 0.183514 -0.158359 
-0.181375 0.141613 0.0929128 -0.150081 -0.0703702 
0.0940767 -0.156524 -0.0428702 0.200914 -0.202817 
-0.0740699 -0.0933702 0.0871732 -0.041833 -0.055104 
5 5 0.845425
0.20048 -0.139734 -0.0854666 0.200031 -0.0354504 
0.0267145 0.0577906 -0.0714426 0.083082 -0.162328 
-0.141646 0.184211 0.0818265 0.053979 0.0964923 
0.000802526 -0.185933 0.11986 0.0345649 -0.0352829 
0.0304228 -0.0410453 0.0615343 -0.0608972 -0.0124019 
5 5 -0.78988
0.134118 -0.0412533 0.221834 0.113594 -0.0547224 
-0.0275776 0.0849725 0.186763 0.155394 -0.205022 
-0.091755 -0.0955461 -0.00939374 -0.0671742 -0.0586935 
-0.169672 -0.0475999 -0.0950645 -0.214965 0.0726869 
-0.202209 -0.0490839 -0.0544679 0.0957503 -0.0981724 
5 5 -0.491801
0.0100751 -0.241875 0.215839 -0.194837 -0.102419 
-0.253199 -0.070408 0.253777 -0.00810193 -0.0155529 
0.315251 0.310613 -0.168579 -0.361652 -0.0196647 
-0.186103 0.0282777 0.00590086 0.0819111 0.066237 
-0.0671767 -0.09758 -0.0964058 0.0127098 0.212589 
5 5 -0.761807
-0.027277 0.193095 -0.206699 0.204882 -0.177905 
0.118731 -0.0582743 0.150984 0.0501573 -0.125939 
0.0619092 -0.038295 -0.113382 0.158684 0.0533906 
-0.171505 0.178352 0.0531284 0.207289 -0.0441879 
-0.0884009 0.0958525 0.0963989 0.022509 -0.156999 
5 5 0.819532
-0.0333403 -0.180035 -0.052309 0.167417 -0.204777 
0.104491 -0.0926074 0.100816 -0.0769813 0.0917684 
0.11888 -0.0996168 -0.141444 -0.0638824 -0.0744189 
0.148962 0.0461551 -0.183434 0.158045 0.155617 
-0.00108448 -0.0923207 -0.00366543 -0.0111492 -0.0929148 
5 5 -0.100832
0.275639 0.106746 -0.0864674 -0.285115 -0.104031 
0.0647862 -0.00406083 -0.0498189 -0.0605473 0.203193 
-0.319995 -0.165967 -0.0763895 0.302883 -0.255982 
0.246329 0.249531 0.121453 0.309512 -0.287749 
-0.109722 -0.0957702 -0.285429 -0.184372 0.0722209 
5 5 -0.660287
-0.126856 -0.219382 0.239816 0.215946 -0.126315 
0.0378643 0.112792 -0.0459877 0.230191 -0.243759 
0.0942334 0.119172 -0.222043 -0.132465 -0.226911 
0.0945103 0.110609 0.150014 0.024872 -0.0949865 
0.0161842 -0.176956 0.0285418 0.139997 0.0655853 
5 5 0.0682035
-0.267768 -0.0553495 -0.245171 0.0449978 -0.0636874 
-0.0655973 0.240013 0.12985 0.185821 0.28583 
-0.188659 0.21608 0.111892 -0.18056 0.217195 
0.0827685 0.179142 0.157787 0.339874 -0.211032 
0.0607117 0.308809 -0.266668 0.21664 0.209375 
5 5 -0.886834
-0.0982991 -0.163332 0.043295 -0.0394438 0.158659 
0.0319014 -0.0450434 -0.0721993 -0.0186205 0.0678279 
0.1285 0.113245 -0.100389 0.0784624 -0.00712702 
0.15006 -0.16161 -0.151609 -0.0363365 0.00149954 
-0.100541 -0.0397832 -0.0600247 0.0296409 0.025243 
5 5 0.576992
0.214416 -0.198034 -0.202515 0.233671 -0.0808136 
0.129214 -0.18128 0.105335 0.00689162 -0.0844303 
0.0587597 -0.0447243 0.181508 0.0855194 0.183502 
0.186898 -0.128903 0.208479 -0.184818 0.223255 
0.145019 0.218649 0.14967 0.200261 -0.148913 
5 5 0.0810569
-0.198237 -0.361212 -0.197989 0.234189 -0.0487127 
-0.329449 0.174606 0.0168223 -0.176643 -0.157359 
-0.0816894 0.327128 0.106848 -0.151225 -0.108524 
-0.0232302 -0.195244 -0.0957755 0.146397 0.32745 
0.313621 -0.149767 -0.093412 -0.161651 -0.200214 
5 5 0.261389
0.125334 0.0592305 -0.184171 0.252946 0.322978 
0.155051 -0.307832 0.138961 0.0908632 -0.0464301 
0.134995 -0.174687 -0.253374 0.233806 -0.0272651 
0.33396 0.0191949 -0.185951 0.0710662 0.0751997 
0.311072 0.178289 -0.0833873 -0.176792 0.263499 
5 5 0.694775
-0.129944 0.158138 0.208544 -0.0331158 -0.101611 
0.209119 -0.158533 0.176966 -0.115561 -0.181308 
-0.0375849 0.0194946 0.0163313 0.0927559 0.0898208 
-0.197244 0.163418 0.228562 -0.205719 0.0534119 
-0.158615 0.057867 -0.0728014 -0.207416 -0.124466 
5 5 -0.715277
0.120063 -0.177258 -0.0496872 0.22032 0.156887 
0.0898107 -0.204835 -0.185495 -0.197482 0.201152 
0.108454 0.108188 -0.0215575 -0.0368633 -0.0841214 
0.0703319 0.123424 -0.0445871 0.052357 0.0654893 
0.141032 0.182368 0.126393 0.185135 -0.195099 
5 5 -0.348445
0.22623 0.295243 0.0849268 -0.118126 -0.213149 
0.0269764 0.177503 0.0397214 0.0937189 0.168224 
0.248738 -0.0218167 -0.262036 0.0893433 0.152075 
-0.0936351 0.294093 0.23433 0.259361 -0.0642006 
-0.138862 -0.163079 0.238499 0.199382 -0.276683 
5 5 -0.316307
-0.0287978 -0.0494794 0.189997 -0.177068 -0.0454057 
0.257703 0.366914 -0.231759 -0.109755 -0.114338 
-0.107485 0.178374 0.283577 -0.353699 -0.0955611 
-0.175489 0.222644 0.0395262 -0.25513 0.110122 
-0.0534676 -0.097542 -0.0619195 0.143657 -0.305414 
5 5 -0.252777
-0.170568 -0.0644798 -0.0708201 -0.159063 0.00999947 
-0.19938 -0.0835147 0.376928 9.17175e-005 -0.172235 
0.361609 0.042128 0.188971 0.113121 0.0800156 
-0.298037 -0.159469 0.179571 -0.128729 0.0929444 
0.163668 -0.202378 -0.252721 0.313527 0.254757 
5 5 -0.841176
-0.0772031 0.0661997 -0.106249 0.0496207 0.0702747 
0.119074 -0.184966 0.0369437 0.0298558 -0.0329646 
0.0596123 0.0485868 -0.016098 -0.144316 -0.143288 
0.15444 -0.156301 -0.0983757 -0.0551938 0.202148 
0.0573084 -0.147054 0.146691 -0.100597 -0.0755456 
5 5 -0.442614
0.113597 0.214068 -0.250784 0.275214 0.188555 
0.233428 -0.124481 0.25557 0.0966038 0.0139124 
-0.0203743 -0.209926 0.0738012 0.204723 -0.157629 
0.152166 0.2542 -0.161093 0.0904632 -0.127811 
-0.154501 0.103207 -0.18219 0.118215 0.299546 
5 5 -0.788184
0.172643 -0.0485661 -0.13043 0.168441 0.00311208 
-0.0672163 -0.097401 -0.0271694 0.0174313 0.119408 
-0.0505538 0.0112463 0.158331 0.170447 0.0806968 
-0.0144528 -0.00484583 0.14736 -0.0444007 -0.197675 
0.212346 0.179206 0.109519 -0.158383 -0.176941 
5 5 -0.817848
0.071132 -0.134808 0.197126 0.0273842 0.0379613 
-0.043475 0.17059 -0.0491112 -0.184408 0.138411 
-0.0975712 0.102471 -0.06106 0.0814767 0.116612 
0.150106 -0.135539 -0.041171 -0.148827 -0.0858434 
-0.094213 0.134958 0.161979 0.0368705 -0.0974018 
5 5 0.869767
0.164116 0.00365435 -0.024879 0.0609644 -0.122376 
0.156221 0.0959638 0.0516703 0.155824 0.0592843 
-0.14978 -0.105358 -0.0223206 -0.113194 -0.0199572 
-0.104833 0.0469616 0.0676586 0.056455 0.0232381 
-0.108934 -0.0713059 -0.107178 0.0550848 -0.181525 
5 5 0.870933
-0.0662336 -0.0963055 0.162647 0.0952281 -0.00829781 
0.168235 -0.156774 -0.0817791 -0.104989 -0.0401661 
-0.078635 0.0322098 -0.0799827 -0.141391 -0.0945169 
0.106939 -0.0709667 -0.0423752 -0.0488549 -0.0349398 
0.118654 0.13105 -0.0753894 -0.0436971 0.129437 
5 5 -0.587924
-0.0807307 0.117936 0.237395 -0.163226 0.219371 
0.124655 0.0416709 0.0707449 -0.177206 -0.146267 
0.116269 -0.0697915 0.166412 0.218271 -0.175722 
-0.179611 -0.23287 -0.0218359 -0.0871142 -0.0734676 
0.102185 0.182334 0.26007 0.275142 0.12704 
5 5 -0.780518
-0.17128 -0.0150569 0.0446121 -0.201044 0.0386788 
-0.0479242 0.21144 -0.128706 -0.144048 0.13214 
0.208734 -0.0333851 0.110855 -0.123063 -0.142181 
-0.0456754 -0.20976 -0.141 -0.0701741 -0.177107 
-0.0330552 -0.12746 -0.0526588 -0.0235953 0.0168346 
5 5 -0.864872
0.0922405 0.0415836 0.0796696 -0.0408569 0.087361 
-0.13837 0.0169504 -0.0455023 0.00879504 0.164511 
-0.0904752 0.0544489 0.133321 -0.0129742 -0.104768 
0.130953 0.17404 0.163876 -0.0428538 0.00188113 
0.0787685 -0.132904 0.157472 -0.112178 0.00358937 
5 5 0.496289
0.184115 0.228109 -0.23763 0.256507 0.156792 
0.0057286 0.0059467 -0.26307 -0.24628 -0.179216 
0.117081 -0.02545 0.1685 0.175386 0.129214 
-0.0929333 -0.122906 -0.207284 -0.2456 0.0892699 
0.10825 0.0977042 -0.0737993 -0.171899 0.278225 
5 5 -0.66298
0.0951945 0.200806 -0.109972 0.232452 0.130405 
-0.0386944 -0.117009 0.221215 -0.101704 0.215329 
-0.0236914 0.189142 0.123691 -0.21079 -0.0111991 
-0.0920175 -0.149105 0.182 0.226042 0.12155 
0.0169046 0.0274185 0.219204 -0.13069 0.122675 
5 5 0.0855863
0.116752 -0.145615 -0.176644 -0.263842 0.326852 
-0.0283483 -0.186399 0.168578 -0.117533 0.317445 
-0.155738 -0.260472 -0.0559213 -0.0663992 -0.193637 
0.309826 -0.142925 -0.237705 0.293945 0.0681118 
-0.15455 0.298154 0.205936 0.112728 0.0514186 
5 5 0.869098
0.137833 0.156585 -0.00148692 0.00681758 -0.087046 
-0.0632896 0.050013 0.0265906 -0.0372367 0.0887738 
0.0448701 0.0172849 0.0312253 -0.137876 0.132219 
-0.0953341 0.122038 0.080763 -0.166751 0.00529967 
-0.0523676 0.161566 0.0131808 -0.165608 -0.149942 
5 5 0.564902
0.133467 0.0266056 -0.0467833 0.0394939 0.00115333 
0.236989 -0.0289134 0.190053 -0.234858 -0.242191 
-0.201163 0.177198 -0.00914453 -0.186318 -0.13969 
-0.213208 -0.154647 -0.192225 -0.1724 -0.193195 
0.223861 0.134878 0.1928 -0.203613 0.0720939 
5 5 0.75869
-0.112236 0.0135674 0.0951367 -0.18985 -0.202635 
-0.0337767 -0.158955 0.177877 0.193539 0.183959 
-0.173589 -0.138904 -0.0147388 0.127212 0.00896962 
0.138141 0.145467 -0.0184522 -0.011084 -0.0769216 
0.104677 -0.159119 0.0981966 -0.193458 -0.015201 
5 5 -0.617693
-0.204456 -0.114883 0.0323196 -0.203091 0.119674 
-0.129296 0.025226 0.151999 0.20768 -0.0473399 
-0.242625 0.142215 -0.082778 -0.203629 0.0851116 
0.0701968 0.264821 0.0366137 0.211914 -0.187143 
0.238278 0.0177282 -0.0598721 0.242402 -0.102942 
5 5 -0.537337
0.177841 0.304681 -0.104072 -0.0120045 -0.159802 
0.151028 -0.153583 -0.15916 0.0582574 0.205053 
0.0847769 0.237195 -0.195901 -0.128787 -0.0854771 
-0.16367 -0.134951 0.224603 -0.0205755 -0.0571678 
0.14652 0.312453 -0.0794147 -0.260338 -0.122865 
5 5 -0.366177
-0.246387 0.199595 0.0724055 0.137475 -0.252612 
-0.219903 0.068542 0.138436 0.240931 0.266721 
-0.0661182 -0.231086 0.132715 0.282612 -0.0598682 
-0.225201 0.0905238 -0.271417 -0.168346 -0.149534 
-0.305977 -0.0649591 -0.0379656 0.16386 -0.0880784 
5 5 -0.268229
0.0811397 0.264258 0.178489 -0.0421986 0.319384 
0.324857 0.147669 0.18859 0.111539 0.138443 
-0.131762 -0.023804 -0.110158 0.0329508 -0.166241 
-0.239749 0.264344 0.0797646 -0.192085 -0.0192886 
-0.281099 -0.264869 0.318969 0.021891 0.200789 
5 5 -0.476717
0.253246 -0.00608368 0.189328 0.118051 0.163615 
-0.244148 0.247454 0.182373 -0.203703 -0.242736 
0.158682 0.0214014 -0.011362 0.121581 0.162989 
-0.075869 0.203521 0.179764 0.0747579 0.0564919 
-0.174034 -0.193049 0.241317 0.23134 0.206902 
5 5 0.438804
-0.0937037 0.214126 0.155756 -0.157288 -0.146793 
0.148432 0.303817 0.288077 0.0441994 0.2559 
0.00574919 -0.0885843 0.0118225 0.19877 0.139718 
-0.303624 -0.125121 0.0502152 0.267335 -0.171444 
-0.0342394 0.0743799 -0.259937 0.0364124 0.252261 
5 5 -0.838562
-0.0945682 -0.125605 0.152681 -0.0718703 -0.0774224 
-0.176387 0.0484499 -0.0843149 0.128374 0.00582155 
-0.119066 -0.128497 0.129474 0.132949 -0.100828 
-0.0360429 -0.164349 0.160721 -0.120468 -0.112084 
-0.0702978 0.040757 0.101678 0.0736781 -0.0407532 
5 5 -0.599354
-0.154091 0.239969 0.134134 0.0872411 0.238747 
